svm_type c_svc
kernel_type rbf
gamma 0.1
nr_class 2
total_sv 2499
rho 0.589017
label 1 -1
probA -1.52696
probB 0.100244
nr_sv 1191 1308
SV
1 1:-1.0518 2:0.9537 3:-1.0591 4:-1.0462 5:-1.039 6:-1.0533 7:-1.0388 8:-1.0294 9:0.88969 10:-0.9636 
1 1:-1.0518 2:0.9537 3:0.94409 4:-1.0462 5:-1.039 6:0.94929 7:0.96258 8:0.97134 9:-1.1239 10:-0.9636 
1 1:-1.0518 2:0.9537 3:0.94409 4:0.95571 5:-1.039 6:-1.0533 7:0.96258 8:0.97134 9:0.88969 10:1.0377 
1 1:-1.0518 2:-1.0484 3:-1.0591 4:0.95571 5:0.96238 6:-1.0533 7:0.96258 8:-1.0294 9:0.88969 10:1.0377 
1 1:-1.0518 2:-1.0484 3:0.94409 4:0.95571 5:0.96238 6:-1.0533 7:-1.0388 8:0.97134 9:0.88969 10:-0.9636 
1 1:-1.0518 2:-1.0484 3:0.94409 4:0.95571 5:-1.039 6:-1.0533 7:0.96258 8:0.97134 9:-1.1239 10:-0.9636 
1 1:-1.0518 2:-1.0484 3:-1.0591 4:-1.0462 5:-1.039 6:-1.0533 7:0.96258 8:-1.0294 9:-1.1239 10:-0.9636 
1 1:0.95069 2:-1.0484 3:0.94409 4:-1.0462 5:-1.039 6:0.94929 7:-1.0388 8:-1.0294 9:-1.1239 10:-0.9636 
1 1:-1.0518 2:0.9537 3:-1.0591 4:0.95571 5:0.96238 6:0.94929 7:-1.0388 8:-1.0294 9:-1.1239 10:-0.9636 
1 1:0.95069 2:-1.0484 3:0.94409 4:0.95571 5:0.96238 6:0.94929 7:-1.0388 8:0.97134 9:-1.1239 10:-0.9636 
1 1:-1.0518 2:-1.0484 3:-1.0591 4:-1.0462 5:-1.039 6:-1.0533 7:-1.0388 8:-1.0294 9:0.88969 10:1.0377 
1 1:0.95069 2:-1.0484 3:-1.0591 4:-1.0462 5:0.96238 6:0.94929 7:-1.0388 8:0.97134 9:0.88969 10:-0.9636 
1 1:-1.0518 2:-1.0484 3:-1.0591 4:0.95571 5:0.96238 6:-1.0533 7:0.96258 8:0.97134 9:0.88969 10:1.0377 
1 1:-1.0518 2:-1.0484 3:0.94409 4:-1.0462 5:0.96238 6:-1.0533 7:-1.0388 8:-1.0294 9:-1.1239 10:-0.9636 
1 1:0.95069 2:-1.0484 3:-1.0591 4:-1.0462 5:-1.039 6:-1.0533 7:-1.0388 8:-1.0294 9:-1.1239 10:-0.9636 
1 1:0.95069 2:0.9537 3:-1.0591 4:0.95571 5:-1.039 6:-1.0533 7:0.96258 8:0.97134 9:0.88969 10:-0.9636 
1 1:-1.0518 2:-1.0484 3:-1.0591 4:0.95571 5:-1.039 6:-1.0533 7:-1.0388 8:-1.0294 9:-1.1239 10:-0.9636 
1 1:0.95069 2:-1.0484 3:-1.0591 4:0.95571 5:-1.039 6:-1.0533 7:0.96258 8:-1.0294 9:0.88969 10:1.0377 
1 1:0.95069 2:0.9537 3:0.94409 4:-1.0462 5:0.96238 6:-1.0533 7:-1.0388 8:-1.0294 9:-1.1239 10:-0.9636 
1 1:0.95069 2:0.9537 3:-1.0591 4:0.95571 5:0.96238 6:-1.0533 7:0.96258 8:-1.0294 9:0.88969 10:-0.9636 
1 1:0.95069 2:0.9537 3:0.94409 4:0.95571 5:-1.039 6:-1.0533 7:-1.0388 8:-1.0294 9:0.88969 10:1.0377 
1 1:0.95069 2:-1.0484 3:0.94409 4:0.95571 5:-1.039 6:0.94929 7:0.96258 8:0.97134 9:0.88969 10:-0.9636 
1 1:-1.0518 2:-1.0484 3:-1.0591 4:-1.0462 5:-1.039 6:-1.0533 7:-1.0388 8:-1.0294 9:0.88969 10:-0.9636 
1 1:-1.0518 2:-1.0484 3:-1.0591 4:0.95571 5:-1.039 6:-1.0533 7:-1.0388 8:-1.0294 9:-1.1239 10:-0.9636 
0.3860932962821488 1:0.95069 2:0.9537 3:0.94409 4:0.95571 5:-1.039 6:0.94929 7:0.96258 8:0.97134 9:-1.1239 10:1.0377 
1 1:-1.0518 2:-1.0484 3:0.94409 4:0.95571 5:0.96238 6:0.94929 7:-1.0388 8:-1.0294 9:-1.1239 10:-0.9636 
1 1:0.95069 2:-1.0484 3:0.94409 4:0.95571 5:-1.039 6:0.94929 7:0.96258 8:0.97134 9:-1.1239 10:-0.9636 
1 1:-1.0518 2:-1.0484 3:-1.0591 4:-1.0462 5:0.96238 6:-1.0533 7:-1.0388 8:0.97134 9:0.88969 10:-0.9636 
1 1:-1.0518 2:0.9537 3:-1.0591 4:0.95571 5:0.96238 6:-1.0533 7:0.96258 8:-1.0294 9:-1.1239 10:-0.9636 
1 1:-1.0518 2:-1.0484 3:-1.0591 4:-1.0462 5:-1.039 6:-1.0533 7:0.96258 8:-1.0294 9:-1.1239 10:-0.9636 
1 1:-1.0518 2:-1.0484 3:-1.0591 4:0.95571 5:-1.039 6:-1.0533 7:0.96258 8:0.97134 9:0.88969 10:1.0377 
1 1:0.95069 2:-1.0484 3:-1.0591 4:0.95571 5:-1.039 6:0.94929 7:-1.0388 8:-1.0294 9:0.88969 10:1.0377 
1 1:0.95069 2:0.9537 3:-1.0591 4:-1.0462 5:0.96238 6:-1.0533 7:-1.0388 8:-1.0294 9:0.88969 10:1.0377 
1 1:0.95069 2:-1.0484 3:0.94409 4:-1.0462 5:0.96238 6:-1.0533 7:-1.0388 8:-1.0294 9:-1.1239 10:-0.9636 
1 1:-1.0518 2:0.9537 3:-1.0591 4:0.95571 5:0.96238 6:-1.0533 7:-1.0388 8:-1.0294 9:-1.1239 10:-0.9636 
1 1:0.95069 2:-1.0484 3:-1.0591 4:-1.0462 5:0.96238 6:0.94929 7:-1.0388 8:0.97134 9:-1.1239 10:-0.9636 
1 1:-1.0518 2:-1.0484 3:0.94409 4:0.95571 5:0.96238 6:-1.0533 7:0.96258 8:0.97134 9:0.88969 10:1.0377 
1 1:-1.0518 2:-1.0484 3:-1.0591 4:-1.0462 5:-1.039 6:-1.0533 7:0.96258 8:0.97134 9:-1.1239 10:1.0377 
1 1:0.95069 2:-1.0484 3:0.94409 4:-1.0462 5:-1.039 6:-1.0533 7:-1.0388 8:-1.0294 9:0.88969 10:-0.9636 
1 1:-1.0518 2:0.9537 3:0.94409 4:0.95571 5:-1.039 6:0.94929 7:0.96258 8:0.97134 9:-1.1239 10:-0.9636 
1 1:-1.0518 2:-1.0484 3:-1.0591 4:-1.0462 5:-1.039 6:-1.0533 7:-1.0388 8:0.97134 9:-1.1239 10:-0.9636 
0.01944625252013913 1:0.95069 2:0.9537 3:-1.0591 4:0.95571 5:-1.039 6:0.94929 7:0.96258 8:0.97134 9:0.88969 10:-0.9636 
1 1:0.95069 2:0.9537 3:0.94409 4:-1.0462 5:0.96238 6:-1.0533 7:-1.0388 8:0.97134 9:0.88969 10:-0.9636 
1 1:0.95069 2:0.9537 3:-1.0591 4:0.95571 5:0.96238 6:-1.0533 7:0.96258 8:-1.0294 9:-1.1239 10:1.0377 
1 1:0.95069 2:0.9537 3:0.94409 4:0.95571 5:0.96238 6:-1.0533 7:-1.0388 8:-1.0294 9:-1.1239 10:-0.9636 
1 1:0.95069 2:-1.0484 3:-1.0591 4:-1.0462 5:-1.039 6:-1.0533 7:-1.0388 8:0.97134 9:0.88969 10:1.0377 
1 1:-1.0518 2:0.9537 3:0.94409 4:0.95571 5:-1.039 6:0.94929 7:0.96258 8:0.97134 9:-1.1239 10:-0.9636 
1 1:-1.0518 2:-1.0484 3:0.94409 4:-1.0462 5:0.96238 6:-1.0533 7:-1.0388 8:0.97134 9:0.88969 10:-0.9636 
1 1:0.95069 2:-1.0484 3:-1.0591 4:-1.0462 5:-1.039 6:-1.0533 7:0.96258 8:-1.0294 9:-1.1239 10:-0.9636 
1 1:-1.0518 2:0.9537 3:0.94409 4:0.95571 5:-1.039 6:-1.0533 7:0.96258 8:-1.0294 9:0.88969 10:-0.9636 
1 1:0.95069 2:0.9537 3:0.94409 4:0.95571 5:0.96238 6:-1.0533 7:-1.0388 8:-1.0294 9:-1.1239 10:-0.9636 
1 1:0.95069 2:-1.0484 3:0.94409 4:-1.0462 5:-1.039 6:-1.0533 7:-1.0388 8:-1.0294 9:-1.1239 10:-0.9636 
1 1:-1.0518 2:0.9537 3:0.94409 4:-1.0462 5:0.96238 6:-1.0533 7:0.96258 8:-1.0294 9:0.88969 10:-0.9636 
1 1:-1.0518 2:-1.0484 3:-1.0591 4:-1.0462 5:-1.039 6:0.94929 7:0.96258 8:-1.0294 9:0.88969 10:-0.9636 
1 1:0.95069 2:0.9537 3:0.94409 4:-1.0462 5:-1.039 6:-1.0533 7:0.96258 8:-1.0294 9:-1.1239 10:-0.9636 
1 1:0.95069 2:-1.0484 3:-1.0591 4:-1.0462 5:-1.039 6:-1.0533 7:0.96258 8:-1.0294 9:-1.1239 10:-0.9636 
1 1:-1.0518 2:-1.0484 3:-1.0591 4:-1.0462 5:0.96238 6:-1.0533 7:0.96258 8:0.97134 9:-1.1239 10:1.0377 
1 1:-1.0518 2:-1.0484 3:0.94409 4:-1.0462 5:-1.039 6:-1.0533 7:-1.0388 8:-1.0294 9:0.88969 10:-0.9636 
1 1:-1.0518 2:0.9537 3:0.94409 4:-1.0462 5:-1.039 6:-1.0533 7:-1.0388 8:-1.0294 9:-1.1239 10:-0.9636 
1 1:-1.0518 2:-1.0484 3:-1.0591 4:0.95571 5:-1.039 6:0.94929 7:0.96258 8:0.97134 9:-1.1239 10:-0.9636 
1 1:-1.0518 2:-1.0484 3:0.94409 4:0.95571 5:-1.039 6:0.94929 7:-1.0388 8:-1.0294 9:0.88969 10:1.0377 
1 1:0.95069 2:-1.0484 3:-1.0591 4:-1.0462 5:0.96238 6:-1.0533 7:-1.0388 8:-1.0294 9:-1.1239 10:-0.9636 
1 1:-1.0518 2:-1.0484 3:-1.0591 4:-1.0462 5:0.96238 6:-1.0533 7:-1.0388 8:0.97134 9:0.88969 10:1.0377 
1 1:-1.0518 2:0.9537 3:-1.0591 4:-1.0462 5:0.96238 6:0.94929 7:0.96258 8:-1.0294 9:0.88969 10:-0.9636 
0.08576820937070614 1:0.95069 2:0.9537 3:0.94409 4:0.95571 5:0.96238 6:-1.0533 7:0.96258 8:-1.0294 9:0.88969 10:1.0377 
1 1:-1.0518 2:-1.0484 3:-1.0591 4:-1.0462 5:-1.039 6:-1.0533 7:-1.0388 8:0.97134 9:-1.1239 10:-0.9636 
1 1:-1.0518 2:0.9537 3:-1.0591 4:0.95571 5:0.96238 6:-1.0533 7:-1.0388 8:0.97134 9:0.88969 10:-0.9636 
1 1:-1.0518 2:-1.0484 3:0.94409 4:-1.0462 5:-1.039 6:-1.0533 7:0.96258 8:-1.0294 9:-1.1239 10:-0.9636 
1 1:-1.0518 2:-1.0484 3:0.94409 4:-1.0462 5:-1.039 6:-1.0533 7:-1.0388 8:-1.0294 9:-1.1239 10:1.0377 
1 1:-1.0518 2:-1.0484 3:-1.0591 4:0.95571 5:-1.039 6:-1.0533 7:0.96258 8:-1.0294 9:-1.1239 10:1.0377 
1 1:-1.0518 2:-1.0484 3:-1.0591 4:0.95571 5:-1.039 6:0.94929 7:-1.0388 8:-1.0294 9:0.88969 10:-0.9636 
1 1:-1.0518 2:-1.0484 3:-1.0591 4:-1.0462 5:0.96238 6:-1.0533 7:-1.0388 8:-1.0294 9:-1.1239 10:-0.9636 
1 1:-1.0518 2:-1.0484 3:-1.0591 4:-1.0462 5:-1.039 6:-1.0533 7:-1.0388 8:0.97134 9:0.88969 10:1.0377 
1 1:0.95069 2:-1.0484 3:-1.0591 4:-1.0462 5:0.96238 6:-1.0533 7:-1.0388 8:0.97134 9:0.88969 10:-0.9636 
1 1:-1.0518 2:-1.0484 3:0.94409 4:-1.0462 5:0.96238 6:0.94929 7:0.96258 8:-1.0294 9:-1.1239 10:-0.9636 
1 1:0.95069 2:0.9537 3:-1.0591 4:-1.0462 5:-1.039 6:0.94929 7:0.96258 8:0.97134 9:0.88969 10:-0.9636 
1 1:0.95069 2:0.9537 3:-1.0591 4:-1.0462 5:-1.039 6:0.94929 7:0.96258 8:-1.0294 9:-1.1239 10:-0.9636 
1 1:0.95069 2:0.9537 3:-1.0591 4:0.95571 5:0.96238 6:0.94929 7:-1.0388 8:-1.0294 9:0.88969 10:1.0377 
1 1:-1.0518 2:-1.0484 3:0.94409 4:0.95571 5:0.96238 6:-1.0533 7:0.96258 8:-1.0294 9:0.88969 10:-0.9636 
1 1:-1.0518 2:-1.0484 3:-1.0591 4:-1.0462 5:0.96238 6:-1.0533 7:-1.0388 8:-1.0294 9:-1.1239 10:-0.9636 
1 1:0.95069 2:0.9537 3:0.94409 4:-1.0462 5:0.96238 6:0.94929 7:-1.0388 8:-1.0294 9:0.88969 10:-0.9636 
1 1:0.95069 2:0.9537 3:0.94409 4:-1.0462 5:-1.039 6:0.94929 7:-1.0388 8:-1.0294 9:-1.1239 10:-0.9636 
1 1:-1.0518 2:-1.0484 3:-1.0591 4:-1.0462 5:-1.039 6:-1.0533 7:-1.0388 8:0.97134 9:0.88969 10:1.0377 
1 1:-1.0518 2:-1.0484 3:0.94409 4:-1.0462 5:0.96238 6:-1.0533 7:0.96258 8:-1.0294 9:-1.1239 10:-0.9636 
1 1:0.95069 2:-1.0484 3:-1.0591 4:-1.0462 5:-1.039 6:-1.0533 7:-1.0388 8:0.97134 9:0.88969 10:-0.9636 
1 1:-1.0518 2:-1.0484 3:-1.0591 4:0.95571 5:0.96238 6:-1.0533 7:-1.0388 8:-1.0294 9:-1.1239 10:-0.9636 
1 1:0.95069 2:0.9537 3:-1.0591 4:0.95571 5:-1.039 6:-1.0533 7:0.96258 8:-1.0294 9:0.88969 10:-0.9636 
0.462635818784524 1:0.95069 2:-1.0484 3:-1.0591 4:-1.0462 5:0.96238 6:0.94929 7:0.96258 8:0.97134 9:0.88969 10:1.0377 
1 1:0.95069 2:0.9537 3:-1.0591 4:-1.0462 5:0.96238 6:-1.0533 7:-1.0388 8:0.97134 9:0.88969 10:1.0377 
1 1:0.95069 2:-1.0484 3:0.94409 4:-1.0462 5:-1.039 6:-1.0533 7:0.96258 8:-1.0294 9:0.88969 10:1.0377 
1 1:0.95069 2:0.9537 3:-1.0591 4:-1.0462 5:0.96238 6:-1.0533 7:-1.0388 8:0.97134 9:-1.1239 10:1.0377 
1 1:-1.0518 2:-1.0484 3:-1.0591 4:-1.0462 5:-1.039 6:-1.0533 7:0.96258 8:-1.0294 9:-1.1239 10:-0.9636 
1 1:0.95069 2:-1.0484 3:-1.0591 4:-1.0462 5:0.96238 6:-1.0533 7:-1.0388 8:0.97134 9:-1.1239 10:-0.9636 
1 1:-1.0518 2:-1.0484 3:-1.0591 4:-1.0462 5:-1.039 6:-1.0533 7:-1.0388 8:-1.0294 9:-1.1239 10:1.0377 
1 1:0.95069 2:-1.0484 3:-1.0591 4:0.95571 5:-1.039 6:-1.0533 7:0.96258 8:0.97134 9:0.88969 10:1.0377 
1 1:-1.0518 2:-1.0484 3:0.94409 4:0.95571 5:0.96238 6:-1.0533 7:-1.0388 8:-1.0294 9:-1.1239 10:-0.9636 
1 1:-1.0518 2:0.9537 3:-1.0591 4:-1.0462 5:-1.039 6:-1.0533 7:-1.0388 8:0.97134 9:-1.1239 10:-0.9636 
1 1:-1.0518 2:-1.0484 3:0.94409 4:0.95571 5:-1.039 6:0.94929 7:-1.0388 8:-1.0294 9:-1.1239 10:1.0377 
1 1:0.95069 2:-1.0484 3:-1.0591 4:-1.0462 5:0.96238 6:-1.0533 7:-1.0388 8:-1.0294 9:0.88969 10:-0.9636 
1 1:0.95069 2:-1.0484 3:-1.0591 4:0.95571 5:-1.039 6:0.94929 7:0.96258 8:0.97134 9:0.88969 10:-0.9636 
1 1:-1.0518 2:-1.0484 3:-1.0591 4:0.95571 5:-1.039 6:-1.0533 7:-1.0388 8:-1.0294 9:0.88969 10:-0.9636 
1 1:-1.0518 2:-1.0484 3:-1.0591 4:-1.0462 5:-1.039 6:-1.0533 7:0.96258 8:0.97134 9:0.88969 10:1.0377 
1 1:-1.0518 2:0.9537 3:0.94409 4:-1.0462 5:-1.039 6:0.94929 7:0.96258 8:-1.0294 9:0.88969 10:-0.9636 
1 1:0.95069 2:0.9537 3:-1.0591 4:0.95571 5:-1.039 6:-1.0533 7:-1.0388 8:0.97134 9:-1.1239 10:-0.9636 
1 1:-1.0518 2:0.9537 3:-1.0591 4:-1.0462 5:-1.039 6:-1.0533 7:-1.0388 8:-1.0294 9:-1.1239 10:-0.9636 
1 1:0.95069 2:0.9537 3:0.94409 4:-1.0462 5:-1.039 6:0.94929 7:-1.0388 8:-1.0294 9:0.88969 10:-0.9636 
1 1:0.95069 2:0.9537 3:0.94409 4:-1.0462 5:-1.039 6:0.94929 7:0.96258 8:0.97134 9:0.88969 10:-0.9636 
1 1:-1.0518 2:-1.0484 3:0.94409 4:-1.0462 5:-1.039 6:-1.0533 7:-1.0388 8:0.97134 9:0.88969 10:1.0377 
1 1:-1.0518 2:0.9537 3:-1.0591 4:0.95571 5:-1.039 6:0.94929 7:0.96258 8:0.97134 9:0.88969 10:-0.9636 
0.2756062580079995 1:0.95069 2:0.9537 3:0.94409 4:-1.0462 5:0.96238 6:-1.0533 7:0.96258 8:-1.0294 9:0.88969 10:-0.9636 
1 1:0.95069 2:-1.0484 3:-1.0591 4:0.95571 5:-1.039 6:0.94929 7:0.96258 8:-1.0294 9:-1.1239 10:-0.9636 
1 1:-1.0518 2:-1.0484 3:0.94409 4:-1.0462 5:-1.039 6:-1.0533 7:0.96258 8:-1.0294 9:-1.1239 10:1.0377 
1 1:-1.0518 2:-1.0484 3:-1.0591 4:-1.0462 5:0.96238 6:-1.0533 7:-1.0388 8:-1.0294 9:-1.1239 10:-0.9636 
1 1:0.95069 2:-1.0484 3:-1.0591 4:0.95571 5:-1.039 6:0.94929 7:-1.0388 8:0.97134 9:0.88969 10:-0.9636 
1 1:0.95069 2:-1.0484 3:-1.0591 4:-1.0462 5:-1.039 6:-1.0533 7:-1.0388 8:0.97134 9:0.88969 10:-0.9636 
1 1:-1.0518 2:-1.0484 3:-1.0591 4:-1.0462 5:-1.039 6:0.94929 7:-1.0388 8:-1.0294 9:-1.1239 10:-0.9636 
1 1:-1.0518 2:-1.0484 3:-1.0591 4:0.95571 5:-1.039 6:-1.0533 7:0.96258 8:-1.0294 9:-1.1239 10:1.0377 
1 1:-1.0518 2:-1.0484 3:-1.0591 4:-1.0462 5:0.96238 6:-1.0533 7:-1.0388 8:-1.0294 9:-1.1239 10:-0.9636 
1 1:0.95069 2:-1.0484 3:-1.0591 4:-1.0462 5:-1.039 6:-1.0533 7:-1.0388 8:-1.0294 9:-1.1239 10:-0.9636 
1 1:0.95069 2:0.9537 3:-1.0591 4:0.95571 5:0.96238 6:0.94929 7:-1.0388 8:-1.0294 9:0.88969 10:1.0377 
1 1:0.95069 2:0.9537 3:0.94409 4:0.95571 5:-1.039 6:-1.0533 7:0.96258 8:0.97134 9:-1.1239 10:1.0377 
1 1:-1.0518 2:0.9537 3:0.94409 4:-1.0462 5:0.96238 6:0.94929 7:0.96258 8:-1.0294 9:-1.1239 10:1.0377 
1 1:-1.0518 2:-1.0484 3:-1.0591 4:0.95571 5:0.96238 6:-1.0533 7:0.96258 8:0.97134 9:-1.1239 10:1.0377 
1 1:-1.0518 2:0.9537 3:-1.0591 4:-1.0462 5:-1.039 6:-1.0533 7:-1.0388 8:-1.0294 9:-1.1239 10:-0.9636 
1 1:-1.0518 2:0.9537 3:-1.0591 4:-1.0462 5:0.96238 6:-1.0533 7:0.96258 8:-1.0294 9:-1.1239 10:1.0377 
1 1:0.95069 2:0.9537 3:0.94409 4:-1.0462 5:0.96238 6:-1.0533 7:-1.0388 8:0.97134 9:-1.1239 10:-0.9636 
1 1:-1.0518 2:-1.0484 3:0.94409 4:-1.0462 5:-1.039 6:-1.0533 7:0.96258 8:-1.0294 9:-1.1239 10:-0.9636 
1 1:-1.0518 2:-1.0484 3:-1.0591 4:0.95571 5:0.96238 6:0.94929 7:-1.0388 8:0.97134 9:-1.1239 10:-0.9636 
1 1:-1.0518 2:0.9537 3:0.94409 4:0.95571 5:-1.039 6:0.94929 7:-1.0388 8:0.97134 9:0.88969 10:1.0377 
1 1:-1.0518 2:-1.0484 3:-1.0591 4:-1.0462 5:-1.039 6:-1.0533 7:-1.0388 8:0.97134 9:0.88969 10:-0.9636 
1 1:-1.0518 2:0.9537 3:0.94409 4:-1.0462 5:0.96238 6:-1.0533 7:-1.0388 8:0.97134 9:-1.1239 10:-0.9636 
1 1:0.95069 2:-1.0484 3:-1.0591 4:-1.0462 5:0.96238 6:-1.0533 7:-1.0388 8:0.97134 9:0.88969 10:1.0377 
1 1:-1.0518 2:-1.0484 3:-1.0591 4:0.95571 5:-1.039 6:0.94929 7:0.96258 8:-1.0294 9:-1.1239 10:-0.9636 
1 1:0.95069 2:-1.0484 3:-1.0591 4:-1.0462 5:-1.039 6:-1.0533 7:-1.0388 8:-1.0294 9:-1.1239 10:-0.9636 
1 1:0.95069 2:0.9537 3:-1.0591 4:-1.0462 5:0.96238 6:-1.0533 7:-1.0388 8:-1.0294 9:-1.1239 10:-0.9636 
1 1:0.95069 2:-1.0484 3:-1.0591 4:0.95571 5:-1.039 6:-1.0533 7:-1.0388 8:-1.0294 9:-1.1239 10:-0.9636 
1 1:-1.0518 2:-1.0484 3:-1.0591 4:-1.0462 5:-1.039 6:-1.0533 7:0.96258 8:-1.0294 9:-1.1239 10:-0.9636 
1 1:-1.0518 2:0.9537 3:0.94409 4:0.95571 5:-1.039 6:0.94929 7:0.96258 8:-1.0294 9:0.88969 10:-0.9636 
1 1:-1.0518 2:-1.0484 3:-1.0591 4:0.95571 5:-1.039 6:-1.0533 7:-1.0388 8:-1.0294 9:-1.1239 10:-0.9636 
1 1:-1.0518 2:0.9537 3:-1.0591 4:-1.0462 5:-1.039 6:-1.0533 7:-1.0388 8:-1.0294 9:-1.1239 10:-0.9636 
1 1:-1.0518 2:-1.0484 3:0.94409 4:-1.0462 5:-1.039 6:0.94929 7:-1.0388 8:0.97134 9:0.88969 10:-0.9636 
1 1:-1.0518 2:0.9537 3:-1.0591 4:0.95571 5:-1.039 6:0.94929 7:0.96258 8:0.97134 9:-1.1239 10:-0.9636 
1 1:-1.0518 2:-1.0484 3:-1.0591 4:-1.0462 5:-1.039 6:-1.0533 7:-1.0388 8:-1.0294 9:-1.1239 10:1.0377 
1 1:-1.0518 2:-1.0484 3:-1.0591 4:-1.0462 5:-1.039 6:-1.0533 7:-1.0388 8:0.97134 9:-1.1239 10:-0.9636 
1 1:-1.0518 2:0.9537 3:0.94409 4:0.95571 5:-1.039 6:-1.0533 7:0.96258 8:0.97134 9:0.88969 10:-0.9636 
1 1:-1.0518 2:0.9537 3:0.94409 4:-1.0462 5:0.96238 6:0.94929 7:-1.0388 8:0.97134 9:0.88969 10:-0.9636 
1 1:-1.0518 2:-1.0484 3:0.94409 4:-1.0462 5:-1.039 6:-1.0533 7:-1.0388 8:-1.0294 9:-1.1239 10:-0.9636 
1 1:0.95069 2:0.9537 3:-1.0591 4:-1.0462 5:0.96238 6:-1.0533 7:-1.0388 8:0.97134 9:0.88969 10:1.0377 
1 1:-1.0518 2:0.9537 3:-1.0591 4:0.95571 5:-1.039 6:-1.0533 7:0.96258 8:0.97134 9:0.88969 10:1.0377 
1 1:0.95069 2:0.9537 3:-1.0591 4:-1.0462 5:-1.039 6:0.94929 7:-1.0388 8:-1.0294 9:0.88969 10:-0.9636 
1 1:-1.0518 2:0.9537 3:-1.0591 4:0.95571 5:0.96238 6:0.94929 7:-1.0388 8:0.97134 9:-1.1239 10:1.0377 
1 1:-1.0518 2:0.9537 3:-1.0591 4:0.95571 5:-1.039 6:-1.0533 7:-1.0388 8:0.97134 9:0.88969 10:-0.9636 
1 1:-1.0518 2:-1.0484 3:-1.0591 4:-1.0462 5:0.96238 6:-1.0533 7:0.96258 8:-1.0294 9:-1.1239 10:-0.9636 
1 1:-1.0518 2:-1.0484 3:-1.0591 4:-1.0462 5:-1.039 6:-1.0533 7:-1.0388 8:-1.0294 9:0.88969 10:-0.9636 
1 1:-1.0518 2:0.9537 3:-1.0591 4:-1.0462 5:-1.039 6:-1.0533 7:-1.0388 8:-1.0294 9:-1.1239 10:-0.9636 
1 1:-1.0518 2:-1.0484 3:0.94409 4:0.95571 5:-1.039 6:-1.0533 7:-1.0388 8:0.97134 9:0.88969 10:-0.9636 
1 1:-1.0518 2:-1.0484 3:-1.0591 4:-1.0462 5:-1.039 6:-1.0533 7:-1.0388 8:-1.0294 9:0.88969 10:-0.9636 
1 1:-1.0518 2:-1.0484 3:0.94409 4:0.95571 5:-1.039 6:-1.0533 7:-1.0388 8:-1.0294 9:0.88969 10:-0.9636 
1 1:-1.0518 2:-1.0484 3:-1.0591 4:-1.0462 5:-1.039 6:0.94929 7:-1.0388 8:-1.0294 9:-1.1239 10:-0.9636 
1 1:0.95069 2:-1.0484 3:-1.0591 4:-1.0462 5:-1.039 6:0.94929 7:-1.0388 8:-1.0294 9:-1.1239 10:-0.9636 
1 1:0.95069 2:-1.0484 3:-1.0591 4:-1.0462 5:-1.039 6:0.94929 7:0.96258 8:-1.0294 9:-1.1239 10:1.0377 
1 1:-1.0518 2:-1.0484 3:-1.0591 4:-1.0462 5:-1.039 6:-1.0533 7:-1.0388 8:-1.0294 9:0.88969 10:-0.9636 
1 1:-1.0518 2:-1.0484 3:0.94409 4:0.95571 5:0.96238 6:0.94929 7:0.96258 8:-1.0294 9:-1.1239 10:-0.9636 
1 1:-1.0518 2:-1.0484 3:0.94409 4:-1.0462 5:-1.039 6:-1.0533 7:-1.0388 8:0.97134 9:0.88969 10:1.0377 
1 1:-1.0518 2:0.9537 3:-1.0591 4:0.95571 5:-1.039 6:-1.0533 7:-1.0388 8:0.97134 9:0.88969 10:1.0377 
1 1:0.95069 2:-1.0484 3:-1.0591 4:-1.0462 5:-1.039 6:-1.0533 7:-1.0388 8:-1.0294 9:-1.1239 10:-0.9636 
1 1:0.95069 2:-1.0484 3:0.94409 4:0.95571 5:0.96238 6:-1.0533 7:-1.0388 8:0.97134 9:0.88969 10:-0.9636 
1 1:-1.0518 2:0.9537 3:-1.0591 4:-1.0462 5:0.96238 6:-1.0533 7:-1.0388 8:-1.0294 9:-1.1239 10:-0.9636 
1 1:-1.0518 2:0.9537 3:-1.0591 4:0.95571 5:-1.039 6:-1.0533 7:-1.0388 8:-1.0294 9:0.88969 10:-0.9636 
1 1:0.95069 2:-1.0484 3:0.94409 4:-1.0462 5:-1.039 6:0.94929 7:0.96258 8:-1.0294 9:0.88969 10:1.0377 
1 1:0.95069 2:0.9537 3:-1.0591 4:-1.0462 5:-1.039 6:-1.0533 7:-1.0388 8:-1.0294 9:0.88969 10:-0.9636 
1 1:-1.0518 2:-1.0484 3:-1.0591 4:0.95571 5:-1.039 6:-1.0533 7:-1.0388 8:0.97134 9:-1.1239 10:-0.9636 
1 1:-1.0518 2:-1.0484 3:-1.0591 4:0.95571 5:-1.039 6:0.94929 7:-1.0388 8:-1.0294 9:-1.1239 10:-0.9636 
1 1:-1.0518 2:0.9537 3:-1.0591 4:0.95571 5:0.96238 6:0.94929 7:-1.0388 8:-1.0294 9:-1.1239 10:-0.9636 
1 1:-1.0518 2:-1.0484 3:-1.0591 4:-1.0462 5:-1.039 6:-1.0533 7:-1.0388 8:0.97134 9:0.88969 10:-0.9636 
1 1:-1.0518 2:-1.0484 3:-1.0591 4:-1.0462 5:0.96238 6:-1.0533 7:0.96258 8:0.97134 9:-1.1239 10:-0.9636 
1 1:-1.0518 2:-1.0484 3:-1.0591 4:-1.0462 5:-1.039 6:-1.0533 7:0.96258 8:-1.0294 9:-1.1239 10:-0.9636 
1 1:-1.0518 2:-1.0484 3:0.94409 4:-1.0462 5:-1.039 6:-1.0533 7:0.96258 8:0.97134 9:0.88969 10:1.0377 
1 1:-1.0518 2:0.9537 3:0.94409 4:0.95571 5:-1.039 6:-1.0533 7:0.96258 8:-1.0294 9:-1.1239 10:-0.9636 
0.4799232725009409 1:0.95069 2:0.9537 3:-1.0591 4:-1.0462 5:0.96238 6:-1.0533 7:0.96258 8:0.97134 9:0.88969 10:1.0377 
1 1:-1.0518 2:0.9537 3:0.94409 4:0.95571 5:-1.039 6:0.94929 7:0.96258 8:-1.0294 9:0.88969 10:1.0377 
1 1:-1.0518 2:-1.0484 3:-1.0591 4:0.95571 5:-1.039 6:-1.0533 7:0.96258 8:-1.0294 9:0.88969 10:1.0377 
1 1:-1.0518 2:-1.0484 3:-1.0591 4:-1.0462 5:-1.039 6:-1.0533 7:0.96258 8:-1.0294 9:-1.1239 10:-0.9636 
1 1:0.95069 2:0.9537 3:-1.0591 4:-1.0462 5:0.96238 6:0.94929 7:0.96258 8:0.97134 9:-1.1239 10:1.0377 
1 1:0.95069 2:0.9537 3:0.94409 4:-1.0462 5:0.96238 6:-1.0533 7:0.96258 8:-1.0294 9:0.88969 10:-0.9636 
1 1:-1.0518 2:0.9537 3:-1.0591 4:0.95571 5:-1.039 6:0.94929 7:0.96258 8:-1.0294 9:0.88969 10:1.0377 
1 1:-1.0518 2:-1.0484 3:-1.0591 4:-1.0462 5:0.96238 6:0.94929 7:-1.0388 8:-1.0294 9:-1.1239 10:-0.9636 
1 1:0.95069 2:-1.0484 3:-1.0591 4:-1.0462 5:-1.039 6:-1.0533 7:-1.0388 8:-1.0294 9:0.88969 10:-0.9636 
1 1:-1.0518 2:-1.0484 3:0.94409 4:-1.0462 5:0.96238 6:-1.0533 7:-1.0388 8:-1.0294 9:-1.1239 10:-0.9636 
1 1:-1.0518 2:0.9537 3:-1.0591 4:0.95571 5:0.96238 6:-1.0533 7:0.96258 8:-1.0294 9:-1.1239 10:1.0377 
1 1:0.95069 2:0.9537 3:-1.0591 4:0.95571 5:-1.039 6:0.94929 7:0.96258 8:-1.0294 9:-1.1239 10:-0.9636 
1 1:-1.0518 2:-1.0484 3:-1.0591 4:-1.0462 5:-1.039 6:-1.0533 7:-1.0388 8:-1.0294 9:0.88969 10:-0.9636 
1 1:0.95069 2:-1.0484 3:0.94409 4:-1.0462 5:0.96238 6:-1.0533 7:0.96258 8:-1.0294 9:0.88969 10:1.0377 
0.9428043778496298 1:0.95069 2:0.9537 3:0.94409 4:-1.0462 5:0.96238 6:-1.0533 7:-1.0388 8:0.97134 9:0.88969 10:1.0377 
1 1:-1.0518 2:-1.0484 3:-1.0591 4:-1.0462 5:0.96238 6:-1.0533 7:-1.0388 8:-1.0294 9:-1.1239 10:-0.9636 
1 1:-1.0518 2:-1.0484 3:0.94409 4:0.95571 5:0.96238 6:-1.0533 7:0.96258 8:0.97134 9:0.88969 10:-0.9636 
1 1:-1.0518 2:-1.0484 3:-1.0591 4:0.95571 5:0.96238 6:-1.0533 7:-1.0388 8:0.97134 9:0.88969 10:1.0377 
1 1:0.95069 2:-1.0484 3:-1.0591 4:0.95571 5:0.96238 6:-1.0533 7:-1.0388 8:0.97134 9:-1.1239 10:1.0377 
1 1:-1.0518 2:-1.0484 3:-1.0591 4:-1.0462 5:0.96238 6:-1.0533 7:-1.0388 8:-1.0294 9:-1.1239 10:-0.9636 
1 1:-1.0518 2:-1.0484 3:-1.0591 4:-1.0462 5:-1.039 6:-1.0533 7:-1.0388 8:-1.0294 9:-1.1239 10:1.0377 
1 1:0.95069 2:0.9537 3:0.94409 4:-1.0462 5:0.96238 6:0.94929 7:-1.0388 8:-1.0294 9:-1.1239 10:1.0377 
1 1:0.95069 2:-1.0484 3:0.94409 4:0.95571 5:-1.039 6:-1.0533 7:0.96258 8:0.97134 9:0.88969 10:1.0377 
1 1:0.95069 2:0.9537 3:-1.0591 4:-1.0462 5:-1.039 6:0.94929 7:0.96258 8:-1.0294 9:0.88969 10:-0.9636 
1 1:-1.0518 2:-1.0484 3:0.94409 4:-1.0462 5:-1.039 6:-1.0533 7:-1.0388 8:-1.0294 9:0.88969 10:-0.9636 
1 1:-1.0518 2:-1.0484 3:0.94409 4:-1.0462 5:-1.039 6:-1.0533 7:0.96258 8:0.97134 9:-1.1239 10:-0.9636 
1 1:-1.0518 2:0.9537 3:0.94409 4:-1.0462 5:0.96238 6:0.94929 7:0.96258 8:-1.0294 9:0.88969 10:1.0377 
1 1:0.95069 2:-1.0484 3:0.94409 4:0.95571 5:-1.039 6:0.94929 7:-1.0388 8:-1.0294 9:0.88969 10:-0.9636 
1 1:-1.0518 2:-1.0484 3:-1.0591 4:0.95571 5:-1.039 6:-1.0533 7:-1.0388 8:-1.0294 9:-1.1239 10:-0.9636 
1 1:0.95069 2:0.9537 3:-1.0591 4:-1.0462 5:-1.039 6:-1.0533 7:-1.0388 8:0.97134 9:0.88969 10:-0.9636 
1 1:-1.0518 2:-1.0484 3:-1.0591 4:-1.0462 5:-1.039 6:0.94929 7:-1.0388 8:-1.0294 9:-1.1239 10:-0.9636 
1 1:0.95069 2:-1.0484 3:0.94409 4:-1.0462 5:0.96238 6:-1.0533 7:0.96258 8:-1.0294 9:-1.1239 10:-0.9636 
1 1:0.95069 2:-1.0484 3:0.94409 4:0.95571 5:-1.039 6:-1.0533 7:-1.0388 8:-1.0294 9:-1.1239 10:-0.9636 
1 1:-1.0518 2:0.9537 3:-1.0591 4:0.95571 5:-1.039 6:0.94929 7:0.96258 8:-1.0294 9:0.88969 10:-0.9636 
1 1:-1.0518 2:0.9537 3:-1.0591 4:-1.0462 5:0.96238 6:-1.0533 7:-1.0388 8:-1.0294 9:-1.1239 10:-0.9636 
1 1:-1.0518 2:-1.0484 3:-1.0591 4:-1.0462 5:-1.039 6:-1.0533 7:-1.0388 8:0.97134 9:-1.1239 10:-0.9636 
1 1:0.95069 2:-1.0484 3:-1.0591 4:-1.0462 5:-1.039 6:-1.0533 7:-1.0388 8:-1.0294 9:0.88969 10:-0.9636 
1 1:0.95069 2:0.9537 3:0.94409 4:-1.0462 5:0.96238 6:-1.0533 7:-1.0388 8:-1.0294 9:0.88969 10:1.0377 
0.7966808137277504 1:0.95069 2:-1.0484 3:0.94409 4:0.95571 5:0.96238 6:0.94929 7:-1.0388 8:0.97134 9:0.88969 10:-0.9636 
1 1:0.95069 2:-1.0484 3:-1.0591 4:0.95571 5:0.96238 6:-1.0533 7:0.96258 8:-1.0294 9:0.88969 10:1.0377 
1 1:-1.0518 2:-1.0484 3:-1.0591 4:-1.0462 5:-1.039 6:-1.0533 7:0.96258 8:0.97134 9:0.88969 10:1.0377 
1 1:0.95069 2:0.9537 3:0.94409 4:-1.0462 5:-1.039 6:0.94929 7:0.96258 8:-1.0294 9:0.88969 10:-0.9636 
1 1:-1.0518 2:-1.0484 3:0.94409 4:-1.0462 5:-1.039 6:-1.0533 7:-1.0388 8:0.97134 9:0.88969 10:1.0377 
1 1:-1.0518 2:-1.0484 3:-1.0591 4:-1.0462 5:0.96238 6:-1.0533 7:-1.0388 8:-1.0294 9:0.88969 10:-0.9636 
1 1:-1.0518 2:0.9537 3:0.94409 4:0.95571 5:-1.039 6:0.94929 7:-1.0388 8:0.97134 9:-1.1239 10:-0.9636 
1 1:-1.0518 2:-1.0484 3:0.94409 4:0.95571 5:-1.039 6:0.94929 7:-1.0388 8:-1.0294 9:0.88969 10:1.0377 
1 1:0.95069 2:0.9537 3:0.94409 4:0.95571 5:0.96238 6:-1.0533 7:0.96258 8:-1.0294 9:-1.1239 10:1.0377 
1 1:-1.0518 2:-1.0484 3:-1.0591 4:0.95571 5:0.96238 6:0.94929 7:0.96258 8:-1.0294 9:0.88969 10:1.0377 
1 1:-1.0518 2:-1.0484 3:0.94409 4:-1.0462 5:0.96238 6:-1.0533 7:-1.0388 8:0.97134 9:-1.1239 10:-0.9636 
1 1:-1.0518 2:-1.0484 3:-1.0591 4:0.95571 5:-1.039 6:-1.0533 7:-1.0388 8:-1.0294 9:-1.1239 10:-0.9636 
1 1:-1.0518 2:-1.0484 3:-1.0591 4:-1.0462 5:-1.039 6:-1.0533 7:0.96258 8:-1.0294 9:-1.1239 10:-0.9636 
1 1:0.95069 2:0.9537 3:0.94409 4:-1.0462 5:-1.039 6:-1.0533 7:-1.0388 8:-1.0294 9:0.88969 10:-0.9636 
1 1:0.95069 2:-1.0484 3:0.94409 4:-1.0462 5:0.96238 6:-1.0533 7:0.96258 8:-1.0294 9:-1.1239 10:-0.9636 
1 1:0.95069 2:0.9537 3:0.94409 4:0.95571 5:-1.039 6:-1.0533 7:-1.0388 8:-1.0294 9:-1.1239 10:-0.9636 
0.2956773730737492 1:-1.0518 2:0.9537 3:0.94409 4:0.95571 5:0.96238 6:0.94929 7:-1.0388 8:0.97134 9:0.88969 10:1.0377 
1 1:-1.0518 2:-1.0484 3:-1.0591 4:0.95571 5:-1.039 6:-1.0533 7:-1.0388 8:-1.0294 9:-1.1239 10:-0.9636 
1 1:0.95069 2:-1.0484 3:0.94409 4:-1.0462 5:0.96238 6:0.94929 7:0.96258 8:-1.0294 9:-1.1239 10:-0.9636 
1 1:-1.0518 2:-1.0484 3:-1.0591 4:-1.0462 5:-1.039 6:-1.0533 7:-1.0388 8:-1.0294 9:0.88969 10:-0.9636 
1 1:-1.0518 2:-1.0484 3:-1.0591 4:-1.0462 5:-1.039 6:-1.0533 7:0.96258 8:-1.0294 9:-1.1239 10:-0.9636 
1 1:-1.0518 2:-1.0484 3:0.94409 4:-1.0462 5:-1.039 6:0.94929 7:0.96258 8:-1.0294 9:-1.1239 10:1.0377 
1 1:-1.0518 2:0.9537 3:0.94409 4:-1.0462 5:-1.039 6:0.94929 7:-1.0388 8:-1.0294 9:-1.1239 10:-0.9636 
1 1:-1.0518 2:0.9537 3:-1.0591 4:-1.0462 5:-1.039 6:0.94929 7:-1.0388 8:-1.0294 9:-1.1239 10:-0.9636 
1 1:-1.0518 2:-1.0484 3:-1.0591 4:-1.0462 5:-1.039 6:-1.0533 7:-1.0388 8:0.97134 9:-1.1239 10:-0.9636 
1 1:0.95069 2:0.9537 3:-1.0591 4:0.95571 5:-1.039 6:-1.0533 7:0.96258 8:-1.0294 9:0.88969 10:1.0377 
1 1:-1.0518 2:-1.0484 3:-1.0591 4:0.95571 5:-1.039 6:-1.0533 7:-1.0388 8:-1.0294 9:0.88969 10:-0.9636 
1 1:0.95069 2:-1.0484 3:0.94409 4:-1.0462 5:0.96238 6:0.94929 7:0.96258 8:0.97134 9:-1.1239 10:-0.9636 
1 1:-1.0518 2:-1.0484 3:-1.0591 4:-1.0462 5:-1.039 6:-1.0533 7:0.96258 8:-1.0294 9:0.88969 10:-0.9636 
1 1:0.95069 2:-1.0484 3:0.94409 4:0.95571 5:-1.039 6:0.94929 7:-1.0388 8:0.97134 9:0.88969 10:1.0377 
1 1:0.95069 2:0.9537 3:-1.0591 4:0.95571 5:0.96238 6:-1.0533 7:-1.0388 8:-1.0294 9:-1.1239 10:-0.9636 
1 1:0.95069 2:-1.0484 3:0.94409 4:-1.0462 5:-1.039 6:-1.0533 7:-1.0388 8:-1.0294 9:-1.1239 10:-0.9636 
1 1:-1.0518 2:-1.0484 3:-1.0591 4:-1.0462 5:-1.039 6:-1.0533 7:0.96258 8:-1.0294 9:-1.1239 10:-0.9636 
1 1:-1.0518 2:-1.0484 3:-1.0591 4:-1.0462 5:-1.039 6:-1.0533 7:-1.0388 8:0.97134 9:-1.1239 10:-0.9636 
1 1:-1.0518 2:0.9537 3:-1.0591 4:-1.0462 5:-1.039 6:-1.0533 7:-1.0388 8:-1.0294 9:-1.1239 10:-0.9636 
0.5911252260921454 1:0.95069 2:0.9537 3:0.94409 4:-1.0462 5:0.96238 6:-1.0533 7:0.96258 8:0.97134 9:0.88969 10:-0.9636 
1 1:-1.0518 2:-1.0484 3:-1.0591 4:-1.0462 5:0.96238 6:-1.0533 7:0.96258 8:-1.0294 9:-1.1239 10:-0.9636 
1 1:-1.0518 2:0.9537 3:-1.0591 4:-1.0462 5:0.96238 6:-1.0533 7:0.96258 8:-1.0294 9:-1.1239 10:-0.9636 
1 1:-1.0518 2:-1.0484 3:-1.0591 4:-1.0462 5:-1.039 6:0.94929 7:-1.0388 8:-1.0294 9:0.88969 10:-0.9636 
1 1:0.95069 2:-1.0484 3:0.94409 4:-1.0462 5:-1.039 6:0.94929 7:0.96258 8:-1.0294 9:0.88969 10:-0.9636 
1 1:-1.0518 2:-1.0484 3:0.94409 4:-1.0462 5:-1.039 6:-1.0533 7:0.96258 8:-1.0294 9:-1.1239 10:-0.9636 
1 1:-1.0518 2:-1.0484 3:-1.0591 4:-1.0462 5:-1.039 6:-1.0533 7:0.96258 8:0.97134 9:-1.1239 10:-0.9636 
1 1:-1.0518 2:-1.0484 3:0.94409 4:-1.0462 5:0.96238 6:0.94929 7:-1.0388 8:-1.0294 9:-1.1239 10:-0.9636 
1 1:0.95069 2:0.9537 3:-1.0591 4:-1.0462 5:0.96238 6:-1.0533 7:-1.0388 8:-1.0294 9:-1.1239 10:-0.9636 
1 1:0.95069 2:0.9537 3:0.94409 4:-1.0462 5:0.96238 6:-1.0533 7:0.96258 8:-1.0294 9:0.88969 10:1.0377 
1 1:0.95069 2:0.9537 3:-1.0591 4:0.95571 5:0.96238 6:-1.0533 7:-1.0388 8:0.97134 9:0.88969 10:-0.9636 
1 1:-1.0518 2:-1.0484 3:0.94409 4:-1.0462 5:-1.039 6:-1.0533 7:-1.0388 8:0.97134 9:-1.1239 10:-0.9636 
1 1:-1.0518 2:-1.0484 3:-1.0591 4:-1.0462 5:-1.039 6:-1.0533 7:-1.0388 8:-1.0294 9:0.88969 10:1.0377 
1 1:0.95069 2:0.9537 3:0.94409 4:0.95571 5:-1.039 6:0.94929 7:-1.0388 8:-1.0294 9:-1.1239 10:-0.9636 
1 1:0.95069 2:-1.0484 3:0.94409 4:0.95571 5:-1.039 6:0.94929 7:0.96258 8:0.97134 9:-1.1239 10:-0.9636 
1 1:-1.0518 2:-1.0484 3:0.94409 4:0.95571 5:-1.039 6:0.94929 7:-1.0388 8:-1.0294 9:-1.1239 10:-0.9636 
1 1:-1.0518 2:-1.0484 3:-1.0591 4:-1.0462 5:-1.039 6:-1.0533 7:-1.0388 8:-1.0294 9:0.88969 10:-0.9636 
1 1:0.95069 2:-1.0484 3:-1.0591 4:-1.0462 5:-1.039 6:0.94929 7:0.96258 8:-1.0294 9:0.88969 10:-0.9636 
1 1:0.95069 2:-1.0484 3:0.94409 4:-1.0462 5:0.96238 6:-1.0533 7:0.96258 8:-1.0294 9:-1.1239 10:-0.9636 
1 1:-1.0518 2:-1.0484 3:0.94409 4:0.95571 5:-1.039 6:0.94929 7:-1.0388 8:-1.0294 9:-1.1239 10:-0.9636 
1 1:-1.0518 2:0.9537 3:-1.0591 4:-1.0462 5:-1.039 6:-1.0533 7:-1.0388 8:-1.0294 9:0.88969 10:1.0377 
1 1:-1.0518 2:-1.0484 3:0.94409 4:-1.0462 5:0.96238 6:-1.0533 7:-1.0388 8:-1.0294 9:0.88969 10:-0.9636 
1 1:-1.0518 2:0.9537 3:-1.0591 4:-1.0462 5:-1.039 6:-1.0533 7:0.96258 8:-1.0294 9:0.88969 10:-0.9636 
1 1:0.95069 2:0.9537 3:0.94409 4:-1.0462 5:-1.039 6:-1.0533 7:0.96258 8:0.97134 9:-1.1239 10:-0.9636 
1 1:-1.0518 2:-1.0484 3:0.94409 4:-1.0462 5:0.96238 6:-1.0533 7:0.96258 8:-1.0294 9:-1.1239 10:-0.9636 
1 1:-1.0518 2:-1.0484 3:-1.0591 4:-1.0462 5:0.96238 6:-1.0533 7:0.96258 8:-1.0294 9:-1.1239 10:-0.9636 
1 1:-1.0518 2:-1.0484 3:-1.0591 4:0.95571 5:-1.039 6:-1.0533 7:0.96258 8:0.97134 9:-1.1239 10:1.0377 
1 1:-1.0518 2:-1.0484 3:-1.0591 4:-1.0462 5:-1.039 6:-1.0533 7:-1.0388 8:-1.0294 9:0.88969 10:1.0377 
1 1:-1.0518 2:-1.0484 3:-1.0591 4:-1.0462 5:-1.039 6:-1.0533 7:-1.0388 8:-1.0294 9:0.88969 10:-0.9636 
1 1:-1.0518 2:0.9537 3:-1.0591 4:-1.0462 5:-1.039 6:-1.0533 7:-1.0388 8:-1.0294 9:-1.1239 10:-0.9636 
1 1:0.95069 2:0.9537 3:-1.0591 4:-1.0462 5:-1.039 6:0.94929 7:0.96258 8:-1.0294 9:0.88969 10:-0.9636 
0.01008287305988496 1:0.95069 2:0.9537 3:-1.0591 4:0.95571 5:0.96238 6:-1.0533 7:-1.0388 8:0.97134 9:0.88969 10:1.0377 
1 1:-1.0518 2:0.9537 3:0.94409 4:-1.0462 5:-1.039 6:0.94929 7:0.96258 8:0.97134 9:0.88969 10:-0.9636 
1 1:-1.0518 2:0.9537 3:0.94409 4:0.95571 5:-1.039 6:0.94929 7:0.96258 8:-1.0294 9:-1.1239 10:-0.9636 
1 1:-1.0518 2:-1.0484 3:-1.0591 4:0.95571 5:-1.039 6:-1.0533 7:-1.0388 8:0.97134 9:0.88969 10:-0.9636 
1 1:0.95069 2:-1.0484 3:0.94409 4:0.95571 5:0.96238 6:0.94929 7:-1.0388 8:0.97134 9:0.88969 10:-0.9636 
1 1:0.95069 2:0.9537 3:-1.0591 4:0.95571 5:-1.039 6:-1.0533 7:0.96258 8:-1.0294 9:-1.1239 10:1.0377 
1 1:-1.0518 2:-1.0484 3:-1.0591 4:-1.0462 5:-1.039 6:0.94929 7:-1.0388 8:-1.0294 9:-1.1239 10:-0.9636 
0.7249677994901608 1:0.95069 2:0.9537 3:-1.0591 4:-1.0462 5:0.96238 6:0.94929 7:0.96258 8:-1.0294 9:-1.1239 10:-0.9636 
1 1:-1.0518 2:-1.0484 3:-1.0591 4:-1.0462 5:-1.039 6:0.94929 7:-1.0388 8:-1.0294 9:-1.1239 10:-0.9636 
1 1:0.95069 2:-1.0484 3:0.94409 4:-1.0462 5:-1.039 6:-1.0533 7:-1.0388 8:-1.0294 9:-1.1239 10:-0.9636 
1 1:-1.0518 2:-1.0484 3:0.94409 4:0.95571 5:0.96238 6:0.94929 7:-1.0388 8:-1.0294 9:-1.1239 10:-0.9636 
1 1:-1.0518 2:0.9537 3:-1.0591 4:-1.0462 5:0.96238 6:0.94929 7:0.96258 8:0.97134 9:0.88969 10:1.0377 
1 1:-1.0518 2:-1.0484 3:0.94409 4:0.95571 5:-1.039 6:-1.0533 7:0.96258 8:0.97134 9:0.88969 10:-0.9636 
1 1:-1.0518 2:-1.0484 3:-1.0591 4:-1.0462 5:0.96238 6:-1.0533 7:0.96258 8:-1.0294 9:0.88969 10:1.0377 
1 1:-1.0518 2:-1.0484 3:-1.0591 4:-1.0462 5:-1.039 6:-1.0533 7:0.96258 8:-1.0294 9:-1.1239 10:1.0377 
1 1:0.95069 2:0.9537 3:-1.0591 4:-1.0462 5:-1.039 6:0.94929 7:0.96258 8:-1.0294 9:0.88969 10:-0.9636 
1 1:-1.0518 2:-1.0484 3:-1.0591 4:0.95571 5:0.96238 6:-1.0533 7:0.96258 8:-1.0294 9:-1.1239 10:-0.9636 
1 1:-1.0518 2:-1.0484 3:-1.0591 4:-1.0462 5:0.96238 6:-1.0533 7:-1.0388 8:-1.0294 9:0.88969 10:1.0377 
1 1:-1.0518 2:0.9537 3:0.94409 4:0.95571 5:0.96238 6:-1.0533 7:0.96258 8:-1.0294 9:0.88969 10:-0.9636 
1 1:-1.0518 2:-1.0484 3:-1.0591 4:0.95571 5:-1.039 6:-1.0533 7:0.96258 8:0.97134 9:-1.1239 10:-0.9636 
1 1:-1.0518 2:-1.0484 3:0.94409 4:-1.0462 5:-1.039 6:-1.0533 7:-1.0388 8:0.97134 9:0.88969 10:1.0377 
1 1:-1.0518 2:-1.0484 3:-1.0591 4:0.95571 5:0.96238 6:-1.0533 7:-1.0388 8:-1.0294 9:-1.1239 10:1.0377 
1 1:-1.0518 2:-1.0484 3:-1.0591 4:0.95571 5:0.96238 6:-1.0533 7:0.96258 8:0.97134 9:0.88969 10:-0.9636 
1 1:-1.0518 2:-1.0484 3:-1.0591 4:0.95571 5:-1.039 6:-1.0533 7:-1.0388 8:-1.0294 9:0.88969 10:1.0377 
1 1:-1.0518 2:-1.0484 3:-1.0591 4:0.95571 5:-1.039 6:-1.0533 7:-1.0388 8:-1.0294 9:-1.1239 10:-0.9636 
0.8278789261589928 1:-1.0518 2:-1.0484 3:-1.0591 4:-1.0462 5:-1.039 6:-1.0533 7:-1.0388 8:-1.0294 9:-1.1239 10:-0.9636 
1 1:-1.0518 2:-1.0484 3:0.94409 4:-1.0462 5:0.96238 6:0.94929 7:0.96258 8:-1.0294 9:0.88969 10:-0.9636 
1 1:0.95069 2:0.9537 3:-1.0591 4:-1.0462 5:-1.039 6:-1.0533 7:-1.0388 8:-1.0294 9:0.88969 10:-0.9636 
1 1:0.95069 2:0.9537 3:0.94409 4:-1.0462 5:0.96238 6:0.94929 7:-1.0388 8:0.97134 9:-1.1239 10:-0.9636 
1 1:-1.0518 2:-1.0484 3:-1.0591 4:-1.0462 5:-1.039 6:-1.0533 7:-1.0388 8:-1.0294 9:-1.1239 10:-0.9636 
1 1:-1.0518 2:-1.0484 3:-1.0591 4:-1.0462 5:-1.039 6:-1.0533 7:-1.0388 8:-1.0294 9:-1.1239 10:-0.9636 
1 1:-1.0518 2:-1.0484 3:-1.0591 4:0.95571 5:-1.039 6:-1.0533 7:-1.0388 8:0.97134 9:0.88969 10:1.0377 
1 1:-1.0518 2:0.9537 3:0.94409 4:-1.0462 5:0.96238 6:0.94929 7:-1.0388 8:-1.0294 9:-1.1239 10:-0.9636 
1 1:-1.0518 2:-1.0484 3:-1.0591 4:-1.0462 5:-1.039 6:-1.0533 7:-1.0388 8:-1.0294 9:-1.1239 10:-0.9636 
1 1:0.95069 2:0.9537 3:0.94409 4:-1.0462 5:0.96238 6:-1.0533 7:0.96258 8:0.97134 9:0.88969 10:-0.9636 
1 1:-1.0518 2:-1.0484 3:0.94409 4:0.95571 5:-1.039 6:-1.0533 7:-1.0388 8:-1.0294 9:0.88969 10:-0.9636 
1 1:-1.0518 2:-1.0484 3:-1.0591 4:-1.0462 5:-1.039 6:-1.0533 7:-1.0388 8:-1.0294 9:-1.1239 10:-0.9636 
1 1:0.95069 2:0.9537 3:-1.0591 4:-1.0462 5:-1.039 6:-1.0533 7:-1.0388 8:-1.0294 9:-1.1239 10:-0.9636 
1 1:-1.0518 2:-1.0484 3:-1.0591 4:-1.0462 5:-1.039 6:-1.0533 7:-1.0388 8:-1.0294 9:0.88969 10:-0.9636 
1 1:-1.0518 2:-1.0484 3:-1.0591 4:-1.0462 5:-1.039 6:-1.0533 7:-1.0388 8:0.97134 9:0.88969 10:-0.9636 
1 1:-1.0518 2:-1.0484 3:-1.0591 4:0.95571 5:0.96238 6:0.94929 7:-1.0388 8:-1.0294 9:-1.1239 10:-0.9636 
1 1:-1.0518 2:-1.0484 3:-1.0591 4:-1.0462 5:-1.039 6:-1.0533 7:-1.0388 8:-1.0294 9:-1.1239 10:-0.9636 
1 1:-1.0518 2:-1.0484 3:0.94409 4:-1.0462 5:-1.039 6:-1.0533 7:-1.0388 8:-1.0294 9:0.88969 10:-0.9636 
1 1:-1.0518 2:-1.0484 3:-1.0591 4:-1.0462 5:0.96238 6:-1.0533 7:-1.0388 8:0.97134 9:0.88969 10:-0.9636 
1 1:-1.0518 2:-1.0484 3:-1.0591 4:-1.0462 5:-1.039 6:-1.0533 7:-1.0388 8:-1.0294 9:0.88969 10:-0.9636 
1 1:0.95069 2:0.9537 3:-1.0591 4:-1.0462 5:0.96238 6:-1.0533 7:-1.0388 8:-1.0294 9:0.88969 10:-0.9636 
1 1:-1.0518 2:-1.0484 3:-1.0591 4:-1.0462 5:-1.039 6:-1.0533 7:-1.0388 8:-1.0294 9:-1.1239 10:-0.9636 
1 1:-1.0518 2:0.9537 3:0.94409 4:0.95571 5:0.96238 6:-1.0533 7:-1.0388 8:-1.0294 9:-1.1239 10:-0.9636 
1 1:0.95069 2:-1.0484 3:0.94409 4:-1.0462 5:0.96238 6:-1.0533 7:0.96258 8:0.97134 9:0.88969 10:-0.9636 
1 1:-1.0518 2:-1.0484 3:-1.0591 4:-1.0462 5:0.96238 6:-1.0533 7:0.96258 8:-1.0294 9:-1.1239 10:-0.9636 
1 1:0.95069 2:0.9537 3:0.94409 4:0.95571 5:0.96238 6:0.94929 7:-1.0388 8:-1.0294 9:-1.1239 10:1.0377 
1 1:-1.0518 2:0.9537 3:0.94409 4:-1.0462 5:0.96238 6:0.94929 7:0.96258 8:-1.0294 9:0.88969 10:-0.9636 
1 1:-1.0518 2:-1.0484 3:-1.0591 4:-1.0462 5:-1.039 6:-1.0533 7:-1.0388 8:-1.0294 9:-1.1239 10:-0.9636 
1 1:-1.0518 2:-1.0484 3:-1.0591 4:-1.0462 5:-1.039 6:-1.0533 7:-1.0388 8:-1.0294 9:-1.1239 10:-0.9636 
1 1:0.95069 2:0.9537 3:-1.0591 4:-1.0462 5:0.96238 6:0.94929 7:-1.0388 8:-1.0294 9:-1.1239 10:1.0377 
1 1:-1.0518 2:-1.0484 3:-1.0591 4:-1.0462 5:-1.039 6:-1.0533 7:-1.0388 8:0.97134 9:0.88969 10:-0.9636 
1 1:-1.0518 2:-1.0484 3:-1.0591 4:0.95571 5:-1.039 6:0.94929 7:-1.0388 8:-1.0294 9:-1.1239 10:-0.9636 
1 1:-1.0518 2:-1.0484 3:-1.0591 4:-1.0462 5:-1.039 6:-1.0533 7:0.96258 8:-1.0294 9:-1.1239 10:-0.9636 
1 1:-1.0518 2:0.9537 3:-1.0591 4:0.95571 5:0.96238 6:0.94929 7:-1.0388 8:0.97134 9:-1.1239 10:-0.9636 
1 1:-1.0518 2:-1.0484 3:-1.0591 4:-1.0462 5:-1.039 6:-1.0533 7:-1.0388 8:-1.0294 9:-1.1239 10:-0.9636 
1 1:-1.0518 2:0.9537 3:-1.0591 4:0.95571 5:-1.039 6:-1.0533 7:-1.0388 8:-1.0294 9:0.88969 10:-0.9636 
1 1:0.95069 2:0.9537 3:0.94409 4:0.95571 5:-1.039 6:0.94929 7:-1.0388 8:-1.0294 9:0.88969 10:1.0377 
1 1:0.95069 2:-1.0484 3:0.94409 4:-1.0462 5:0.96238 6:0.94929 7:-1.0388 8:-1.0294 9:-1.1239 10:1.0377 
1 1:-1.0518 2:-1.0484 3:-1.0591 4:-1.0462 5:-1.039 6:-1.0533 7:-1.0388 8:-1.0294 9:0.88969 10:-0.9636 
1 1:0.95069 2:0.9537 3:-1.0591 4:-1.0462 5:0.96238 6:-1.0533 7:-1.0388 8:0.97134 9:0.88969 10:1.0377 
1 1:-1.0518 2:-1.0484 3:0.94409 4:-1.0462 5:-1.039 6:-1.0533 7:-1.0388 8:-1.0294 9:-1.1239 10:-0.9636 
1 1:-1.0518 2:-1.0484 3:-1.0591 4:-1.0462 5:-1.039 6:-1.0533 7:-1.0388 8:-1.0294 9:-1.1239 10:-0.9636 
1 1:-1.0518 2:0.9537 3:0.94409 4:0.95571 5:-1.039 6:0.94929 7:0.96258 8:-1.0294 9:-1.1239 10:1.0377 
1 1:-1.0518 2:-1.0484 3:-1.0591 4:0.95571 5:-1.039 6:0.94929 7:0.96258 8:0.97134 9:0.88969 10:1.0377 
1 1:-1.0518 2:-1.0484 3:-1.0591 4:-1.0462 5:-1.039 6:-1.0533 7:-1.0388 8:-1.0294 9:-1.1239 10:-0.9636 
1 1:0.95069 2:-1.0484 3:-1.0591 4:-1.0462 5:0.96238 6:-1.0533 7:0.96258 8:0.97134 9:0.88969 10:-0.9636 
1 1:-1.0518 2:-1.0484 3:-1.0591 4:-1.0462 5:0.96238 6:-1.0533 7:0.96258 8:0.97134 9:0.88969 10:-0.9636 
1 1:-1.0518 2:-1.0484 3:-1.0591 4:-1.0462 5:-1.039 6:-1.0533 7:-1.0388 8:-1.0294 9:0.88969 10:-0.9636 
1 1:-1.0518 2:-1.0484 3:-1.0591 4:-1.0462 5:0.96238 6:0.94929 7:-1.0388 8:-1.0294 9:-1.1239 10:-0.9636 
1 1:-1.0518 2:-1.0484 3:-1.0591 4:0.95571 5:-1.039 6:0.94929 7:-1.0388 8:0.97134 9:0.88969 10:1.0377 
1 1:-1.0518 2:0.9537 3:-1.0591 4:0.95571 5:0.96238 6:0.94929 7:-1.0388 8:-1.0294 9:-1.1239 10:-0.9636 
1 1:-1.0518 2:-1.0484 3:0.94409 4:-1.0462 5:-1.039 6:0.94929 7:-1.0388 8:-1.0294 9:0.88969 10:-0.9636 
1 1:-1.0518 2:0.9537 3:0.94409 4:-1.0462 5:-1.039 6:-1.0533 7:-1.0388 8:-1.0294 9:0.88969 10:1.0377 
1 1:-1.0518 2:-1.0484 3:-1.0591 4:-1.0462 5:-1.039 6:-1.0533 7:-1.0388 8:-1.0294 9:-1.1239 10:-0.9636 
1 1:-1.0518 2:0.9537 3:-1.0591 4:0.95571 5:-1.039 6:0.94929 7:0.96258 8:-1.0294 9:0.88969 10:1.0377 
1 1:-1.0518 2:0.9537 3:0.94409 4:0.95571 5:0.96238 6:0.94929 7:-1.0388 8:-1.0294 9:0.88969 10:-0.9636 
1 1:0.95069 2:-1.0484 3:0.94409 4:0.95571 5:-1.039 6:0.94929 7:-1.0388 8:0.97134 9:0.88969 10:1.0377 
1 1:-1.0518 2:-1.0484 3:0.94409 4:0.95571 5:-1.039 6:0.94929 7:0.96258 8:-1.0294 9:-1.1239 10:-0.9636 
1 1:-1.0518 2:-1.0484 3:-1.0591 4:-1.0462 5:-1.039 6:-1.0533 7:-1.0388 8:-1.0294 9:-1.1239 10:-0.9636 
1 1:0.95069 2:-1.0484 3:-1.0591 4:0.95571 5:-1.039 6:-1.0533 7:0.96258 8:-1.0294 9:0.88969 10:1.0377 
1 1:0.95069 2:0.9537 3:0.94409 4:-1.0462 5:0.96238 6:0.94929 7:-1.0388 8:-1.0294 9:0.88969 10:-0.9636 
1 1:-1.0518 2:-1.0484 3:-1.0591 4:-1.0462 5:-1.039 6:-1.0533 7:-1.0388 8:-1.0294 9:0.88969 10:-0.9636 
1 1:-1.0518 2:0.9537 3:-1.0591 4:0.95571 5:-1.039 6:0.94929 7:0.96258 8:0.97134 9:0.88969 10:1.0377 
1 1:-1.0518 2:0.9537 3:-1.0591 4:-1.0462 5:-1.039 6:-1.0533 7:0.96258 8:0.97134 9:0.88969 10:1.0377 
1 1:-1.0518 2:0.9537 3:-1.0591 4:-1.0462 5:0.96238 6:0.94929 7:-1.0388 8:-1.0294 9:-1.1239 10:-0.9636 
1 1:-1.0518 2:-1.0484 3:-1.0591 4:0.95571 5:-1.039 6:0.94929 7:-1.0388 8:-1.0294 9:0.88969 10:-0.9636 
1 1:-1.0518 2:0.9537 3:0.94409 4:0.95571 5:0.96238 6:0.94929 7:-1.0388 8:0.97134 9:0.88969 10:1.0377 
1 1:-1.0518 2:-1.0484 3:-1.0591 4:0.95571 5:0.96238 6:-1.0533 7:0.96258 8:-1.0294 9:0.88969 10:-0.9636 
1 1:0.95069 2:-1.0484 3:-1.0591 4:0.95571 5:-1.039 6:-1.0533 7:-1.0388 8:0.97134 9:0.88969 10:1.0377 
1 1:0.95069 2:0.9537 3:0.94409 4:-1.0462 5:-1.039 6:0.94929 7:0.96258 8:-1.0294 9:0.88969 10:1.0377 
1 1:0.95069 2:0.9537 3:0.94409 4:0.95571 5:0.96238 6:-1.0533 7:0.96258 8:-1.0294 9:0.88969 10:1.0377 
1 1:-1.0518 2:-1.0484 3:-1.0591 4:-1.0462 5:-1.039 6:-1.0533 7:-1.0388 8:-1.0294 9:-1.1239 10:-0.9636 
1 1:-1.0518 2:-1.0484 3:-1.0591 4:-1.0462 5:-1.039 6:-1.0533 7:-1.0388 8:-1.0294 9:-1.1239 10:-0.9636 
1 1:-1.0518 2:-1.0484 3:-1.0591 4:-1.0462 5:-1.039 6:-1.0533 7:-1.0388 8:-1.0294 9:-1.1239 10:-0.9636 
1 1:0.95069 2:0.9537 3:0.94409 4:0.95571 5:-1.039 6:-1.0533 7:0.96258 8:-1.0294 9:-1.1239 10:-0.9636 
1 1:-1.0518 2:0.9537 3:-1.0591 4:-1.0462 5:-1.039 6:0.94929 7:-1.0388 8:-1.0294 9:-1.1239 10:-0.9636 
1 1:0.95069 2:-1.0484 3:0.94409 4:-1.0462 5:-1.039 6:-1.0533 7:0.96258 8:-1.0294 9:-1.1239 10:-0.9636 
1 1:-1.0518 2:-1.0484 3:0.94409 4:0.95571 5:-1.039 6:-1.0533 7:-1.0388 8:-1.0294 9:-1.1239 10:-0.9636 
1 1:0.95069 2:0.9537 3:-1.0591 4:-1.0462 5:-1.039 6:-1.0533 7:0.96258 8:-1.0294 9:0.88969 10:1.0377 
1 1:-1.0518 2:-1.0484 3:-1.0591 4:-1.0462 5:-1.039 6:-1.0533 7:-1.0388 8:-1.0294 9:0.88969 10:1.0377 
1 1:-1.0518 2:-1.0484 3:-1.0591 4:-1.0462 5:-1.039 6:-1.0533 7:-1.0388 8:-1.0294 9:-1.1239 10:-0.9636 
1 1:-1.0518 2:-1.0484 3:-1.0591 4:-1.0462 5:-1.039 6:-1.0533 7:-1.0388 8:0.97134 9:0.88969 10:-0.9636 
1 1:0.95069 2:-1.0484 3:0.94409 4:0.95571 5:0.96238 6:0.94929 7:0.96258 8:-1.0294 9:0.88969 10:1.0377 
1 1:0.95069 2:-1.0484 3:-1.0591 4:-1.0462 5:-1.039 6:0.94929 7:-1.0388 8:-1.0294 9:0.88969 10:-0.9636 
1 1:0.95069 2:-1.0484 3:0.94409 4:-1.0462 5:-1.039 6:-1.0533 7:-1.0388 8:0.97134 9:-1.1239 10:-0.9636 
1 1:0.95069 2:0.9537 3:0.94409 4:-1.0462 5:0.96238 6:-1.0533 7:0.96258 8:0.97134 9:-1.1239 10:1.0377 
1 1:0.95069 2:-1.0484 3:-1.0591 4:-1.0462 5:-1.039 6:-1.0533 7:-1.0388 8:-1.0294 9:0.88969 10:-0.9636 
1 1:-1.0518 2:-1.0484 3:-1.0591 4:-1.0462 5:-1.039 6:-1.0533 7:-1.0388 8:-1.0294 9:-1.1239 10:-0.9636 
1 1:-1.0518 2:-1.0484 3:-1.0591 4:-1.0462 5:-1.039 6:-1.0533 7:-1.0388 8:-1.0294 9:-1.1239 10:-0.9636 
1 1:-1.0518 2:-1.0484 3:0.94409 4:-1.0462 5:0.96238 6:0.94929 7:0.96258 8:0.97134 9:-1.1239 10:-0.9636 
1 1:0.95069 2:0.9537 3:0.94409 4:0.95571 5:-1.039 6:-1.0533 7:-1.0388 8:0.97134 9:0.88969 10:-0.9636 
1 1:-1.0518 2:-1.0484 3:-1.0591 4:-1.0462 5:-1.039 6:-1.0533 7:-1.0388 8:-1.0294 9:-1.1239 10:-0.9636 
1 1:-1.0518 2:-1.0484 3:-1.0591 4:-1.0462 5:-1.039 6:-1.0533 7:0.96258 8:-1.0294 9:-1.1239 10:-0.9636 
1 1:0.95069 2:-1.0484 3:-1.0591 4:-1.0462 5:-1.039 6:-1.0533 7:-1.0388 8:-1.0294 9:-1.1239 10:-0.9636 
1 1:0.95069 2:0.9537 3:0.94409 4:-1.0462 5:0.96238 6:-1.0533 7:-1.0388 8:-1.0294 9:0.88969 10:-0.9636 
1 1:-1.0518 2:-1.0484 3:-1.0591 4:-1.0462 5:-1.039 6:-1.0533 7:-1.0388 8:-1.0294 9:-1.1239 10:-0.9636 
1 1:0.95069 2:0.9537 3:-1.0591 4:-1.0462 5:0.96238 6:0.94929 7:-1.0388 8:-1.0294 9:0.88969 10:-0.9636 
1 1:-1.0518 2:-1.0484 3:-1.0591 4:-1.0462 5:-1.039 6:-1.0533 7:-1.0388 8:-1.0294 9:-1.1239 10:-0.9636 
1 1:-1.0518 2:0.9537 3:0.94409 4:0.95571 5:0.96238 6:-1.0533 7:0.96258 8:-1.0294 9:-1.1239 10:1.0377 
1 1:0.95069 2:-1.0484 3:-1.0591 4:-1.0462 5:-1.039 6:0.94929 7:0.96258 8:-1.0294 9:-1.1239 10:-0.9636 
1 1:0.95069 2:0.9537 3:-1.0591 4:-1.0462 5:0.96238 6:0.94929 7:0.96258 8:-1.0294 9:0.88969 10:-0.9636 
1 1:0.95069 2:-1.0484 3:0.94409 4:-1.0462 5:0.96238 6:0.94929 7:-1.0388 8:0.97134 9:-1.1239 10:-0.9636 
1 1:-1.0518 2:-1.0484 3:-1.0591 4:0.95571 5:0.96238 6:-1.0533 7:-1.0388 8:0.97134 9:-1.1239 10:-0.9636 
1 1:-1.0518 2:0.9537 3:0.94409 4:-1.0462 5:-1.039 6:-1.0533 7:-1.0388 8:-1.0294 9:-1.1239 10:-0.9636 
1 1:0.95069 2:-1.0484 3:0.94409 4:-1.0462 5:0.96238 6:0.94929 7:0.96258 8:0.97134 9:-1.1239 10:-0.9636 
1 1:-1.0518 2:-1.0484 3:-1.0591 4:-1.0462 5:-1.039 6:0.94929 7:-1.0388 8:-1.0294 9:-1.1239 10:-0.9636 
1 1:0.95069 2:-1.0484 3:0.94409 4:0.95571 5:-1.039 6:0.94929 7:0.96258 8:-1.0294 9:0.88969 10:-0.9636 
1 1:0.95069 2:-1.0484 3:-1.0591 4:-1.0462 5:0.96238 6:0.94929 7:0.96258 8:0.97134 9:0.88969 10:1.0377 
1 1:0.95069 2:-1.0484 3:-1.0591 4:0.95571 5:0.96238 6:-1.0533 7:-1.0388 8:0.97134 9:0.88969 10:1.0377 
1 1:-1.0518 2:-1.0484 3:-1.0591 4:0.95571 5:0.96238 6:0.94929 7:0.96258 8:-1.0294 9:0.88969 10:1.0377 
1 1:0.95069 2:0.9537 3:0.94409 4:0.95571 5:-1.039 6:0.94929 7:-1.0388 8:0.97134 9:0.88969 10:-0.9636 
1 1:-1.0518 2:-1.0484 3:-1.0591 4:0.95571 5:-1.039 6:0.94929 7:-1.0388 8:0.97134 9:0.88969 10:1.0377 
1 1:-1.0518 2:0.9537 3:0.94409 4:-1.0462 5:0.96238 6:0.94929 7:-1.0388 8:-1.0294 9:-1.1239 10:-0.9636 
1 1:-1.0518 2:-1.0484 3:0.94409 4:0.95571 5:0.96238 6:0.94929 7:0.96258 8:0.97134 9:-1.1239 10:1.0377 
1 1:-1.0518 2:-1.0484 3:-1.0591 4:-1.0462 5:-1.039 6:-1.0533 7:-1.0388 8:0.97134 9:0.88969 10:1.0377 
1 1:0.95069 2:-1.0484 3:0.94409 4:-1.0462 5:-1.039 6:0.94929 7:0.96258 8:0.97134 9:0.88969 10:1.0377 
1 1:-1.0518 2:-1.0484 3:-1.0591 4:-1.0462 5:-1.039 6:-1.0533 7:0.96258 8:0.97134 9:0.88969 10:1.0377 
1 1:0.95069 2:-1.0484 3:-1.0591 4:-1.0462 5:-1.039 6:-1.0533 7:0.96258 8:0.97134 9:0.88969 10:1.0377 
1 1:0.95069 2:-1.0484 3:-1.0591 4:-1.0462 5:0.96238 6:-1.0533 7:0.96258 8:0.97134 9:0.88969 10:1.0377 
1 1:-1.0518 2:-1.0484 3:-1.0591 4:-1.0462 5:-1.039 6:-1.0533 7:0.96258 8:0.97134 9:0.88969 10:1.0377 
1 1:0.95069 2:-1.0484 3:-1.0591 4:-1.0462 5:-1.039 6:-1.0533 7:0.96258 8:0.97134 9:0.88969 10:1.0377 
0.06659772647897573 1:0.95069 2:0.9537 3:0.94409 4:-1.0462 5:-1.039 6:0.94929 7:0.96258 8:0.97134 9:0.88969 10:1.0377 
1 1:-1.0518 2:-1.0484 3:-1.0591 4:-1.0462 5:-1.039 6:-1.0533 7:0.96258 8:0.97134 9:0.88969 10:1.0377 
1 1:0.95069 2:0.9537 3:-1.0591 4:-1.0462 5:-1.039 6:-1.0533 7:0.96258 8:0.97134 9:0.88969 10:1.0377 
0.9551544697117259 1:-1.0518 2:-1.0484 3:-1.0591 4:0.95571 5:0.96238 6:0.94929 7:0.96258 8:0.97134 9:0.88969 10:1.0377 
1 1:-1.0518 2:-1.0484 3:-1.0591 4:-1.0462 5:-1.039 6:-1.0533 7:0.96258 8:-1.0294 9:-1.1239 10:-0.9636 
1 1:-1.0518 2:-1.0484 3:-1.0591 4:-1.0462 5:-1.039 6:-1.0533 7:-1.0388 8:-1.0294 9:-1.1239 10:-0.9636 
1 1:-1.0518 2:-1.0484 3:-1.0591 4:0.95571 5:-1.039 6:0.94929 7:0.96258 8:-1.0294 9:-1.1239 10:1.0377 
1 1:-1.0518 2:-1.0484 3:-1.0591 4:0.95571 5:0.96238 6:-1.0533 7:-1.0388 8:0.97134 9:0.88969 10:1.0377 
1 1:-1.0518 2:-1.0484 3:-1.0591 4:-1.0462 5:0.96238 6:-1.0533 7:0.96258 8:-1.0294 9:-1.1239 10:-0.9636 
1 1:-1.0518 2:-1.0484 3:-1.0591 4:-1.0462 5:-1.039 6:-1.0533 7:-1.0388 8:-1.0294 9:-1.1239 10:-0.9636 
1 1:0.95069 2:-1.0484 3:-1.0591 4:-1.0462 5:-1.039 6:-1.0533 7:-1.0388 8:-1.0294 9:-1.1239 10:-0.9636 
1 1:-1.0518 2:-1.0484 3:-1.0591 4:-1.0462 5:-1.039 6:-1.0533 7:0.96258 8:-1.0294 9:0.88969 10:-0.9636 
1 1:-1.0518 2:-1.0484 3:-1.0591 4:0.95571 5:-1.039 6:-1.0533 7:0.96258 8:0.97134 9:0.88969 10:1.0377 
1 1:0.95069 2:0.9537 3:-1.0591 4:0.95571 5:-1.039 6:0.94929 7:0.96258 8:-1.0294 9:-1.1239 10:-0.9636 
1 1:-1.0518 2:-1.0484 3:-1.0591 4:-1.0462 5:0.96238 6:-1.0533 7:0.96258 8:0.97134 9:-1.1239 10:-0.9636 
1 1:-1.0518 2:0.9537 3:0.94409 4:0.95571 5:0.96238 6:-1.0533 7:-1.0388 8:0.97134 9:0.88969 10:1.0377 
1 1:-1.0518 2:-1.0484 3:-1.0591 4:-1.0462 5:-1.039 6:-1.0533 7:-1.0388 8:-1.0294 9:-1.1239 10:-0.9636 
1 1:-1.0518 2:-1.0484 3:-1.0591 4:-1.0462 5:-1.039 6:-1.0533 7:0.96258 8:-1.0294 9:-1.1239 10:1.0377 
1 1:-1.0518 2:-1.0484 3:-1.0591 4:0.95571 5:0.96238 6:0.94929 7:0.96258 8:0.97134 9:0.88969 10:-0.9636 
0.1829875321906636 1:0.95069 2:0.9537 3:-1.0591 4:0.95571 5:0.96238 6:-1.0533 7:-1.0388 8:0.97134 9:0.88969 10:1.0377 
1 1:-1.0518 2:0.9537 3:-1.0591 4:0.95571 5:0.96238 6:0.94929 7:-1.0388 8:-1.0294 9:-1.1239 10:-0.9636 
1 1:0.95069 2:-1.0484 3:0.94409 4:-1.0462 5:-1.039 6:0.94929 7:-1.0388 8:0.97134 9:0.88969 10:-0.9636 
1 1:0.95069 2:0.9537 3:0.94409 4:-1.0462 5:0.96238 6:-1.0533 7:-1.0388 8:0.97134 9:-1.1239 10:1.0377 
1 1:0.95069 2:-1.0484 3:-1.0591 4:-1.0462 5:0.96238 6:-1.0533 7:-1.0388 8:-1.0294 9:-1.1239 10:-0.9636 
1 1:0.95069 2:0.9537 3:0.94409 4:-1.0462 5:0.96238 6:-1.0533 7:0.96258 8:-1.0294 9:0.88969 10:-0.9636 
1 1:-1.0518 2:-1.0484 3:-1.0591 4:-1.0462 5:-1.039 6:-1.0533 7:-1.0388 8:-1.0294 9:-1.1239 10:-0.9636 
1 1:-1.0518 2:0.9537 3:0.94409 4:-1.0462 5:-1.039 6:-1.0533 7:-1.0388 8:0.97134 9:0.88969 10:-0.9636 
1 1:-1.0518 2:-1.0484 3:-1.0591 4:-1.0462 5:-1.039 6:-1.0533 7:-1.0388 8:-1.0294 9:-1.1239 10:-0.9636 
1 1:-1.0518 2:-1.0484 3:-1.0591 4:-1.0462 5:-1.039 6:-1.0533 7:-1.0388 8:-1.0294 9:-1.1239 10:-0.9636 
1 1:0.95069 2:0.9537 3:-1.0591 4:-1.0462 5:0.96238 6:-1.0533 7:-1.0388 8:0.97134 9:-1.1239 10:-0.9636 
1 1:0.95069 2:0.9537 3:0.94409 4:-1.0462 5:0.96238 6:-1.0533 7:-1.0388 8:-1.0294 9:-1.1239 10:-0.9636 
0.2912337344116681 1:-1.0518 2:0.9537 3:0.94409 4:-1.0462 5:0.96238 6:0.94929 7:0.96258 8:0.97134 9:-1.1239 10:-0.9636 
1 1:0.95069 2:0.9537 3:0.94409 4:-1.0462 5:-1.039 6:-1.0533 7:-1.0388 8:0.97134 9:-1.1239 10:1.0377 
1 1:-1.0518 2:-1.0484 3:-1.0591 4:-1.0462 5:-1.039 6:-1.0533 7:-1.0388 8:-1.0294 9:-1.1239 10:-0.9636 
1 1:0.95069 2:0.9537 3:0.94409 4:-1.0462 5:0.96238 6:0.94929 7:-1.0388 8:-1.0294 9:-1.1239 10:-0.9636 
1 1:-1.0518 2:-1.0484 3:0.94409 4:-1.0462 5:-1.039 6:-1.0533 7:0.96258 8:-1.0294 9:-1.1239 10:-0.9636 
1 1:-1.0518 2:-1.0484 3:-1.0591 4:-1.0462 5:0.96238 6:-1.0533 7:-1.0388 8:-1.0294 9:-1.1239 10:-0.9636 
1 1:-1.0518 2:-1.0484 3:-1.0591 4:-1.0462 5:-1.039 6:-1.0533 7:-1.0388 8:-1.0294 9:-1.1239 10:-0.9636 
1 1:-1.0518 2:-1.0484 3:-1.0591 4:-1.0462 5:-1.039 6:-1.0533 7:-1.0388 8:-1.0294 9:-1.1239 10:-0.9636 
1 1:0.95069 2:-1.0484 3:-1.0591 4:0.95571 5:0.96238 6:0.94929 7:0.96258 8:0.97134 9:-1.1239 10:1.0377 
1 1:-1.0518 2:-1.0484 3:-1.0591 4:-1.0462 5:-1.039 6:0.94929 7:-1.0388 8:-1.0294 9:-1.1239 10:-0.9636 
1 1:-1.0518 2:-1.0484 3:-1.0591 4:-1.0462 5:-1.039 6:-1.0533 7:0.96258 8:-1.0294 9:-1.1239 10:-0.9636 
1 1:-1.0518 2:-1.0484 3:-1.0591 4:-1.0462 5:-1.039 6:-1.0533 7:-1.0388 8:-1.0294 9:0.88969 10:-0.9636 
1 1:-1.0518 2:-1.0484 3:-1.0591 4:-1.0462 5:-1.039 6:-1.0533 7:-1.0388 8:-1.0294 9:-1.1239 10:-0.9636 
1 1:-1.0518 2:-1.0484 3:-1.0591 4:-1.0462 5:-1.039 6:-1.0533 7:-1.0388 8:-1.0294 9:-1.1239 10:-0.9636 
1 1:-1.0518 2:-1.0484 3:0.94409 4:0.95571 5:-1.039 6:-1.0533 7:0.96258 8:-1.0294 9:0.88969 10:-0.9636 
1 1:0.95069 2:-1.0484 3:0.94409 4:-1.0462 5:-1.039 6:-1.0533 7:-1.0388 8:-1.0294 9:-1.1239 10:-0.9636 
1 1:0.95069 2:0.9537 3:-1.0591 4:0.95571 5:-1.039 6:0.94929 7:-1.0388 8:-1.0294 9:-1.1239 10:-0.9636 
0.4347756194388394 1:0.95069 2:0.9537 3:-1.0591 4:0.95571 5:0.96238 6:-1.0533 7:-1.0388 8:0.97134 9:0.88969 10:1.0377 
1 1:-1.0518 2:-1.0484 3:0.94409 4:-1.0462 5:-1.039 6:-1.0533 7:-1.0388 8:-1.0294 9:-1.1239 10:-0.9636 
1 1:0.95069 2:-1.0484 3:0.94409 4:0.95571 5:0.96238 6:-1.0533 7:-1.0388 8:0.97134 9:0.88969 10:1.0377 
1 1:-1.0518 2:0.9537 3:0.94409 4:0.95571 5:-1.039 6:0.94929 7:-1.0388 8:-1.0294 9:0.88969 10:-0.9636 
1 1:0.95069 2:0.9537 3:-1.0591 4:0.95571 5:0.96238 6:-1.0533 7:0.96258 8:0.97134 9:0.88969 10:-0.9636 
1 1:0.95069 2:-1.0484 3:0.94409 4:0.95571 5:-1.039 6:0.94929 7:-1.0388 8:0.97134 9:-1.1239 10:-0.9636 
1 1:0.95069 2:0.9537 3:0.94409 4:0.95571 5:-1.039 6:0.94929 7:-1.0388 8:-1.0294 9:-1.1239 10:-0.9636 
1 1:-1.0518 2:-1.0484 3:-1.0591 4:-1.0462 5:-1.039 6:0.94929 7:-1.0388 8:-1.0294 9:-1.1239 10:-0.9636 
1 1:-1.0518 2:0.9537 3:0.94409 4:0.95571 5:-1.039 6:0.94929 7:-1.0388 8:0.97134 9:0.88969 10:-0.9636 
1 1:-1.0518 2:-1.0484 3:-1.0591 4:0.95571 5:-1.039 6:-1.0533 7:-1.0388 8:-1.0294 9:-1.1239 10:-0.9636 
1 1:-1.0518 2:-1.0484 3:-1.0591 4:-1.0462 5:-1.039 6:-1.0533 7:-1.0388 8:-1.0294 9:-1.1239 10:-0.9636 
1 1:-1.0518 2:-1.0484 3:-1.0591 4:-1.0462 5:-1.039 6:-1.0533 7:-1.0388 8:-1.0294 9:-1.1239 10:-0.9636 
1 1:-1.0518 2:-1.0484 3:-1.0591 4:-1.0462 5:-1.039 6:-1.0533 7:0.96258 8:-1.0294 9:0.88969 10:1.0377 
1 1:0.95069 2:-1.0484 3:-1.0591 4:-1.0462 5:0.96238 6:0.94929 7:0.96258 8:0.97134 9:0.88969 10:1.0377 
1 1:0.95069 2:0.9537 3:-1.0591 4:-1.0462 5:0.96238 6:0.94929 7:0.96258 8:-1.0294 9:0.88969 10:-0.9636 
1 1:0.95069 2:-1.0484 3:-1.0591 4:-1.0462 5:0.96238 6:-1.0533 7:-1.0388 8:-1.0294 9:-1.1239 10:-0.9636 
1 1:-1.0518 2:-1.0484 3:-1.0591 4:-1.0462 5:-1.039 6:-1.0533 7:-1.0388 8:0.97134 9:0.88969 10:-0.9636 
0.1141910911609819 1:0.95069 2:-1.0484 3:-1.0591 4:0.95571 5:0.96238 6:-1.0533 7:0.96258 8:0.97134 9:0.88969 10:1.0377 
1 1:-1.0518 2:-1.0484 3:-1.0591 4:0.95571 5:-1.039 6:-1.0533 7:-1.0388 8:-1.0294 9:0.88969 10:1.0377 
1 1:-1.0518 2:-1.0484 3:-1.0591 4:-1.0462 5:-1.039 6:-1.0533 7:-1.0388 8:-1.0294 9:-1.1239 10:-0.9636 
1 1:-1.0518 2:-1.0484 3:0.94409 4:-1.0462 5:-1.039 6:-1.0533 7:-1.0388 8:-1.0294 9:-1.1239 10:-0.9636 
1 1:-1.0518 2:-1.0484 3:-1.0591 4:0.95571 5:-1.039 6:-1.0533 7:-1.0388 8:-1.0294 9:-1.1239 10:-0.9636 
1 1:0.95069 2:-1.0484 3:-1.0591 4:0.95571 5:-1.039 6:-1.0533 7:0.96258 8:0.97134 9:0.88969 10:1.0377 
1 1:-1.0518 2:-1.0484 3:-1.0591 4:-1.0462 5:-1.039 6:-1.0533 7:-1.0388 8:-1.0294 9:0.88969 10:-0.9636 
1 1:-1.0518 2:-1.0484 3:-1.0591 4:-1.0462 5:-1.039 6:-1.0533 7:-1.0388 8:-1.0294 9:-1.1239 10:-0.9636 
1 1:-1.0518 2:-1.0484 3:0.94409 4:-1.0462 5:-1.039 6:-1.0533 7:0.96258 8:0.97134 9:-1.1239 10:-0.9636 
1 1:-1.0518 2:-1.0484 3:-1.0591 4:-1.0462 5:-1.039 6:0.94929 7:0.96258 8:0.97134 9:0.88969 10:1.0377 
1 1:0.95069 2:-1.0484 3:0.94409 4:-1.0462 5:-1.039 6:-1.0533 7:0.96258 8:0.97134 9:-1.1239 10:-0.9636 
1 1:-1.0518 2:-1.0484 3:-1.0591 4:-1.0462 5:-1.039 6:-1.0533 7:-1.0388 8:-1.0294 9:0.88969 10:-0.9636 
1 1:-1.0518 2:-1.0484 3:-1.0591 4:-1.0462 5:-1.039 6:-1.0533 7:-1.0388 8:-1.0294 9:-1.1239 10:-0.9636 
1 1:-1.0518 2:-1.0484 3:-1.0591 4:-1.0462 5:-1.039 6:-1.0533 7:-1.0388 8:-1.0294 9:-1.1239 10:-0.9636 
1 1:-1.0518 2:-1.0484 3:-1.0591 4:-1.0462 5:0.96238 6:-1.0533 7:0.96258 8:0.97134 9:0.88969 10:1.0377 
1 1:-1.0518 2:-1.0484 3:-1.0591 4:-1.0462 5:-1.039 6:-1.0533 7:-1.0388 8:-1.0294 9:-1.1239 10:-0.9636 
1 1:-1.0518 2:0.9537 3:0.94409 4:0.95571 5:-1.039 6:-1.0533 7:0.96258 8:0.97134 9:-1.1239 10:-0.9636 
1 1:-1.0518 2:0.9537 3:-1.0591 4:0.95571 5:-1.039 6:-1.0533 7:-1.0388 8:-1.0294 9:0.88969 10:-0.9636 
1 1:-1.0518 2:0.9537 3:0.94409 4:-1.0462 5:-1.039 6:-1.0533 7:0.96258 8:-1.0294 9:-1.1239 10:1.0377 
1 1:-1.0518 2:-1.0484 3:-1.0591 4:-1.0462 5:-1.039 6:-1.0533 7:-1.0388 8:-1.0294 9:-1.1239 10:-0.9636 
1 1:-1.0518 2:-1.0484 3:0.94409 4:0.95571 5:0.96238 6:0.94929 7:-1.0388 8:-1.0294 9:-1.1239 10:-0.9636 
1 1:-1.0518 2:-1.0484 3:-1.0591 4:0.95571 5:-1.039 6:-1.0533 7:-1.0388 8:-1.0294 9:-1.1239 10:-0.9636 
1 1:-1.0518 2:-1.0484 3:0.94409 4:0.95571 5:-1.039 6:0.94929 7:0.96258 8:-1.0294 9:0.88969 10:1.0377 
1 1:0.95069 2:0.9537 3:0.94409 4:-1.0462 5:0.96238 6:-1.0533 7:0.96258 8:0.97134 9:-1.1239 10:-0.9636 
1 1:-1.0518 2:0.9537 3:-1.0591 4:-1.0462 5:0.96238 6:-1.0533 7:-1.0388 8:0.97134 9:0.88969 10:-0.9636 
0.1955597338203379 1:0.95069 2:0.9537 3:0.94409 4:0.95571 5:-1.039 6:0.94929 7:0.96258 8:-1.0294 9:-1.1239 10:-0.9636 
1 1:-1.0518 2:-1.0484 3:-1.0591 4:-1.0462 5:-1.039 6:-1.0533 7:-1.0388 8:0.97134 9:0.88969 10:1.0377 
1 1:0.95069 2:0.9537 3:-1.0591 4:0.95571 5:-1.039 6:-1.0533 7:-1.0388 8:-1.0294 9:-1.1239 10:-0.9636 
1 1:-1.0518 2:-1.0484 3:-1.0591 4:-1.0462 5:-1.039 6:-1.0533 7:-1.0388 8:-1.0294 9:-1.1239 10:-0.9636 
1 1:-1.0518 2:0.9537 3:0.94409 4:0.95571 5:-1.039 6:-1.0533 7:0.96258 8:0.97134 9:0.88969 10:-0.9636 
1 1:0.95069 2:-1.0484 3:-1.0591 4:-1.0462 5:0.96238 6:-1.0533 7:0.96258 8:0.97134 9:0.88969 10:1.0377 
1 1:-1.0518 2:0.9537 3:-1.0591 4:0.95571 5:-1.039 6:-1.0533 7:-1.0388 8:-1.0294 9:0.88969 10:-0.9636 
1 1:-1.0518 2:-1.0484 3:-1.0591 4:-1.0462 5:-1.039 6:-1.0533 7:-1.0388 8:-1.0294 9:-1.1239 10:-0.9636 
1 1:0.95069 2:-1.0484 3:0.94409 4:0.95571 5:0.96238 6:-1.0533 7:-1.0388 8:0.97134 9:0.88969 10:1.0377 
1 1:0.95069 2:0.9537 3:-1.0591 4:0.95571 5:-1.039 6:0.94929 7:-1.0388 8:-1.0294 9:-1.1239 10:-0.9636 
1 1:-1.0518 2:-1.0484 3:-1.0591 4:-1.0462 5:-1.039 6:-1.0533 7:-1.0388 8:-1.0294 9:-1.1239 10:-0.9636 
1 1:-1.0518 2:-1.0484 3:0.94409 4:0.95571 5:-1.039 6:0.94929 7:-1.0388 8:0.97134 9:-1.1239 10:-0.9636 
1 1:-1.0518 2:0.9537 3:0.94409 4:0.95571 5:-1.039 6:-1.0533 7:0.96258 8:-1.0294 9:0.88969 10:-0.9636 
1 1:-1.0518 2:-1.0484 3:-1.0591 4:-1.0462 5:-1.039 6:-1.0533 7:-1.0388 8:-1.0294 9:-1.1239 10:-0.9636 
1 1:-1.0518 2:-1.0484 3:0.94409 4:-1.0462 5:-1.039 6:0.94929 7:0.96258 8:-1.0294 9:-1.1239 10:1.0377 
1 1:0.95069 2:0.9537 3:0.94409 4:0.95571 5:-1.039 6:-1.0533 7:-1.0388 8:-1.0294 9:0.88969 10:-0.9636 
0.671160880490926 1:0.95069 2:-1.0484 3:-1.0591 4:0.95571 5:0.96238 6:0.94929 7:-1.0388 8:0.97134 9:0.88969 10:1.0377 
1 1:-1.0518 2:-1.0484 3:-1.0591 4:-1.0462 5:-1.039 6:-1.0533 7:-1.0388 8:-1.0294 9:-1.1239 10:-0.9636 
1 1:0.95069 2:-1.0484 3:-1.0591 4:0.95571 5:0.96238 6:0.94929 7:-1.0388 8:0.97134 9:-1.1239 10:-0.9636 
1 1:-1.0518 2:-1.0484 3:-1.0591 4:-1.0462 5:-1.039 6:-1.0533 7:-1.0388 8:-1.0294 9:-1.1239 10:-0.9636 
1 1:0.95069 2:-1.0484 3:0.94409 4:-1.0462 5:0.96238 6:0.94929 7:0.96258 8:-1.0294 9:0.88969 10:-0.9636 
0.3433971695654527 1:0.95069 2:0.9537 3:-1.0591 4:0.95571 5:-1.039 6:-1.0533 7:0.96258 8:0.97134 9:0.88969 10:1.0377 
1 1:-1.0518 2:-1.0484 3:-1.0591 4:-1.0462 5:-1.039 6:-1.0533 7:-1.0388 8:-1.0294 9:-1.1239 10:-0.9636 
1 1:-1.0518 2:-1.0484 3:-1.0591 4:-1.0462 5:-1.039 6:-1.0533 7:-1.0388 8:-1.0294 9:-1.1239 10:-0.9636 
1 1:-1.0518 2:-1.0484 3:-1.0591 4:-1.0462 5:-1.039 6:-1.0533 7:0.96258 8:-1.0294 9:-1.1239 10:-0.9636 
1 1:-1.0518 2:-1.0484 3:-1.0591 4:-1.0462 5:-1.039 6:-1.0533 7:-1.0388 8:-1.0294 9:-1.1239 10:-0.9636 
0.7605938520483269 1:0.95069 2:0.9537 3:0.94409 4:-1.0462 5:0.96238 6:-1.0533 7:0.96258 8:-1.0294 9:-1.1239 10:-0.9636 
1 1:-1.0518 2:-1.0484 3:0.94409 4:0.95571 5:-1.039 6:0.94929 7:0.96258 8:0.97134 9:0.88969 10:-0.9636 
1 1:-1.0518 2:-1.0484 3:-1.0591 4:-1.0462 5:-1.039 6:-1.0533 7:-1.0388 8:-1.0294 9:-1.1239 10:-0.9636 
1 1:0.95069 2:-1.0484 3:-1.0591 4:-1.0462 5:-1.039 6:0.94929 7:0.96258 8:0.97134 9:0.88969 10:1.0377 
1 1:-1.0518 2:0.9537 3:0.94409 4:0.95571 5:0.96238 6:-1.0533 7:0.96258 8:0.97134 9:-1.1239 10:1.0377 
1 1:-1.0518 2:0.9537 3:0.94409 4:0.95571 5:-1.039 6:-1.0533 7:-1.0388 8:-1.0294 9:-1.1239 10:-0.9636 
1 1:-1.0518 2:-1.0484 3:0.94409 4:0.95571 5:0.96238 6:0.94929 7:0.96258 8:-1.0294 9:-1.1239 10:-0.9636 
1 1:-1.0518 2:0.9537 3:-1.0591 4:-1.0462 5:-1.039 6:0.94929 7:-1.0388 8:-1.0294 9:0.88969 10:-0.9636 
1 1:0.95069 2:-1.0484 3:0.94409 4:0.95571 5:-1.039 6:-1.0533 7:-1.0388 8:0.97134 9:0.88969 10:1.0377 
1 1:-1.0518 2:-1.0484 3:-1.0591 4:-1.0462 5:-1.039 6:-1.0533 7:-1.0388 8:-1.0294 9:-1.1239 10:-0.9636 
1 1:-1.0518 2:-1.0484 3:-1.0591 4:-1.0462 5:-1.039 6:-1.0533 7:-1.0388 8:-1.0294 9:-1.1239 10:-0.9636 
1 1:-1.0518 2:-1.0484 3:0.94409 4:0.95571 5:-1.039 6:-1.0533 7:0.96258 8:0.97134 9:0.88969 10:1.0377 
1 1:-1.0518 2:-1.0484 3:-1.0591 4:0.95571 5:-1.039 6:0.94929 7:-1.0388 8:-1.0294 9:-1.1239 10:-0.9636 
1 1:-1.0518 2:-1.0484 3:-1.0591 4:-1.0462 5:-1.039 6:-1.0533 7:-1.0388 8:-1.0294 9:-1.1239 10:-0.9636 
1 1:-1.0518 2:-1.0484 3:-1.0591 4:-1.0462 5:-1.039 6:-1.0533 7:-1.0388 8:-1.0294 9:-1.1239 10:-0.9636 
1 1:0.95069 2:-1.0484 3:-1.0591 4:0.95571 5:0.96238 6:0.94929 7:-1.0388 8:0.97134 9:0.88969 10:-0.9636 
1 1:-1.0518 2:-1.0484 3:-1.0591 4:-1.0462 5:-1.039 6:-1.0533 7:-1.0388 8:-1.0294 9:-1.1239 10:1.0377 
1 1:-1.0518 2:0.9537 3:-1.0591 4:0.95571 5:0.96238 6:0.94929 7:0.96258 8:-1.0294 9:0.88969 10:-0.9636 
1 1:-1.0518 2:-1.0484 3:-1.0591 4:-1.0462 5:-1.039 6:-1.0533 7:-1.0388 8:-1.0294 9:-1.1239 10:-0.9636 
0.2476551162778755 1:0.95069 2:0.9537 3:0.94409 4:-1.0462 5:0.96238 6:0.94929 7:-1.0388 8:0.97134 9:0.88969 10:-0.9636 
1 1:-1.0518 2:-1.0484 3:-1.0591 4:0.95571 5:0.96238 6:-1.0533 7:0.96258 8:0.97134 9:0.88969 10:1.0377 
1 1:-1.0518 2:-1.0484 3:-1.0591 4:0.95571 5:-1.039 6:-1.0533 7:-1.0388 8:0.97134 9:-1.1239 10:-0.9636 
1 1:-1.0518 2:-1.0484 3:-1.0591 4:-1.0462 5:-1.039 6:-1.0533 7:-1.0388 8:-1.0294 9:-1.1239 10:-0.9636 
1 1:-1.0518 2:-1.0484 3:0.94409 4:0.95571 5:-1.039 6:-1.0533 7:-1.0388 8:-1.0294 9:-1.1239 10:-0.9636 
1 1:-1.0518 2:-1.0484 3:-1.0591 4:-1.0462 5:-1.039 6:-1.0533 7:-1.0388 8:-1.0294 9:-1.1239 10:-0.9636 
1 1:0.95069 2:0.9537 3:-1.0591 4:0.95571 5:-1.039 6:-1.0533 7:0.96258 8:0.97134 9:0.88969 10:1.0377 
1 1:-1.0518 2:0.9537 3:-1.0591 4:-1.0462 5:0.96238 6:0.94929 7:0.96258 8:-1.0294 9:-1.1239 10:-0.9636 
1 1:0.95069 2:-1.0484 3:-1.0591 4:-1.0462 5:-1.039 6:-1.0533 7:-1.0388 8:-1.0294 9:-1.1239 10:-0.9636 
1 1:0.95069 2:-1.0484 3:0.94409 4:0.95571 5:0.96238 6:-1.0533 7:0.96258 8:0.97134 9:-1.1239 10:1.0377 
0.9087467948547308 1:-1.0518 2:0.9537 3:0.94409 4:0.95571 5:0.96238 6:0.94929 7:0.96258 8:-1.0294 9:-1.1239 10:1.0377 
1 1:-1.0518 2:0.9537 3:0.94409 4:0.95571 5:0.96238 6:0.94929 7:-1.0388 8:0.97134 9:0.88969 10:1.0377 
1 1:-1.0518 2:-1.0484 3:0.94409 4:-1.0462 5:0.96238 6:-1.0533 7:-1.0388 8:-1.0294 9:-1.1239 10:-0.9636 
1 1:0.95069 2:-1.0484 3:-1.0591 4:-1.0462 5:0.96238 6:-1.0533 7:0.96258 8:0.97134 9:-1.1239 10:-0.9636 
1 1:-1.0518 2:-1.0484 3:-1.0591 4:-1.0462 5:-1.039 6:-1.0533 7:-1.0388 8:-1.0294 9:-1.1239 10:-0.9636 
1 1:-1.0518 2:-1.0484 3:0.94409 4:-1.0462 5:0.96238 6:-1.0533 7:0.96258 8:-1.0294 9:-1.1239 10:-0.9636 
1 1:-1.0518 2:-1.0484 3:0.94409 4:-1.0462 5:-1.039 6:-1.0533 7:0.96258 8:-1.0294 9:-1.1239 10:1.0377 
1 1:-1.0518 2:-1.0484 3:-1.0591 4:-1.0462 5:-1.039 6:-1.0533 7:-1.0388 8:-1.0294 9:-1.1239 10:-0.9636 
1 1:-1.0518 2:0.9537 3:-1.0591 4:0.95571 5:0.96238 6:-1.0533 7:-1.0388 8:0.97134 9:0.88969 10:-0.9636 
1 1:0.95069 2:-1.0484 3:-1.0591 4:-1.0462 5:0.96238 6:0.94929 7:0.96258 8:0.97134 9:0.88969 10:-0.9636 
1 1:-1.0518 2:0.9537 3:-1.0591 4:0.95571 5:-1.039 6:0.94929 7:0.96258 8:-1.0294 9:-1.1239 10:-0.9636 
1 1:0.95069 2:-1.0484 3:0.94409 4:0.95571 5:-1.039 6:0.94929 7:-1.0388 8:-1.0294 9:-1.1239 10:-0.9636 
1 1:0.95069 2:-1.0484 3:0.94409 4:0.95571 5:-1.039 6:0.94929 7:-1.0388 8:0.97134 9:-1.1239 10:1.0377 
1 1:-1.0518 2:-1.0484 3:-1.0591 4:-1.0462 5:-1.039 6:-1.0533 7:-1.0388 8:-1.0294 9:-1.1239 10:-0.9636 
0.07213921710130528 1:0.95069 2:0.9537 3:-1.0591 4:0.95571 5:0.96238 6:0.94929 7:-1.0388 8:0.97134 9:0.88969 10:-0.9636 
1 1:0.95069 2:0.9537 3:-1.0591 4:0.95571 5:-1.039 6:0.94929 7:-1.0388 8:0.97134 9:0.88969 10:1.0377 
1 1:-1.0518 2:-1.0484 3:0.94409 4:0.95571 5:0.96238 6:-1.0533 7:0.96258 8:0.97134 9:0.88969 10:1.0377 
1 1:0.95069 2:0.9537 3:0.94409 4:-1.0462 5:0.96238 6:0.94929 7:-1.0388 8:0.97134 9:0.88969 10:-0.9636 
1 1:-1.0518 2:-1.0484 3:-1.0591 4:-1.0462 5:-1.039 6:-1.0533 7:-1.0388 8:-1.0294 9:-1.1239 10:-0.9636 
1 1:-1.0518 2:-1.0484 3:-1.0591 4:-1.0462 5:-1.039 6:-1.0533 7:-1.0388 8:-1.0294 9:-1.1239 10:-0.9636 
1 1:-1.0518 2:-1.0484 3:-1.0591 4:-1.0462 5:-1.039 6:-1.0533 7:-1.0388 8:-1.0294 9:-1.1239 10:-0.9636 
1 1:-1.0518 2:-1.0484 3:-1.0591 4:-1.0462 5:-1.039 6:-1.0533 7:-1.0388 8:-1.0294 9:-1.1239 10:-0.9636 
1 1:-1.0518 2:-1.0484 3:0.94409 4:0.95571 5:0.96238 6:-1.0533 7:-1.0388 8:0.97134 9:-1.1239 10:1.0377 
1 1:-1.0518 2:-1.0484 3:-1.0591 4:-1.0462 5:-1.039 6:-1.0533 7:-1.0388 8:-1.0294 9:-1.1239 10:-0.9636 
1 1:0.95069 2:0.9537 3:-1.0591 4:0.95571 5:-1.039 6:0.94929 7:0.96258 8:-1.0294 9:0.88969 10:-0.9636 
1 1:-1.0518 2:-1.0484 3:-1.0591 4:-1.0462 5:-1.039 6:-1.0533 7:-1.0388 8:-1.0294 9:-1.1239 10:-0.9636 
1 1:-1.0518 2:-1.0484 3:-1.0591 4:-1.0462 5:-1.039 6:-1.0533 7:-1.0388 8:-1.0294 9:-1.1239 10:-0.9636 
1 1:-1.0518 2:0.9537 3:-1.0591 4:-1.0462 5:0.96238 6:0.94929 7:0.96258 8:0.97134 9:-1.1239 10:-0.9636 
0.8133163080663359 1:0.95069 2:0.9537 3:-1.0591 4:-1.0462 5:0.96238 6:-1.0533 7:0.96258 8:0.97134 9:0.88969 10:1.0377 
1 1:0.95069 2:-1.0484 3:-1.0591 4:0.95571 5:0.96238 6:0.94929 7:0.96258 8:-1.0294 9:-1.1239 10:-0.9636 
1 1:-1.0518 2:-1.0484 3:-1.0591 4:-1.0462 5:-1.039 6:0.94929 7:-1.0388 8:-1.0294 9:-1.1239 10:-0.9636 
1 1:-1.0518 2:-1.0484 3:-1.0591 4:-1.0462 5:-1.039 6:-1.0533 7:-1.0388 8:-1.0294 9:-1.1239 10:-0.9636 
1 1:0.95069 2:-1.0484 3:0.94409 4:0.95571 5:-1.039 6:0.94929 7:-1.0388 8:-1.0294 9:0.88969 10:-0.9636 
1 1:-1.0518 2:-1.0484 3:-1.0591 4:-1.0462 5:-1.039 6:-1.0533 7:-1.0388 8:-1.0294 9:-1.1239 10:-0.9636 
0.8870026916961866 1:0.95069 2:0.9537 3:-1.0591 4:-1.0462 5:0.96238 6:-1.0533 7:0.96258 8:0.97134 9:0.88969 10:1.0377 
1 1:-1.0518 2:-1.0484 3:-1.0591 4:-1.0462 5:-1.039 6:-1.0533 7:-1.0388 8:-1.0294 9:-1.1239 10:-0.9636 
1 1:0.95069 2:-1.0484 3:-1.0591 4:-1.0462 5:-1.039 6:0.94929 7:-1.0388 8:-1.0294 9:0.88969 10:-0.9636 
1 1:0.95069 2:0.9537 3:-1.0591 4:0.95571 5:0.96238 6:-1.0533 7:-1.0388 8:0.97134 9:0.88969 10:-0.9636 
1 1:-1.0518 2:-1.0484 3:-1.0591 4:-1.0462 5:-1.039 6:-1.0533 7:-1.0388 8:-1.0294 9:-1.1239 10:-0.9636 
1 1:-1.0518 2:-1.0484 3:-1.0591 4:-1.0462 5:-1.039 6:-1.0533 7:-1.0388 8:-1.0294 9:-1.1239 10:-0.9636 
1 1:-1.0518 2:-1.0484 3:-1.0591 4:0.95571 5:-1.039 6:-1.0533 7:-1.0388 8:-1.0294 9:-1.1239 10:-0.9636 
1 1:-1.0518 2:-1.0484 3:0.94409 4:0.95571 5:-1.039 6:0.94929 7:0.96258 8:-1.0294 9:-1.1239 10:-0.9636 
1 1:0.95069 2:-1.0484 3:0.94409 4:-1.0462 5:0.96238 6:-1.0533 7:0.96258 8:0.97134 9:-1.1239 10:1.0377 
1 1:0.95069 2:-1.0484 3:0.94409 4:-1.0462 5:0.96238 6:0.94929 7:0.96258 8:-1.0294 9:-1.1239 10:-0.9636 
1 1:-1.0518 2:-1.0484 3:-1.0591 4:-1.0462 5:-1.039 6:-1.0533 7:-1.0388 8:-1.0294 9:-1.1239 10:1.0377 
1 1:-1.0518 2:-1.0484 3:-1.0591 4:-1.0462 5:-1.039 6:-1.0533 7:-1.0388 8:-1.0294 9:-1.1239 10:-0.9636 
1 1:-1.0518 2:0.9537 3:-1.0591 4:0.95571 5:0.96238 6:-1.0533 7:-1.0388 8:0.97134 9:0.88969 10:-0.9636 
1 1:0.95069 2:0.9537 3:-1.0591 4:-1.0462 5:-1.039 6:-1.0533 7:-1.0388 8:-1.0294 9:-1.1239 10:-0.9636 
1 1:-1.0518 2:-1.0484 3:-1.0591 4:-1.0462 5:-1.039 6:-1.0533 7:-1.0388 8:-1.0294 9:-1.1239 10:1.0377 
1 1:-1.0518 2:-1.0484 3:-1.0591 4:-1.0462 5:-1.039 6:-1.0533 7:-1.0388 8:-1.0294 9:-1.1239 10:-0.9636 
1 1:0.95069 2:-1.0484 3:0.94409 4:-1.0462 5:0.96238 6:0.94929 7:0.96258 8:-1.0294 9:-1.1239 10:-0.9636 
1 1:-1.0518 2:0.9537 3:-1.0591 4:-1.0462 5:-1.039 6:-1.0533 7:-1.0388 8:-1.0294 9:0.88969 10:1.0377 
1 1:-1.0518 2:0.9537 3:0.94409 4:-1.0462 5:0.96238 6:0.94929 7:0.96258 8:-1.0294 9:0.88969 10:1.0377 
1 1:-1.0518 2:-1.0484 3:-1.0591 4:-1.0462 5:-1.039 6:-1.0533 7:0.96258 8:-1.0294 9:-1.1239 10:-0.9636 
0.1219271975633748 1:0.95069 2:0.9537 3:0.94409 4:0.95571 5:0.96238 6:0.94929 7:-1.0388 8:-1.0294 9:0.88969 10:-0.9636 
1 1:-1.0518 2:-1.0484 3:-1.0591 4:-1.0462 5:-1.039 6:-1.0533 7:-1.0388 8:-1.0294 9:-1.1239 10:-0.9636 
1 1:-1.0518 2:-1.0484 3:-1.0591 4:-1.0462 5:-1.039 6:-1.0533 7:-1.0388 8:-1.0294 9:0.88969 10:-0.9636 
1 1:-1.0518 2:-1.0484 3:-1.0591 4:0.95571 5:-1.039 6:-1.0533 7:-1.0388 8:-1.0294 9:-1.1239 10:-0.9636 
1 1:-1.0518 2:-1.0484 3:-1.0591 4:0.95571 5:0.96238 6:-1.0533 7:0.96258 8:0.97134 9:0.88969 10:1.0377 
1 1:0.95069 2:-1.0484 3:-1.0591 4:0.95571 5:0.96238 6:0.94929 7:0.96258 8:0.97134 9:-1.1239 10:-0.9636 
0.4561880681952038 1:0.95069 2:0.9537 3:0.94409 4:0.95571 5:0.96238 6:0.94929 7:-1.0388 8:-1.0294 9:-1.1239 10:-0.9636 
1 1:-1.0518 2:-1.0484 3:-1.0591 4:-1.0462 5:-1.039 6:-1.0533 7:-1.0388 8:-1.0294 9:-1.1239 10:-0.9636 
1 1:-1.0518 2:-1.0484 3:-1.0591 4:0.95571 5:0.96238 6:0.94929 7:0.96258 8:0.97134 9:0.88969 10:1.0377 
1 1:-1.0518 2:-1.0484 3:0.94409 4:0.95571 5:-1.039 6:-1.0533 7:-1.0388 8:0.97134 9:0.88969 10:-0.9636 
1 1:-1.0518 2:-1.0484 3:-1.0591 4:0.95571 5:-1.039 6:-1.0533 7:-1.0388 8:-1.0294 9:-1.1239 10:-0.9636 
1 1:-1.0518 2:-1.0484 3:-1.0591 4:-1.0462 5:-1.039 6:-1.0533 7:0.96258 8:-1.0294 9:0.88969 10:1.0377 
1 1:-1.0518 2:-1.0484 3:-1.0591 4:-1.0462 5:-1.039 6:-1.0533 7:-1.0388 8:-1.0294 9:-1.1239 10:-0.9636 
1 1:-1.0518 2:-1.0484 3:-1.0591 4:-1.0462 5:-1.039 6:-1.0533 7:-1.0388 8:-1.0294 9:-1.1239 10:-0.9636 
1 1:-1.0518 2:-1.0484 3:-1.0591 4:0.95571 5:-1.039 6:-1.0533 7:-1.0388 8:0.97134 9:-1.1239 10:-0.9636 
1 1:-1.0518 2:-1.0484 3:-1.0591 4:-1.0462 5:-1.039 6:-1.0533 7:-1.0388 8:-1.0294 9:-1.1239 10:-0.9636 
1 1:0.95069 2:-1.0484 3:-1.0591 4:-1.0462 5:-1.039 6:-1.0533 7:0.96258 8:0.97134 9:-1.1239 10:1.0377 
1 1:-1.0518 2:-1.0484 3:-1.0591 4:-1.0462 5:-1.039 6:-1.0533 7:0.96258 8:-1.0294 9:-1.1239 10:-0.9636 
1 1:0.95069 2:-1.0484 3:0.94409 4:0.95571 5:0.96238 6:-1.0533 7:-1.0388 8:-1.0294 9:-1.1239 10:-0.9636 
1 1:-1.0518 2:-1.0484 3:-1.0591 4:-1.0462 5:-1.039 6:-1.0533 7:-1.0388 8:-1.0294 9:-1.1239 10:-0.9636 
1 1:-1.0518 2:-1.0484 3:-1.0591 4:-1.0462 5:-1.039 6:-1.0533 7:-1.0388 8:-1.0294 9:-1.1239 10:-0.9636 
1 1:-1.0518 2:-1.0484 3:0.94409 4:-1.0462 5:-1.039 6:-1.0533 7:0.96258 8:-1.0294 9:-1.1239 10:-0.9636 
1 1:0.95069 2:-1.0484 3:0.94409 4:-1.0462 5:0.96238 6:0.94929 7:0.96258 8:0.97134 9:0.88969 10:-0.9636 
1 1:-1.0518 2:-1.0484 3:0.94409 4:-1.0462 5:-1.039 6:-1.0533 7:0.96258 8:-1.0294 9:-1.1239 10:-0.9636 
1 1:-1.0518 2:-1.0484 3:-1.0591 4:0.95571 5:-1.039 6:-1.0533 7:-1.0388 8:-1.0294 9:-1.1239 10:-0.9636 
1 1:0.95069 2:-1.0484 3:0.94409 4:-1.0462 5:0.96238 6:0.94929 7:-1.0388 8:0.97134 9:0.88969 10:1.0377 
1 1:-1.0518 2:-1.0484 3:-1.0591 4:0.95571 5:0.96238 6:-1.0533 7:-1.0388 8:-1.0294 9:-1.1239 10:-0.9636 
1 1:0.95069 2:-1.0484 3:-1.0591 4:-1.0462 5:0.96238 6:-1.0533 7:0.96258 8:0.97134 9:-1.1239 10:-0.9636 
1 1:-1.0518 2:-1.0484 3:-1.0591 4:-1.0462 5:-1.039 6:-1.0533 7:0.96258 8:-1.0294 9:-1.1239 10:-0.9636 
0.7292432729314969 1:-1.0518 2:-1.0484 3:0.94409 4:0.95571 5:-1.039 6:0.94929 7:0.96258 8:0.97134 9:0.88969 10:1.0377 
1 1:-1.0518 2:-1.0484 3:-1.0591 4:-1.0462 5:-1.039 6:-1.0533 7:-1.0388 8:-1.0294 9:-1.1239 10:-0.9636 
1 1:-1.0518 2:-1.0484 3:-1.0591 4:0.95571 5:-1.039 6:-1.0533 7:-1.0388 8:-1.0294 9:-1.1239 10:-0.9636 
1 1:-1.0518 2:-1.0484 3:-1.0591 4:-1.0462 5:-1.039 6:-1.0533 7:-1.0388 8:-1.0294 9:-1.1239 10:-0.9636 
1 1:-1.0518 2:-1.0484 3:0.94409 4:-1.0462 5:0.96238 6:0.94929 7:0.96258 8:0.97134 9:-1.1239 10:1.0377 
1 1:-1.0518 2:-1.0484 3:-1.0591 4:-1.0462 5:-1.039 6:-1.0533 7:-1.0388 8:-1.0294 9:-1.1239 10:-0.9636 
1 1:-1.0518 2:-1.0484 3:0.94409 4:-1.0462 5:-1.039 6:-1.0533 7:-1.0388 8:0.97134 9:-1.1239 10:-0.9636 
1 1:-1.0518 2:-1.0484 3:0.94409 4:-1.0462 5:0.96238 6:-1.0533 7:0.96258 8:-1.0294 9:-1.1239 10:-0.9636 
1 1:0.95069 2:0.9537 3:-1.0591 4:0.95571 5:0.96238 6:0.94929 7:-1.0388 8:-1.0294 9:0.88969 10:1.0377 
1 1:-1.0518 2:-1.0484 3:-1.0591 4:-1.0462 5:-1.039 6:-1.0533 7:-1.0388 8:-1.0294 9:-1.1239 10:-0.9636 
1 1:0.95069 2:-1.0484 3:-1.0591 4:-1.0462 5:-1.039 6:0.94929 7:0.96258 8:-1.0294 9:0.88969 10:-0.9636 
1 1:-1.0518 2:-1.0484 3:-1.0591 4:-1.0462 5:-1.039 6:-1.0533 7:-1.0388 8:-1.0294 9:-1.1239 10:-0.9636 
1 1:-1.0518 2:-1.0484 3:-1.0591 4:-1.0462 5:-1.039 6:-1.0533 7:-1.0388 8:-1.0294 9:-1.1239 10:-0.9636 
1 1:-1.0518 2:-1.0484 3:-1.0591 4:-1.0462 5:-1.039 6:-1.0533 7:-1.0388 8:-1.0294 9:-1.1239 10:-0.9636 
1 1:-1.0518 2:-1.0484 3:-1.0591 4:-1.0462 5:-1.039 6:-1.0533 7:-1.0388 8:-1.0294 9:-1.1239 10:-0.9636 
1 1:0.95069 2:-1.0484 3:-1.0591 4:-1.0462 5:-1.039 6:-1.0533 7:-1.0388 8:-1.0294 9:0.88969 10:-0.9636 
1 1:-1.0518 2:-1.0484 3:-1.0591 4:0.95571 5:-1.039 6:-1.0533 7:-1.0388 8:-1.0294 9:-1.1239 10:-0.9636 
1 1:0.95069 2:-1.0484 3:0.94409 4:0.95571 5:0.96238 6:0.94929 7:0.96258 8:-1.0294 9:0.88969 10:-0.9636 
1 1:-1.0518 2:-1.0484 3:-1.0591 4:-1.0462 5:-1.039 6:-1.0533 7:-1.0388 8:-1.0294 9:-1.1239 10:-0.9636 
1 1:0.95069 2:-1.0484 3:-1.0591 4:-1.0462 5:-1.039 6:0.94929 7:0.96258 8:-1.0294 9:0.88969 10:-0.9636 
1 1:-1.0518 2:-1.0484 3:-1.0591 4:-1.0462 5:-1.039 6:-1.0533 7:-1.0388 8:-1.0294 9:-1.1239 10:-0.9636 
1 1:-1.0518 2:-1.0484 3:-1.0591 4:-1.0462 5:-1.039 6:-1.0533 7:0.96258 8:0.97134 9:0.88969 10:1.0377 
1 1:-1.0518 2:-1.0484 3:-1.0591 4:0.95571 5:-1.039 6:-1.0533 7:-1.0388 8:-1.0294 9:-1.1239 10:-0.9636 
1 1:-1.0518 2:-1.0484 3:0.94409 4:-1.0462 5:0.96238 6:-1.0533 7:0.96258 8:-1.0294 9:-1.1239 10:-0.9636 
1 1:-1.0518 2:-1.0484 3:-1.0591 4:-1.0462 5:0.96238 6:-1.0533 7:-1.0388 8:-1.0294 9:-1.1239 10:-0.9636 
1 1:-1.0518 2:-1.0484 3:-1.0591 4:0.95571 5:-1.039 6:-1.0533 7:-1.0388 8:-1.0294 9:-1.1239 10:-0.9636 
0.1407542289778879 1:0.95069 2:0.9537 3:-1.0591 4:-1.0462 5:0.96238 6:0.94929 7:0.96258 8:-1.0294 9:0.88969 10:1.0377 
0.15882508175934 1:0.95069 2:0.9537 3:-1.0591 4:0.95571 5:0.96238 6:0.94929 7:0.96258 8:0.97134 9:-1.1239 10:1.0377 
1 1:-1.0518 2:-1.0484 3:-1.0591 4:-1.0462 5:-1.039 6:0.94929 7:-1.0388 8:-1.0294 9:-1.1239 10:-0.9636 
1 1:-1.0518 2:-1.0484 3:-1.0591 4:-1.0462 5:-1.039 6:-1.0533 7:-1.0388 8:-1.0294 9:-1.1239 10:-0.9636 
1 1:-1.0518 2:-1.0484 3:-1.0591 4:-1.0462 5:-1.039 6:-1.0533 7:-1.0388 8:-1.0294 9:-1.1239 10:-0.9636 
1 1:-1.0518 2:-1.0484 3:-1.0591 4:-1.0462 5:-1.039 6:-1.0533 7:-1.0388 8:-1.0294 9:-1.1239 10:-0.9636 
0.9941056568423391 1:0.95069 2:0.9537 3:0.94409 4:-1.0462 5:0.96238 6:0.94929 7:-1.0388 8:0.97134 9:0.88969 10:-0.9636 
1 1:-1.0518 2:-1.0484 3:-1.0591 4:-1.0462 5:-1.039 6:-1.0533 7:-1.0388 8:-1.0294 9:-1.1239 10:1.0377 
1 1:0.95069 2:0.9537 3:0.94409 4:-1.0462 5:-1.039 6:-1.0533 7:0.96258 8:-1.0294 9:-1.1239 10:-0.9636 
1 1:0.95069 2:-1.0484 3:0.94409 4:-1.0462 5:0.96238 6:-1.0533 7:0.96258 8:-1.0294 9:-1.1239 10:-0.9636 
1 1:-1.0518 2:-1.0484 3:-1.0591 4:-1.0462 5:-1.039 6:-1.0533 7:-1.0388 8:-1.0294 9:-1.1239 10:-0.9636 
1 1:-1.0518 2:-1.0484 3:-1.0591 4:-1.0462 5:-1.039 6:-1.0533 7:-1.0388 8:-1.0294 9:-1.1239 10:-0.9636 
1 1:-1.0518 2:-1.0484 3:0.94409 4:0.95571 5:-1.039 6:-1.0533 7:0.96258 8:0.97134 9:0.88969 10:1.0377 
1 1:-1.0518 2:-1.0484 3:-1.0591 4:-1.0462 5:-1.039 6:-1.0533 7:0.96258 8:-1.0294 9:-1.1239 10:-0.9636 
1 1:-1.0518 2:-1.0484 3:-1.0591 4:-1.0462 5:-1.039 6:-1.0533 7:-1.0388 8:0.97134 9:-1.1239 10:-0.9636 
1 1:0.95069 2:-1.0484 3:-1.0591 4:0.95571 5:0.96238 6:0.94929 7:0.96258 8:-1.0294 9:-1.1239 10:-0.9636 
1 1:-1.0518 2:-1.0484 3:-1.0591 4:-1.0462 5:-1.039 6:-1.0533 7:-1.0388 8:-1.0294 9:-1.1239 10:-0.9636 
1 1:-1.0518 2:-1.0484 3:-1.0591 4:-1.0462 5:-1.039 6:-1.0533 7:-1.0388 8:-1.0294 9:-1.1239 10:-0.9636 
1 1:-1.0518 2:-1.0484 3:-1.0591 4:-1.0462 5:-1.039 6:-1.0533 7:-1.0388 8:-1.0294 9:-1.1239 10:-0.9636 
1 1:-1.0518 2:-1.0484 3:-1.0591 4:-1.0462 5:-1.039 6:-1.0533 7:-1.0388 8:-1.0294 9:-1.1239 10:-0.9636 
1 1:-1.0518 2:-1.0484 3:-1.0591 4:-1.0462 5:-1.039 6:-1.0533 7:-1.0388 8:-1.0294 9:-1.1239 10:-0.9636 
1 1:-1.0518 2:-1.0484 3:-1.0591 4:-1.0462 5:0.96238 6:-1.0533 7:0.96258 8:-1.0294 9:0.88969 10:1.0377 
1 1:0.95069 2:0.9537 3:0.94409 4:0.95571 5:-1.039 6:-1.0533 7:0.96258 8:0.97134 9:0.88969 10:-0.9636 
1 1:0.95069 2:-1.0484 3:0.94409 4:-1.0462 5:-1.039 6:-1.0533 7:-1.0388 8:0.97134 9:0.88969 10:-0.9636 
1 1:-1.0518 2:-1.0484 3:-1.0591 4:-1.0462 5:-1.039 6:-1.0533 7:-1.0388 8:-1.0294 9:-1.1239 10:-0.9636 
1 1:0.95069 2:0.9537 3:0.94409 4:0.95571 5:0.96238 6:0.94929 7:-1.0388 8:-1.0294 9:-1.1239 10:-0.9636 
1 1:0.95069 2:-1.0484 3:0.94409 4:-1.0462 5:-1.039 6:-1.0533 7:0.96258 8:-1.0294 9:0.88969 10:-0.9636 
1 1:0.95069 2:-1.0484 3:0.94409 4:-1.0462 5:-1.039 6:0.94929 7:-1.0388 8:-1.0294 9:-1.1239 10:-0.9636 
1 1:-1.0518 2:-1.0484 3:-1.0591 4:-1.0462 5:0.96238 6:-1.0533 7:0.96258 8:-1.0294 9:-1.1239 10:-0.9636 
1 1:-1.0518 2:-1.0484 3:0.94409 4:0.95571 5:0.96238 6:0.94929 7:-1.0388 8:0.97134 9:-1.1239 10:-0.9636 
1 1:-1.0518 2:0.9537 3:-1.0591 4:-1.0462 5:-1.039 6:0.94929 7:0.96258 8:0.97134 9:-1.1239 10:-0.9636 
1 1:0.95069 2:0.9537 3:0.94409 4:-1.0462 5:-1.039 6:-1.0533 7:-1.0388 8:-1.0294 9:0.88969 10:-0.9636 
1 1:-1.0518 2:0.9537 3:-1.0591 4:-1.0462 5:0.96238 6:-1.0533 7:-1.0388 8:-1.0294 9:-1.1239 10:-0.9636 
1 1:-1.0518 2:-1.0484 3:-1.0591 4:-1.0462 5:-1.039 6:-1.0533 7:-1.0388 8:-1.0294 9:-1.1239 10:-0.9636 
1 1:-1.0518 2:-1.0484 3:-1.0591 4:-1.0462 5:-1.039 6:-1.0533 7:-1.0388 8:-1.0294 9:-1.1239 10:-0.9636 
1 1:-1.0518 2:-1.0484 3:-1.0591 4:0.95571 5:-1.039 6:-1.0533 7:-1.0388 8:-1.0294 9:-1.1239 10:-0.9636 
1 1:0.95069 2:0.9537 3:0.94409 4:-1.0462 5:-1.039 6:0.94929 7:0.96258 8:-1.0294 9:-1.1239 10:1.0377 
1 1:-1.0518 2:-1.0484 3:0.94409 4:0.95571 5:-1.039 6:-1.0533 7:0.96258 8:0.97134 9:0.88969 10:-0.9636 
1 1:-1.0518 2:-1.0484 3:-1.0591 4:-1.0462 5:-1.039 6:-1.0533 7:0.96258 8:-1.0294 9:-1.1239 10:-0.9636 
1 1:0.95069 2:0.9537 3:-1.0591 4:-1.0462 5:0.96238 6:-1.0533 7:-1.0388 8:0.97134 9:0.88969 10:-0.9636 
1 1:-1.0518 2:-1.0484 3:-1.0591 4:-1.0462 5:-1.039 6:-1.0533 7:-1.0388 8:-1.0294 9:-1.1239 10:-0.9636 
1 1:-1.0518 2:-1.0484 3:-1.0591 4:-1.0462 5:-1.039 6:-1.0533 7:-1.0388 8:-1.0294 9:-1.1239 10:-0.9636 
1 1:-1.0518 2:-1.0484 3:-1.0591 4:-1.0462 5:-1.039 6:-1.0533 7:-1.0388 8:-1.0294 9:-1.1239 10:-0.9636 
1 1:-1.0518 2:-1.0484 3:-1.0591 4:-1.0462 5:-1.039 6:-1.0533 7:-1.0388 8:0.97134 9:-1.1239 10:-0.9636 
1 1:-1.0518 2:-1.0484 3:-1.0591 4:-1.0462 5:-1.039 6:-1.0533 7:-1.0388 8:-1.0294 9:-1.1239 10:-0.9636 
1 1:0.95069 2:-1.0484 3:-1.0591 4:-1.0462 5:-1.039 6:-1.0533 7:-1.0388 8:-1.0294 9:-1.1239 10:-0.9636 
1 1:0.95069 2:0.9537 3:-1.0591 4:0.95571 5:0.96238 6:-1.0533 7:-1.0388 8:-1.0294 9:-1.1239 10:-0.9636 
1 1:-1.0518 2:0.9537 3:-1.0591 4:0.95571 5:0.96238 6:0.94929 7:0.96258 8:0.97134 9:-1.1239 10:-0.9636 
1 1:-1.0518 2:0.9537 3:-1.0591 4:-1.0462 5:0.96238 6:-1.0533 7:-1.0388 8:-1.0294 9:-1.1239 10:-0.9636 
1 1:-1.0518 2:0.9537 3:0.94409 4:-1.0462 5:0.96238 6:-1.0533 7:0.96258 8:-1.0294 9:-1.1239 10:-0.9636 
1 1:-1.0518 2:-1.0484 3:-1.0591 4:-1.0462 5:-1.039 6:-1.0533 7:-1.0388 8:-1.0294 9:-1.1239 10:-0.9636 
1 1:-1.0518 2:-1.0484 3:-1.0591 4:-1.0462 5:-1.039 6:-1.0533 7:-1.0388 8:-1.0294 9:-1.1239 10:-0.9636 
1 1:-1.0518 2:-1.0484 3:-1.0591 4:-1.0462 5:-1.039 6:-1.0533 7:0.96258 8:-1.0294 9:-1.1239 10:-0.9636 
1 1:0.95069 2:0.9537 3:0.94409 4:-1.0462 5:-1.039 6:0.94929 7:0.96258 8:-1.0294 9:0.88969 10:-0.9636 
1 1:0.95069 2:0.9537 3:0.94409 4:-1.0462 5:0.96238 6:-1.0533 7:-1.0388 8:0.97134 9:0.88969 10:1.0377 
1 1:-1.0518 2:-1.0484 3:-1.0591 4:0.95571 5:-1.039 6:0.94929 7:-1.0388 8:-1.0294 9:-1.1239 10:-0.9636 
1 1:-1.0518 2:-1.0484 3:-1.0591 4:-1.0462 5:-1.039 6:-1.0533 7:-1.0388 8:-1.0294 9:-1.1239 10:-0.9636 
1 1:-1.0518 2:-1.0484 3:-1.0591 4:-1.0462 5:0.96238 6:0.94929 7:-1.0388 8:0.97134 9:0.88969 10:-0.9636 
1 1:0.95069 2:0.9537 3:-1.0591 4:0.95571 5:0.96238 6:-1.0533 7:0.96258 8:0.97134 9:0.88969 10:-0.9636 
1 1:0.95069 2:0.9537 3:-1.0591 4:-1.0462 5:-1.039 6:-1.0533 7:-1.0388 8:-1.0294 9:-1.1239 10:-0.9636 
1 1:-1.0518 2:-1.0484 3:-1.0591 4:-1.0462 5:-1.039 6:-1.0533 7:-1.0388 8:-1.0294 9:-1.1239 10:-0.9636 
1 1:-1.0518 2:-1.0484 3:-1.0591 4:-1.0462 5:-1.039 6:-1.0533 7:-1.0388 8:-1.0294 9:-1.1239 10:-0.9636 
1 1:0.95069 2:0.9537 3:-1.0591 4:0.95571 5:-1.039 6:0.94929 7:-1.0388 8:0.97134 9:0.88969 10:-0.9636 
1 1:-1.0518 2:-1.0484 3:-1.0591 4:-1.0462 5:-1.039 6:-1.0533 7:-1.0388 8:-1.0294 9:-1.1239 10:-0.9636 
1 1:-1.0518 2:-1.0484 3:-1.0591 4:-1.0462 5:-1.039 6:-1.0533 7:-1.0388 8:-1.0294 9:-1.1239 10:-0.9636 
1 1:-1.0518 2:0.9537 3:-1.0591 4:-1.0462 5:0.96238 6:-1.0533 7:-1.0388 8:-1.0294 9:0.88969 10:-0.9636 
1 1:-1.0518 2:-1.0484 3:-1.0591 4:-1.0462 5:-1.039 6:-1.0533 7:-1.0388 8:-1.0294 9:0.88969 10:-0.9636 
1 1:-1.0518 2:-1.0484 3:0.94409 4:0.95571 5:-1.039 6:-1.0533 7:0.96258 8:-1.0294 9:-1.1239 10:-0.9636 
1 1:0.95069 2:-1.0484 3:-1.0591 4:0.95571 5:0.96238 6:-1.0533 7:-1.0388 8:0.97134 9:-1.1239 10:-0.9636 
1 1:-1.0518 2:-1.0484 3:-1.0591 4:-1.0462 5:-1.039 6:-1.0533 7:0.96258 8:-1.0294 9:-1.1239 10:1.0377 
1 1:-1.0518 2:0.9537 3:0.94409 4:0.95571 5:-1.039 6:-1.0533 7:-1.0388 8:-1.0294 9:-1.1239 10:-0.9636 
1 1:-1.0518 2:0.9537 3:-1.0591 4:0.95571 5:0.96238 6:0.94929 7:0.96258 8:-1.0294 9:-1.1239 10:-0.9636 
1 1:0.95069 2:-1.0484 3:0.94409 4:-1.0462 5:0.96238 6:-1.0533 7:-1.0388 8:-1.0294 9:-1.1239 10:-0.9636 
1 1:-1.0518 2:-1.0484 3:-1.0591 4:-1.0462 5:-1.039 6:-1.0533 7:-1.0388 8:-1.0294 9:-1.1239 10:-0.9636 
1 1:0.95069 2:0.9537 3:0.94409 4:-1.0462 5:-1.039 6:0.94929 7:0.96258 8:0.97134 9:-1.1239 10:-0.9636 
1 1:-1.0518 2:-1.0484 3:0.94409 4:-1.0462 5:-1.039 6:-1.0533 7:0.96258 8:-1.0294 9:-1.1239 10:-0.9636 
1 1:-1.0518 2:-1.0484 3:-1.0591 4:-1.0462 5:-1.039 6:-1.0533 7:-1.0388 8:-1.0294 9:-1.1239 10:-0.9636 
1 1:-1.0518 2:-1.0484 3:-1.0591 4:-1.0462 5:-1.039 6:-1.0533 7:-1.0388 8:-1.0294 9:-1.1239 10:-0.9636 
1 1:-1.0518 2:-1.0484 3:-1.0591 4:-1.0462 5:0.96238 6:-1.0533 7:-1.0388 8:-1.0294 9:-1.1239 10:-0.9636 
1 1:0.95069 2:-1.0484 3:-1.0591 4:0.95571 5:-1.039 6:0.94929 7:-1.0388 8:-1.0294 9:-1.1239 10:-0.9636 
1 1:-1.0518 2:-1.0484 3:-1.0591 4:-1.0462 5:-1.039 6:-1.0533 7:-1.0388 8:-1.0294 9:-1.1239 10:-0.9636 
1 1:-1.0518 2:-1.0484 3:-1.0591 4:-1.0462 5:-1.039 6:-1.0533 7:-1.0388 8:-1.0294 9:-1.1239 10:-0.9636 
1 1:0.95069 2:0.9537 3:0.94409 4:-1.0462 5:0.96238 6:-1.0533 7:0.96258 8:-1.0294 9:0.88969 10:-0.9636 
1 1:-1.0518 2:-1.0484 3:-1.0591 4:-1.0462 5:0.96238 6:-1.0533 7:-1.0388 8:-1.0294 9:-1.1239 10:-0.9636 
1 1:0.95069 2:-1.0484 3:-1.0591 4:-1.0462 5:0.96238 6:0.94929 7:-1.0388 8:-1.0294 9:-1.1239 10:-0.9636 
1 1:-1.0518 2:0.9537 3:-1.0591 4:0.95571 5:-1.039 6:0.94929 7:0.96258 8:0.97134 9:0.88969 10:1.0377 
1 1:0.95069 2:0.9537 3:-1.0591 4:0.95571 5:0.96238 6:-1.0533 7:-1.0388 8:0.97134 9:-1.1239 10:-0.9636 
1 1:-1.0518 2:-1.0484 3:-1.0591 4:-1.0462 5:-1.039 6:-1.0533 7:-1.0388 8:-1.0294 9:-1.1239 10:-0.9636 
1 1:-1.0518 2:-1.0484 3:0.94409 4:-1.0462 5:-1.039 6:-1.0533 7:-1.0388 8:-1.0294 9:-1.1239 10:-0.9636 
1 1:-1.0518 2:-1.0484 3:-1.0591 4:-1.0462 5:-1.039 6:-1.0533 7:0.96258 8:-1.0294 9:0.88969 10:-0.9636 
1 1:0.95069 2:-1.0484 3:0.94409 4:0.95571 5:0.96238 6:-1.0533 7:0.96258 8:0.97134 9:-1.1239 10:-0.9636 
1 1:-1.0518 2:-1.0484 3:0.94409 4:-1.0462 5:-1.039 6:-1.0533 7:-1.0388 8:0.97134 9:-1.1239 10:-0.9636 
1 1:-1.0518 2:-1.0484 3:-1.0591 4:0.95571 5:-1.039 6:-1.0533 7:-1.0388 8:-1.0294 9:-1.1239 10:-0.9636 
1 1:0.95069 2:-1.0484 3:0.94409 4:0.95571 5:0.96238 6:-1.0533 7:-1.0388 8:0.97134 9:0.88969 10:-0.9636 
1 1:-1.0518 2:-1.0484 3:-1.0591 4:-1.0462 5:-1.039 6:-1.0533 7:-1.0388 8:-1.0294 9:-1.1239 10:-0.9636 
1 1:-1.0518 2:-1.0484 3:-1.0591 4:-1.0462 5:-1.039 6:-1.0533 7:-1.0388 8:-1.0294 9:-1.1239 10:-0.9636 
1 1:-1.0518 2:-1.0484 3:-1.0591 4:-1.0462 5:-1.039 6:-1.0533 7:-1.0388 8:-1.0294 9:-1.1239 10:-0.9636 
1 1:-1.0518 2:-1.0484 3:0.94409 4:-1.0462 5:-1.039 6:-1.0533 7:0.96258 8:-1.0294 9:-1.1239 10:-0.9636 
1 1:0.95069 2:0.9537 3:-1.0591 4:0.95571 5:-1.039 6:0.94929 7:-1.0388 8:0.97134 9:0.88969 10:1.0377 
1 1:-1.0518 2:0.9537 3:-1.0591 4:0.95571 5:0.96238 6:-1.0533 7:0.96258 8:-1.0294 9:-1.1239 10:-0.9636 
1 1:0.95069 2:-1.0484 3:-1.0591 4:0.95571 5:0.96238 6:0.94929 7:0.96258 8:-1.0294 9:-1.1239 10:1.0377 
1 1:-1.0518 2:-1.0484 3:-1.0591 4:-1.0462 5:-1.039 6:-1.0533 7:-1.0388 8:-1.0294 9:-1.1239 10:-0.9636 
1 1:-1.0518 2:-1.0484 3:-1.0591 4:-1.0462 5:-1.039 6:-1.0533 7:-1.0388 8:-1.0294 9:-1.1239 10:-0.9636 
1 1:-1.0518 2:0.9537 3:0.94409 4:-1.0462 5:0.96238 6:0.94929 7:0.96258 8:0.97134 9:-1.1239 10:-0.9636 
1 1:-1.0518 2:-1.0484 3:-1.0591 4:-1.0462 5:0.96238 6:-1.0533 7:-1.0388 8:-1.0294 9:-1.1239 10:-0.9636 
1 1:-1.0518 2:-1.0484 3:-1.0591 4:-1.0462 5:-1.039 6:-1.0533 7:-1.0388 8:-1.0294 9:-1.1239 10:-0.9636 
1 1:-1.0518 2:-1.0484 3:-1.0591 4:-1.0462 5:0.96238 6:-1.0533 7:-1.0388 8:-1.0294 9:-1.1239 10:-0.9636 
1 1:-1.0518 2:-1.0484 3:-1.0591 4:-1.0462 5:-1.039 6:-1.0533 7:-1.0388 8:-1.0294 9:-1.1239 10:-0.9636 
1 1:-1.0518 2:-1.0484 3:-1.0591 4:-1.0462 5:-1.039 6:-1.0533 7:-1.0388 8:-1.0294 9:0.88969 10:-0.9636 
1 1:0.95069 2:0.9537 3:0.94409 4:-1.0462 5:-1.039 6:0.94929 7:-1.0388 8:-1.0294 9:-1.1239 10:-0.9636 
1 1:-1.0518 2:-1.0484 3:-1.0591 4:-1.0462 5:-1.039 6:-1.0533 7:-1.0388 8:0.97134 9:-1.1239 10:-0.9636 
1 1:-1.0518 2:-1.0484 3:-1.0591 4:-1.0462 5:-1.039 6:-1.0533 7:-1.0388 8:-1.0294 9:-1.1239 10:-0.9636 
1 1:0.95069 2:0.9537 3:-1.0591 4:-1.0462 5:-1.039 6:0.94929 7:-1.0388 8:-1.0294 9:0.88969 10:-0.9636 
1 1:-1.0518 2:-1.0484 3:-1.0591 4:-1.0462 5:-1.039 6:-1.0533 7:-1.0388 8:-1.0294 9:-1.1239 10:-0.9636 
1 1:0.95069 2:-1.0484 3:0.94409 4:0.95571 5:-1.039 6:0.94929 7:-1.0388 8:-1.0294 9:-1.1239 10:-0.9636 
1 1:-1.0518 2:0.9537 3:-1.0591 4:0.95571 5:0.96238 6:0.94929 7:0.96258 8:0.97134 9:0.88969 10:-0.9636 
1 1:-1.0518 2:-1.0484 3:-1.0591 4:-1.0462 5:-1.039 6:-1.0533 7:-1.0388 8:-1.0294 9:-1.1239 10:-0.9636 
1 1:-1.0518 2:-1.0484 3:-1.0591 4:-1.0462 5:-1.039 6:-1.0533 7:-1.0388 8:-1.0294 9:-1.1239 10:-0.9636 
1 1:-1.0518 2:-1.0484 3:-1.0591 4:-1.0462 5:-1.039 6:-1.0533 7:-1.0388 8:-1.0294 9:-1.1239 10:-0.9636 
1 1:0.95069 2:-1.0484 3:0.94409 4:-1.0462 5:-1.039 6:0.94929 7:-1.0388 8:-1.0294 9:-1.1239 10:-0.9636 
1 1:-1.0518 2:-1.0484 3:-1.0591 4:0.95571 5:0.96238 6:-1.0533 7:-1.0388 8:0.97134 9:0.88969 10:-0.9636 
1 1:-1.0518 2:-1.0484 3:-1.0591 4:-1.0462 5:-1.039 6:-1.0533 7:0.96258 8:-1.0294 9:-1.1239 10:1.0377 
1 1:-1.0518 2:-1.0484 3:-1.0591 4:-1.0462 5:-1.039 6:-1.0533 7:-1.0388 8:-1.0294 9:0.88969 10:1.0377 
1 1:-1.0518 2:-1.0484 3:-1.0591 4:-1.0462 5:0.96238 6:0.94929 7:-1.0388 8:0.97134 9:-1.1239 10:1.0377 
1 1:-1.0518 2:-1.0484 3:-1.0591 4:-1.0462 5:-1.039 6:-1.0533 7:-1.0388 8:-1.0294 9:-1.1239 10:1.0377 
1 1:-1.0518 2:-1.0484 3:-1.0591 4:0.95571 5:-1.039 6:-1.0533 7:-1.0388 8:-1.0294 9:-1.1239 10:-0.9636 
1 1:-1.0518 2:-1.0484 3:-1.0591 4:-1.0462 5:-1.039 6:-1.0533 7:-1.0388 8:-1.0294 9:-1.1239 10:-0.9636 
1 1:-1.0518 2:-1.0484 3:-1.0591 4:-1.0462 5:-1.039 6:-1.0533 7:-1.0388 8:-1.0294 9:-1.1239 10:-0.9636 
1 1:-1.0518 2:-1.0484 3:-1.0591 4:-1.0462 5:-1.039 6:-1.0533 7:-1.0388 8:-1.0294 9:-1.1239 10:-0.9636 
1 1:-1.0518 2:-1.0484 3:-1.0591 4:-1.0462 5:-1.039 6:-1.0533 7:-1.0388 8:0.97134 9:-1.1239 10:-0.9636 
1 1:-1.0518 2:-1.0484 3:0.94409 4:-1.0462 5:-1.039 6:-1.0533 7:0.96258 8:-1.0294 9:-1.1239 10:-0.9636 
1 1:-1.0518 2:-1.0484 3:-1.0591 4:-1.0462 5:-1.039 6:-1.0533 7:-1.0388 8:-1.0294 9:-1.1239 10:-0.9636 
1 1:-1.0518 2:-1.0484 3:-1.0591 4:-1.0462 5:-1.039 6:-1.0533 7:-1.0388 8:-1.0294 9:-1.1239 10:-0.9636 
1 1:-1.0518 2:-1.0484 3:-1.0591 4:-1.0462 5:-1.039 6:-1.0533 7:-1.0388 8:0.97134 9:0.88969 10:-0.9636 
1 1:-1.0518 2:-1.0484 3:-1.0591 4:-1.0462 5:-1.039 6:-1.0533 7:-1.0388 8:-1.0294 9:-1.1239 10:-0.9636 
1 1:-1.0518 2:-1.0484 3:0.94409 4:0.95571 5:-1.039 6:-1.0533 7:-1.0388 8:-1.0294 9:-1.1239 10:-0.9636 
1 1:-1.0518 2:-1.0484 3:-1.0591 4:-1.0462 5:-1.039 6:-1.0533 7:-1.0388 8:-1.0294 9:-1.1239 10:-0.9636 
0.8887725923963504 1:0.95069 2:0.9537 3:-1.0591 4:-1.0462 5:0.96238 6:0.94929 7:0.96258 8:-1.0294 9:0.88969 10:1.0377 
1 1:-1.0518 2:-1.0484 3:-1.0591 4:-1.0462 5:-1.039 6:-1.0533 7:-1.0388 8:-1.0294 9:-1.1239 10:-0.9636 
1 1:-1.0518 2:-1.0484 3:-1.0591 4:0.95571 5:-1.039 6:-1.0533 7:-1.0388 8:-1.0294 9:-1.1239 10:-0.9636 
1 1:-1.0518 2:-1.0484 3:-1.0591 4:-1.0462 5:-1.039 6:-1.0533 7:-1.0388 8:-1.0294 9:-1.1239 10:-0.9636 
1 1:-1.0518 2:-1.0484 3:-1.0591 4:-1.0462 5:-1.039 6:-1.0533 7:-1.0388 8:-1.0294 9:-1.1239 10:-0.9636 
1 1:-1.0518 2:-1.0484 3:-1.0591 4:-1.0462 5:-1.039 6:-1.0533 7:-1.0388 8:-1.0294 9:-1.1239 10:-0.9636 
1 1:-1.0518 2:0.9537 3:-1.0591 4:0.95571 5:-1.039 6:-1.0533 7:0.96258 8:0.97134 9:-1.1239 10:-0.9636 
1 1:-1.0518 2:-1.0484 3:-1.0591 4:-1.0462 5:-1.039 6:-1.0533 7:-1.0388 8:-1.0294 9:-1.1239 10:-0.9636 
1 1:-1.0518 2:0.9537 3:-1.0591 4:-1.0462 5:-1.039 6:0.94929 7:0.96258 8:-1.0294 9:0.88969 10:1.0377 
1 1:-1.0518 2:-1.0484 3:-1.0591 4:-1.0462 5:-1.039 6:-1.0533 7:0.96258 8:0.97134 9:0.88969 10:1.0377 
1 1:-1.0518 2:0.9537 3:-1.0591 4:-1.0462 5:-1.039 6:0.94929 7:0.96258 8:-1.0294 9:0.88969 10:-0.9636 
1 1:-1.0518 2:0.9537 3:-1.0591 4:-1.0462 5:0.96238 6:0.94929 7:-1.0388 8:-1.0294 9:-1.1239 10:-0.9636 
1 1:0.95069 2:-1.0484 3:-1.0591 4:-1.0462 5:-1.039 6:-1.0533 7:-1.0388 8:-1.0294 9:-1.1239 10:-0.9636 
1 1:-1.0518 2:-1.0484 3:-1.0591 4:-1.0462 5:-1.039 6:-1.0533 7:-1.0388 8:-1.0294 9:-1.1239 10:-0.9636 
1 1:-1.0518 2:-1.0484 3:-1.0591 4:-1.0462 5:-1.039 6:-1.0533 7:-1.0388 8:-1.0294 9:-1.1239 10:-0.9636 
1 1:-1.0518 2:-1.0484 3:-1.0591 4:-1.0462 5:-1.039 6:-1.0533 7:-1.0388 8:-1.0294 9:-1.1239 10:-0.9636 
1 1:-1.0518 2:-1.0484 3:-1.0591 4:0.95571 5:-1.039 6:-1.0533 7:-1.0388 8:-1.0294 9:-1.1239 10:-0.9636 
1 1:-1.0518 2:-1.0484 3:-1.0591 4:-1.0462 5:-1.039 6:-1.0533 7:-1.0388 8:-1.0294 9:-1.1239 10:-0.9636 
1 1:-1.0518 2:-1.0484 3:-1.0591 4:-1.0462 5:-1.039 6:-1.0533 7:-1.0388 8:-1.0294 9:-1.1239 10:-0.9636 
1 1:-1.0518 2:-1.0484 3:-1.0591 4:-1.0462 5:-1.039 6:-1.0533 7:-1.0388 8:0.97134 9:0.88969 10:1.0377 
1 1:0.95069 2:-1.0484 3:0.94409 4:0.95571 5:0.96238 6:-1.0533 7:0.96258 8:-1.0294 9:-1.1239 10:-0.9636 
1 1:0.95069 2:0.9537 3:-1.0591 4:-1.0462 5:-1.039 6:-1.0533 7:-1.0388 8:-1.0294 9:-1.1239 10:-0.9636 
1 1:-1.0518 2:-1.0484 3:-1.0591 4:-1.0462 5:-1.039 6:-1.0533 7:-1.0388 8:-1.0294 9:-1.1239 10:-0.9636 
1 1:0.95069 2:0.9537 3:0.94409 4:0.95571 5:-1.039 6:-1.0533 7:0.96258 8:-1.0294 9:-1.1239 10:-0.9636 
1 1:0.95069 2:0.9537 3:-1.0591 4:0.95571 5:0.96238 6:-1.0533 7:-1.0388 8:-1.0294 9:-1.1239 10:-0.9636 
1 1:0.95069 2:0.9537 3:-1.0591 4:-1.0462 5:0.96238 6:0.94929 7:-1.0388 8:-1.0294 9:0.88969 10:-0.9636 
1 1:-1.0518 2:-1.0484 3:-1.0591 4:-1.0462 5:-1.039 6:-1.0533 7:0.96258 8:0.97134 9:-1.1239 10:-0.9636 
1 1:-1.0518 2:0.9537 3:0.94409 4:-1.0462 5:0.96238 6:-1.0533 7:0.96258 8:-1.0294 9:-1.1239 10:-0.9636 
1 1:0.95069 2:0.9537 3:0.94409 4:-1.0462 5:0.96238 6:-1.0533 7:0.96258 8:0.97134 9:-1.1239 10:-0.9636 
1 1:-1.0518 2:-1.0484 3:-1.0591 4:-1.0462 5:0.96238 6:-1.0533 7:0.96258 8:0.97134 9:0.88969 10:1.0377 
1 1:-1.0518 2:0.9537 3:0.94409 4:-1.0462 5:0.96238 6:0.94929 7:-1.0388 8:0.97134 9:0.88969 10:-0.9636 
1 1:-1.0518 2:-1.0484 3:-1.0591 4:-1.0462 5:-1.039 6:-1.0533 7:-1.0388 8:-1.0294 9:0.88969 10:-0.9636 
1 1:-1.0518 2:-1.0484 3:-1.0591 4:-1.0462 5:-1.039 6:-1.0533 7:-1.0388 8:-1.0294 9:-1.1239 10:-0.9636 
1 1:-1.0518 2:-1.0484 3:-1.0591 4:-1.0462 5:-1.039 6:-1.0533 7:-1.0388 8:0.97134 9:-1.1239 10:-0.9636 
1 1:-1.0518 2:-1.0484 3:0.94409 4:-1.0462 5:-1.039 6:-1.0533 7:-1.0388 8:0.97134 9:0.88969 10:-0.9636 
1 1:-1.0518 2:-1.0484 3:-1.0591 4:-1.0462 5:-1.039 6:-1.0533 7:-1.0388 8:0.97134 9:0.88969 10:-0.9636 
1 1:0.95069 2:0.9537 3:-1.0591 4:-1.0462 5:0.96238 6:0.94929 7:-1.0388 8:-1.0294 9:-1.1239 10:-0.9636 
1 1:-1.0518 2:-1.0484 3:-1.0591 4:0.95571 5:-1.039 6:-1.0533 7:0.96258 8:-1.0294 9:-1.1239 10:-0.9636 
1 1:-1.0518 2:-1.0484 3:0.94409 4:0.95571 5:0.96238 6:-1.0533 7:-1.0388 8:0.97134 9:0.88969 10:-0.9636 
1 1:0.95069 2:0.9537 3:-1.0591 4:-1.0462 5:0.96238 6:-1.0533 7:0.96258 8:-1.0294 9:-1.1239 10:-0.9636 
1 1:0.95069 2:0.9537 3:-1.0591 4:-1.0462 5:0.96238 6:-1.0533 7:-1.0388 8:0.97134 9:0.88969 10:1.0377 
1 1:-1.0518 2:0.9537 3:0.94409 4:-1.0462 5:-1.039 6:-1.0533 7:-1.0388 8:0.97134 9:0.88969 10:-0.9636 
1 1:0.95069 2:0.9537 3:-1.0591 4:-1.0462 5:0.96238 6:-1.0533 7:-1.0388 8:0.97134 9:0.88969 10:-0.9636 
1 1:-1.0518 2:-1.0484 3:-1.0591 4:0.95571 5:0.96238 6:-1.0533 7:0.96258 8:-1.0294 9:-1.1239 10:-0.9636 
1 1:-1.0518 2:-1.0484 3:-1.0591 4:-1.0462 5:-1.039 6:-1.0533 7:-1.0388 8:0.97134 9:-1.1239 10:-0.9636 
1 1:0.95069 2:0.9537 3:-1.0591 4:-1.0462 5:0.96238 6:0.94929 7:-1.0388 8:0.97134 9:0.88969 10:-0.9636 
1 1:-1.0518 2:-1.0484 3:-1.0591 4:-1.0462 5:-1.039 6:-1.0533 7:-1.0388 8:-1.0294 9:-1.1239 10:-0.9636 
1 1:-1.0518 2:-1.0484 3:-1.0591 4:-1.0462 5:-1.039 6:-1.0533 7:-1.0388 8:0.97134 9:0.88969 10:1.0377 
1 1:-1.0518 2:-1.0484 3:-1.0591 4:-1.0462 5:-1.039 6:-1.0533 7:-1.0388 8:-1.0294 9:-1.1239 10:-0.9636 
1 1:-1.0518 2:-1.0484 3:-1.0591 4:-1.0462 5:-1.039 6:-1.0533 7:-1.0388 8:-1.0294 9:-1.1239 10:-0.9636 
1 1:0.95069 2:0.9537 3:0.94409 4:-1.0462 5:-1.039 6:-1.0533 7:-1.0388 8:-1.0294 9:0.88969 10:-0.9636 
1 1:-1.0518 2:0.9537 3:0.94409 4:-1.0462 5:0.96238 6:0.94929 7:0.96258 8:0.97134 9:-1.1239 10:-0.9636 
1 1:-1.0518 2:-1.0484 3:-1.0591 4:0.95571 5:0.96238 6:0.94929 7:-1.0388 8:-1.0294 9:-1.1239 10:-0.9636 
1 1:-1.0518 2:0.9537 3:0.94409 4:-1.0462 5:0.96238 6:-1.0533 7:-1.0388 8:-1.0294 9:0.88969 10:1.0377 
1 1:-1.0518 2:-1.0484 3:0.94409 4:-1.0462 5:0.96238 6:0.94929 7:0.96258 8:-1.0294 9:0.88969 10:1.0377 
1 1:0.95069 2:0.9537 3:0.94409 4:-1.0462 5:-1.039 6:0.94929 7:-1.0388 8:-1.0294 9:0.88969 10:-0.9636 
1 1:-1.0518 2:-1.0484 3:0.94409 4:-1.0462 5:-1.039 6:-1.0533 7:-1.0388 8:-1.0294 9:-1.1239 10:-0.9636 
1 1:0.95069 2:-1.0484 3:-1.0591 4:-1.0462 5:-1.039 6:0.94929 7:-1.0388 8:0.97134 9:0.88969 10:-0.9636 
1 1:-1.0518 2:-1.0484 3:-1.0591 4:-1.0462 5:-1.039 6:-1.0533 7:-1.0388 8:-1.0294 9:0.88969 10:-0.9636 
1 1:-1.0518 2:-1.0484 3:-1.0591 4:-1.0462 5:-1.039 6:-1.0533 7:-1.0388 8:-1.0294 9:-1.1239 10:-0.9636 
1 1:0.95069 2:0.9537 3:-1.0591 4:-1.0462 5:0.96238 6:0.94929 7:0.96258 8:0.97134 9:-1.1239 10:-0.9636 
0.9325059525172443 1:0.95069 2:0.9537 3:0.94409 4:-1.0462 5:-1.039 6:0.94929 7:0.96258 8:0.97134 9:0.88969 10:1.0377 
1 1:-1.0518 2:-1.0484 3:-1.0591 4:-1.0462 5:-1.039 6:0.94929 7:-1.0388 8:-1.0294 9:0.88969 10:-0.9636 
1 1:-1.0518 2:-1.0484 3:-1.0591 4:0.95571 5:-1.039 6:-1.0533 7:-1.0388 8:0.97134 9:0.88969 10:-0.9636 
1 1:-1.0518 2:-1.0484 3:-1.0591 4:-1.0462 5:-1.039 6:-1.0533 7:0.96258 8:-1.0294 9:-1.1239 10:-0.9636 
1 1:0.95069 2:0.9537 3:-1.0591 4:-1.0462 5:0.96238 6:-1.0533 7:0.96258 8:-1.0294 9:-1.1239 10:-0.9636 
1 1:-1.0518 2:-1.0484 3:-1.0591 4:-1.0462 5:-1.039 6:-1.0533 7:-1.0388 8:-1.0294 9:-1.1239 10:-0.9636 
1 1:-1.0518 2:-1.0484 3:0.94409 4:-1.0462 5:-1.039 6:0.94929 7:0.96258 8:-1.0294 9:-1.1239 10:-0.9636 
1 1:-1.0518 2:-1.0484 3:-1.0591 4:0.95571 5:-1.039 6:-1.0533 7:-1.0388 8:0.97134 9:0.88969 10:-0.9636 
0.003291073148613169 1:0.95069 2:0.9537 3:0.94409 4:0.95571 5:0.96238 6:0.94929 7:-1.0388 8:-1.0294 9:0.88969 10:-0.9636 
1 1:-1.0518 2:0.9537 3:-1.0591 4:0.95571 5:-1.039 6:-1.0533 7:0.96258 8:-1.0294 9:0.88969 10:-0.9636 
1 1:0.95069 2:0.9537 3:0.94409 4:-1.0462 5:0.96238 6:0.94929 7:-1.0388 8:0.97134 9:-1.1239 10:1.0377 
1 1:-1.0518 2:-1.0484 3:-1.0591 4:-1.0462 5:-1.039 6:-1.0533 7:-1.0388 8:-1.0294 9:-1.1239 10:-0.9636 
1 1:-1.0518 2:-1.0484 3:0.94409 4:0.95571 5:-1.039 6:0.94929 7:0.96258 8:-1.0294 9:0.88969 10:1.0377 
1 1:-1.0518 2:-1.0484 3:-1.0591 4:0.95571 5:0.96238 6:0.94929 7:0.96258 8:-1.0294 9:-1.1239 10:1.0377 
1 1:-1.0518 2:-1.0484 3:-1.0591 4:0.95571 5:-1.039 6:-1.0533 7:0.96258 8:0.97134 9:0.88969 10:1.0377 
1 1:-1.0518 2:-1.0484 3:-1.0591 4:-1.0462 5:-1.039 6:-1.0533 7:-1.0388 8:-1.0294 9:-1.1239 10:-0.9636 
1 1:0.95069 2:-1.0484 3:-1.0591 4:-1.0462 5:-1.039 6:-1.0533 7:-1.0388 8:-1.0294 9:-1.1239 10:-0.9636 
1 1:-1.0518 2:-1.0484 3:-1.0591 4:-1.0462 5:-1.039 6:-1.0533 7:-1.0388 8:-1.0294 9:-1.1239 10:-0.9636 
1 1:-1.0518 2:0.9537 3:-1.0591 4:-1.0462 5:0.96238 6:0.94929 7:0.96258 8:-1.0294 9:0.88969 10:1.0377 
1 1:0.95069 2:-1.0484 3:-1.0591 4:-1.0462 5:-1.039 6:-1.0533 7:-1.0388 8:-1.0294 9:-1.1239 10:-0.9636 
1 1:-1.0518 2:-1.0484 3:-1.0591 4:-1.0462 5:-1.039 6:-1.0533 7:-1.0388 8:-1.0294 9:-1.1239 10:-0.9636 
1 1:-1.0518 2:0.9537 3:0.94409 4:-1.0462 5:0.96238 6:0.94929 7:0.96258 8:-1.0294 9:0.88969 10:-0.9636 
1 1:-1.0518 2:-1.0484 3:-1.0591 4:-1.0462 5:-1.039 6:-1.0533 7:-1.0388 8:-1.0294 9:-1.1239 10:-0.9636 
1 1:-1.0518 2:-1.0484 3:-1.0591 4:0.95571 5:-1.039 6:-1.0533 7:-1.0388 8:-1.0294 9:-1.1239 10:-0.9636 
1 1:0.95069 2:-1.0484 3:-1.0591 4:-1.0462 5:0.96238 6:0.94929 7:0.96258 8:-1.0294 9:-1.1239 10:-0.9636 
1 1:-1.0518 2:-1.0484 3:-1.0591 4:-1.0462 5:-1.039 6:-1.0533 7:0.96258 8:-1.0294 9:-1.1239 10:-0.9636 
0.8492103533493908 1:0.95069 2:0.9537 3:0.94409 4:0.95571 5:-1.039 6:0.94929 7:0.96258 8:0.97134 9:-1.1239 10:1.0377 
1 1:-1.0518 2:-1.0484 3:-1.0591 4:-1.0462 5:-1.039 6:-1.0533 7:-1.0388 8:-1.0294 9:-1.1239 10:-0.9636 
1 1:0.95069 2:0.9537 3:0.94409 4:-1.0462 5:-1.039 6:-1.0533 7:-1.0388 8:-1.0294 9:-1.1239 10:-0.9636 
1 1:-1.0518 2:-1.0484 3:-1.0591 4:-1.0462 5:-1.039 6:-1.0533 7:-1.0388 8:-1.0294 9:-1.1239 10:-0.9636 
1 1:-1.0518 2:-1.0484 3:-1.0591 4:-1.0462 5:-1.039 6:-1.0533 7:-1.0388 8:-1.0294 9:-1.1239 10:-0.9636 
1 1:-1.0518 2:0.9537 3:0.94409 4:-1.0462 5:-1.039 6:0.94929 7:0.96258 8:0.97134 9:-1.1239 10:-0.9636 
1 1:-1.0518 2:-1.0484 3:-1.0591 4:-1.0462 5:-1.039 6:-1.0533 7:-1.0388 8:-1.0294 9:-1.1239 10:-0.9636 
1 1:0.95069 2:0.9537 3:-1.0591 4:-1.0462 5:0.96238 6:-1.0533 7:-1.0388 8:0.97134 9:0.88969 10:-0.9636 
1 1:0.95069 2:-1.0484 3:0.94409 4:-1.0462 5:0.96238 6:-1.0533 7:0.96258 8:-1.0294 9:-1.1239 10:-0.9636 
1 1:0.95069 2:0.9537 3:-1.0591 4:-1.0462 5:0.96238 6:0.94929 7:0.96258 8:0.97134 9:-1.1239 10:-0.9636 
1 1:-1.0518 2:-1.0484 3:-1.0591 4:-1.0462 5:-1.039 6:-1.0533 7:-1.0388 8:-1.0294 9:-1.1239 10:-0.9636 
1 1:-1.0518 2:-1.0484 3:-1.0591 4:-1.0462 5:0.96238 6:-1.0533 7:-1.0388 8:-1.0294 9:0.88969 10:-0.9636 
1 1:-1.0518 2:-1.0484 3:-1.0591 4:-1.0462 5:-1.039 6:-1.0533 7:-1.0388 8:-1.0294 9:-1.1239 10:-0.9636 
1 1:-1.0518 2:-1.0484 3:0.94409 4:0.95571 5:0.96238 6:0.94929 7:0.96258 8:0.97134 9:0.88969 10:-0.9636 
1 1:-1.0518 2:-1.0484 3:-1.0591 4:-1.0462 5:-1.039 6:-1.0533 7:-1.0388 8:-1.0294 9:-1.1239 10:-0.9636 
1 1:-1.0518 2:-1.0484 3:-1.0591 4:-1.0462 5:-1.039 6:-1.0533 7:-1.0388 8:-1.0294 9:-1.1239 10:-0.9636 
1 1:-1.0518 2:-1.0484 3:-1.0591 4:0.95571 5:0.96238 6:-1.0533 7:-1.0388 8:-1.0294 9:-1.1239 10:-0.9636 
1 1:-1.0518 2:-1.0484 3:-1.0591 4:-1.0462 5:-1.039 6:-1.0533 7:-1.0388 8:-1.0294 9:-1.1239 10:-0.9636 
1 1:-1.0518 2:-1.0484 3:0.94409 4:0.95571 5:-1.039 6:-1.0533 7:-1.0388 8:-1.0294 9:0.88969 10:-0.9636 
1 1:-1.0518 2:0.9537 3:-1.0591 4:-1.0462 5:-1.039 6:-1.0533 7:-1.0388 8:-1.0294 9:-1.1239 10:-0.9636 
1 1:-1.0518 2:-1.0484 3:-1.0591 4:-1.0462 5:-1.039 6:-1.0533 7:-1.0388 8:-1.0294 9:-1.1239 10:-0.9636 
1 1:-1.0518 2:0.9537 3:-1.0591 4:-1.0462 5:0.96238 6:-1.0533 7:0.96258 8:-1.0294 9:-1.1239 10:-0.9636 
1 1:-1.0518 2:-1.0484 3:-1.0591 4:0.95571 5:-1.039 6:0.94929 7:-1.0388 8:-1.0294 9:-1.1239 10:-0.9636 
1 1:-1.0518 2:-1.0484 3:-1.0591 4:-1.0462 5:-1.039 6:-1.0533 7:-1.0388 8:-1.0294 9:-1.1239 10:-0.9636 
1 1:0.95069 2:-1.0484 3:0.94409 4:-1.0462 5:-1.039 6:-1.0533 7:-1.0388 8:0.97134 9:-1.1239 10:-0.9636 
1 1:-1.0518 2:-1.0484 3:-1.0591 4:-1.0462 5:-1.039 6:-1.0533 7:-1.0388 8:-1.0294 9:-1.1239 10:-0.9636 
1 1:-1.0518 2:-1.0484 3:0.94409 4:-1.0462 5:-1.039 6:-1.0533 7:-1.0388 8:-1.0294 9:-1.1239 10:-0.9636 
1 1:-1.0518 2:-1.0484 3:0.94409 4:-1.0462 5:-1.039 6:0.94929 7:0.96258 8:-1.0294 9:-1.1239 10:-0.9636 
1 1:-1.0518 2:0.9537 3:-1.0591 4:0.95571 5:0.96238 6:-1.0533 7:-1.0388 8:0.97134 9:-1.1239 10:-0.9636 
1 1:-1.0518 2:-1.0484 3:-1.0591 4:-1.0462 5:-1.039 6:-1.0533 7:-1.0388 8:-1.0294 9:-1.1239 10:1.0377 
1 1:-1.0518 2:0.9537 3:0.94409 4:-1.0462 5:-1.039 6:-1.0533 7:-1.0388 8:-1.0294 9:0.88969 10:-0.9636 
1 1:-1.0518 2:-1.0484 3:-1.0591 4:-1.0462 5:-1.039 6:-1.0533 7:-1.0388 8:-1.0294 9:-1.1239 10:-0.9636 
1 1:-1.0518 2:-1.0484 3:-1.0591 4:-1.0462 5:-1.039 6:-1.0533 7:-1.0388 8:-1.0294 9:-1.1239 10:-0.9636 
0.9938852978752335 1:0.95069 2:0.9537 3:0.94409 4:0.95571 5:-1.039 6:0.94929 7:0.96258 8:-1.0294 9:-1.1239 10:-0.9636 
1 1:-1.0518 2:-1.0484 3:-1.0591 4:-1.0462 5:-1.039 6:-1.0533 7:-1.0388 8:-1.0294 9:-1.1239 10:-0.9636 
1 1:-1.0518 2:-1.0484 3:-1.0591 4:0.95571 5:-1.039 6:0.94929 7:-1.0388 8:-1.0294 9:-1.1239 10:-0.9636 
1 1:0.95069 2:0.9537 3:-1.0591 4:-1.0462 5:-1.039 6:-1.0533 7:-1.0388 8:-1.0294 9:-1.1239 10:-0.9636 
1 1:0.95069 2:-1.0484 3:-1.0591 4:-1.0462 5:0.96238 6:-1.0533 7:-1.0388 8:-1.0294 9:-1.1239 10:-0.9636 
1 1:-1.0518 2:-1.0484 3:-1.0591 4:-1.0462 5:-1.039 6:-1.0533 7:0.96258 8:-1.0294 9:-1.1239 10:-0.9636 
1 1:-1.0518 2:-1.0484 3:-1.0591 4:-1.0462 5:-1.039 6:-1.0533 7:-1.0388 8:-1.0294 9:-1.1239 10:-0.9636 
1 1:-1.0518 2:-1.0484 3:-1.0591 4:-1.0462 5:-1.039 6:-1.0533 7:-1.0388 8:-1.0294 9:-1.1239 10:-0.9636 
1 1:-1.0518 2:-1.0484 3:-1.0591 4:-1.0462 5:-1.039 6:-1.0533 7:-1.0388 8:-1.0294 9:-1.1239 10:-0.9636 
1 1:-1.0518 2:-1.0484 3:-1.0591 4:-1.0462 5:-1.039 6:-1.0533 7:-1.0388 8:-1.0294 9:-1.1239 10:-0.9636 
1 1:0.95069 2:0.9537 3:0.94409 4:0.95571 5:-1.039 6:0.94929 7:0.96258 8:-1.0294 9:-1.1239 10:1.0377 
1 1:-1.0518 2:-1.0484 3:-1.0591 4:-1.0462 5:-1.039 6:-1.0533 7:-1.0388 8:-1.0294 9:-1.1239 10:-0.9636 
1 1:-1.0518 2:-1.0484 3:0.94409 4:0.95571 5:-1.039 6:-1.0533 7:0.96258 8:-1.0294 9:-1.1239 10:-0.9636 
1 1:-1.0518 2:-1.0484 3:-1.0591 4:-1.0462 5:-1.039 6:-1.0533 7:-1.0388 8:-1.0294 9:-1.1239 10:-0.9636 
1 1:-1.0518 2:-1.0484 3:-1.0591 4:-1.0462 5:-1.039 6:-1.0533 7:-1.0388 8:-1.0294 9:-1.1239 10:-0.9636 
1 1:-1.0518 2:-1.0484 3:-1.0591 4:-1.0462 5:-1.039 6:-1.0533 7:-1.0388 8:-1.0294 9:-1.1239 10:-0.9636 
1 1:-1.0518 2:0.9537 3:-1.0591 4:0.95571 5:-1.039 6:0.94929 7:0.96258 8:-1.0294 9:-1.1239 10:-0.9636 
1 1:-1.0518 2:-1.0484 3:-1.0591 4:-1.0462 5:-1.039 6:-1.0533 7:-1.0388 8:-1.0294 9:-1.1239 10:-0.9636 
1 1:0.95069 2:-1.0484 3:-1.0591 4:0.95571 5:0.96238 6:0.94929 7:0.96258 8:-1.0294 9:-1.1239 10:-0.9636 
1 1:-1.0518 2:-1.0484 3:-1.0591 4:-1.0462 5:0.96238 6:-1.0533 7:0.96258 8:0.97134 9:-1.1239 10:-0.9636 
1 1:-1.0518 2:0.9537 3:0.94409 4:-1.0462 5:-1.039 6:0.94929 7:-1.0388 8:-1.0294 9:-1.1239 10:-0.9636 
1 1:-1.0518 2:-1.0484 3:0.94409 4:-1.0462 5:-1.039 6:-1.0533 7:-1.0388 8:-1.0294 9:-1.1239 10:-0.9636 
1 1:-1.0518 2:-1.0484 3:-1.0591 4:-1.0462 5:-1.039 6:-1.0533 7:-1.0388 8:-1.0294 9:-1.1239 10:-0.9636 
1 1:-1.0518 2:-1.0484 3:-1.0591 4:-1.0462 5:-1.039 6:-1.0533 7:0.96258 8:-1.0294 9:-1.1239 10:-0.9636 
