svm_type c_svc
kernel_type rbf
gamma 0.0222222
nr_class 2
total_sv 7491
rho 1.11634
label 1 -1
probA -0.863648
probB -0.00616691
nr_sv 3732 3759
SV
1 1:1.26 2:0.53 3:-1.18 4:1.3 5:0.41 6:1.21 7:-0.98 8:-0.62 9:0 10:0 11:0 12:1.4 13:0.7 14:0.74 15:-1.18 16:-3.14 17:-2.53 18:-1.1 19:0.57 20:0.04 21:-0.2 22:2.23 23:0.4 24:0 25:0.08 26:-0.07 27:1 28:0.027836 29:0.020651 30:-0.084252 31:0.73 32:0.08 33:0 34:0 35:-0.23886 36:0.46 37:0 38:-0.07421 39:1 40:0 41:0.35458 42:1.09 43:0.08 44:0 45:0.54 
1 1:0.9 2:0.25 3:0.1 4:0.92 5:0.18 6:-0.06 7:0.09 8:0.05 9:0 10:0 11:0 12:-1.18 13:1.3 14:1.26 15:1.21 16:-0.98 17:0.41 18:0.53 19:-0.62 20:0 21:0.41 22:-0.98 23:1.3 24:1.21 25:0.12 26:0.53 27:0 28:0.069084 29:-0.11604 30:0.14252 31:-1.18 32:0 33:0 34:0 35:0.076398 36:-0.62 37:0 38:-0.036889 39:0 40:0 41:-0.091291 42:-1.18 43:0.08 44:0 45:-1.1 
1 1:0.42 2:-0.07 3:0.73 4:0.4 5:-0.2 6:0 7:2.23 8:0.46 9:0 10:0 11:0 12:-1.18 13:1.3 14:1.26 15:1.21 16:-0.98 17:0.41 18:0.53 19:-0.62 20:0.04 21:-2.1 22:-0.07 23:0.61 24:-0.77 25:0.04 26:-0.62 27:0 28:-0.16704 29:1.1898 30:0.0065438 31:0.83 32:0.04 33:0 34:-1 35:0.15634 36:0.38 37:0 38:0.028369 39:0 40:0 41:-0.034353 42:0 43:0.08 44:0 45:-0.07 
1 1:1.18 2:-0.69 3:0.95 4:0.95 5:-1.22 6:-0.73 7:-1.14 8:0.46 9:0 10:0 11:0 12:0.95 13:0.95 14:1.18 15:-0.73 16:-1.14 17:-1.22 18:-0.69 19:0.46 20:0 21:0.44 22:-0.41 23:1.19 24:1.27 25:0.08 26:0.26 27:0 28:0.044381 29:-0.051398 30:0.099665 31:-1.59 32:0.04 33:0 34:0 35:0.082988 36:-0.38 37:0 38:0 39:0 40:0 41:-0.14667 42:0 43:0.12 44:0 45:0 
1 1:0.9 2:0.25 3:0.1 4:0.92 5:0.18 6:-0.06 7:0.09 8:0.05 9:0 10:0 11:0 12:0.07 13:1.12 14:1.3 15:-0.27 16:-1.4 17:-0.34 18:-0.18 19:0.38 20:0.04 21:-2.53 22:-3.14 23:0.7 24:-1.18 25:0.08 26:-1.1 27:0 28:0.081771 29:-0.20919 30:0.34024 31:1.4 32:0.08 33:0 34:1 35:0.33375 36:0.57 37:1 38:0.086957 39:0 40:1 41:-0.37774 42:-0.84 43:0.08 44:0 45:-1.76 
1 1:0.62 2:-0.64 3:0.48 4:0.6 5:-1.3 6:-0.48 7:0.84 8:0.29 9:0 10:0 11:0 12:-2.12 13:1.25 14:1.23 15:1.27 16:0.45 17:0.5 18:0.61 19:-0.45 20:0.04 21:-1.3 22:0.84 23:0.6 24:-0.48 25:0.08 26:-0.64 27:0 28:0.070899 29:0.10539 30:-0.13567 31:0.48 32:0.04 33:0 34:0 35:0.25587 36:0.29 37:0 38:0.085106 39:0 40:0 41:-0.68641 42:1.27 43:0 44:0 45:0.26 
1 1:1.09 2:0.26 3:-1.59 4:1.19 5:0.44 6:1.27 7:-0.41 8:-0.38 9:0 10:0 11:0 12:0.83 13:0.61 14:0.62 15:-0.77 16:-0.07 17:-2.1 18:-0.62 19:0.38 20:0.08 21:-5.4 22:-3.44 23:0.93 24:-0.84 25:0.12 26:-1.76 27:-1 28:-0.0094054 29:0.032969 30:-0.015994 31:1.91 32:0.04 33:0 34:1 35:0.16667 36:0.12 37:0 38:0 39:0 40:1 41:-0.38933 42:1.21 43:0.08 44:0 45:0.53 
1 1:1.68 2:0.02 3:-0.21 4:1.53 5:-0.08 6:0.33 7:0.01 8:-0.25 9:0 10:0 11:0 12:0.1 13:0.92 14:0.9 15:-0.06 16:0.09 17:0.18 18:0.25 19:0.05 20:0 21:-0.34 22:-1.4 23:1.12 24:-0.27 25:0.12 26:-0.18 27:0 28:-0.0015746 29:-0.034243 30:0.0032826 31:0.07 32:0.04 33:0 34:0 35:0.24307 36:0.38 37:0 38:0 39:0 40:0 41:-0.3719 42:-0.77 43:0.08 44:0 45:-0.62 
0.697048784006517 1:1.26 2:0.53 3:-1.18 4:1.3 5:0.41 6:1.21 7:-0.98 8:-0.62 9:0 10:0 11:0 12:1.4 13:0.7 14:0.74 15:-1.18 16:-3.14 17:-2.53 18:-1.1 19:0.57 20:0 21:0.32 22:-1.29 23:1.81 24:1.09 25:0.12 26:0.54 27:1 28:-0.014639 29:0.053241 30:-0.047829 31:-1.27 32:0 33:0 34:0 35:0.13885 36:-0.46 37:0 38:-0.1865 39:1 40:0 41:-0.34434 42:-0.48 43:0.12 44:0 45:-0.64 
1 1:0.47 2:-0.72 3:0.78 4:0.48 5:-2.36 6:-0.8 7:2.36 8:0.41 9:-1 10:0 11:0 12:0.83 13:0.61 14:0.62 15:-0.77 16:-0.07 17:-2.1 18:-0.62 19:0.38 20:0.04 21:-0.01 22:0.85 23:1.54 24:0.88 25:0.08 26:0.37 27:-1 28:0.15322 29:-0.25685 30:0.35152 31:-0.51 32:0.08 33:0 34:0 35:0.12973 36:-0.98 37:0 38:-0.45246 39:0 40:0 41:-0.37703 42:-0.84 43:0.12 44:0 45:-1.76 
1 1:0.56 2:0.16 3:0.33 4:0.61 5:0.09 6:-0.41 7:0.3 8:0.31 9:0 10:0 11:0 12:0.07 13:1.12 14:1.3 15:-0.27 16:-1.4 17:-0.34 18:-0.18 19:0.38 20:0.04 21:-0.4 22:0.57 23:0.82 24:-0.5 25:0.16 26:-0.26 27:0 28:0.061276 29:-0.044339 30:0.077112 31:0.52 32:0 33:0 34:0 35:0.039548 36:0.12 37:0 38:0.20217 39:0 40:0 41:-0.085376 42:1.09 43:0.08 44:0 45:0.54 
1 1:1.18 2:-0.69 3:0.95 4:0.95 5:-1.22 6:-0.73 7:-1.14 8:0.46 9:0 10:0 11:0 12:1.4 13:0.7 14:0.74 15:-1.18 16:-3.14 17:-2.53 18:-1.1 19:0.57 20:0.12 21:-0.34 22:-1.4 23:1.12 24:-0.27 25:0.16 26:-0.18 27:1 28:0.079622 29:-0.061077 30:0.10356 31:0.07 32:0 33:0 34:0 35:0.13102 36:0.38 37:0 38:0.040161 39:0 40:0 41:-0.14894 42:-0.5 43:0.08 44:0 45:-0.26 
1 1:1.23 2:0.61 3:-2.12 4:1.25 5:0.5 6:1.27 7:0.45 8:-0.45 9:0 10:0 11:0 12:0.48 13:0.6 14:0.62 15:-0.48 16:0.84 17:-1.3 18:-0.64 19:0.29 20:0 21:-1.22 22:-1.14 23:0.95 24:-0.73 25:0 26:-0.69 27:0 28:0.24136 29:-0.22758 30:0.21225 31:0.95 32:0.04 33:0 34:0 35:0.043557 36:0.46 37:0 38:-0.33488 39:0 40:0 41:-0.14768 42:0 43:0 44:0 45:-0.07 
1 1:1.68 2:0.02 3:-0.21 4:1.53 5:-0.08 6:0.33 7:0.01 8:-0.25 9:0 10:0 11:0 12:0.52 13:0.82 14:0.87 15:-0.5 16:0.57 17:-0.4 18:-0.26 19:0.12 20:0.04 21:0.09 22:0.3 23:0.61 24:-0.41 25:0.04 26:0.16 27:0 28:-0.054482 29:0.16535 30:-0.11248 31:0.33 32:0.04 33:0 34:0 35:-0.095522 36:0.31 37:0 38:0 39:0 40:0 41:-0.027236 42:1.21 43:0.08 44:0 45:0.53 
1 1:0.9 2:0.25 3:0.1 4:0.92 5:0.18 6:-0.06 7:0.09 8:0.05 9:0 10:0 11:0 12:-0.5 13:0.93 14:1.12 15:0.49 16:1.11 17:-1.48 18:-0.4 19:-0.41 20:0.08 21:0.09 22:0.3 23:0.61 24:-0.41 25:0.04 26:0.16 27:0 28:0.03544 29:-0.026987 30:0.093736 31:0.33 32:0.04 33:0 34:0 35:0.093385 36:0.31 37:0 38:-0.65068 39:0 40:0 41:-0.1998 42:-0.84 43:0.16 44:0 45:-1.76 
1 1:0.47 2:-0.72 3:0.78 4:0.48 5:-2.36 6:-0.8 7:2.36 8:0.41 9:-1 10:0 11:0 12:-0.5 13:0.93 14:1.12 15:0.49 16:1.11 17:-1.48 18:-0.4 19:-0.41 20:0 21:-0.2 22:2.23 23:0.4 24:0 25:0.08 26:-0.07 27:0 28:-0.24643 29:0.44656 30:-0.13467 31:0.73 32:0.04 33:0 34:0 35:0.17089 36:0.46 37:0 38:0 39:0 40:0 41:-0.11237 42:0.88 43:0.04 44:0 45:0.37 
1 1:1.75 2:0.37 3:-0.51 4:1.54 5:-0.01 6:0.88 7:0.85 8:-0.98 9:0 10:0 11:0 12:0.48 13:0.6 14:0.62 15:-0.48 16:0.84 17:-1.3 18:-0.64 19:0.29 20:0.04 21:0.18 22:0.09 23:0.92 24:-0.06 25:0 26:0.25 27:0 28:-0.066362 29:0.14262 30:-0.088383 31:0.1 32:0.12 33:0 34:0 35:0.47802 36:0.05 37:0 38:0.11418 39:0 40:0 41:-0.80656 42:-0.41 43:0.08 44:0 45:0.16 
1 1:1.53 2:0.54 3:-1.27 4:1.81 5:0.32 6:1.09 7:-1.29 8:-0.46 9:0 10:0 11:0 12:-1.13 13:1.81 14:1.54 15:1.31 16:-1.03 17:0.37 18:0.73 19:-0.69 20:0.04 21:-2.36 22:2.36 23:0.48 24:-0.8 25:0.08 26:-0.72 27:0 28:-0.025053 29:0.097599 30:-0.069597 31:0.78 32:0 33:0 34:-1 35:0.2598 36:0.41 37:0 38:0 39:0 40:0 41:-0.0086376 42:-0.5 43:0.04 44:0 45:-0.26 
1 1:1.68 2:0.02 3:-0.21 4:1.53 5:-0.08 6:0.33 7:0.01 8:-0.25 9:0 10:0 11:0 12:-2.12 13:1.25 14:1.23 15:1.27 16:0.45 17:0.5 18:0.61 19:-0.45 20:0.08 21:0.18 22:0.09 23:0.92 24:-0.06 25:0.08 26:0.25 27:0 28:0.01155 29:0.041934 30:-0.002111 31:0.1 32:0.04 33:0 34:0 35:0.21479 36:0.05 37:0 38:-0.12846 39:0 40:0 41:0.0024242 42:1.21 43:0.04 44:0 45:0.53 
1 1:1.53 2:0.54 3:-1.27 4:1.81 5:0.32 6:1.09 7:-1.29 8:-0.46 9:0 10:0 11:0 12:0.07 13:1.12 14:1.3 15:-0.27 16:-1.4 17:-0.34 18:-0.18 19:0.38 20:0.04 21:0.09 22:0.3 23:0.61 24:-0.41 25:0.04 26:0.16 27:0 28:0.044628 29:-0.042244 30:0.0709 31:0.33 32:0.04 33:0 34:0 35:0.089783 36:0.31 37:0 38:0 39:0 40:0 41:-0.11652 42:-1.18 43:0 44:0 45:-1.1 
0.001350691852000921 1:1.68 2:0.02 3:-0.21 4:1.53 5:-0.08 6:0.33 7:0.01 8:-0.25 9:0 10:0 11:0 12:0.83 13:0.61 14:0.62 15:-0.77 16:-0.07 17:-2.1 18:-0.62 19:0.38 20:0.12 21:0.37 22:-1.03 23:1.81 24:1.31 25:0.04 26:0.73 27:-1 28:-0.025724 29:-0.11538 30:0.094305 31:-1.13 32:0.08 33:0 34:0 35:-0.036315 36:-0.69 37:0 38:-0.035752 39:0 40:0 41:0.026437 42:-0.73 43:0.08 44:0 45:-0.69 
1 1:1.53 2:0.54 3:-1.27 4:1.81 5:0.32 6:1.09 7:-1.29 8:-0.46 9:0 10:0 11:0 12:-0.5 13:0.93 14:1.12 15:0.49 16:1.11 17:-1.48 18:-0.4 19:-0.41 20:0 21:0.18 22:0.09 23:0.92 24:-0.06 25:0.12 26:0.25 27:0 28:0.039593 29:-0.085043 30:0.098348 31:0.1 32:0 33:0 34:0 35:0.34341 36:0.05 37:0 38:-0.074246 39:0 40:0 41:-0.1909 42:0.88 43:0.04 44:0 45:0.37 
1 1:1.53 2:0.54 3:-1.27 4:1.81 5:0.32 6:1.09 7:-1.29 8:-0.46 9:0 10:0 11:0 12:0.33 13:0.61 14:0.56 15:-0.41 16:0.3 17:0.09 18:0.16 19:0.31 20:0 21:0.32 22:-1.29 23:1.81 24:1.09 25:0.08 26:0.54 27:0 28:-0.0095794 29:0.099473 30:-0.089273 31:-1.27 32:0 33:0 34:0 35:0.13298 36:-0.46 37:0 38:0 39:0 40:0 41:-0.02081 42:0 43:0 44:0 45:-0.07 
1 1:0.42 2:-0.07 3:0.73 4:0.4 5:-0.2 6:0 7:2.23 8:0.46 9:0 10:0 11:0 12:0.33 13:0.61 14:0.56 15:-0.41 16:0.3 17:0.09 18:0.16 19:0.31 20:0.04 21:0.18 22:0.09 23:0.92 24:-0.06 25:0.08 26:0.25 27:0 28:-0.023641 29:0.10885 30:0.030021 31:0.1 32:0.12 33:0 34:0 35:0.098167 36:0.05 37:0 38:0.049451 39:0 40:0 41:0.026838 42:-0.73 43:0 44:0 45:-0.69 
1 1:1.26 2:0.53 3:-1.18 4:1.3 5:0.41 6:1.21 7:-0.98 8:-0.62 9:0 10:0 11:0 12:-0.51 13:1.54 14:1.75 15:0.88 16:0.85 17:-0.01 18:0.37 19:-0.98 20:0 21:-0.34 22:-1.4 23:1.12 24:-0.27 25:0.12 26:-0.18 27:0 28:-0.072567 29:0.15058 30:0.19034 31:0.07 32:0.04 33:0 34:0 35:0.54438 36:0.38 37:0 38:0.33085 39:1 40:0 41:-1.026 42:0.88 43:0 44:0 45:0.37 
1 1:1.18 2:-0.69 3:0.95 4:0.95 5:-1.22 6:-0.73 7:-1.14 8:0.46 9:0 10:0 11:0 12:-0.21 13:1.53 14:1.68 15:0.33 16:0.01 17:-0.08 18:0.02 19:-0.25 20:0.04 21:0.18 22:0.09 23:0.92 24:-0.06 25:0.04 26:0.25 27:0 28:0.022483 29:-0.022466 30:0.054214 31:0.1 32:0.04 33:0 34:0 35:0.33032 36:0.05 37:0 38:-0.086882 39:0 40:0 41:-0.2567 42:-0.06 43:0.04 44:0 45:0.25 
1 1:0.62 2:-0.62 3:0.83 4:0.61 5:-2.1 6:-0.77 7:-0.07 8:0.38 9:-1 10:0 11:0 12:1.91 13:0.93 14:1.02 15:-0.84 16:-3.44 17:-5.4 18:-1.76 19:0.12 20:0.04 21:0.37 22:-1.03 23:1.81 24:1.31 25:0 26:0.73 27:1 28:0.21065 29:-0.25219 30:0.57579 31:-1.13 32:0.16 33:0 34:0 35:0.08933 36:-0.69 37:0 38:0 39:0 40:0 41:-0.21419 42:-0.84 43:0.04 44:0 45:-1.76 
1 1:0.56 2:0.16 3:0.33 4:0.61 5:0.09 6:-0.41 7:0.3 8:0.31 9:0 10:0 11:0 12:0.73 13:0.4 14:0.42 15:0 16:2.23 17:-0.2 18:-0.07 19:0.46 20:0.04 21:-2.1 22:-0.07 23:0.61 24:-0.77 25:0.04 26:-0.62 27:0 28:0.27054 29:-0.3501 30:0.31934 31:0.83 32:0.08 33:0 34:-1 35:0.063704 36:0.38 37:0 38:-0.29208 39:0 40:0 41:-0.078561 42:-0.8 43:0.12 44:0 45:-0.72 
1 1:0.42 2:-0.07 3:0.73 4:0.4 5:-0.2 6:0 7:2.23 8:0.46 9:0 10:0 11:0 12:-1.18 13:1.3 14:1.26 15:1.21 16:-0.98 17:0.41 18:0.53 19:-0.62 20:0.12 21:0.37 22:-1.03 23:1.81 24:1.31 25:0.08 26:0.73 27:0 28:-0.12939 29:0.24047 30:-0.11226 31:-1.13 32:0.04 33:0 34:0 35:0.064979 36:-0.69 37:0 38:0.082051 39:0 40:0 41:-0.097011 42:1.21 43:0 44:0 45:0.53 
1 1:0.56 2:0.16 3:0.33 4:0.61 5:0.09 6:-0.41 7:0.3 8:0.31 9:0 10:0 11:0 12:-1.27 13:1.81 14:1.53 15:1.09 16:-1.29 17:0.32 18:0.54 19:-0.46 20:0 21:-5.4 22:-3.44 23:0.93 24:-0.84 25:0.08 26:-1.76 27:0 28:0.014588 29:-0.10288 30:0.1237 31:1.91 32:0.16 33:0 34:1 35:0.13227 36:0.12 37:0 38:0.14695 39:0 40:1 41:-0.17491 42:-0.84 43:0.16 44:0 45:-1.76 
1 1:1.18 2:-0.69 3:0.95 4:0.95 5:-1.22 6:-0.73 7:-1.14 8:0.46 9:0 10:0 11:0 12:-0.21 13:1.53 14:1.68 15:0.33 16:0.01 17:-0.08 18:0.02 19:-0.25 20:0 21:-2.36 22:2.36 23:0.48 24:-0.8 25:0.12 26:-0.72 27:0 28:0.019141 29:0.17585 30:-0.34383 31:0.78 32:0 33:0 34:-1 35:0.031767 36:0.41 37:0 38:0.13389 39:0 40:0 41:-0.0020285 42:-1.18 43:0.08 44:0 45:-1.1 
1 1:1.09 2:0.26 3:-1.59 4:1.19 5:0.44 6:1.27 7:-0.41 8:-0.38 9:0 10:0 11:0 12:0.1 13:0.92 14:0.9 15:-0.06 16:0.09 17:0.18 18:0.25 19:0.05 20:0.08 21:-5.4 22:-3.44 23:0.93 24:-0.84 25:0 26:-1.76 27:0 28:-0.20613 29:0.10632 30:-0.10957 31:1.91 32:0.08 33:0 34:1 35:0.13248 36:0.12 37:0 38:-0.072106 39:0 40:1 41:-0.13099 42:-0.8 43:0 44:0 45:-0.72 
1 1:0.62 2:-0.64 3:0.48 4:0.6 5:-1.3 6:-0.48 7:0.84 8:0.29 9:0 10:0 11:0 12:1.91 13:0.93 14:1.02 15:-0.84 16:-3.44 17:-5.4 18:-1.76 19:0.12 20:0.08 21:0.18 22:0.09 23:0.92 24:-0.06 25:0.04 26:0.25 27:1 28:0.078907 29:-0.098646 30:0.29472 31:0.1 32:0.08 33:0 34:0 35:0.080537 36:0.05 37:0 38:0 39:0 40:0 41:-0.12637 42:-0.06 43:0.04 44:0 45:0.25 
1 1:0.9 2:0.25 3:0.1 4:0.92 5:0.18 6:-0.06 7:0.09 8:0.05 9:0 10:0 11:0 12:0.52 13:0.82 14:0.87 15:-0.5 16:0.57 17:-0.4 18:-0.26 19:0.12 20:0.12 21:0.41 22:-0.98 23:1.3 24:1.21 25:0.08 26:0.53 27:0 28:0.058039 29:-0.23923 30:0.41669 31:-1.18 32:0.08 33:0 34:0 35:0.23493 36:-0.62 37:0 38:0 39:0 40:0 41:-0.23556 42:-0.48 43:0.08 44:0 45:-0.64 
1 1:0.47 2:-0.72 3:0.78 4:0.48 5:-2.36 6:-0.8 7:2.36 8:0.41 9:-1 10:0 11:0 12:-1.18 13:1.3 14:1.26 15:1.21 16:-0.98 17:0.41 18:0.53 19:-0.62 20:0.04 21:-5.4 22:-3.44 23:0.93 24:-0.84 25:0.04 26:-1.76 27:0 28:0.035161 29:0.020265 30:0.14077 31:1.91 32:0.12 33:0 34:1 35:0.19463 36:0.12 37:0 38:-0.11392 39:0 40:1 41:-0.079714 42:1.09 43:0.16 44:0 45:0.54 
1 1:0.62 2:-0.62 3:0.83 4:0.61 5:-2.1 6:-0.77 7:-0.07 8:0.38 9:-1 10:0 11:0 12:-1.18 13:1.3 14:1.26 15:1.21 16:-0.98 17:0.41 18:0.53 19:-0.62 20:0 21:0.41 22:-0.98 23:1.3 24:1.21 25:0.04 26:0.53 27:0 28:-0.35142 29:0.69213 30:-0.44147 31:-1.18 32:0.12 33:0 34:0 35:0.18757 36:-0.62 37:0 38:0 39:0 40:0 41:-0.061661 42:-0.27 43:0.08 44:0 45:-0.18 
1 1:0.56 2:0.16 3:0.33 4:0.61 5:0.09 6:-0.41 7:0.3 8:0.31 9:0 10:0 11:0 12:0.52 13:0.82 14:0.87 15:-0.5 16:0.57 17:-0.4 18:-0.26 19:0.12 20:0.08 21:0.44 22:-0.41 23:1.19 24:1.27 25:0.04 26:0.26 27:0 28:0.004445 29:-0.13321 30:0.076928 31:-1.59 32:0.08 33:0 34:0 35:0.11679 36:-0.38 37:0 38:0 39:0 40:0 41:-0.078606 42:1.27 43:0.08 44:0 45:0.61 
1 1:1.54 2:0.73 3:-1.13 4:1.81 5:0.37 6:1.31 7:-1.03 8:-0.69 9:0 10:0 11:0 12:0.1 13:0.92 14:0.9 15:-0.06 16:0.09 17:0.18 18:0.25 19:0.05 20:0 21:-2.1 22:-0.07 23:0.61 24:-0.77 25:0.12 26:-0.62 27:0 28:0.03812 29:-0.059675 30:0.071342 31:0.83 32:0 33:0 34:-1 35:0.098428 36:0.38 37:0 38:0.15466 39:0 40:0 41:-0.046163 42:0.33 43:0.12 44:0 45:0.02 
1 1:0.9 2:0.25 3:0.1 4:0.92 5:0.18 6:-0.06 7:0.09 8:0.05 9:0 10:0 11:0 12:0.07 13:1.12 14:1.3 15:-0.27 16:-1.4 17:-0.34 18:-0.18 19:0.38 20:0 21:0.18 22:0.09 23:0.92 24:-0.06 25:0.16 26:0.25 27:0 28:0.19213 29:-0.35387 30:0.42972 31:0.1 32:0 33:0 34:0 35:0.24264 36:0.05 37:0 38:-0.1093 39:0 40:0 41:-0.48708 42:-0.8 43:0.12 44:0 45:-0.72 
1 1:0.42 2:-0.07 3:0.73 4:0.4 5:-0.2 6:0 7:2.23 8:0.46 9:0 10:0 11:0 12:-2.12 13:1.25 14:1.23 15:1.27 16:0.45 17:0.5 18:0.61 19:-0.45 20:0.08 21:-2.36 22:2.36 23:0.48 24:-0.8 25:0.08 26:-0.72 27:0 28:-0.024915 29:0.077912 30:-0.096679 31:0.78 32:0.04 33:0 34:-1 35:0.25587 36:0.41 37:0 38:0 39:0 40:0 41:-0.18221 42:1.21 43:0.04 44:0 45:0.53 
1 1:0.62 2:-0.64 3:0.48 4:0.6 5:-1.3 6:-0.48 7:0.84 8:0.29 9:0 10:0 11:0 12:0.33 13:0.61 14:0.56 15:-0.41 16:0.3 17:0.09 18:0.16 19:0.31 20:0.04 21:-2.1 22:-0.07 23:0.61 24:-0.77 25:0.12 26:-0.62 27:0 28:0.24958 29:-0.52325 30:0.49736 31:0.83 32:0.12 33:0 34:-1 35:0.056295 36:0.38 37:0 38:0 39:0 40:0 41:-0.26455 42:-0.06 43:0.12 44:0 45:0.25 
1 1:0.62 2:-0.64 3:0.48 4:0.6 5:-1.3 6:-0.48 7:0.84 8:0.29 9:0 10:0 11:0 12:0.1 13:0.92 14:0.9 15:-0.06 16:0.09 17:0.18 18:0.25 19:0.05 20:0.08 21:0.18 22:0.09 23:0.92 24:-0.06 25:0.04 26:0.25 27:0 28:-0.065497 29:0.083228 30:0.030834 31:0.1 32:0.08 33:0 34:0 35:0.24264 36:0.05 37:0 38:0.13333 39:0 40:0 41:-0.12624 42:-0.06 43:0.08 44:0 45:0.25 
1 1:0.87 2:-0.26 3:0.52 4:0.82 5:-0.4 6:-0.5 7:0.57 8:0.12 9:0 10:0 11:0 12:0.95 13:0.95 14:1.18 15:-0.73 16:-1.14 17:-1.22 18:-0.69 19:0.46 20:0.16 21:-0.4 22:0.57 23:0.82 24:-0.5 25:0 26:-0.26 27:0 28:0.034075 29:-0.064163 30:0.13367 31:0.52 32:0 33:0 34:0 35:0.15209 36:0.12 37:0 38:0.13333 39:0 40:0 41:-0.15882 42:-0.41 43:0 44:0 45:0.16 
1 1:0.56 2:0.16 3:0.33 4:0.61 5:0.09 6:-0.41 7:0.3 8:0.31 9:0 10:0 11:0 12:-2.12 13:1.25 14:1.23 15:1.27 16:0.45 17:0.5 18:0.61 19:-0.45 20:0 21:-2.53 22:-3.14 23:0.7 24:-1.18 25:0.12 26:-1.1 27:0 28:0.33866 29:0.077153 30:-0.089522 31:1.4 32:0 33:0 34:1 35:0.3271 36:0.57 37:1 38:-0.063978 39:0 40:1 41:-0.35826 42:0.49 43:0.04 44:0 45:-0.4 
1 1:1.18 2:-0.69 3:0.95 4:0.95 5:-1.22 6:-0.73 7:-1.14 8:0.46 9:0 10:0 11:0 12:1.4 13:0.7 14:0.74 15:-1.18 16:-3.14 17:-2.53 18:-1.1 19:0.57 20:0 21:-2.1 22:-0.07 23:0.61 24:-0.77 25:0.12 26:-0.62 27:1 28:0.072513 29:-0.13261 30:0.15969 31:0.83 32:0.04 33:0 34:-1 35:0.17613 36:0.38 37:0 38:0.093596 39:0 40:0 41:-0.25638 42:-0.27 43:0.08 44:0 45:-0.18 
1 1:1.26 2:0.53 3:-1.18 4:1.3 5:0.41 6:1.21 7:-0.98 8:-0.62 9:0 10:0 11:0 12:-2.12 13:1.25 14:1.23 15:1.27 16:0.45 17:0.5 18:0.61 19:-0.45 20:0.08 21:0.32 22:-1.29 23:1.81 24:1.09 25:0 26:0.54 27:0 28:0.057291 29:0.040693 30:-0.08066 31:-1.27 32:0.04 33:0 34:0 35:0.018018 36:-0.46 37:0 38:0 39:1 40:0 41:-0.18015 42:1.27 43:0.04 44:0 45:0.26 
1 1:0.9 2:0.25 3:0.1 4:0.92 5:0.18 6:-0.06 7:0.09 8:0.05 9:0 10:0 11:0 12:-2.12 13:1.25 14:1.23 15:1.27 16:0.45 17:0.5 18:0.61 19:-0.45 20:0.08 21:-0.4 22:0.57 23:0.82 24:-0.5 25:0 26:-0.26 27:0 28:-0.059343 29:0.084397 30:0.023401 31:0.52 32:0.2 33:0 34:0 35:0.22323 36:0.12 37:0 38:0.34759 39:0 40:0 41:-0.035188 42:-0.41 43:0.04 44:0 45:0.16 
1 1:1.23 2:0.61 3:-2.12 4:1.25 5:0.5 6:1.27 7:0.45 8:-0.45 9:0 10:0 11:0 12:-1.27 13:1.81 14:1.53 15:1.09 16:-1.29 17:0.32 18:0.54 19:-0.46 20:0 21:0.41 22:-0.98 23:1.3 24:1.21 25:0.04 26:0.53 27:0 28:0.016625 29:0.17149 30:-0.15283 31:-1.18 32:0 33:0 34:0 35:0.047882 36:-0.62 37:0 38:-0.27178 39:0 40:0 41:0.0060387 42:-0.8 43:0.04 44:0 45:-0.72 
1 1:1.26 2:0.53 3:-1.18 4:1.3 5:0.41 6:1.21 7:-0.98 8:-0.62 9:0 10:0 11:0 12:0.95 13:0.95 14:1.18 15:-0.73 16:-1.14 17:-1.22 18:-0.69 19:0.46 20:0.08 21:-5.4 22:-3.44 23:0.93 24:-0.84 25:0.04 26:-1.76 27:0 28:0.085834 29:-0.24882 30:0.32103 31:1.91 32:0.08 33:0 34:1 35:0.089636 36:0.12 37:0 38:-0.26923 39:1 40:1 41:-0.19662 42:-0.77 43:0.12 44:0 45:-0.62 
1 1:1.26 2:0.53 3:-1.18 4:1.3 5:0.41 6:1.21 7:-0.98 8:-0.62 9:0 10:0 11:0 12:0.1 13:0.92 14:0.9 15:-0.06 16:0.09 17:0.18 18:0.25 19:0.05 20:0 21:-2.36 22:2.36 23:0.48 24:-0.8 25:0 26:-0.72 27:0 28:-0.10596 29:0.19696 30:-0.00563 31:0.78 32:0.12 33:0 34:-1 35:0.2988 36:0.41 37:0 38:-0.16182 39:1 40:0 41:-0.19584 42:1.31 43:0.16 44:0 45:0.73 
1 1:1.02 2:-1.76 3:1.91 4:0.93 5:-5.4 6:-0.84 7:-3.44 8:0.12 9:1 10:0 11:1 12:0.73 13:0.4 14:0.42 15:0 16:2.23 17:-0.2 18:-0.07 19:0.46 20:0.08 21:-1.3 22:0.84 23:0.6 24:-0.48 25:0 26:-0.64 27:0 28:0.017383 29:0.032064 30:0.11015 31:0.48 32:0.08 33:0 34:0 35:0.072674 36:0.29 37:0 38:-0.053097 39:0 40:0 41:-0.1831 42:-0.8 43:0.04 44:1 45:-0.72 
1 1:1.18 2:-0.69 3:0.95 4:0.95 5:-1.22 6:-0.73 7:-1.14 8:0.46 9:0 10:0 11:0 12:-0.21 13:1.53 14:1.68 15:0.33 16:0.01 17:-0.08 18:0.02 19:-0.25 20:0.04 21:0.18 22:0.09 23:0.92 24:-0.06 25:0.08 26:0.25 27:0 28:0.05687 29:-0.09684 30:0.3608 31:0.1 32:0.08 33:0 34:0 35:0.13879 36:0.05 37:0 38:0.085354 39:0 40:0 41:-0.3207 42:-1.18 43:0.08 44:0 45:-1.1 
1 1:0.9 2:0.25 3:0.1 4:0.92 5:0.18 6:-0.06 7:0.09 8:0.05 9:0 10:0 11:0 12:0.83 13:0.61 14:0.62 15:-0.77 16:-0.07 17:-2.1 18:-0.62 19:0.38 20:0.04 21:-1.22 22:-1.14 23:0.95 24:-0.73 25:0 26:-0.69 27:-1 28:0.211 29:-0.38632 30:0.51174 31:0.95 32:0.12 33:0 34:0 35:0.14433 36:0.46 37:0 38:-0.39735 39:0 40:0 41:-0.63428 42:-0.84 43:0.2 44:0 45:-1.76 
1 1:1.3 2:-0.18 3:0.07 4:1.12 5:-0.34 6:-0.27 7:-1.4 8:0.38 9:0 10:0 11:0 12:0.07 13:1.12 14:1.3 15:-0.27 16:-1.4 17:-0.34 18:-0.18 19:0.38 20:0 21:0.32 22:-1.29 23:1.81 24:1.09 25:0.08 26:0.54 27:0 28:0.1139 29:-0.070548 30:0.046838 31:-1.27 32:0.04 33:0 34:0 35:0.029412 36:-0.46 37:0 38:0 39:0 40:0 41:-0.15188 42:-0.84 43:0 44:0 45:-1.76 
1 1:0.56 2:0.16 3:0.33 4:0.61 5:0.09 6:-0.41 7:0.3 8:0.31 9:0 10:0 11:0 12:-1.13 13:1.81 14:1.54 15:1.31 16:-1.03 17:0.37 18:0.73 19:-0.69 20:0 21:-1.3 22:0.84 23:0.6 24:-0.48 25:0.08 26:-0.64 27:0 28:0.039091 29:-0.039537 30:0.19267 31:0.48 32:0.08 33:0 34:0 35:0.091483 36:0.29 37:0 38:0.066478 39:0 40:0 41:-0.14063 42:1.31 43:0.04 44:0 45:0.73 
1 1:0.42 2:-0.07 3:0.73 4:0.4 5:-0.2 6:0 7:2.23 8:0.46 9:0 10:0 11:0 12:0.33 13:0.61 14:0.56 15:-0.41 16:0.3 17:0.09 18:0.16 19:0.31 20:0.16 21:-0.4 22:0.57 23:0.82 24:-0.5 25:0.04 26:-0.26 27:0 28:0.21461 29:-0.35952 30:0.3911 31:0.52 32:0 33:0 34:0 35:0.07489 36:0.12 37:0 38:-0.073786 39:0 40:0 41:-0.35271 42:-0.5 43:0.2 44:0 45:-0.26 
1 1:1.54 2:0.73 3:-1.13 4:1.81 5:0.37 6:1.31 7:-1.03 8:-0.69 9:0 10:0 11:0 12:1.4 13:0.7 14:0.74 15:-1.18 16:-3.14 17:-2.53 18:-1.1 19:0.57 20:0.12 21:-0.34 22:-1.4 23:1.12 24:-0.27 25:0.04 26:-0.18 27:1 28:-0.063083 29:0.060769 30:0.73243 31:0.07 32:0.12 33:0 34:0 35:0.10656 36:0.38 37:0 38:0 39:0 40:0 41:-0.60593 42:-0.77 43:0.16 44:0 45:-0.62 
1 1:0.62 2:-0.64 3:0.48 4:0.6 5:-1.3 6:-0.48 7:0.84 8:0.29 9:0 10:0 11:0 12:0.78 13:0.48 14:0.47 15:-0.8 16:2.36 17:-2.36 18:-0.72 19:0.41 20:0.04 21:-2.36 22:2.36 23:0.48 24:-0.8 25:0.04 26:-0.72 27:-1 28:-0.042725 29:-0.0086924 30:0.02012 31:0.78 32:0.04 33:1 34:-1 35:0.12381 36:0.41 37:0 38:-0.14809 39:0 40:0 41:-0.054375 42:-0.73 43:0.04 44:0 45:-0.69 
1 1:1.09 2:0.26 3:-1.59 4:1.19 5:0.44 6:1.27 7:-0.41 8:-0.38 9:0 10:0 11:0 12:0.48 13:0.6 14:0.62 15:-0.48 16:0.84 17:-1.3 18:-0.64 19:0.29 20:0.04 21:0.41 22:-0.98 23:1.3 24:1.21 25:0.04 26:0.53 27:0 28:0.011362 29:0.035115 30:-0.0068165 31:-1.18 32:0.16 33:0 34:0 35:0.11923 36:-0.62 37:0 38:0.081841 39:0 40:0 41:-0.17114 42:-0.84 43:0.08 44:0 45:-1.76 
1 1:0.87 2:-0.26 3:0.52 4:0.82 5:-0.4 6:-0.5 7:0.57 8:0.12 9:0 10:0 11:0 12:1.91 13:0.93 14:1.02 15:-0.84 16:-3.44 17:-5.4 18:-1.76 19:0.12 20:0.08 21:-1.3 22:0.84 23:0.6 24:-0.48 25:0 26:-0.64 27:1 28:-0.031928 29:0.067313 30:0.1805 31:0.48 32:0.12 33:0 34:0 35:0.16796 36:0.29 37:0 38:0.037267 39:0 40:0 41:-0.32139 42:-0.77 43:0.08 44:0 45:-0.62 
1 1:0.62 2:-0.64 3:0.48 4:0.6 5:-1.3 6:-0.48 7:0.84 8:0.29 9:0 10:0 11:0 12:0.78 13:0.48 14:0.47 15:-0.8 16:2.36 17:-2.36 18:-0.72 19:0.41 20:0.08 21:-2.1 22:-0.07 23:0.61 24:-0.77 25:0 26:-0.62 27:-1 28:0.075675 29:-0.092514 30:0.19624 31:0.83 32:0.08 33:1 34:-1 35:0.13147 36:0.38 37:0 38:-0.43116 39:0 40:0 41:-0.57194 42:1.09 43:0.08 44:0 45:0.54 
1 1:0.47 2:-0.72 3:0.78 4:0.48 5:-2.36 6:-0.8 7:2.36 8:0.41 9:-1 10:0 11:0 12:0.1 13:0.92 14:0.9 15:-0.06 16:0.09 17:0.18 18:0.25 19:0.05 20:0 21:0.32 22:-1.29 23:1.81 24:1.09 25:0.04 26:0.54 27:0 28:-0.011961 29:-0.022492 30:0.18335 31:-1.27 32:0.08 33:0 34:0 35:0.09901 36:-0.46 37:0 38:-0.066852 39:0 40:0 41:-0.15281 42:-0.84 43:0.04 44:0 45:-1.76 
1 1:1.26 2:0.53 3:-1.18 4:1.3 5:0.41 6:1.21 7:-0.98 8:-0.62 9:0 10:0 11:0 12:0.52 13:0.82 14:0.87 15:-0.5 16:0.57 17:-0.4 18:-0.26 19:0.12 20:0.08 21:0.5 22:0.45 23:1.25 24:1.27 25:0.04 26:0.61 27:0 28:0.022385 29:-0.039589 30:-0.10292 31:-2.12 32:0.16 33:0 34:0 35:0.018388 36:-0.45 37:0 38:0.12097 39:1 40:0 41:0.0008353 42:-0.8 43:0.04 44:0 45:-0.72 
1 1:0.62 2:-0.62 3:0.83 4:0.61 5:-2.1 6:-0.77 7:-0.07 8:0.38 9:-1 10:0 11:0 12:0.73 13:0.4 14:0.42 15:0 16:2.23 17:-0.2 18:-0.07 19:0.46 20:0.08 21:-5.4 22:-3.44 23:0.93 24:-0.84 25:0.12 26:-1.76 27:0 28:0.047678 29:-0.061352 30:0.19612 31:1.91 32:0.08 33:0 34:1 35:0.13811 36:0.12 37:0 38:0 39:0 40:1 41:-0.1656 42:-0.77 43:0.2 44:0 45:-0.62 
1 1:1.23 2:0.61 3:-2.12 4:1.25 5:0.5 6:1.27 7:0.45 8:-0.45 9:0 10:0 11:0 12:1.91 13:0.93 14:1.02 15:-0.84 16:-3.44 17:-5.4 18:-1.76 19:0.12 20:0.12 21:-0.34 22:-1.4 23:1.12 24:-0.27 25:0.08 26:-0.18 27:1 28:0.16936 29:-0.19546 30:0.24351 31:0.07 32:0.08 33:0 34:0 35:0.23077 36:0.38 37:0 38:0 39:0 40:0 41:-0.32354 42:-0.77 43:0.16 44:0 45:-0.62 
1 1:1.23 2:0.61 3:-2.12 4:1.25 5:0.5 6:1.27 7:0.45 8:-0.45 9:0 10:0 11:0 12:0.1 13:0.92 14:0.9 15:-0.06 16:0.09 17:0.18 18:0.25 19:0.05 20:0 21:0.32 22:-1.29 23:1.81 24:1.09 25:0 26:0.54 27:0 28:0.038031 29:0.65346 30:-0.53269 31:-1.27 32:0 33:0 34:0 35:0.23077 36:-0.46 37:0 38:-0.10315 39:0 40:0 41:0.24515 42:-0.27 43:0.12 44:0 45:-0.18 
1 1:1.3 2:-0.18 3:0.07 4:1.12 5:-0.34 6:-0.27 7:-1.4 8:0.38 9:0 10:0 11:0 12:0.83 13:0.61 14:0.62 15:-0.77 16:-0.07 17:-2.1 18:-0.62 19:0.38 20:0.12 21:0.18 22:0.09 23:0.92 24:-0.06 25:0.04 26:0.25 27:-1 28:-0.053829 29:0.11528 30:-0.076641 31:0.1 32:0.04 33:0 34:0 35:0.079612 36:0.05 37:0 38:0.058036 39:0 40:0 41:-0.064417 42:1.31 43:0.16 44:0 45:0.73 
1 1:1.02 2:-1.76 3:1.91 4:0.93 5:-5.4 6:-0.84 7:-3.44 8:0.12 9:1 10:0 11:1 12:0.83 13:0.61 14:0.62 15:-0.77 16:-0.07 17:-2.1 18:-0.62 19:0.38 20:0.08 21:0.37 22:-1.03 23:1.81 24:1.31 25:0 26:0.73 27:-1 28:0.029775 29:-0.12021 30:0.51699 31:-1.13 32:0.16 33:0 34:0 35:0.40678 36:-0.69 37:0 38:0 39:0 40:0 41:-0.82253 42:-0.48 43:0.16 44:1 45:-0.64 
1 1:1.26 2:0.53 3:-1.18 4:1.3 5:0.41 6:1.21 7:-0.98 8:-0.62 9:0 10:0 11:0 12:-1.27 13:1.81 14:1.53 15:1.09 16:-1.29 17:0.32 18:0.54 19:-0.46 20:0.08 21:0.37 22:-1.03 23:1.81 24:1.31 25:0.12 26:0.73 27:0 28:-0.053325 29:0.16564 30:-0.094827 31:-1.13 32:0.04 33:0 34:0 35:0.092199 36:-0.69 37:0 38:0.030303 39:1 40:0 41:-0.065849 42:1.27 43:0.04 44:0 45:0.61 
1 1:1.54 2:0.73 3:-1.13 4:1.81 5:0.37 6:1.31 7:-1.03 8:-0.69 9:0 10:0 11:0 12:0.52 13:0.82 14:0.87 15:-0.5 16:0.57 17:-0.4 18:-0.26 19:0.12 20:0.08 21:-2.36 22:2.36 23:0.48 24:-0.8 25:0.04 26:-0.72 27:0 28:0.11064 29:-0.18609 30:0.085777 31:0.78 32:0 33:0 34:-1 35:0.043557 36:0.41 37:0 38:-0.034123 39:0 40:0 41:-0.070053 42:-0.06 43:0.04 44:0 45:0.25 
1 1:1.68 2:0.02 3:-0.21 4:1.53 5:-0.08 6:0.33 7:0.01 8:-0.25 9:0 10:0 11:0 12:0.1 13:0.92 14:0.9 15:-0.06 16:0.09 17:0.18 18:0.25 19:0.05 20:0.04 21:0.41 22:-0.98 23:1.3 24:1.21 25:0.08 26:0.53 27:0 28:0.16394 29:-0.26844 30:0.28674 31:-1.18 32:0.04 33:0 34:0 35:0.099326 36:-0.62 37:0 38:-0.039529 39:0 40:0 41:-0.12916 42:-0.06 43:0.12 44:0 45:0.25 
1 1:0.9 2:0.25 3:0.1 4:0.92 5:0.18 6:-0.06 7:0.09 8:0.05 9:0 10:0 11:0 12:0.73 13:0.4 14:0.42 15:0 16:2.23 17:-0.2 18:-0.07 19:0.46 20:0 21:0.09 22:0.3 23:0.61 24:-0.41 25:0.04 26:0.16 27:0 28:0.088578 29:-0.061159 30:0.2814 31:0.33 32:0.04 33:0 34:0 35:0.083333 36:0.31 37:0 38:-0.040433 39:0 40:0 41:-0.12165 42:-0.06 43:0.12 44:0 45:0.25 
1 1:1.26 2:0.53 3:-1.18 4:1.3 5:0.41 6:1.21 7:-0.98 8:-0.62 9:0 10:0 11:0 12:0.07 13:1.12 14:1.3 15:-0.27 16:-1.4 17:-0.34 18:-0.18 19:0.38 20:0 21:-0.08 22:0.01 23:1.53 24:0.33 25:0.04 26:0.02 27:0 28:0.010936 29:-0.013541 30:0.22342 31:-0.21 32:0.12 33:0 34:0 35:0.24108 36:-0.25 37:0 38:0.074266 39:1 40:0 41:-0.31342 42:-0.48 43:0.08 44:0 45:-0.64 
1 1:1.3 2:-0.18 3:0.07 4:1.12 5:-0.34 6:-0.27 7:-1.4 8:0.38 9:0 10:0 11:0 12:-1.27 13:1.81 14:1.53 15:1.09 16:-1.29 17:0.32 18:0.54 19:-0.46 20:0.08 21:0.41 22:-0.98 23:1.3 24:1.21 25:0 26:0.53 27:0 28:-0.076503 29:0.135 30:-0.22789 31:-1.18 32:0.08 33:0 34:0 35:0.15411 36:-0.62 37:0 38:-0.026667 39:0 40:0 41:-0.37924 42:-0.06 43:0 44:0 45:0.25 
1 1:0.47 2:-0.72 3:0.78 4:0.48 5:-2.36 6:-0.8 7:2.36 8:0.41 9:-1 10:0 11:0 12:0.33 13:0.61 14:0.56 15:-0.41 16:0.3 17:0.09 18:0.16 19:0.31 20:0.16 21:-0.4 22:0.57 23:0.82 24:-0.5 25:0.08 26:-0.26 27:0 28:-0.075962 29:0.088404 30:-0.089267 31:0.52 32:0.04 33:0 34:0 35:0.22484 36:0.12 37:0 38:0.12516 39:0 40:0 41:-0.11107 42:1.27 43:0 44:0 45:0.61 
1 1:0.62 2:-0.64 3:0.48 4:0.6 5:-1.3 6:-0.48 7:0.84 8:0.29 9:0 10:0 11:0 12:-1.18 13:1.3 14:1.26 15:1.21 16:-0.98 17:0.41 18:0.53 19:-0.62 20:0.04 21:-2.36 22:2.36 23:0.48 24:-0.8 25:0.04 26:-0.72 27:0 28:-0.036497 29:0.22028 30:-0.14472 31:0.78 32:0.04 33:0 34:-1 35:0.026596 36:0.41 37:0 38:-0.39951 39:0 40:0 41:-0.050125 42:1.31 43:0.16 44:0 45:0.73 
1 1:1.53 2:0.54 3:-1.27 4:1.81 5:0.32 6:1.09 7:-1.29 8:-0.46 9:0 10:0 11:0 12:-1.18 13:1.3 14:1.26 15:1.21 16:-0.98 17:0.41 18:0.53 19:-0.62 20:0.04 21:-2.36 22:2.36 23:0.48 24:-0.8 25:0.08 26:-0.72 27:0 28:0.044988 29:-0.046255 30:0.13914 31:0.78 32:0.04 33:0 34:-1 35:0.51773 36:0.41 37:0 38:-0.06495 39:0 40:0 41:-0.37974 42:-1.18 43:0.2 44:0 45:-1.1 
1 1:0.56 2:0.16 3:0.33 4:0.61 5:0.09 6:-0.41 7:0.3 8:0.31 9:0 10:0 11:0 12:0.33 13:0.61 14:0.56 15:-0.41 16:0.3 17:0.09 18:0.16 19:0.31 20:0.04 21:-1.3 22:0.84 23:0.6 24:-0.48 25:0.08 26:-0.64 27:0 28:0.021321 29:0.027342 30:-0.0087133 31:0.48 32:0 33:0 34:0 35:0.58044 36:0.29 37:0 38:-0.12903 39:0 40:0 41:-0.195 42:1.31 43:0.08 44:0 45:0.73 
1 1:0.62 2:-0.62 3:0.83 4:0.61 5:-2.1 6:-0.77 7:-0.07 8:0.38 9:-1 10:0 11:0 12:-1.18 13:1.3 14:1.26 15:1.21 16:-0.98 17:0.41 18:0.53 19:-0.62 20:0.08 21:-2.1 22:-0.07 23:0.61 24:-0.77 25:0.08 26:-0.62 27:0 28:0.052438 29:-0.042989 30:0.10256 31:0.83 32:0.04 33:0 34:-1 35:0.18447 36:0.38 37:0 38:-0.062992 39:0 40:0 41:-0.28122 42:-0.27 43:0.16 44:0 45:-0.18 
1 1:0.62 2:-0.62 3:0.83 4:0.61 5:-2.1 6:-0.77 7:-0.07 8:0.38 9:-1 10:0 11:0 12:0.1 13:0.92 14:0.9 15:-0.06 16:0.09 17:0.18 18:0.25 19:0.05 20:0.16 21:0.09 22:0.3 23:0.61 24:-0.41 25:0.04 26:0.16 27:0 28:-0.023062 29:-0.039087 30:0.2044 31:0.33 32:0.08 33:0 34:0 35:0.12134 36:0.31 37:0 38:-0.4276 39:0 40:0 41:-0.24583 42:1.31 43:0.12 44:0 45:0.73 
1 1:1.26 2:0.53 3:-1.18 4:1.3 5:0.41 6:1.21 7:-0.98 8:-0.62 9:0 10:0 11:0 12:0.95 13:0.95 14:1.18 15:-0.73 16:-1.14 17:-1.22 18:-0.69 19:0.46 20:0.04 21:-1.22 22:-1.14 23:0.95 24:-0.73 25:0.08 26:-0.69 27:0 28:0.040786 29:-0.16633 30:0.43923 31:0.95 32:0.08 33:0 34:0 35:0.17669 36:0.46 37:0 38:-0.29373 39:1 40:0 41:-0.59358 42:-0.77 43:0.2 44:0 45:-0.62 
1 1:1.02 2:-1.76 3:1.91 4:0.93 5:-5.4 6:-0.84 7:-3.44 8:0.12 9:1 10:0 11:1 12:-1.13 13:1.81 14:1.54 15:1.31 16:-1.03 17:0.37 18:0.73 19:-0.69 20:0 21:-5.4 22:-3.44 23:0.93 24:-0.84 25:0.16 26:-1.76 27:0 28:0.076625 29:-0.14971 30:0.25395 31:1.91 32:0.12 33:0 34:1 35:0.27192 36:0.12 37:0 38:0.12112 39:0 40:1 41:-0.35194 42:-0.06 43:0.04 44:1 45:0.25 
1 1:1.26 2:0.53 3:-1.18 4:1.3 5:0.41 6:1.21 7:-0.98 8:-0.62 9:0 10:0 11:0 12:-1.13 13:1.81 14:1.54 15:1.31 16:-1.03 17:0.37 18:0.73 19:-0.69 20:0 21:0.32 22:-1.29 23:1.81 24:1.09 25:0.16 26:0.54 27:0 28:-0.020786 29:0.052714 30:0.066011 31:-1.27 32:0.08 33:0 34:0 35:-0.083383 36:-0.46 37:0 38:0.053672 39:1 40:0 41:0.061946 42:0 43:0 44:0 45:-0.07 
1 1:0.9 2:0.25 3:0.1 4:0.92 5:0.18 6:-0.06 7:0.09 8:0.05 9:0 10:0 11:0 12:0.33 13:0.61 14:0.56 15:-0.41 16:0.3 17:0.09 18:0.16 19:0.31 20:0.04 21:0.18 22:0.09 23:0.92 24:-0.06 25:0.04 26:0.25 27:0 28:-0.034431 29:0.10724 30:-0.092935 31:0.1 32:0.04 33:0 34:0 35:0.062547 36:0.05 37:0 38:-0.15758 39:0 40:0 41:-0.11345 42:-0.41 43:0.08 44:0 45:0.16 
1 1:1.26 2:0.53 3:-1.18 4:1.3 5:0.41 6:1.21 7:-0.98 8:-0.62 9:0 10:0 11:0 12:0.95 13:0.95 14:1.18 15:-0.73 16:-1.14 17:-1.22 18:-0.69 19:0.46 20:0 21:0.44 22:-0.41 23:1.19 24:1.27 25:0.12 26:0.26 27:0 28:0.078599 29:-0.15914 30:0.18438 31:-1.59 32:0.04 33:0 34:0 35:0.18349 36:-0.38 37:0 38:0 39:1 40:0 41:-0.17891 42:-0.48 43:0.08 44:0 45:-0.64 
1 1:1.18 2:-0.69 3:0.95 4:0.95 5:-1.22 6:-0.73 7:-1.14 8:0.46 9:0 10:0 11:0 12:-1.27 13:1.81 14:1.53 15:1.09 16:-1.29 17:0.32 18:0.54 19:-0.46 20:0.08 21:-5.4 22:-3.44 23:0.93 24:-0.84 25:0 26:-1.76 27:0 28:0.039463 29:-0.032566 30:0.033713 31:1.91 32:0.04 33:0 34:1 35:0.067941 36:0.12 37:0 38:-0.17105 39:0 40:1 41:-0.13702 42:-0.8 43:0.12 44:0 45:-0.72 
1 1:0.9 2:0.25 3:0.1 4:0.92 5:0.18 6:-0.06 7:0.09 8:0.05 9:0 10:0 11:0 12:0.83 13:0.61 14:0.62 15:-0.77 16:-0.07 17:-2.1 18:-0.62 19:0.38 20:0.04 21:0.09 22:0.3 23:0.61 24:-0.41 25:0.08 26:0.16 27:-1 28:0.1423 29:0.040146 30:0.037413 31:0.33 32:0.08 33:0 34:0 35:-0.085573 36:0.31 37:0 38:-0.11429 39:0 40:0 41:0.36222 42:1.27 43:0.16 44:0 45:0.61 
1 1:1.54 2:0.73 3:-1.13 4:1.81 5:0.37 6:1.31 7:-1.03 8:-0.69 9:0 10:0 11:0 12:0.83 13:0.61 14:0.62 15:-0.77 16:-0.07 17:-2.1 18:-0.62 19:0.38 20:0 21:-2.1 22:-0.07 23:0.61 24:-0.77 25:0.08 26:-0.62 27:-1 28:0.07325 29:0.011063 30:-0.013921 31:0.83 32:0 33:0 34:-1 35:0.125 36:0.38 37:0 38:-0.23883 39:0 40:0 41:-0.070179 42:-0.77 43:0.12 44:0 45:-0.62 
1 1:1.54 2:0.73 3:-1.13 4:1.81 5:0.37 6:1.31 7:-1.03 8:-0.69 9:0 10:0 11:0 12:1.4 13:0.7 14:0.74 15:-1.18 16:-3.14 17:-2.53 18:-1.1 19:0.57 20:0.08 21:-0.34 22:-1.4 23:1.12 24:-0.27 25:0.12 26:-0.18 27:1 28:0.099705 29:-0.0038752 30:0.089004 31:0.07 32:0.04 33:0 34:0 35:0.82369 36:0.38 37:0 38:0.33333 39:0 40:0 41:-1.3068 42:1.21 43:0 44:0 45:0.53 
1 1:1.54 2:0.73 3:-1.13 4:1.81 5:0.37 6:1.31 7:-1.03 8:-0.69 9:0 10:0 11:0 12:0.33 13:0.61 14:0.56 15:-0.41 16:0.3 17:0.09 18:0.16 19:0.31 20:0 21:0.09 22:0.3 23:0.61 24:-0.41 25:0.16 26:0.16 27:0 28:-0.011576 29:0.1717 30:-0.18373 31:0.33 32:0 33:0 34:0 35:0.075758 36:0.31 37:0 38:0 39:0 40:0 41:-0.015384 42:-1.18 43:0.04 44:0 45:-1.1 
1 1:0.62 2:-0.64 3:0.48 4:0.6 5:-1.3 6:-0.48 7:0.84 8:0.29 9:0 10:0 11:0 12:-1.13 13:1.81 14:1.54 15:1.31 16:-1.03 17:0.37 18:0.73 19:-0.69 20:0.08 21:0.18 22:0.09 23:0.92 24:-0.06 25:0.08 26:0.25 27:0 28:0.0083004 29:-0.036978 30:0.012113 31:0.1 32:0 33:0 34:0 35:0.15278 36:0.05 37:0 38:0 39:0 40:0 41:0.010784 42:-0.06 43:0 44:0 45:0.25 
1 1:0.47 2:-0.72 3:0.78 4:0.48 5:-2.36 6:-0.8 7:2.36 8:0.41 9:-1 10:0 11:0 12:0.95 13:0.95 14:1.18 15:-0.73 16:-1.14 17:-1.22 18:-0.69 19:0.46 20:0.04 21:-1.48 22:1.11 23:0.93 24:0.49 25:0.12 26:-0.4 27:0 28:0.2189 29:-0.51196 30:0.91195 31:-0.5 32:0.08 33:0 34:0 35:0.70511 36:-0.41 37:0 38:0.41697 39:0 40:1 41:-0.8754 42:1.31 43:0.04 44:0 45:0.73 
1 1:1.53 2:0.54 3:-1.27 4:1.81 5:0.32 6:1.09 7:-1.29 8:-0.46 9:0 10:0 11:0 12:0.78 13:0.48 14:0.47 15:-0.8 16:2.36 17:-2.36 18:-0.72 19:0.41 20:0.04 21:0.41 22:-0.98 23:1.3 24:1.21 25:0.04 26:0.53 27:-1 28:-0.0090499 29:-0.04135 30:0.20494 31:-1.18 32:0 33:1 34:0 35:0.043557 36:-0.62 37:0 38:-0.24355 39:0 40:0 41:-0.018029 42:1.21 43:0.04 44:0 45:0.53 
1 1:1.68 2:0.02 3:-0.21 4:1.53 5:-0.08 6:0.33 7:0.01 8:-0.25 9:0 10:0 11:0 12:0.73 13:0.4 14:0.42 15:0 16:2.23 17:-0.2 18:-0.07 19:0.46 20:0.08 21:0.5 22:0.45 23:1.25 24:1.27 25:0.04 26:0.61 27:0 28:-0.05869 29:0.13658 30:-0.13369 31:-2.12 32:0 33:0 34:0 35:0.083333 36:-0.45 37:0 38:0 39:0 40:0 41:0.047784 42:-1.18 43:0 44:0 45:-1.1 
1 1:1.68 2:0.02 3:-0.21 4:1.53 5:-0.08 6:0.33 7:0.01 8:-0.25 9:0 10:0 11:0 12:0.73 13:0.4 14:0.42 15:0 16:2.23 17:-0.2 18:-0.07 19:0.46 20:0 21:-2.1 22:-0.07 23:0.61 24:-0.77 25:0.08 26:-0.62 27:0 28:0.077031 29:-0.042498 30:0.30357 31:0.83 32:0.08 33:0 34:-1 35:0.11331 36:0.38 37:0 38:-0.034356 39:0 40:0 41:-0.26994 42:0 43:0.16 44:0 45:-0.07 
1 1:1.26 2:0.53 3:-1.18 4:1.3 5:0.41 6:1.21 7:-0.98 8:-0.62 9:0 10:0 11:0 12:1.91 13:0.93 14:1.02 15:-0.84 16:-3.44 17:-5.4 18:-1.76 19:0.12 20:0.04 21:0.41 22:-0.98 23:1.3 24:1.21 25:0 26:0.53 27:1 28:-0.12425 29:0.2848 30:-0.32592 31:-1.18 32:0.08 33:0 34:0 35:0.2204 36:-0.62 37:0 38:0.037846 39:1 40:0 41:0.25677 42:1.21 43:0 44:0 45:0.53 
1 1:1.18 2:-0.69 3:0.95 4:0.95 5:-1.22 6:-0.73 7:-1.14 8:0.46 9:0 10:0 11:0 12:0.78 13:0.48 14:0.47 15:-0.8 16:2.36 17:-2.36 18:-0.72 19:0.41 20:0.04 21:0.18 22:0.09 23:0.92 24:-0.06 25:0.04 26:0.25 27:-1 28:-0.031023 29:0.010696 30:-0.024555 31:0.1 32:0.08 33:1 34:0 35:0.30207 36:0.05 37:0 38:-0.046332 39:0 40:0 41:-0.18613 42:0.88 43:0 44:0 45:0.37 
1 1:0.62 2:-0.64 3:0.48 4:0.6 5:-1.3 6:-0.48 7:0.84 8:0.29 9:0 10:0 11:0 12:-1.18 13:1.3 14:1.26 15:1.21 16:-0.98 17:0.41 18:0.53 19:-0.62 20:0.04 21:0.41 22:-0.98 23:1.3 24:1.21 25:0.04 26:0.53 27:0 28:0.052611 29:-0.13545 30:0.25415 31:-1.18 32:0.12 33:0 34:0 35:0.1055 36:-0.62 37:0 38:-0.22137 39:0 40:0 41:-0.37095 42:1.09 43:0.08 44:0 45:0.54 
1 1:1.53 2:0.54 3:-1.27 4:1.81 5:0.32 6:1.09 7:-1.29 8:-0.46 9:0 10:0 11:0 12:0.83 13:0.61 14:0.62 15:-0.77 16:-0.07 17:-2.1 18:-0.62 19:0.38 20:0 21:0.37 22:-1.03 23:1.81 24:1.31 25:0.12 26:0.73 27:-1 28:0.053465 29:0.051425 30:0.064228 31:-1.13 32:0 33:0 34:0 35:0.24051 36:-0.69 37:0 38:-0.075472 39:0 40:0 41:-0.39662 42:0.33 43:0.16 44:0 45:0.02 
1 1:1.26 2:0.53 3:-1.18 4:1.3 5:0.41 6:1.21 7:-0.98 8:-0.62 9:0 10:0 11:0 12:-1.13 13:1.81 14:1.54 15:1.31 16:-1.03 17:0.37 18:0.73 19:-0.69 20:0.16 21:-2.36 22:2.36 23:0.48 24:-0.8 25:0.08 26:-0.72 27:0 28:0.044679 29:-0.09294 30:0.13766 31:0.78 32:0 33:0 34:-1 35:0.044674 36:0.41 37:0 38:-0.12135 39:1 40:0 41:-0.15393 42:-0.5 43:0.08 44:0 45:-0.26 
1 1:1.75 2:0.37 3:-0.51 4:1.54 5:-0.01 6:0.88 7:0.85 8:-0.98 9:0 10:0 11:0 12:1.4 13:0.7 14:0.74 15:-1.18 16:-3.14 17:-2.53 18:-1.1 19:0.57 20:0.12 21:-0.08 22:0.01 23:1.53 24:0.33 25:0.08 26:0.02 27:1 28:-0.088514 29:0.25702 30:-0.24465 31:-0.21 32:0 33:0 34:0 35:0.24631 36:-0.25 37:0 38:-0.038916 39:0 40:0 41:-0.093533 42:-0.8 43:0.04 44:0 45:-0.72 
1 1:0.9 2:0.25 3:0.1 4:0.92 5:0.18 6:-0.06 7:0.09 8:0.05 9:0 10:0 11:0 12:-1.18 13:1.3 14:1.26 15:1.21 16:-0.98 17:0.41 18:0.53 19:-0.62 20:0.12 21:-0.34 22:-1.4 23:1.12 24:-0.27 25:0.04 26:-0.18 27:0 28:-0.053017 29:0.1207 30:0.10312 31:0.07 32:0.08 33:0 34:0 35:0.18266 36:0.38 37:0 38:-0.17775 39:0 40:0 41:-0.20471 42:0.33 43:0 44:0 45:0.02 
1 1:0.9 2:0.25 3:0.1 4:0.92 5:0.18 6:-0.06 7:0.09 8:0.05 9:0 10:0 11:0 12:0.95 13:0.95 14:1.18 15:-0.73 16:-1.14 17:-1.22 18:-0.69 19:0.46 20:0 21:0.32 22:-1.29 23:1.81 24:1.09 25:0 26:0.54 27:0 28:-0.002932 29:0.02223 30:0.077532 31:-1.27 32:0.04 33:0 34:0 35:0.039927 36:-0.46 37:0 38:-0.18258 39:0 40:0 41:-0.076154 42:0.88 43:0.08 44:0 45:0.37 
1 1:1.23 2:0.61 3:-2.12 4:1.25 5:0.5 6:1.27 7:0.45 8:-0.45 9:0 10:0 11:0 12:0.1 13:0.92 14:0.9 15:-0.06 16:0.09 17:0.18 18:0.25 19:0.05 20:0 21:-0.2 22:2.23 23:0.4 24:0 25:0.04 26:-0.07 27:0 28:0.0055684 29:0.16104 30:0.043921 31:0.73 32:0.08 33:0 34:0 35:0.22484 36:0.46 37:0 38:0 39:0 40:0 41:-0.11558 42:1.09 43:0.08 44:0 45:0.54 
1 1:0.87 2:-0.26 3:0.52 4:0.82 5:-0.4 6:-0.5 7:0.57 8:0.12 9:0 10:0 11:0 12:0.83 13:0.61 14:0.62 15:-0.77 16:-0.07 17:-2.1 18:-0.62 19:0.38 20:0.04 21:0.18 22:0.09 23:0.92 24:-0.06 25:0.04 26:0.25 27:-1 28:0.084643 29:0.10425 30:-0.003936 31:0.1 32:0.04 33:0 34:0 35:0.225 36:0.05 37:0 38:-0.073394 39:0 40:0 41:-0.068244 42:1.09 43:0.16 44:0 45:0.54 
1 1:0.47 2:-0.72 3:0.78 4:0.48 5:-2.36 6:-0.8 7:2.36 8:0.41 9:-1 10:0 11:0 12:-1.18 13:1.3 14:1.26 15:1.21 16:-0.98 17:0.41 18:0.53 19:-0.62 20:0.12 21:0.32 22:-1.29 23:1.81 24:1.09 25:0 26:0.54 27:0 28:0.010079 29:-0.020539 30:0.011236 31:-1.27 32:0.04 33:0 34:0 35:0.031809 36:-0.46 37:0 38:-0.022727 39:0 40:0 41:-0.1015 42:1.09 43:0.08 44:0 45:0.54 
1 1:0.56 2:0.16 3:0.33 4:0.61 5:0.09 6:-0.41 7:0.3 8:0.31 9:0 10:0 11:0 12:0.33 13:0.61 14:0.56 15:-0.41 16:0.3 17:0.09 18:0.16 19:0.31 20:0 21:-0.08 22:0.01 23:1.53 24:0.33 25:0.12 26:0.02 27:0 28:0.014826 29:0.045392 30:0.17673 31:-0.21 32:0.04 33:0 34:0 35:0.020151 36:-0.25 37:0 38:-0.004914 39:0 40:0 41:-0.034945 42:0 43:0 44:0 45:-0.07 
1 1:0.62 2:-0.62 3:0.83 4:0.61 5:-2.1 6:-0.77 7:-0.07 8:0.38 9:-1 10:0 11:0 12:-1.13 13:1.81 14:1.54 15:1.31 16:-1.03 17:0.37 18:0.73 19:-0.69 20:0 21:0.18 22:0.09 23:0.92 24:-0.06 25:0.04 26:0.25 27:0 28:-0.11317 29:0.074188 30:0.41959 31:0.1 32:0.12 33:0 34:0 35:0.60123 36:0.05 37:0 38:0.26485 39:0 40:0 41:-0.70931 42:1.31 43:0.08 44:0 45:0.73 
1 1:1.75 2:0.37 3:-0.51 4:1.54 5:-0.01 6:0.88 7:0.85 8:-0.98 9:0 10:0 11:0 12:0.73 13:0.4 14:0.42 15:0 16:2.23 17:-0.2 18:-0.07 19:0.46 20:0.04 21:0.09 22:0.3 23:0.61 24:-0.41 25:0.08 26:0.16 27:0 28:0.19657 29:-0.26194 30:0.4224 31:0.33 32:0.08 33:0 34:0 35:0.17884 36:0.31 37:0 38:0 39:0 40:0 41:-0.1268 42:-0.06 43:0.08 44:0 45:0.25 
1 1:1.3 2:-0.18 3:0.07 4:1.12 5:-0.34 6:-0.27 7:-1.4 8:0.38 9:0 10:0 11:0 12:0.07 13:1.12 14:1.3 15:-0.27 16:-1.4 17:-0.34 18:-0.18 19:0.38 20:0.04 21:0.41 22:-0.98 23:1.3 24:1.21 25:0.12 26:0.53 27:0 28:-0.018584 29:-0.0020421 30:0.0935 31:-1.18 32:0.12 33:0 34:0 35:0.09589 36:-0.62 37:0 38:0.081995 39:0 40:0 41:-0.15947 42:-1.18 43:0.08 44:0 45:-1.1 
1 1:0.62 2:-0.64 3:0.48 4:0.6 5:-1.3 6:-0.48 7:0.84 8:0.29 9:0 10:0 11:0 12:-1.18 13:1.3 14:1.26 15:1.21 16:-0.98 17:0.41 18:0.53 19:-0.62 20:0.08 21:0.44 22:-0.41 23:1.19 24:1.27 25:0.04 26:0.26 27:0 28:-0.058069 29:0.095043 30:-0.0072859 31:-1.59 32:0.04 33:0 34:0 35:0.18519 36:-0.38 37:0 38:-0.12256 39:0 40:0 41:-0.43387 42:1.21 43:0.04 44:0 45:0.53 
1 1:1.75 2:0.37 3:-0.51 4:1.54 5:-0.01 6:0.88 7:0.85 8:-0.98 9:0 10:0 11:0 12:-2.12 13:1.25 14:1.23 15:1.27 16:0.45 17:0.5 18:0.61 19:-0.45 20:0.04 21:0.32 22:-1.29 23:1.81 24:1.09 25:0.04 26:0.54 27:0 28:-0.13169 29:0.25416 30:-0.10616 31:-1.27 32:0.04 33:0 34:0 35:0.23024 36:-0.46 37:0 38:0.040288 39:0 40:0 41:-0.0054612 42:-0.5 43:0 44:0 45:-0.26 
1 1:0.47 2:-0.72 3:0.78 4:0.48 5:-2.36 6:-0.8 7:2.36 8:0.41 9:-1 10:0 11:0 12:0.07 13:1.12 14:1.3 15:-0.27 16:-1.4 17:-0.34 18:-0.18 19:0.38 20:0.04 21:-0.2 22:2.23 23:0.4 24:0 25:0 26:-0.07 27:0 28:-0.17766 29:0.42297 30:-0.33558 31:0.73 32:0.04 33:0 34:0 35:0.11093 36:0.46 37:0 38:-0.021858 39:0 40:0 41:0.031775 42:1.31 43:0 44:0 45:0.73 
1 1:0.47 2:-0.72 3:0.78 4:0.48 5:-2.36 6:-0.8 7:2.36 8:0.41 9:-1 10:0 11:0 12:-1.13 13:1.81 14:1.54 15:1.31 16:-1.03 17:0.37 18:0.73 19:-0.69 20:0.04 21:-2.53 22:-3.14 23:0.7 24:-1.18 25:0.08 26:-1.1 27:0 28:0.10844 29:-0.19087 30:0.27201 31:1.4 32:0.08 33:0 34:1 35:0.17417 36:0.57 37:1 38:0.044444 39:0 40:1 41:-0.20781 42:-0.27 43:0.04 44:0 45:-0.18 
1 1:0.47 2:-0.72 3:0.78 4:0.48 5:-2.36 6:-0.8 7:2.36 8:0.41 9:-1 10:0 11:0 12:1.91 13:0.93 14:1.02 15:-0.84 16:-3.44 17:-5.4 18:-1.76 19:0.12 20:0 21:0.41 22:-0.98 23:1.3 24:1.21 25:0.08 26:0.53 27:1 28:-0.0075782 29:0.065209 30:0.20781 31:-1.18 32:0.08 33:0 34:0 35:0.066667 36:-0.62 37:0 38:-0.20997 39:0 40:0 41:-0.1869 42:-0.73 43:0.04 44:0 45:-0.69 
1 1:0.87 2:-0.26 3:0.52 4:0.82 5:-0.4 6:-0.5 7:0.57 8:0.12 9:0 10:0 11:0 12:-1.27 13:1.81 14:1.53 15:1.09 16:-1.29 17:0.32 18:0.54 19:-0.46 20:0.04 21:0.18 22:0.09 23:0.92 24:-0.06 25:0.08 26:0.25 27:0 28:0.17096 29:-0.24697 30:0.29331 31:0.1 32:0.08 33:0 34:0 35:0.069892 36:0.05 37:0 38:0 39:0 40:0 41:-0.071486 42:-0.77 43:0.12 44:0 45:-0.62 
1 1:0.62 2:-0.62 3:0.83 4:0.61 5:-2.1 6:-0.77 7:-0.07 8:0.38 9:-1 10:0 11:0 12:0.73 13:0.4 14:0.42 15:0 16:2.23 17:-0.2 18:-0.07 19:0.46 20:0.04 21:-2.36 22:2.36 23:0.48 24:-0.8 25:0.04 26:-0.72 27:0 28:-0.0016199 29:0.065433 30:-0.068906 31:0.78 32:0.04 33:0 34:-1 35:0.16464 36:0.41 37:0 38:-0.060194 39:0 40:0 41:-0.11101 42:-0.5 43:0.08 44:0 45:-0.26 
1 1:0.62 2:-0.62 3:0.83 4:0.61 5:-2.1 6:-0.77 7:-0.07 8:0.38 9:-1 10:0 11:0 12:0.1 13:0.92 14:0.9 15:-0.06 16:0.09 17:0.18 18:0.25 19:0.05 20:0.12 21:0.32 22:-1.29 23:1.81 24:1.09 25:0.04 26:0.54 27:0 28:-0.0065583 29:0.066615 30:-0.025568 31:-1.27 32:0.04 33:0 34:0 35:0.28481 36:-0.46 37:0 38:0 39:0 40:0 41:-0.13644 42:1.09 43:0.08 44:0 45:0.54 
1 1:0.74 2:-1.1 3:1.4 4:0.7 5:-2.53 6:-1.18 7:-3.14 8:0.57 9:1 10:1 11:1 12:-0.21 13:1.53 14:1.68 15:0.33 16:0.01 17:-0.08 18:0.02 19:-0.25 20:0.08 21:0.37 22:-1.03 23:1.81 24:1.31 25:0.04 26:0.73 27:0 28:-0.13536 29:0.4503 30:-0.47191 31:-1.13 32:0 33:0 34:0 35:0.066667 36:-0.69 37:0 38:-0.098434 39:0 40:0 41:-4.1633e-017 42:-0.8 43:0 44:0 45:-0.72 
1 1:1.26 2:0.53 3:-1.18 4:1.3 5:0.41 6:1.21 7:-0.98 8:-0.62 9:0 10:0 11:0 12:-1.18 13:1.3 14:1.26 15:1.21 16:-0.98 17:0.41 18:0.53 19:-0.62 20:0.04 21:-2.1 22:-0.07 23:0.61 24:-0.77 25:0.04 26:-0.62 27:0 28:0.051507 29:-0.046231 30:0.049924 31:0.83 32:0 33:0 34:-1 35:0.027842 36:0.38 37:0 38:-0.15296 39:1 40:0 41:-0.036401 42:-0.06 43:0.08 44:0 45:0.25 
1 1:1.3 2:-0.18 3:0.07 4:1.12 5:-0.34 6:-0.27 7:-1.4 8:0.38 9:0 10:0 11:0 12:0.07 13:1.12 14:1.3 15:-0.27 16:-1.4 17:-0.34 18:-0.18 19:0.38 20:0.04 21:-1.22 22:-1.14 23:0.95 24:-0.73 25:0.08 26:-0.69 27:0 28:0.27786 29:-0.48758 30:0.81783 31:0.95 32:0.04 33:0 34:0 35:0.052129 36:0.46 37:0 38:-0.047511 39:0 40:0 41:-0.73586 42:1.31 43:0.12 44:0 45:0.73 
1 1:1.26 2:0.53 3:-1.18 4:1.3 5:0.41 6:1.21 7:-0.98 8:-0.62 9:0 10:0 11:0 12:0.1 13:0.92 14:0.9 15:-0.06 16:0.09 17:0.18 18:0.25 19:0.05 20:0.08 21:-2.36 22:2.36 23:0.48 24:-0.8 25:0.12 26:-0.72 27:0 28:0.045302 29:-0.052243 30:0.11725 31:0.78 32:0 33:0 34:-1 35:0.49087 36:0.41 37:0 38:0 39:1 40:0 41:-0.46554 42:1.21 43:0.08 44:0 45:0.53 
1 1:1.75 2:0.37 3:-0.51 4:1.54 5:-0.01 6:0.88 7:0.85 8:-0.98 9:0 10:0 11:0 12:0.73 13:0.4 14:0.42 15:0 16:2.23 17:-0.2 18:-0.07 19:0.46 20:0.08 21:-1.3 22:0.84 23:0.6 24:-0.48 25:0.04 26:-0.64 27:0 28:-0.044045 29:0.27081 30:-0.097234 31:0.48 32:0.08 33:0 34:0 35:-0.020115 36:0.29 37:0 38:-0.048057 39:0 40:0 41:0.0091395 42:-0.41 43:0.08 44:0 45:0.16 
1 1:1.68 2:0.02 3:-0.21 4:1.53 5:-0.08 6:0.33 7:0.01 8:-0.25 9:0 10:0 11:0 12:0.1 13:0.92 14:0.9 15:-0.06 16:0.09 17:0.18 18:0.25 19:0.05 20:0 21:-2.1 22:-0.07 23:0.61 24:-0.77 25:0.08 26:-0.62 27:0 28:0.02124 29:0.058848 30:0.10355 31:0.83 32:0.08 33:0 34:-1 35:0.075758 36:0.38 37:0 38:0 39:0 40:0 41:-0.10026 42:1.21 43:0.16 44:0 45:0.53 
1 1:0.9 2:0.25 3:0.1 4:0.92 5:0.18 6:-0.06 7:0.09 8:0.05 9:0 10:0 11:0 12:0.52 13:0.82 14:0.87 15:-0.5 16:0.57 17:-0.4 18:-0.26 19:0.12 20:0.12 21:0.18 22:0.09 23:0.92 24:-0.06 25:0.04 26:0.25 27:0 28:0.087329 29:-0.089289 30:0.10259 31:0.1 32:0.04 33:0 34:0 35:0.12281 36:0.05 37:0 38:0.048485 39:0 40:0 41:-0.088819 42:-0.06 43:0 44:0 45:0.25 
1 1:1.68 2:0.02 3:-0.21 4:1.53 5:-0.08 6:0.33 7:0.01 8:-0.25 9:0 10:0 11:0 12:1.4 13:0.7 14:0.74 15:-1.18 16:-3.14 17:-2.53 18:-1.1 19:0.57 20:0.04 21:-1.22 22:-1.14 23:0.95 24:-0.73 25:0.08 26:-0.69 27:1 28:-0.22713 29:0.50908 30:-0.37006 31:0.95 32:0 33:0 34:0 35:0.073245 36:0.46 37:0 38:-0.29457 39:0 40:0 41:-0.54238 42:-0.8 43:0.08 44:0 45:-0.72 
1 1:1.09 2:0.26 3:-1.59 4:1.19 5:0.44 6:1.27 7:-0.41 8:-0.38 9:0 10:0 11:0 12:1.4 13:0.7 14:0.74 15:-1.18 16:-3.14 17:-2.53 18:-1.1 19:0.57 20:0 21:-1.22 22:-1.14 23:0.95 24:-0.73 25:0.12 26:-0.69 27:1 28:0.021562 29:0.34619 30:-0.11156 31:0.95 32:0.04 33:0 34:0 35:0.22072 36:0.46 37:0 38:0 39:0 40:0 41:-0.077602 42:0 43:0.12 44:0 45:-0.07 
1 1:1.68 2:0.02 3:-0.21 4:1.53 5:-0.08 6:0.33 7:0.01 8:-0.25 9:0 10:0 11:0 12:0.48 13:0.6 14:0.62 15:-0.48 16:0.84 17:-1.3 18:-0.64 19:0.29 20:0.04 21:0.41 22:-0.98 23:1.3 24:1.21 25:0 26:0.53 27:0 28:-0.071095 29:0.19898 30:-0.12885 31:-1.18 32:0.08 33:0 34:0 35:0.041721 36:-0.62 37:0 38:0 39:0 40:0 41:-0.090752 42:-0.06 43:0.08 44:0 45:0.25 
1 1:1.23 2:0.61 3:-2.12 4:1.25 5:0.5 6:1.27 7:0.45 8:-0.45 9:0 10:0 11:0 12:0.07 13:1.12 14:1.3 15:-0.27 16:-1.4 17:-0.34 18:-0.18 19:0.38 20:0.04 21:-0.4 22:0.57 23:0.82 24:-0.5 25:0 26:-0.26 27:0 28:-0.27037 29:0.46205 30:-0.4242 31:0.52 32:0.04 33:0 34:0 35:0.10081 36:0.12 37:0 38:-0.012937 39:0 40:0 41:-0.021319 42:0.33 43:0.2 44:0 45:0.02 
1 1:0.9 2:0.25 3:0.1 4:0.92 5:0.18 6:-0.06 7:0.09 8:0.05 9:0 10:0 11:0 12:0.52 13:0.82 14:0.87 15:-0.5 16:0.57 17:-0.4 18:-0.26 19:0.12 20:0.08 21:-0.4 22:0.57 23:0.82 24:-0.5 25:0.08 26:-0.26 27:0 28:0.127 29:-0.23789 30:0.29341 31:0.52 32:0.04 33:0 34:0 35:0.029851 36:0.12 37:0 38:0 39:0 40:0 41:-0.23623 42:-0.27 43:0 44:0 45:-0.18 
1 1:0.87 2:-0.26 3:0.52 4:0.82 5:-0.4 6:-0.5 7:0.57 8:0.12 9:0 10:0 11:0 12:-0.5 13:0.93 14:1.12 15:0.49 16:1.11 17:-1.48 18:-0.4 19:-0.41 20:0.04 21:0.5 22:0.45 23:1.25 24:1.27 25:0.04 26:0.61 27:0 28:-0.11444 29:0.14786 30:-0.11929 31:-2.12 32:0.04 33:0 34:0 35:0.12887 36:-0.45 37:0 38:0 39:0 40:0 41:-0.018556 42:-0.41 43:0.12 44:0 45:0.16 
1 1:1.18 2:-0.69 3:0.95 4:0.95 5:-1.22 6:-0.73 7:-1.14 8:0.46 9:0 10:0 11:0 12:-1.13 13:1.81 14:1.54 15:1.31 16:-1.03 17:0.37 18:0.73 19:-0.69 20:0.04 21:-0.01 22:0.85 23:1.54 24:0.88 25:0.08 26:0.37 27:0 28:-0.23804 29:0.53626 30:-0.74973 31:-0.51 32:0 33:0 34:0 35:0.23487 36:-0.98 37:0 38:0 39:0 40:0 41:-0.13841 42:1.27 43:0.08 44:0 45:0.61 
1 1:0.47 2:-0.72 3:0.78 4:0.48 5:-2.36 6:-0.8 7:2.36 8:0.41 9:-1 10:0 11:0 12:-1.13 13:1.81 14:1.54 15:1.31 16:-1.03 17:0.37 18:0.73 19:-0.69 20:0 21:0.18 22:0.09 23:0.92 24:-0.06 25:0 26:0.25 27:0 28:-0.12562 29:0.34697 30:-0.51553 31:0.1 32:0 33:0 34:0 35:0.078886 36:0.05 37:0 38:-0.92923 39:0 40:0 41:0.018396 42:0.49 43:0.04 44:0 45:-0.4 
1 1:0.56 2:0.16 3:0.33 4:0.61 5:0.09 6:-0.41 7:0.3 8:0.31 9:0 10:0 11:0 12:-1.13 13:1.81 14:1.54 15:1.31 16:-1.03 17:0.37 18:0.73 19:-0.69 20:0.04 21:-2.1 22:-0.07 23:0.61 24:-0.77 25:0.04 26:-0.62 27:0 28:-0.086997 29:0.16183 30:0.087048 31:0.83 32:0.12 33:0 34:-1 35:0.12553 36:0.38 37:0 38:0.059739 39:0 40:0 41:-0.11345 42:-0.41 43:0.08 44:0 45:0.16 
1 1:0.62 2:-0.64 3:0.48 4:0.6 5:-1.3 6:-0.48 7:0.84 8:0.29 9:0 10:0 11:0 12:-1.18 13:1.3 14:1.26 15:1.21 16:-0.98 17:0.41 18:0.53 19:-0.62 20:0 21:0.37 22:-1.03 23:1.81 24:1.31 25:0.04 26:0.73 27:0 28:-0.1527 29:0.22966 30:-0.19221 31:-1.13 32:0.04 33:0 34:0 35:0.23754 36:-0.69 37:0 38:0 39:0 40:0 41:-0.10143 42:0.33 43:0.12 44:0 45:0.02 
1 1:1.3 2:-0.18 3:0.07 4:1.12 5:-0.34 6:-0.27 7:-1.4 8:0.38 9:0 10:0 11:0 12:-0.5 13:0.93 14:1.12 15:0.49 16:1.11 17:-1.48 18:-0.4 19:-0.41 20:0.08 21:-5.4 22:-3.44 23:0.93 24:-0.84 25:0 26:-1.76 27:0 28:0.017407 29:0.012472 30:-0.044996 31:1.91 32:0.12 33:0 34:1 35:0.24016 36:0.12 37:0 38:0 39:0 40:1 41:-0.072165 42:1.09 43:0.08 44:0 45:0.54 
1 1:1.53 2:0.54 3:-1.27 4:1.81 5:0.32 6:1.09 7:-1.29 8:-0.46 9:0 10:0 11:0 12:0.1 13:0.92 14:0.9 15:-0.06 16:0.09 17:0.18 18:0.25 19:0.05 20:0.12 21:0.44 22:-0.41 23:1.19 24:1.27 25:0.04 26:0.26 27:0 28:0.11035 29:-0.27174 30:0.38789 31:-1.59 32:0.16 33:0 34:0 35:0.23736 36:-0.38 37:0 38:-0.034632 39:0 40:0 41:-0.35116 42:-0.5 43:0.16 44:0 45:-0.26 
1 1:0.56 2:0.16 3:0.33 4:0.61 5:0.09 6:-0.41 7:0.3 8:0.31 9:0 10:0 11:0 12:0.33 13:0.61 14:0.56 15:-0.41 16:0.3 17:0.09 18:0.16 19:0.31 20:0.08 21:-1.48 22:1.11 23:0.93 24:0.49 25:0.04 26:-0.4 27:0 28:-0.37535 29:0.59478 30:-0.44976 31:-0.5 32:0.04 33:0 34:0 35:0.10284 36:-0.41 37:0 38:0.023881 39:0 40:1 41:0.15191 42:-0.41 43:0.04 44:0 45:0.16 
1 1:0.62 2:-0.64 3:0.48 4:0.6 5:-1.3 6:-0.48 7:0.84 8:0.29 9:0 10:0 11:0 12:0.33 13:0.61 14:0.56 15:-0.41 16:0.3 17:0.09 18:0.16 19:0.31 20:0.08 21:0.18 22:0.09 23:0.92 24:-0.06 25:0.04 26:0.25 27:0 28:-0.017787 29:-0.024839 30:0.070252 31:0.1 32:0.04 33:0 34:0 35:0.11336 36:0.05 37:0 38:-0.028114 39:0 40:0 41:-0.19147 42:0.88 43:0.12 44:0 45:0.37 
1 1:0.56 2:0.16 3:0.33 4:0.61 5:0.09 6:-0.41 7:0.3 8:0.31 9:0 10:0 11:0 12:1.4 13:0.7 14:0.74 15:-1.18 16:-3.14 17:-2.53 18:-1.1 19:0.57 20:0.08 21:-1.22 22:-1.14 23:0.95 24:-0.73 25:0.04 26:-0.69 27:1 28:-0.035574 29:0.08801 30:-0.071037 31:0.95 32:0.04 33:0 34:0 35:0.375 36:0.46 37:0 38:0 39:0 40:0 41:-0.097538 42:0.33 43:0 44:0 45:0.02 
1 1:0.62 2:-0.62 3:0.83 4:0.61 5:-2.1 6:-0.77 7:-0.07 8:0.38 9:-1 10:0 11:0 12:1.91 13:0.93 14:1.02 15:-0.84 16:-3.44 17:-5.4 18:-1.76 19:0.12 20:0.04 21:0.18 22:0.09 23:0.92 24:-0.06 25:0.08 26:0.25 27:1 28:0.04771 29:-0.35589 30:0.62842 31:0.1 32:0.12 33:0 34:0 35:0.32857 36:0.05 37:0 38:0 39:0 40:0 41:-0.59946 42:-0.06 43:0.12 44:0 45:0.25 
1 1:1.68 2:0.02 3:-0.21 4:1.53 5:-0.08 6:0.33 7:0.01 8:-0.25 9:0 10:0 11:0 12:1.91 13:0.93 14:1.02 15:-0.84 16:-3.44 17:-5.4 18:-1.76 19:0.12 20:0 21:-2.1 22:-0.07 23:0.61 24:-0.77 25:0 26:-0.62 27:1 28:-0.048158 29:0.12871 30:-0.1354 31:0.83 32:0.08 33:0 34:-1 35:0.13318 36:0.38 37:0 38:0.004914 39:0 40:0 41:-0.023732 42:-0.84 43:0.08 44:0 45:-1.76 
1 1:0.42 2:-0.07 3:0.73 4:0.4 5:-0.2 6:0 7:2.23 8:0.46 9:0 10:0 11:0 12:0.33 13:0.61 14:0.56 15:-0.41 16:0.3 17:0.09 18:0.16 19:0.31 20:0.08 21:-2.36 22:2.36 23:0.48 24:-0.8 25:0.04 26:-0.72 27:0 28:-0.026439 29:0.07398 30:0.11406 31:0.78 32:0.04 33:0 34:-1 35:0.43036 36:0.41 37:0 38:-0.053005 39:0 40:0 41:-0.23278 42:-0.77 43:0.12 44:0 45:-0.62 
1 1:0.9 2:0.25 3:0.1 4:0.92 5:0.18 6:-0.06 7:0.09 8:0.05 9:0 10:0 11:0 12:0.1 13:0.92 14:0.9 15:-0.06 16:0.09 17:0.18 18:0.25 19:0.05 20:0.08 21:0.37 22:-1.03 23:1.81 24:1.31 25:0.04 26:0.73 27:0 28:0.014454 29:-0.067313 30:0.011435 31:-1.13 32:0.04 33:0 34:0 35:0.10422 36:-0.69 37:0 38:0.012048 39:0 40:0 41:-0.067217 42:1.27 43:0.08 44:0 45:0.26 
1 1:0.74 2:-1.1 3:1.4 4:0.7 5:-2.53 6:-1.18 7:-3.14 8:0.57 9:1 10:1 11:1 12:-1.18 13:1.3 14:1.26 15:1.21 16:-0.98 17:0.41 18:0.53 19:-0.62 20:0.04 21:-2.36 22:2.36 23:0.48 24:-0.8 25:0.12 26:-0.72 27:0 28:0.027122 29:0.0045673 30:0.047599 31:0.78 32:0.04 33:0 34:-1 35:0.089494 36:0.41 37:0 38:-0.13559 39:0 40:0 41:-0.12128 42:-0.48 43:0.12 44:0 45:-0.64 
1 1:0.56 2:0.16 3:0.33 4:0.61 5:0.09 6:-0.41 7:0.3 8:0.31 9:0 10:0 11:0 12:0.07 13:1.12 14:1.3 15:-0.27 16:-1.4 17:-0.34 18:-0.18 19:0.38 20:0 21:-0.34 22:-1.4 23:1.12 24:-0.27 25:0.08 26:-0.18 27:0 28:0.13538 29:-0.22097 30:0.30791 31:0.07 32:0.04 33:0 34:0 35:0.28596 36:0.38 37:0 38:-0.045128 39:0 40:0 41:-0.43791 42:-0.77 43:0.12 44:0 45:-0.62 
1 1:0.56 2:0.16 3:0.33 4:0.61 5:0.09 6:-0.41 7:0.3 8:0.31 9:0 10:0 11:0 12:1.4 13:0.7 14:0.74 15:-1.18 16:-3.14 17:-2.53 18:-1.1 19:0.57 20:0.04 21:0.32 22:-1.29 23:1.81 24:1.09 25:0.08 26:0.54 27:1 28:-0.26994 29:0.94305 30:-0.42986 31:-1.27 32:0.04 33:0 34:0 35:0.20586 36:-0.46 37:0 38:0.035752 39:0 40:0 41:-0.042845 42:-0.77 43:0.04 44:0 45:-0.62 
1 1:1.54 2:0.73 3:-1.13 4:1.81 5:0.37 6:1.31 7:-1.03 8:-0.69 9:0 10:0 11:0 12:0.83 13:0.61 14:0.62 15:-0.77 16:-0.07 17:-2.1 18:-0.62 19:0.38 20:0.12 21:-5.4 22:-3.44 23:0.93 24:-0.84 25:0.08 26:-1.76 27:-1 28:0.1503 29:-0.55092 30:0.92073 31:1.91 32:0.12 33:0 34:1 35:0.2369 36:0.12 37:0 38:-6.9389e-018 39:0 40:1 41:-0.42842 42:-0.06 43:0.12 44:0 45:0.25 
1 1:1.09 2:0.26 3:-1.59 4:1.19 5:0.44 6:1.27 7:-0.41 8:-0.38 9:0 10:0 11:0 12:-1.27 13:1.81 14:1.53 15:1.09 16:-1.29 17:0.32 18:0.54 19:-0.46 20:0.08 21:-0.4 22:0.57 23:0.82 24:-0.5 25:0 26:-0.26 27:0 28:0.058363 29:0.051099 30:0.15808 31:0.52 32:0.12 33:0 34:0 35:0.22976 36:0.12 37:0 38:0.16504 39:0 40:0 41:-0.23299 42:1.09 43:0.04 44:0 45:0.54 
1 1:0.56 2:0.16 3:0.33 4:0.61 5:0.09 6:-0.41 7:0.3 8:0.31 9:0 10:0 11:0 12:1.91 13:0.93 14:1.02 15:-0.84 16:-3.44 17:-5.4 18:-1.76 19:0.12 20:0.04 21:-0.08 22:0.01 23:1.53 24:0.33 25:0.08 26:0.02 27:1 28:0.066159 29:-0.082465 30:0.096016 31:-0.21 32:0.08 33:0 34:0 35:0.018519 36:-0.25 37:0 38:0.030837 39:0 40:0 41:-0.031219 42:-0.48 43:0.08 44:0 45:-0.64 
1 1:0.56 2:0.16 3:0.33 4:0.61 5:0.09 6:-0.41 7:0.3 8:0.31 9:0 10:0 11:0 12:-1.18 13:1.3 14:1.26 15:1.21 16:-0.98 17:0.41 18:0.53 19:-0.62 20:0.16 21:-0.34 22:-1.4 23:1.12 24:-0.27 25:0.12 26:-0.18 27:0 28:0.10597 29:-0.15145 30:0.095698 31:0.07 32:0.08 33:0 34:0 35:0.081407 36:0.38 37:0 38:-0.076696 39:0 40:0 41:-0.065796 42:1.27 43:0.04 44:0 45:0.61 
1 1:1.68 2:0.02 3:-0.21 4:1.53 5:-0.08 6:0.33 7:0.01 8:-0.25 9:0 10:0 11:0 12:-2.12 13:1.25 14:1.23 15:1.27 16:0.45 17:0.5 18:0.61 19:-0.45 20:0 21:-2.53 22:-3.14 23:0.7 24:-1.18 25:0.12 26:-1.1 27:0 28:0.37388 29:-0.6942 30:1.2683 31:1.4 32:0.12 33:0 34:1 35:0.51367 36:0.57 37:1 38:0.5182 39:0 40:1 41:-0.90333 42:0 43:0.04 44:0 45:-0.07 
1 1:1.3 2:-0.18 3:0.07 4:1.12 5:-0.34 6:-0.27 7:-1.4 8:0.38 9:0 10:0 11:0 12:0.07 13:1.12 14:1.3 15:-0.27 16:-1.4 17:-0.34 18:-0.18 19:0.38 20:0.04 21:-2.1 22:-0.07 23:0.61 24:-0.77 25:0.04 26:-0.62 27:0 28:0.095232 29:-0.10686 30:0.1475 31:0.83 32:0.08 33:0 34:-1 35:0.14208 36:0.38 37:0 38:0 39:0 40:0 41:-0.40626 42:-0.48 43:0.04 44:0 45:-0.64 
1 1:0.42 2:-0.07 3:0.73 4:0.4 5:-0.2 6:0 7:2.23 8:0.46 9:0 10:0 11:0 12:0.73 13:0.4 14:0.42 15:0 16:2.23 17:-0.2 18:-0.07 19:0.46 20:0 21:-0.34 22:-1.4 23:1.12 24:-0.27 25:0.08 26:-0.18 27:0 28:0.23489 29:-0.27899 30:0.42803 31:0.07 32:0 33:0 34:0 35:0.15 36:0.38 37:0 38:0.17674 39:0 40:0 41:-0.27849 42:-0.41 43:0.04 44:0 45:0.16 
1 1:0.56 2:0.16 3:0.33 4:0.61 5:0.09 6:-0.41 7:0.3 8:0.31 9:0 10:0 11:0 12:-0.21 13:1.53 14:1.68 15:0.33 16:0.01 17:-0.08 18:0.02 19:-0.25 20:0 21:-1.3 22:0.84 23:0.6 24:-0.48 25:0.12 26:-0.64 27:0 28:0.03876 29:-0.037397 30:0.03093 31:0.48 32:0 33:0 34:0 35:0.070358 36:0.29 37:0 38:-0.039166 39:0 40:0 41:-0.06288 42:0.33 43:0 44:0 45:0.02 
1 1:1.26 2:0.53 3:-1.18 4:1.3 5:0.41 6:1.21 7:-0.98 8:-0.62 9:0 10:0 11:0 12:0.52 13:0.82 14:0.87 15:-0.5 16:0.57 17:-0.4 18:-0.26 19:0.12 20:0.04 21:0.18 22:0.09 23:0.92 24:-0.06 25:0.16 26:0.25 27:0 28:0.23367 29:-0.3075 30:0.6151 31:0.1 32:0 33:0 34:0 35:0.28843 36:0.05 37:0 38:-0.040435 39:1 40:0 41:-0.34253 42:-0.06 43:0.16 44:0 45:0.25 
1 1:1.3 2:-0.18 3:0.07 4:1.12 5:-0.34 6:-0.27 7:-1.4 8:0.38 9:0 10:0 11:0 12:0.33 13:0.61 14:0.56 15:-0.41 16:0.3 17:0.09 18:0.16 19:0.31 20:0.08 21:0.18 22:0.09 23:0.92 24:-0.06 25:0.12 26:0.25 27:0 28:0.016016 29:0.15192 30:0.17872 31:0.1 32:0.04 33:0 34:0 35:-0.0088054 36:0.05 37:0 38:0.12518 39:0 40:0 41:-0.072712 42:-0.84 43:0.04 44:0 45:-1.76 
1 1:0.9 2:0.25 3:0.1 4:0.92 5:0.18 6:-0.06 7:0.09 8:0.05 9:0 10:0 11:0 12:1.4 13:0.7 14:0.74 15:-1.18 16:-3.14 17:-2.53 18:-1.1 19:0.57 20:0 21:0.37 22:-1.03 23:1.81 24:1.31 25:0.12 26:0.73 27:1 28:0.091278 29:-0.21737 30:0.22842 31:-1.13 32:0.04 33:0 34:0 35:0.16667 36:-0.69 37:0 38:-0.12975 39:0 40:0 41:-0.20401 42:-0.8 43:0.16 44:0 45:-0.72 
1 1:1.12 2:-0.4 3:-0.5 4:0.93 5:-1.48 6:0.49 7:1.11 8:-0.41 9:0 10:0 11:1 12:-2.12 13:1.25 14:1.23 15:1.27 16:0.45 17:0.5 18:0.61 19:-0.45 20:0.08 21:0.18 22:0.09 23:0.92 24:-0.06 25:0 26:0.25 27:0 28:0.039556 29:0.012085 30:-0.038358 31:0.1 32:0 33:0 34:0 35:0.059642 36:0.05 37:0 38:-0.15 39:0 40:0 41:-0.063066 42:1.09 43:0.04 44:0 45:0.54 
1 1:0.9 2:0.25 3:0.1 4:0.92 5:0.18 6:-0.06 7:0.09 8:0.05 9:0 10:0 11:0 12:0.33 13:0.61 14:0.56 15:-0.41 16:0.3 17:0.09 18:0.16 19:0.31 20:0 21:0.09 22:0.3 23:0.61 24:-0.41 25:0.08 26:0.16 27:0 28:0.10928 29:0.033222 30:0.097637 31:0.33 32:0 33:0 34:0 35:0.053571 36:0.31 37:0 38:-0.40381 39:0 40:0 41:-0.14165 42:-0.73 43:0.04 44:0 45:-0.69 
1 1:0.9 2:0.25 3:0.1 4:0.92 5:0.18 6:-0.06 7:0.09 8:0.05 9:0 10:0 11:0 12:-0.21 13:1.53 14:1.68 15:0.33 16:0.01 17:-0.08 18:0.02 19:-0.25 20:0 21:-1.22 22:-1.14 23:0.95 24:-0.73 25:0.24 26:-0.69 27:0 28:0.28203 29:-0.34773 30:0.7817 31:0.95 32:0 33:0 34:0 35:0.78417 36:0.46 37:0 38:0.77193 39:0 40:0 41:-0.8579 42:-1.18 43:0.04 44:0 45:-1.1 
1 1:0.62 2:-0.62 3:0.83 4:0.61 5:-2.1 6:-0.77 7:-0.07 8:0.38 9:-1 10:0 11:0 12:-1.13 13:1.81 14:1.54 15:1.31 16:-1.03 17:0.37 18:0.73 19:-0.69 20:0.16 21:0.5 22:0.45 23:1.25 24:1.27 25:0 26:0.61 27:0 28:0.16238 29:-0.459 30:0.35787 31:-2.12 32:0.12 33:0 34:0 35:0.062547 36:-0.45 37:0 38:-0.13172 39:0 40:0 41:-0.28944 42:-0.06 43:0.08 44:0 45:0.25 
0.9023526809363007 1:1.26 2:0.53 3:-1.18 4:1.3 5:0.41 6:1.21 7:-0.98 8:-0.62 9:0 10:0 11:0 12:1.4 13:0.7 14:0.74 15:-1.18 16:-3.14 17:-2.53 18:-1.1 19:0.57 20:0.04 21:-2.36 22:2.36 23:0.48 24:-0.8 25:0.16 26:-0.72 27:1 28:0.042974 29:-0.13398 30:0.20605 31:0.78 32:0.04 33:0 34:-1 35:0.12342 36:0.41 37:0 38:0.097172 39:1 40:0 41:-0.060369 42:-0.73 43:0 44:0 45:-0.69 
1 1:1.18 2:-0.69 3:0.95 4:0.95 5:-1.22 6:-0.73 7:-1.14 8:0.46 9:0 10:0 11:0 12:1.4 13:0.7 14:0.74 15:-1.18 16:-3.14 17:-2.53 18:-1.1 19:0.57 20:0.04 21:0.09 22:0.3 23:0.61 24:-0.41 25:0.04 26:0.16 27:1 28:0.010282 29:-0.078306 30:0.070997 31:0.33 32:0.08 33:0 34:0 35:0.085819 36:0.31 37:0 38:0.073684 39:0 40:0 41:-0.074442 42:0 43:0 44:0 45:-0.07 
1 1:0.9 2:0.25 3:0.1 4:0.92 5:0.18 6:-0.06 7:0.09 8:0.05 9:0 10:0 11:0 12:-2.12 13:1.25 14:1.23 15:1.27 16:0.45 17:0.5 18:0.61 19:-0.45 20:0 21:-2.36 22:2.36 23:0.48 24:-0.8 25:0.04 26:-0.72 27:0 28:0.05279 29:-0.051133 30:0.11181 31:0.78 32:0.08 33:0 34:-1 35:0.12786 36:0.41 37:0 38:-0.096308 39:0 40:0 41:-0.1151 42:1.31 43:0 44:0 45:0.73 
1 1:1.26 2:0.53 3:-1.18 4:1.3 5:0.41 6:1.21 7:-0.98 8:-0.62 9:0 10:0 11:0 12:0.83 13:0.61 14:0.62 15:-0.77 16:-0.07 17:-2.1 18:-0.62 19:0.38 20:0 21:0.41 22:-0.98 23:1.3 24:1.21 25:0.08 26:0.53 27:-1 28:-0.19771 29:0.47285 30:-0.65964 31:-1.18 32:0.04 33:0 34:0 35:0.20703 36:-0.62 37:0 38:0 39:1 40:0 41:-0.063071 42:-1.18 43:0.08 44:0 45:-1.1 
1 1:1.26 2:0.53 3:-1.18 4:1.3 5:0.41 6:1.21 7:-0.98 8:-0.62 9:0 10:0 11:0 12:-0.5 13:0.93 14:1.12 15:0.49 16:1.11 17:-1.48 18:-0.4 19:-0.41 20:0 21:-2.36 22:2.36 23:0.48 24:-0.8 25:0.12 26:-0.72 27:0 28:-0.075496 29:0.31207 30:-0.061208 31:0.78 32:0.04 33:0 34:-1 35:0.14286 36:0.41 37:0 38:0 39:1 40:0 41:-0.14509 42:-0.77 43:0.08 44:0 45:-0.62 
1 1:1.3 2:-0.18 3:0.07 4:1.12 5:-0.34 6:-0.27 7:-1.4 8:0.38 9:0 10:0 11:0 12:0.73 13:0.4 14:0.42 15:0 16:2.23 17:-0.2 18:-0.07 19:0.46 20:0.04 21:-1.48 22:1.11 23:0.93 24:0.49 25:0.04 26:-0.4 27:0 28:0.04095 29:-0.082609 30:0.27013 31:-0.5 32:0.08 33:0 34:0 35:0.27914 36:-0.41 37:0 38:-0.071197 39:0 40:1 41:-0.21759 42:1.27 43:0.12 44:0 45:0.26 
1 1:1.75 2:0.37 3:-0.51 4:1.54 5:-0.01 6:0.88 7:0.85 8:-0.98 9:0 10:0 11:0 12:0.83 13:0.61 14:0.62 15:-0.77 16:-0.07 17:-2.1 18:-0.62 19:0.38 20:0.04 21:0.32 22:-1.29 23:1.81 24:1.09 25:0.08 26:0.54 27:-1 28:-0.0051839 29:0.020136 30:-0.053093 31:-1.27 32:0 33:0 34:0 35:0.15845 36:-0.46 37:0 38:-0.067961 39:0 40:0 41:-0.044847 42:-0.73 43:0.04 44:0 45:-0.69 
1 1:0.9 2:0.25 3:0.1 4:0.92 5:0.18 6:-0.06 7:0.09 8:0.05 9:0 10:0 11:0 12:-0.51 13:1.54 14:1.75 15:0.88 16:0.85 17:-0.01 18:0.37 19:-0.98 20:0 21:-0.08 22:0.01 23:1.53 24:0.33 25:0.08 26:0.02 27:0 28:0.093856 29:-0.11731 30:0.16041 31:-0.21 32:0.04 33:0 34:0 35:0.12019 36:-0.25 37:0 38:0 39:0 40:0 41:-0.10165 42:-0.06 43:0.04 44:0 45:0.25 
1 1:0.62 2:-0.64 3:0.48 4:0.6 5:-1.3 6:-0.48 7:0.84 8:0.29 9:0 10:0 11:0 12:-1.18 13:1.3 14:1.26 15:1.21 16:-0.98 17:0.41 18:0.53 19:-0.62 20:0.04 21:-2.36 22:2.36 23:0.48 24:-0.8 25:0.08 26:-0.72 27:0 28:0.039789 29:-0.00638 30:0.047382 31:0.78 32:0.04 33:0 34:-1 35:0.065814 36:0.41 37:0 38:0.06456 39:0 40:0 41:-0.11009 42:-0.27 43:0.04 44:0 45:-0.18 
1 1:1.23 2:0.61 3:-2.12 4:1.25 5:0.5 6:1.27 7:0.45 8:-0.45 9:0 10:0 11:0 12:-1.18 13:1.3 14:1.26 15:1.21 16:-0.98 17:0.41 18:0.53 19:-0.62 20:0.04 21:0.41 22:-0.98 23:1.3 24:1.21 25:0.08 26:0.53 27:0 28:-0.074973 29:0.30704 30:-0.25252 31:-1.18 32:0.12 33:0 34:0 35:-0.016216 36:-0.62 37:0 38:-0.034056 39:0 40:0 41:-0.014397 42:1.21 43:0.04 44:0 45:0.53 
1 1:0.56 2:0.16 3:0.33 4:0.61 5:0.09 6:-0.41 7:0.3 8:0.31 9:0 10:0 11:0 12:0.52 13:0.82 14:0.87 15:-0.5 16:0.57 17:-0.4 18:-0.26 19:0.12 20:0.12 21:0.32 22:-1.29 23:1.81 24:1.09 25:0 26:0.54 27:0 28:0.061211 29:-0.087958 30:0.23279 31:-1.27 32:0.08 33:0 34:0 35:0.07056 36:-0.46 37:0 38:-0.060274 39:0 40:0 41:-0.23992 42:-0.77 43:0.12 44:0 45:-0.62 
1 1:0.62 2:-0.62 3:0.83 4:0.61 5:-2.1 6:-0.77 7:-0.07 8:0.38 9:-1 10:0 11:0 12:0.83 13:0.61 14:0.62 15:-0.77 16:-0.07 17:-2.1 18:-0.62 19:0.38 20:0.08 21:0.27 22:4.13 23:1.16 24:1.36 25:0.08 26:0.04 27:-1 28:-0.056396 29:0.10338 30:-0.12439 31:-1.42 32:0 33:0 34:0 35:0.22772 36:-0.84 37:0 38:-0.053097 39:0 40:0 41:-0.23508 42:-1.18 43:0.08 44:0 45:-1.1 
1 1:1.54 2:0.73 3:-1.13 4:1.81 5:0.37 6:1.31 7:-1.03 8:-0.69 9:0 10:0 11:0 12:0.78 13:0.48 14:0.47 15:-0.8 16:2.36 17:-2.36 18:-0.72 19:0.41 20:0.04 21:-2.1 22:-0.07 23:0.61 24:-0.77 25:0 26:-0.62 27:-1 28:-0.10722 29:0.17997 30:-0.15382 31:0.83 32:0.12 33:1 34:-1 35:0.25587 36:0.38 37:0 38:0 39:0 40:0 41:-0.18415 42:-0.84 43:0.08 44:0 45:-1.76 
1 1:1.26 2:0.53 3:-1.18 4:1.3 5:0.41 6:1.21 7:-0.98 8:-0.62 9:0 10:0 11:0 12:-1.18 13:1.3 14:1.26 15:1.21 16:-0.98 17:0.41 18:0.53 19:-0.62 20:0.16 21:0.41 22:-0.98 23:1.3 24:1.21 25:0.08 26:0.53 27:0 28:-0.046196 29:0.24064 30:-0.023619 31:-1.18 32:0.04 33:0 34:0 35:0.37245 36:-0.62 37:0 38:0.11488 39:1 40:0 41:-0.16354 42:-0.8 43:0 44:0 45:-0.72 
1 1:1.26 2:0.53 3:-1.18 4:1.3 5:0.41 6:1.21 7:-0.98 8:-0.62 9:0 10:0 11:0 12:-1.18 13:1.3 14:1.26 15:1.21 16:-0.98 17:0.41 18:0.53 19:-0.62 20:0.08 21:0.18 22:0.09 23:0.92 24:-0.06 25:0.12 26:0.25 27:0 28:-0.00088528 29:-0.004567 30:0.012789 31:0.1 32:0.04 33:0 34:0 35:0.008 36:0.05 37:0 38:-0.074883 39:1 40:0 41:-0.076981 42:-0.8 43:0.08 44:0 45:-0.72 
1 1:0.56 2:0.16 3:0.33 4:0.61 5:0.09 6:-0.41 7:0.3 8:0.31 9:0 10:0 11:0 12:0.33 13:0.61 14:0.56 15:-0.41 16:0.3 17:0.09 18:0.16 19:0.31 20:0 21:-1.48 22:1.11 23:0.93 24:0.49 25:0 26:-0.4 27:0 28:-0.11408 29:0.34643 30:-0.40807 31:-0.5 32:0.04 33:0 34:0 35:0.14773 36:-0.41 37:0 38:0 39:0 40:1 41:-0.0074639 42:-0.84 43:0 44:0 45:-1.76 
1 1:1.12 2:-0.4 3:-0.5 4:0.93 5:-1.48 6:0.49 7:1.11 8:-0.41 9:0 10:0 11:1 12:-1.27 13:1.81 14:1.53 15:1.09 16:-1.29 17:0.32 18:0.54 19:-0.46 20:0.04 21:-5.4 22:-3.44 23:0.93 24:-0.84 25:0.08 26:-1.76 27:0 28:-0.011274 29:0.1746 30:0.36932 31:1.91 32:0.04 33:0 34:1 35:0.16307 36:0.12 37:0 38:-0.057441 39:0 40:1 41:-0.2041 42:0.49 43:0.04 44:0 45:-0.4 
1 1:0.9 2:0.25 3:0.1 4:0.92 5:0.18 6:-0.06 7:0.09 8:0.05 9:0 10:0 11:0 12:1.91 13:0.93 14:1.02 15:-0.84 16:-3.44 17:-5.4 18:-1.76 19:0.12 20:0.04 21:-2.53 22:-3.14 23:0.7 24:-1.18 25:0.12 26:-1.1 27:1 28:0.00036912 29:-0.066775 30:0.23425 31:1.4 32:0.08 33:0 34:1 35:0.22012 36:0.57 37:1 38:0.038567 39:0 40:1 41:-0.30216 42:-0.84 43:0.12 44:0 45:-1.76 
1 1:0.56 2:0.16 3:0.33 4:0.61 5:0.09 6:-0.41 7:0.3 8:0.31 9:0 10:0 11:0 12:-1.27 13:1.81 14:1.53 15:1.09 16:-1.29 17:0.32 18:0.54 19:-0.46 20:0 21:-1.3 22:0.84 23:0.6 24:-0.48 25:0.04 26:-0.64 27:0 28:0.024501 29:0.32081 30:-0.45469 31:0.48 32:0.04 33:0 34:0 35:0.025641 36:0.29 37:0 38:0 39:0 40:0 41:-0.10601 42:1.09 43:0.04 44:0 45:0.54 
1 1:0.56 2:0.16 3:0.33 4:0.61 5:0.09 6:-0.41 7:0.3 8:0.31 9:0 10:0 11:0 12:0.83 13:0.61 14:0.62 15:-0.77 16:-0.07 17:-2.1 18:-0.62 19:0.38 20:0 21:-2.1 22:-0.07 23:0.61 24:-0.77 25:0.08 26:-0.62 27:-1 28:0.023598 29:0.0056568 30:0.09663 31:0.83 32:0.08 33:0 34:-1 35:0.21296 36:0.38 37:0 38:-0.095495 39:0 40:0 41:-0.36106 42:0.49 43:0.16 44:0 45:-0.4 
1 1:1.23 2:0.61 3:-2.12 4:1.25 5:0.5 6:1.27 7:0.45 8:-0.45 9:0 10:0 11:0 12:-1.27 13:1.81 14:1.53 15:1.09 16:-1.29 17:0.32 18:0.54 19:-0.46 20:0.08 21:-2.1 22:-0.07 23:0.61 24:-0.77 25:0.12 26:-0.62 27:0 28:0.12708 29:-0.32356 30:0.37964 31:0.83 32:0.08 33:0 34:-1 35:0.16068 36:0.38 37:0 38:0 39:0 40:0 41:-0.23884 42:-0.77 43:0.16 44:0 45:-0.62 
1 1:1.54 2:0.73 3:-1.13 4:1.81 5:0.37 6:1.31 7:-1.03 8:-0.69 9:0 10:0 11:0 12:-1.18 13:1.3 14:1.26 15:1.21 16:-0.98 17:0.41 18:0.53 19:-0.62 20:0.04 21:0.32 22:-1.29 23:1.81 24:1.09 25:0.08 26:0.54 27:0 28:-0.032693 29:0.087006 30:0.00802 31:-1.27 32:0.08 33:0 34:0 35:0.13879 36:-0.46 37:0 38:-0.11429 39:0 40:0 41:-0.15942 42:1.27 43:0.12 44:0 45:0.61 
1 1:1.53 2:0.54 3:-1.27 4:1.81 5:0.32 6:1.09 7:-1.29 8:-0.46 9:0 10:0 11:0 12:-0.5 13:0.93 14:1.12 15:0.49 16:1.11 17:-1.48 18:-0.4 19:-0.41 20:0.04 21:-5.4 22:-3.44 23:0.93 24:-0.84 25:0 26:-1.76 27:0 28:-0.042963 29:0.08589 30:0.48783 31:1.91 32:0.12 33:0 34:1 35:0.17215 36:0.12 37:0 38:-0.067298 39:0 40:1 41:0.0025041 42:0.88 43:0.08 44:0 45:0.37 
1 1:1.26 2:0.53 3:-1.18 4:1.3 5:0.41 6:1.21 7:-0.98 8:-0.62 9:0 10:0 11:0 12:-2.12 13:1.25 14:1.23 15:1.27 16:0.45 17:0.5 18:0.61 19:-0.45 20:0.04 21:0.32 22:-1.29 23:1.81 24:1.09 25:0.04 26:0.54 27:0 28:-0.16043 29:0.22965 30:-0.044739 31:-1.27 32:0.16 33:0 34:0 35:0.14351 36:-0.46 37:0 38:0 39:1 40:0 41:-0.13508 42:1.09 43:0.08 44:0 45:0.54 
1 1:1.26 2:0.53 3:-1.18 4:1.3 5:0.41 6:1.21 7:-0.98 8:-0.62 9:0 10:0 11:0 12:0.95 13:0.95 14:1.18 15:-0.73 16:-1.14 17:-1.22 18:-0.69 19:0.46 20:0.04 21:0.09 22:0.3 23:0.61 24:-0.41 25:0 26:0.16 27:0 28:-0.0020188 29:0.070547 30:0.57085 31:0.33 32:0.12 33:0 34:0 35:0.70285 36:0.31 37:0 38:-1.3878e-017 39:1 40:0 41:-0.94317 42:-0.5 43:0.12 44:0 45:-0.26 
0.6345465095272268 1:1.26 2:0.53 3:-1.18 4:1.3 5:0.41 6:1.21 7:-0.98 8:-0.62 9:0 10:0 11:0 12:0.95 13:0.95 14:1.18 15:-0.73 16:-1.14 17:-1.22 18:-0.69 19:0.46 20:0.04 21:0.09 22:0.3 23:0.61 24:-0.41 25:0.12 26:0.16 27:0 28:0.098441 29:-0.12329 30:0.48037 31:0.33 32:0.12 33:0 34:0 35:0.35981 36:0.31 37:0 38:0.22086 39:1 40:0 41:-0.63654 42:-0.5 43:0.08 44:0 45:-0.26 
1 1:1.24 2:0.04 3:-1.42 4:1.16 5:0.27 6:1.36 7:4.13 8:-0.84 9:0 10:0 11:0 12:0.1 13:0.92 14:0.9 15:-0.06 16:0.09 17:0.18 18:0.25 19:0.05 20:0.04 21:-1.22 22:-1.14 23:0.95 24:-0.73 25:0.04 26:-0.69 27:0 28:-0.5102 29:0.77056 30:0.044063 31:0.95 32:0.08 33:0 34:0 35:0.038078 36:0.46 37:0 38:0.067227 39:0 40:0 41:-0.10303 42:1.21 43:0.04 44:0 45:0.53 
1 1:0.62 2:-0.64 3:0.48 4:0.6 5:-1.3 6:-0.48 7:0.84 8:0.29 9:0 10:0 11:0 12:0.33 13:0.61 14:0.56 15:-0.41 16:0.3 17:0.09 18:0.16 19:0.31 20:0.08 21:-1.48 22:1.11 23:0.93 24:0.49 25:0.08 26:-0.4 27:0 28:0.10535 29:-0.087352 30:0.1662 31:-0.5 32:0.04 33:0 34:0 35:0.14641 36:-0.41 37:0 38:-0.04386 39:0 40:1 41:-0.2394 42:-0.77 43:0.08 44:0 45:-0.62 
1 1:0.62 2:-0.64 3:0.48 4:0.6 5:-1.3 6:-0.48 7:0.84 8:0.29 9:0 10:0 11:0 12:1.4 13:0.7 14:0.74 15:-1.18 16:-3.14 17:-2.53 18:-1.1 19:0.57 20:0 21:0.41 22:-0.98 23:1.3 24:1.21 25:0.08 26:0.53 27:1 28:-0.014296 29:0.0053042 30:-0.049086 31:-1.18 32:0 33:0 34:0 35:0.07398 36:-0.62 37:0 38:0.042403 39:0 40:0 41:-0.0079112 42:1.09 43:0 44:0 45:0.54 
1 1:0.56 2:0.16 3:0.33 4:0.61 5:0.09 6:-0.41 7:0.3 8:0.31 9:0 10:0 11:0 12:-1.27 13:1.81 14:1.53 15:1.09 16:-1.29 17:0.32 18:0.54 19:-0.46 20:0.04 21:-0.34 22:-1.4 23:1.12 24:-0.27 25:0.12 26:-0.18 27:0 28:0.11812 29:-0.030692 30:-0.0024136 31:0.07 32:0.04 33:0 34:0 35:0.2404 36:0.38 37:0 38:0.30208 39:0 40:0 41:-0.041307 42:1.31 43:0.04 44:0 45:0.73 
0.9912799561543669 1:0.9 2:0.25 3:0.1 4:0.92 5:0.18 6:-0.06 7:0.09 8:0.05 9:0 10:0 11:0 12:0.33 13:0.61 14:0.56 15:-0.41 16:0.3 17:0.09 18:0.16 19:0.31 20:0 21:-2.36 22:2.36 23:0.48 24:-0.8 25:0.04 26:-0.72 27:0 28:0.068705 29:-0.03669 30:0.056726 31:0.78 32:0.04 33:0 34:-1 35:0.083333 36:0.41 37:0 38:-0.066743 39:0 40:0 41:-0.19158 42:-0.06 43:0.08 44:0 45:0.25 
1 1:0.62 2:-0.62 3:0.83 4:0.61 5:-2.1 6:-0.77 7:-0.07 8:0.38 9:-1 10:0 11:0 12:0.78 13:0.48 14:0.47 15:-0.8 16:2.36 17:-2.36 18:-0.72 19:0.41 20:0.04 21:-2.36 22:2.36 23:0.48 24:-0.8 25:0.16 26:-0.72 27:-1 28:0.26134 29:-0.67787 30:0.94066 31:0.78 32:0.04 33:1 34:-1 35:0.55072 36:0.41 37:0 38:-0.078014 39:0 40:0 41:-0.76554 42:-0.77 43:0.16 44:0 45:-0.62 
1 1:1.26 2:0.53 3:-1.18 4:1.3 5:0.41 6:1.21 7:-0.98 8:-0.62 9:0 10:0 11:0 12:0.1 13:0.92 14:0.9 15:-0.06 16:0.09 17:0.18 18:0.25 19:0.05 20:0.08 21:0.09 22:0.3 23:0.61 24:-0.41 25:0.08 26:0.16 27:0 28:-0.1088 29:0.091536 30:0.063086 31:0.33 32:0.24 33:0 34:0 35:-0.07122 36:0.31 37:0 38:-0.07122 39:1 40:0 41:0.058391 42:-0.5 43:0 44:0 45:-0.26 
1 1:0.47 2:-0.72 3:0.78 4:0.48 5:-2.36 6:-0.8 7:2.36 8:0.41 9:-1 10:0 11:0 12:0.73 13:0.4 14:0.42 15:0 16:2.23 17:-0.2 18:-0.07 19:0.46 20:0 21:-0.2 22:2.23 23:0.4 24:0 25:0.04 26:-0.07 27:0 28:-0.035111 29:0.071652 30:-0.19608 31:0.73 32:0.12 33:0 34:0 35:0.10817 36:0.46 37:0 38:0 39:0 40:0 41:0.036751 42:1.09 43:0.04 44:0 45:0.54 
1 1:0.9 2:0.25 3:0.1 4:0.92 5:0.18 6:-0.06 7:0.09 8:0.05 9:0 10:0 11:0 12:-1.18 13:1.3 14:1.26 15:1.21 16:-0.98 17:0.41 18:0.53 19:-0.62 20:0 21:0.18 22:0.09 23:0.92 24:-0.06 25:0.12 26:0.25 27:0 28:0.049029 29:0.044741 30:-0.066525 31:0.1 32:0 33:0 34:0 35:0.12161 36:0.05 37:0 38:0.058168 39:0 40:0 41:-0.030547 42:1.21 43:0.04 44:0 45:0.53 
1 1:1.54 2:0.73 3:-1.13 4:1.81 5:0.37 6:1.31 7:-1.03 8:-0.69 9:0 10:0 11:0 12:0.07 13:1.12 14:1.3 15:-0.27 16:-1.4 17:-0.34 18:-0.18 19:0.38 20:0 21:-0.2 22:2.23 23:0.4 24:0 25:0.08 26:-0.07 27:0 28:0.0058543 29:0.19853 30:-0.26718 31:0.73 32:0 33:0 34:0 35:0.10193 36:0.46 37:0 38:0.03804 39:0 40:0 41:0.077909 42:-1.18 43:0.04 44:0 45:-1.1 
1 1:0.56 2:0.16 3:0.33 4:0.61 5:0.09 6:-0.41 7:0.3 8:0.31 9:0 10:0 11:0 12:-0.51 13:1.54 14:1.75 15:0.88 16:0.85 17:-0.01 18:0.37 19:-0.98 20:0 21:-2.36 22:2.36 23:0.48 24:-0.8 25:0.08 26:-0.72 27:0 28:0.12393 29:-0.3565 30:0.53932 31:0.78 32:0.04 33:0 34:-1 35:0.37696 36:0.41 37:0 38:-0.072678 39:0 40:0 41:-0.51103 42:-0.73 43:0.08 44:0 45:-0.69 
0.08345679705775455 1:1.53 2:0.54 3:-1.27 4:1.81 5:0.32 6:1.09 7:-1.29 8:-0.46 9:0 10:0 11:0 12:1.4 13:0.7 14:0.74 15:-1.18 16:-3.14 17:-2.53 18:-1.1 19:0.57 20:0 21:0.32 22:-1.29 23:1.81 24:1.09 25:0.04 26:0.54 27:1 28:0.045837 29:0.022631 30:0.097303 31:-1.27 32:0.04 33:0 34:0 35:0.072106 36:-0.46 37:0 38:-0.8214 39:0 40:0 41:-1.0522 42:1.21 43:0.12 44:0 45:0.53 
1 1:1.54 2:0.73 3:-1.13 4:1.81 5:0.37 6:1.31 7:-1.03 8:-0.69 9:0 10:0 11:0 12:1.4 13:0.7 14:0.74 15:-1.18 16:-3.14 17:-2.53 18:-1.1 19:0.57 20:0.04 21:-1.48 22:1.11 23:0.93 24:0.49 25:0.08 26:-0.4 27:1 28:-0.04571 29:0.079972 30:-0.093795 31:-0.5 32:0 33:0 34:0 35:0.28667 36:-0.41 37:0 38:0 39:0 40:1 41:-0.13723 42:1.21 43:0 44:0 45:0.53 
1 1:0.9 2:0.25 3:0.1 4:0.92 5:0.18 6:-0.06 7:0.09 8:0.05 9:0 10:0 11:0 12:0.07 13:1.12 14:1.3 15:-0.27 16:-1.4 17:-0.34 18:-0.18 19:0.38 20:0.04 21:-2.36 22:2.36 23:0.48 24:-0.8 25:0.08 26:-0.72 27:0 28:0.027035 29:0.054198 30:0.061304 31:0.78 32:0 33:0 34:-1 35:0.083333 36:0.41 37:0 38:-0.092446 39:0 40:0 41:0.010477 42:-0.73 43:0 44:0 45:-0.69 
1 1:0.87 2:-0.26 3:0.52 4:0.82 5:-0.4 6:-0.5 7:0.57 8:0.12 9:0 10:0 11:0 12:0.33 13:0.61 14:0.56 15:-0.41 16:0.3 17:0.09 18:0.16 19:0.31 20:0.12 21:-2.36 22:2.36 23:0.48 24:-0.8 25:0.08 26:-0.72 27:0 28:0.042269 29:-0.078531 30:0.061523 31:0.78 32:0 33:0 34:-1 35:0.083333 36:0.41 37:0 38:-0.04683 39:0 40:0 41:-0.12134 42:1.21 43:0 44:0 45:0.53 
1 1:1.53 2:0.54 3:-1.27 4:1.81 5:0.32 6:1.09 7:-1.29 8:-0.46 9:0 10:0 11:0 12:-1.18 13:1.3 14:1.26 15:1.21 16:-0.98 17:0.41 18:0.53 19:-0.62 20:0.16 21:0.18 22:0.09 23:0.92 24:-0.06 25:0.08 26:0.25 27:0 28:0.090374 29:-0.087079 30:0.11507 31:0.1 32:0 33:0 34:0 35:0.048991 36:0.05 37:0 38:-0.059896 39:0 40:0 41:-0.055307 42:0 43:0.04 44:0 45:-0.07 
1 1:0.47 2:-0.72 3:0.78 4:0.48 5:-2.36 6:-0.8 7:2.36 8:0.41 9:-1 10:0 11:0 12:-2.12 13:1.25 14:1.23 15:1.27 16:0.45 17:0.5 18:0.61 19:-0.45 20:0.08 21:0.32 22:-1.29 23:1.81 24:1.09 25:0.04 26:0.54 27:0 28:0.017106 29:-0.15554 30:0.25616 31:-1.27 32:0.04 33:0 34:0 35:0.34194 36:-0.46 37:0 38:-0.072727 39:0 40:0 41:-0.16774 42:-0.06 43:0 44:0 45:0.25 
1 1:0.9 2:0.25 3:0.1 4:0.92 5:0.18 6:-0.06 7:0.09 8:0.05 9:0 10:0 11:0 12:0.73 13:0.4 14:0.42 15:0 16:2.23 17:-0.2 18:-0.07 19:0.46 20:0 21:-0.01 22:0.85 23:1.54 24:0.88 25:0.12 26:0.37 27:0 28:0.18611 29:-0.37033 30:0.4918 31:-0.51 32:0.04 33:0 34:0 35:0.33908 36:-0.98 37:0 38:0.28398 39:0 40:0 41:-0.32313 42:-0.48 43:0.04 44:0 45:-0.64 
1 1:0.9 2:0.25 3:0.1 4:0.92 5:0.18 6:-0.06 7:0.09 8:0.05 9:0 10:0 11:0 12:1.4 13:0.7 14:0.74 15:-1.18 16:-3.14 17:-2.53 18:-1.1 19:0.57 20:0.12 21:-0.08 22:0.01 23:1.53 24:0.33 25:0.08 26:0.02 27:1 28:0.029258 29:-0.028012 30:0.035475 31:-0.21 32:0 33:0 34:0 35:0.12286 36:-0.25 37:0 38:-0.048057 39:0 40:0 41:-0.12357 42:-0.27 43:0 44:0 45:-0.18 
1 1:0.56 2:0.16 3:0.33 4:0.61 5:0.09 6:-0.41 7:0.3 8:0.31 9:0 10:0 11:0 12:-0.21 13:1.53 14:1.68 15:0.33 16:0.01 17:-0.08 18:0.02 19:-0.25 20:0.08 21:-0.4 22:0.57 23:0.82 24:-0.5 25:0.04 26:-0.26 27:0 28:-0.0123 29:0.013319 30:0.14815 31:0.52 32:0.08 33:0 34:0 35:0.14035 36:0.12 37:0 38:0.056738 39:0 40:0 41:-0.18642 42:0 43:0.04 44:0 45:-0.07 
1 1:0.74 2:-1.1 3:1.4 4:0.7 5:-2.53 6:-1.18 7:-3.14 8:0.57 9:1 10:1 11:1 12:-0.21 13:1.53 14:1.68 15:0.33 16:0.01 17:-0.08 18:0.02 19:-0.25 20:0 21:-0.34 22:-1.4 23:1.12 24:-0.27 25:0.12 26:-0.18 27:0 28:0.42138 29:-1.0926 30:1.6139 31:0.07 32:0.08 33:0 34:0 35:0.50334 36:0.38 37:0 38:0.095238 39:0 40:0 41:-1.2453 42:-0.48 43:0.04 44:0 45:-0.64 
1 1:1.68 2:0.02 3:-0.21 4:1.53 5:-0.08 6:0.33 7:0.01 8:-0.25 9:0 10:0 11:0 12:0.73 13:0.4 14:0.42 15:0 16:2.23 17:-0.2 18:-0.07 19:0.46 20:0.04 21:0.32 22:-1.29 23:1.81 24:1.09 25:0.04 26:0.54 27:0 28:0.045784 29:0.31258 30:-0.029068 31:-1.27 32:0.04 33:0 34:0 35:0.20944 36:-0.46 37:0 38:-0.15254 39:0 40:0 41:-0.0081401 42:1.21 43:0.04 44:0 45:0.53 
0.4641191784323545 1:1.75 2:0.37 3:-0.51 4:1.54 5:-0.01 6:0.88 7:0.85 8:-0.98 9:0 10:0 11:0 12:0.48 13:0.6 14:0.62 15:-0.48 16:0.84 17:-1.3 18:-0.64 19:0.29 20:0 21:0.09 22:0.3 23:0.61 24:-0.41 25:0 26:0.16 27:0 28:-0.14569 29:0.20184 30:0.51433 31:0.33 32:0.12 33:0 34:0 35:0.14451 36:0.31 37:0 38:-0.31863 39:0 40:0 41:-0.73936 42:1.31 43:0.04 44:0 45:0.73 
1 1:1.26 2:0.53 3:-1.18 4:1.3 5:0.41 6:1.21 7:-0.98 8:-0.62 9:0 10:0 11:0 12:0.52 13:0.82 14:0.87 15:-0.5 16:0.57 17:-0.4 18:-0.26 19:0.12 20:0.08 21:0.37 22:-1.03 23:1.81 24:1.31 25:0 26:0.73 27:0 28:-0.19626 29:0.31553 30:-0.28671 31:-1.13 32:0 33:0 34:0 35:2 36:-0.69 37:0 38:-0.25 39:1 40:0 41:0.049029 42:-0.06 43:0.08 44:0 45:0.25 
1 1:0.9 2:0.25 3:0.1 4:0.92 5:0.18 6:-0.06 7:0.09 8:0.05 9:0 10:0 11:0 12:-0.5 13:0.93 14:1.12 15:0.49 16:1.11 17:-1.48 18:-0.4 19:-0.41 20:0.04 21:-0.4 22:0.57 23:0.82 24:-0.5 25:0.08 26:-0.26 27:0 28:0.065142 29:-0.067111 30:0.0097694 31:0.52 32:0 33:0 34:0 35:0.1541 36:0.12 37:0 38:0 39:0 40:0 41:-0.12588 42:0.49 43:0.04 44:0 45:-0.4 
1 1:0.42 2:-0.07 3:0.73 4:0.4 5:-0.2 6:0 7:2.23 8:0.46 9:0 10:0 11:0 12:0.48 13:0.6 14:0.62 15:-0.48 16:0.84 17:-1.3 18:-0.64 19:0.29 20:0 21:-2.36 22:2.36 23:0.48 24:-0.8 25:0.08 26:-0.72 27:0 28:0.0051386 29:-0.035275 30:0.24588 31:0.78 32:0.16 33:0 34:-1 35:0.29744 36:0.41 37:0 38:-0.045455 39:0 40:0 41:-0.50009 42:-0.84 43:0.04 44:0 45:-1.76 
1 1:0.62 2:-0.64 3:0.48 4:0.6 5:-1.3 6:-0.48 7:0.84 8:0.29 9:0 10:0 11:0 12:0.33 13:0.61 14:0.56 15:-0.41 16:0.3 17:0.09 18:0.16 19:0.31 20:0.08 21:0.37 22:-1.03 23:1.81 24:1.31 25:0 26:0.73 27:0 28:-0.049177 29:0.15366 30:-0.039076 31:-1.13 32:0.08 33:0 34:0 35:0.24153 36:-0.69 37:0 38:-0.18579 39:0 40:0 41:-0.087947 42:-0.41 43:0.08 44:0 45:0.16 
1 1:1.53 2:0.54 3:-1.27 4:1.81 5:0.32 6:1.09 7:-1.29 8:-0.46 9:0 10:0 11:0 12:0.78 13:0.48 14:0.47 15:-0.8 16:2.36 17:-2.36 18:-0.72 19:0.41 20:0.04 21:0.41 22:-0.98 23:1.3 24:1.21 25:0 26:0.53 27:-1 28:-0.057117 29:0.20083 30:-0.24587 31:-1.18 32:0.04 33:1 34:0 35:0.043557 36:-0.62 37:0 38:-0.32648 39:0 40:0 41:-0.40189 42:1.31 43:0.12 44:0 45:0.73 
1 1:1.26 2:0.53 3:-1.18 4:1.3 5:0.41 6:1.21 7:-0.98 8:-0.62 9:0 10:0 11:0 12:0.1 13:0.92 14:0.9 15:-0.06 16:0.09 17:0.18 18:0.25 19:0.05 20:0 21:0.27 22:4.13 23:1.16 24:1.36 25:0.04 26:0.04 27:0 28:-0.25141 29:0.43487 30:-0.33601 31:-1.42 32:0.04 33:0 34:0 35:0.15842 36:-0.84 37:0 38:0 39:1 40:0 41:-0.07061 42:0 43:0 44:0 45:-0.07 
1 1:1.18 2:-0.69 3:0.95 4:0.95 5:-1.22 6:-0.73 7:-1.14 8:0.46 9:0 10:0 11:0 12:0.95 13:0.95 14:1.18 15:-0.73 16:-1.14 17:-1.22 18:-0.69 19:0.46 20:0.08 21:0.09 22:0.3 23:0.61 24:-0.41 25:0.08 26:0.16 27:0 28:0.099551 29:-0.22877 30:0.19304 31:0.33 32:0.04 33:0 34:0 35:0.10625 36:0.31 37:0 38:0 39:0 40:0 41:-0.15102 42:1.27 43:0 44:0 45:0.26 
1 1:1.18 2:-0.69 3:0.95 4:0.95 5:-1.22 6:-0.73 7:-1.14 8:0.46 9:0 10:0 11:0 12:0.78 13:0.48 14:0.47 15:-0.8 16:2.36 17:-2.36 18:-0.72 19:0.41 20:0.08 21:0.41 22:-0.98 23:1.3 24:1.21 25:0.08 26:0.53 27:-1 28:0.14366 29:0.067588 30:0.21912 31:-1.18 32:0.04 33:1 34:0 35:0.10929 36:-0.62 37:0 38:0 39:0 40:0 41:-0.29814 42:0 43:0.04 44:0 45:-0.07 
1 1:0.56 2:0.16 3:0.33 4:0.61 5:0.09 6:-0.41 7:0.3 8:0.31 9:0 10:0 11:0 12:0.73 13:0.4 14:0.42 15:0 16:2.23 17:-0.2 18:-0.07 19:0.46 20:0.04 21:-2.36 22:2.36 23:0.48 24:-0.8 25:0.12 26:-0.72 27:0 28:0.027156 29:-0.041703 30:0.13852 31:0.78 32:0.08 33:0 34:-1 35:0.16696 36:0.41 37:0 38:0.20411 39:0 40:0 41:-0.11127 42:-1.18 43:0 44:0 45:-1.1 
1 1:0.56 2:0.16 3:0.33 4:0.61 5:0.09 6:-0.41 7:0.3 8:0.31 9:0 10:0 11:0 12:1.91 13:0.93 14:1.02 15:-0.84 16:-3.44 17:-5.4 18:-1.76 19:0.12 20:0.04 21:-0.34 22:-1.4 23:1.12 24:-0.27 25:0.08 26:-0.18 27:1 28:0.44342 29:-0.6978 30:1.2114 31:0.07 32:0.08 33:0 34:0 35:0.36216 36:0.38 37:0 38:0 39:0 40:0 41:-0.95761 42:1.21 43:0.12 44:0 45:0.53 
1 1:0.47 2:-0.72 3:0.78 4:0.48 5:-2.36 6:-0.8 7:2.36 8:0.41 9:-1 10:0 11:0 12:-1.18 13:1.3 14:1.26 15:1.21 16:-0.98 17:0.41 18:0.53 19:-0.62 20:0.04 21:0.41 22:-0.98 23:1.3 24:1.21 25:0.04 26:0.53 27:0 28:0.046858 29:-0.0072264 30:0.15802 31:-1.18 32:0.08 33:0 34:0 35:0.27132 36:-0.62 37:0 38:-0.13611 39:0 40:0 41:-0.2849 42:-0.84 43:0 44:0 45:-1.76 
1 1:0.9 2:0.25 3:0.1 4:0.92 5:0.18 6:-0.06 7:0.09 8:0.05 9:0 10:0 11:0 12:0.07 13:1.12 14:1.3 15:-0.27 16:-1.4 17:-0.34 18:-0.18 19:0.38 20:0 21:-0.34 22:-1.4 23:1.12 24:-0.27 25:0 26:-0.18 27:0 28:0.12116 29:0.13281 30:0.53149 31:0.07 32:0.08 33:0 34:0 35:0.25086 36:0.38 37:0 38:-0.11628 39:0 40:0 41:-0.5875 42:1.21 43:0.04 44:0 45:0.53 
1 1:0.62 2:-0.62 3:0.83 4:0.61 5:-2.1 6:-0.77 7:-0.07 8:0.38 9:-1 10:0 11:0 12:-1.18 13:1.3 14:1.26 15:1.21 16:-0.98 17:0.41 18:0.53 19:-0.62 20:0 21:0.37 22:-1.03 23:1.81 24:1.31 25:0.04 26:0.73 27:0 28:-0.098578 29:0.11232 30:-0.015322 31:-1.13 32:0.12 33:0 34:0 35:0.063145 36:-0.69 37:0 38:0 39:0 40:0 41:-0.059804 42:-1.18 43:0.12 44:0 45:-1.1 
1 1:0.56 2:0.16 3:0.33 4:0.61 5:0.09 6:-0.41 7:0.3 8:0.31 9:0 10:0 11:0 12:-1.27 13:1.81 14:1.53 15:1.09 16:-1.29 17:0.32 18:0.54 19:-0.46 20:0.04 21:-0.4 22:0.57 23:0.82 24:-0.5 25:0.04 26:-0.26 27:0 28:-0.026425 29:0.43042 30:-0.3401 31:0.52 32:0 33:0 34:0 35:0.3964 36:0.12 37:0 38:-0.10799 39:0 40:0 41:0.032026 42:1.31 43:0.04 44:0 45:0.73 
1 1:1.53 2:0.54 3:-1.27 4:1.81 5:0.32 6:1.09 7:-1.29 8:-0.46 9:0 10:0 11:0 12:-0.21 13:1.53 14:1.68 15:0.33 16:0.01 17:-0.08 18:0.02 19:-0.25 20:0 21:-1.3 22:0.84 23:0.6 24:-0.48 25:0.12 26:-0.64 27:0 28:0.021381 29:-0.013867 30:0.066966 31:0.48 32:0.04 33:0 34:0 35:0.64539 36:0.29 37:0 38:-0.097752 39:0 40:0 41:-0.60582 42:1.09 43:0 44:0 45:0.54 
1 1:1.26 2:0.53 3:-1.18 4:1.3 5:0.41 6:1.21 7:-0.98 8:-0.62 9:0 10:0 11:0 12:1.4 13:0.7 14:0.74 15:-1.18 16:-3.14 17:-2.53 18:-1.1 19:0.57 20:0.08 21:-0.2 22:2.23 23:0.4 24:0 25:0.04 26:-0.07 27:1 28:-0.023272 29:0.068674 30:0.083531 31:0.73 32:0.12 33:0 34:0 35:0.18081 36:0.46 37:0 38:0.039216 39:1 40:0 41:-0.2403 42:-0.27 43:0.04 44:0 45:-0.18 
1 1:0.47 2:-0.72 3:0.78 4:0.48 5:-2.36 6:-0.8 7:2.36 8:0.41 9:-1 10:0 11:0 12:0.73 13:0.4 14:0.42 15:0 16:2.23 17:-0.2 18:-0.07 19:0.46 20:0.08 21:0.18 22:0.09 23:0.92 24:-0.06 25:0.04 26:0.25 27:0 28:0.037274 29:-0.035178 30:0.17408 31:0.1 32:0.08 33:0 34:0 35:0.15622 36:0.05 37:0 38:0.071871 39:0 40:0 41:-0.18765 42:0.33 43:0 44:0 45:0.02 
1 1:0.62 2:-0.64 3:0.48 4:0.6 5:-1.3 6:-0.48 7:0.84 8:0.29 9:0 10:0 11:0 12:-1.18 13:1.3 14:1.26 15:1.21 16:-0.98 17:0.41 18:0.53 19:-0.62 20:0.08 21:-2.1 22:-0.07 23:0.61 24:-0.77 25:0.04 26:-0.62 27:0 28:0.096113 29:-0.2278 30:0.34613 31:0.83 32:0.16 33:0 34:-1 35:0.041771 36:0.38 37:0 38:0.099051 39:0 40:0 41:-0.22692 42:-0.77 43:0.16 44:0 45:-0.62 
1 1:0.56 2:0.16 3:0.33 4:0.61 5:0.09 6:-0.41 7:0.3 8:0.31 9:0 10:0 11:0 12:-1.18 13:1.3 14:1.26 15:1.21 16:-0.98 17:0.41 18:0.53 19:-0.62 20:0.12 21:-0.4 22:0.57 23:0.82 24:-0.5 25:0 26:-0.26 27:0 28:0.038289 29:-0.13302 30:0.41811 31:0.52 32:0.16 33:0 34:0 35:0.91052 36:0.12 37:0 38:-0.097247 39:0 40:0 41:-0.80634 42:1.21 43:0.12 44:0 45:0.53 
1 1:0.56 2:0.16 3:0.33 4:0.61 5:0.09 6:-0.41 7:0.3 8:0.31 9:0 10:0 11:0 12:0.95 13:0.95 14:1.18 15:-0.73 16:-1.14 17:-1.22 18:-0.69 19:0.46 20:0.08 21:0.5 22:0.45 23:1.25 24:1.27 25:0.08 26:0.61 27:0 28:0.35748 29:-0.80212 30:0.80524 31:-2.12 32:0 33:0 34:0 35:0.08489 36:-0.45 37:0 38:-1.0614 39:0 40:0 41:-0.56822 42:0.49 43:0.24 44:0 45:-0.4 
1 1:1.26 2:0.53 3:-1.18 4:1.3 5:0.41 6:1.21 7:-0.98 8:-0.62 9:0 10:0 11:0 12:0.1 13:0.92 14:0.9 15:-0.06 16:0.09 17:0.18 18:0.25 19:0.05 20:0.04 21:-1.22 22:-1.14 23:0.95 24:-0.73 25:0.08 26:-0.69 27:0 28:0.049921 29:-0.058398 30:0.079386 31:0.95 32:0 33:0 34:0 35:0.087379 36:0.46 37:0 38:-0.20078 39:1 40:0 41:-0.18277 42:1.21 43:0.04 44:0 45:0.53 
1 1:1.23 2:0.61 3:-2.12 4:1.25 5:0.5 6:1.27 7:0.45 8:-0.45 9:0 10:0 11:0 12:0.78 13:0.48 14:0.47 15:-0.8 16:2.36 17:-2.36 18:-0.72 19:0.41 20:0.04 21:-5.4 22:-3.44 23:0.93 24:-0.84 25:0 26:-1.76 27:-1 28:-0.078867 29:0.14639 30:-0.16788 31:1.91 32:0.04 33:1 34:1 35:0.057489 36:0.12 37:0 38:-0.15902 39:0 40:1 41:-0.051772 42:-0.73 43:0.04 44:0 45:-0.69 
0.00927221040324863 1:0.56 2:0.16 3:0.33 4:0.61 5:0.09 6:-0.41 7:0.3 8:0.31 9:0 10:0 11:0 12:1.91 13:0.93 14:1.02 15:-0.84 16:-3.44 17:-5.4 18:-1.76 19:0.12 20:0.04 21:0.41 22:-0.98 23:1.3 24:1.21 25:0 26:0.53 27:1 28:0.061767 29:-0.060614 30:0.3136 31:-1.18 32:0.12 33:0 34:0 35:0.17379 36:-0.62 37:0 38:-0.083333 39:0 40:0 41:-0.21879 42:1.21 43:0.08 44:0 45:0.53 
1 1:0.56 2:0.16 3:0.33 4:0.61 5:0.09 6:-0.41 7:0.3 8:0.31 9:0 10:0 11:0 12:0.73 13:0.4 14:0.42 15:0 16:2.23 17:-0.2 18:-0.07 19:0.46 20:0.04 21:0.41 22:-0.98 23:1.3 24:1.21 25:0.04 26:0.53 27:0 28:-0.0024342 29:0.086663 30:-0.074526 31:-1.18 32:0 33:0 34:0 35:0.020942 36:-0.62 37:0 38:-0.050615 39:0 40:0 41:-0.014187 42:1.27 43:0.04 44:0 45:0.26 
1 1:1.12 2:-0.4 3:-0.5 4:0.93 5:-1.48 6:0.49 7:1.11 8:-0.41 9:0 10:0 11:1 12:-0.21 13:1.53 14:1.68 15:0.33 16:0.01 17:-0.08 18:0.02 19:-0.25 20:0.16 21:0.37 22:-1.03 23:1.81 24:1.31 25:0.08 26:0.73 27:0 28:-0.15071 29:0.46024 30:-0.33573 31:-1.13 32:0 33:0 34:0 35:0.1686 36:-0.69 37:0 38:0.072727 39:0 40:0 41:-0.076705 42:1.36 43:0.04 44:0 45:0.04 
1 1:0.87 2:-0.26 3:0.52 4:0.82 5:-0.4 6:-0.5 7:0.57 8:0.12 9:0 10:0 11:0 12:0.52 13:0.82 14:0.87 15:-0.5 16:0.57 17:-0.4 18:-0.26 19:0.12 20:0.12 21:-0.2 22:2.23 23:0.4 24:0 25:0.08 26:-0.07 27:0 28:-0.066777 29:0.084786 30:-0.19832 31:0.73 32:0 33:0 34:0 35:0.33288 36:0.46 37:0 38:0.070922 39:0 40:0 41:-0.098756 42:-1.18 43:0.04 44:0 45:-1.1 
1 1:1.54 2:0.73 3:-1.13 4:1.81 5:0.37 6:1.31 7:-1.03 8:-0.69 9:0 10:0 11:0 12:0.78 13:0.48 14:0.47 15:-0.8 16:2.36 17:-2.36 18:-0.72 19:0.41 20:0.08 21:0.41 22:-0.98 23:1.3 24:1.21 25:0.12 26:0.53 27:-1 28:0.0038607 29:0.05402 30:-0.093764 31:-1.18 32:0 33:1 34:0 35:0.61918 36:-0.62 37:0 38:-0.12669 39:0 40:0 41:-0.19731 42:-0.06 43:0.16 44:0 45:0.25 
1 1:1.68 2:0.02 3:-0.21 4:1.53 5:-0.08 6:0.33 7:0.01 8:-0.25 9:0 10:0 11:0 12:1.4 13:0.7 14:0.74 15:-1.18 16:-3.14 17:-2.53 18:-1.1 19:0.57 20:0.08 21:-0.4 22:0.57 23:0.82 24:-0.5 25:0.04 26:-0.26 27:1 28:-0.031203 29:0.080156 30:-0.011611 31:0.52 32:0.08 33:0 34:0 35:0.08867 36:0.12 37:0 38:0.061517 39:0 40:0 41:-0.15857 42:-0.77 43:0.08 44:0 45:-0.62 
1 1:0.62 2:-0.62 3:0.83 4:0.61 5:-2.1 6:-0.77 7:-0.07 8:0.38 9:-1 10:0 11:0 12:-1.27 13:1.81 14:1.53 15:1.09 16:-1.29 17:0.32 18:0.54 19:-0.46 20:0.04 21:-0.4 22:0.57 23:0.82 24:-0.5 25:0.04 26:-0.26 27:0 28:-0.033532 29:0.34463 30:-0.065875 31:0.52 32:0.08 33:0 34:0 35:0.28596 36:0.12 37:0 38:0 39:0 40:0 41:-0.22225 42:1.09 43:0.04 44:0 45:0.54 
1 1:0.9 2:0.25 3:0.1 4:0.92 5:0.18 6:-0.06 7:0.09 8:0.05 9:0 10:0 11:0 12:0.95 13:0.95 14:1.18 15:-0.73 16:-1.14 17:-1.22 18:-0.69 19:0.46 20:0 21:0.41 22:-0.98 23:1.3 24:1.21 25:0 26:0.53 27:0 28:0.029582 29:-0.016084 30:0.15984 31:-1.18 32:0.04 33:0 34:0 35:0.18436 36:-0.62 37:0 38:-0.047847 39:0 40:0 41:-0.19763 42:1.21 43:0 44:0 45:0.53 
1 1:1.26 2:0.53 3:-1.18 4:1.3 5:0.41 6:1.21 7:-0.98 8:-0.62 9:0 10:0 11:0 12:-1.59 13:1.19 14:1.09 15:1.27 16:-0.41 17:0.44 18:0.26 19:-0.38 20:0.04 21:0.37 22:-1.03 23:1.81 24:1.31 25:0 26:0.73 27:0 28:-0.083716 29:0.16949 30:-0.080675 31:-1.13 32:0.08 33:0 34:0 35:0.099237 36:-0.69 37:0 38:-0.21553 39:1 40:0 41:-0.29479 42:-0.41 43:0.12 44:0 45:0.16 
1 1:0.56 2:0.16 3:0.33 4:0.61 5:0.09 6:-0.41 7:0.3 8:0.31 9:0 10:0 11:0 12:0.07 13:1.12 14:1.3 15:-0.27 16:-1.4 17:-0.34 18:-0.18 19:0.38 20:0.04 21:-1.48 22:1.11 23:0.93 24:0.49 25:0 26:-0.4 27:0 28:-0.023019 29:0.072433 30:-0.036339 31:-0.5 32:0.04 33:0 34:0 35:0.083333 36:-0.41 37:0 38:0 39:0 40:1 41:-0.058522 42:-0.5 43:0.08 44:0 45:-0.26 
1 1:0.9 2:0.25 3:0.1 4:0.92 5:0.18 6:-0.06 7:0.09 8:0.05 9:0 10:0 11:0 12:0.52 13:0.82 14:0.87 15:-0.5 16:0.57 17:-0.4 18:-0.26 19:0.12 20:0.08 21:0.32 22:-1.29 23:1.81 24:1.09 25:0.08 26:0.54 27:0 28:0.46367 29:-0.28269 30:0.17366 31:-1.27 32:0 33:0 34:0 35:0.0093458 36:-0.46 37:0 38:-0.1519 39:0 40:0 41:-0.22831 42:-0.06 43:0.12 44:0 45:0.25 
1 1:1.02 2:-1.76 3:1.91 4:0.93 5:-5.4 6:-0.84 7:-3.44 8:0.12 9:1 10:0 11:1 12:0.78 13:0.48 14:0.47 15:-0.8 16:2.36 17:-2.36 18:-0.72 19:0.41 20:0 21:-1.48 22:1.11 23:0.93 24:0.49 25:0.04 26:-0.4 27:-1 28:-0.12195 29:0.16282 30:-0.092807 31:-0.5 32:0.04 33:1 34:0 35:0.32087 36:-0.41 37:0 38:-0.10238 39:0 40:1 41:-0.17138 42:-0.8 43:0.04 44:1 45:-0.72 
1 1:1.18 2:-0.69 3:0.95 4:0.95 5:-1.22 6:-0.73 7:-1.14 8:0.46 9:0 10:0 11:0 12:-0.21 13:1.53 14:1.68 15:0.33 16:0.01 17:-0.08 18:0.02 19:-0.25 20:0.04 21:0.41 22:-0.98 23:1.3 24:1.21 25:0.12 26:0.53 27:0 28:0.086638 29:-0.054962 30:0.092315 31:-1.18 32:0.04 33:0 34:0 35:0.14409 36:-0.62 37:0 38:0.062651 39:0 40:0 41:-0.19227 42:-0.5 43:0.08 44:0 45:-0.26 
1 1:1.26 2:0.53 3:-1.18 4:1.3 5:0.41 6:1.21 7:-0.98 8:-0.62 9:0 10:0 11:0 12:-2.12 13:1.25 14:1.23 15:1.27 16:0.45 17:0.5 18:0.61 19:-0.45 20:0.16 21:0.44 22:-0.41 23:1.19 24:1.27 25:0 26:0.26 27:0 28:-0.096938 29:0.17721 30:0.13886 31:-1.59 32:0.08 33:0 34:0 35:0.32094 36:-0.38 37:0 38:0 39:1 40:0 41:-0.11743 42:-0.84 43:0.04 44:0 45:-1.76 
1 1:0.9 2:0.25 3:0.1 4:0.92 5:0.18 6:-0.06 7:0.09 8:0.05 9:0 10:0 11:0 12:0.73 13:0.4 14:0.42 15:0 16:2.23 17:-0.2 18:-0.07 19:0.46 20:0.04 21:-2.1 22:-0.07 23:0.61 24:-0.77 25:0.16 26:-0.62 27:0 28:0.066538 29:0.028155 30:0.31631 31:0.83 32:0.08 33:0 34:-1 35:0.13466 36:0.38 37:0 38:0.042232 39:0 40:0 41:-0.035695 42:1.31 43:0.04 44:0 45:0.73 
1 1:1.18 2:-0.69 3:0.95 4:0.95 5:-1.22 6:-0.73 7:-1.14 8:0.46 9:0 10:0 11:0 12:1.91 13:0.93 14:1.02 15:-0.84 16:-3.44 17:-5.4 18:-1.76 19:0.12 20:0.04 21:-2.1 22:-0.07 23:0.61 24:-0.77 25:0.04 26:-0.62 27:1 28:-0.044213 29:0.10432 30:-0.15651 31:0.83 32:0.08 33:0 34:-1 35:0.27725 36:0.38 37:0 38:0 39:0 40:0 41:-0.22672 42:0.33 43:0.08 44:0 45:0.02 
1 1:0.42 2:-0.07 3:0.73 4:0.4 5:-0.2 6:0 7:2.23 8:0.46 9:0 10:0 11:0 12:-0.5 13:0.93 14:1.12 15:0.49 16:1.11 17:-1.48 18:-0.4 19:-0.41 20:0 21:-2.53 22:-3.14 23:0.7 24:-1.18 25:0.08 26:-1.1 27:0 28:-0.13957 29:0.28553 30:-0.39633 31:1.4 32:0.04 33:0 34:1 35:0.26984 36:0.57 37:1 38:0.375 39:0 40:1 41:0.031766 42:-0.73 43:0 44:0 45:-0.69 
1 1:0.56 2:0.16 3:0.33 4:0.61 5:0.09 6:-0.41 7:0.3 8:0.31 9:0 10:0 11:0 12:0.73 13:0.4 14:0.42 15:0 16:2.23 17:-0.2 18:-0.07 19:0.46 20:0.04 21:0.18 22:0.09 23:0.92 24:-0.06 25:0.08 26:0.25 27:0 28:0.036672 29:-0.017717 30:0.018964 31:0.1 32:0 33:0 34:0 35:0.045775 36:0.05 37:0 38:0 39:0 40:0 41:-0.011216 42:1.21 43:0.04 44:0 45:0.53 
1 1:1.68 2:0.02 3:-0.21 4:1.53 5:-0.08 6:0.33 7:0.01 8:-0.25 9:0 10:0 11:0 12:0.07 13:1.12 14:1.3 15:-0.27 16:-1.4 17:-0.34 18:-0.18 19:0.38 20:0 21:-0.2 22:2.23 23:0.4 24:0 25:0.08 26:-0.07 27:0 28:0.021296 29:0.079396 30:0.15668 31:0.73 32:0.08 33:0 34:0 35:0.52665 36:0.46 37:0 38:0.053836 39:0 40:0 41:-0.38895 42:-0.8 43:0.04 44:0 45:-0.72 
0.1059751866052802 1:1.26 2:0.53 3:-1.18 4:1.3 5:0.41 6:1.21 7:-0.98 8:-0.62 9:0 10:0 11:0 12:1.91 13:0.93 14:1.02 15:-0.84 16:-3.44 17:-5.4 18:-1.76 19:0.12 20:0 21:-0.34 22:-1.4 23:1.12 24:-0.27 25:0 26:-0.18 27:1 28:-0.066918 29:0.29884 30:-0.1043 31:0.07 32:0.08 33:0 34:0 35:0.10354 36:0.38 37:0 38:-0.023881 39:1 40:0 41:-0.040827 42:-0.73 43:0.04 44:0 45:-0.69 
1 1:0.9 2:0.25 3:0.1 4:0.92 5:0.18 6:-0.06 7:0.09 8:0.05 9:0 10:0 11:0 12:1.4 13:0.7 14:0.74 15:-1.18 16:-3.14 17:-2.53 18:-1.1 19:0.57 20:0.12 21:-1.22 22:-1.14 23:0.95 24:-0.73 25:0.04 26:-0.69 27:1 28:-0.033187 29:0.071654 30:-0.044746 31:0.95 32:0 33:0 34:0 35:0.053131 36:0.46 37:0 38:-0.033403 39:0 40:0 41:0.03706 42:1.21 43:0 44:0 45:0.53 
1 1:0.56 2:0.16 3:0.33 4:0.61 5:0.09 6:-0.41 7:0.3 8:0.31 9:0 10:0 11:0 12:1.91 13:0.93 14:1.02 15:-0.84 16:-3.44 17:-5.4 18:-1.76 19:0.12 20:0.12 21:0.18 22:0.09 23:0.92 24:-0.06 25:0.12 26:0.25 27:1 28:-0.0025 29:-0.034436 30:0.06196 31:0.1 32:0.08 33:0 34:0 35:0.13772 36:0.05 37:0 38:0.046534 39:0 40:0 41:-0.14205 42:1.21 43:0.04 44:0 45:0.53 
1 1:0.74 2:-1.1 3:1.4 4:0.7 5:-2.53 6:-1.18 7:-3.14 8:0.57 9:1 10:1 11:1 12:-1.27 13:1.81 14:1.53 15:1.09 16:-1.29 17:0.32 18:0.54 19:-0.46 20:0.04 21:-2.36 22:2.36 23:0.48 24:-0.8 25:0.04 26:-0.72 27:0 28:0.062198 29:-0.076212 30:0.20632 31:0.78 32:0.16 33:0 34:-1 35:0.23234 36:0.41 37:0 38:0 39:0 40:0 41:-0.32464 42:-0.84 43:0.12 44:0 45:-1.76 
1 1:0.42 2:-0.07 3:0.73 4:0.4 5:-0.2 6:0 7:2.23 8:0.46 9:0 10:0 11:0 12:1.4 13:0.7 14:0.74 15:-1.18 16:-3.14 17:-2.53 18:-1.1 19:0.57 20:0.08 21:0.44 22:-0.41 23:1.19 24:1.27 25:0.04 26:0.26 27:1 28:-0.2478 29:0.71815 30:-0.44505 31:-1.59 32:0.08 33:0 34:0 35:0.016405 36:-0.38 37:0 38:0.052174 39:0 40:0 41:-0.13128 42:-0.48 43:0.08 44:0 45:-0.64 
1 1:0.74 2:-1.1 3:1.4 4:0.7 5:-2.53 6:-1.18 7:-3.14 8:0.57 9:1 10:1 11:1 12:-1.13 13:1.81 14:1.54 15:1.31 16:-1.03 17:0.37 18:0.73 19:-0.69 20:0 21:-0.2 22:2.23 23:0.4 24:0 25:0.08 26:-0.07 27:0 28:-0.050678 29:0.14575 30:-0.075003 31:0.73 32:0.12 33:0 34:0 35:0.12409 36:0.46 37:0 38:0.025641 39:0 40:0 41:-0.014277 42:1.21 43:0.08 44:0 45:0.53 
1 1:0.62 2:-0.62 3:0.83 4:0.61 5:-2.1 6:-0.77 7:-0.07 8:0.38 9:-1 10:0 11:0 12:-1.18 13:1.3 14:1.26 15:1.21 16:-0.98 17:0.41 18:0.53 19:-0.62 20:0.04 21:-0.34 22:-1.4 23:1.12 24:-0.27 25:0.04 26:-0.18 27:0 28:-0.027732 29:0.049239 30:-0.2401 31:0.07 32:0 33:0 34:0 35:0.12184 36:0.38 37:0 38:-0.075657 39:0 40:0 41:-0.21839 42:-0.27 43:0.08 44:0 45:-0.18 
1 1:0.62 2:-0.62 3:0.83 4:0.61 5:-2.1 6:-0.77 7:-0.07 8:0.38 9:-1 10:0 11:0 12:0.73 13:0.4 14:0.42 15:0 16:2.23 17:-0.2 18:-0.07 19:0.46 20:0.2 21:-0.08 22:0.01 23:1.53 24:0.33 25:0.04 26:0.02 27:0 28:0.028081 29:0.025201 30:0.031033 31:-0.21 32:0.04 33:0 34:0 35:0.083333 36:-0.25 37:0 38:-0.049217 39:0 40:0 41:-0.073409 42:-0.84 43:0.12 44:0 45:-1.76 
0.2814549115641621 1:1.23 2:0.61 3:-2.12 4:1.25 5:0.5 6:1.27 7:0.45 8:-0.45 9:0 10:0 11:0 12:1.91 13:0.93 14:1.02 15:-0.84 16:-3.44 17:-5.4 18:-1.76 19:0.12 20:0.08 21:-1.3 22:0.84 23:0.6 24:-0.48 25:0 26:-0.64 27:1 28:0.024781 29:-0.11881 30:0.066095 31:0.48 32:0.04 33:0 34:0 35:0.053131 36:0.29 37:0 38:-0.098592 39:0 40:0 41:0.080162 42:-0.5 43:0.04 44:0 45:-0.26 
1 1:0.47 2:-0.72 3:0.78 4:0.48 5:-2.36 6:-0.8 7:2.36 8:0.41 9:-1 10:0 11:0 12:-1.18 13:1.3 14:1.26 15:1.21 16:-0.98 17:0.41 18:0.53 19:-0.62 20:0 21:-0.2 22:2.23 23:0.4 24:0 25:0.04 26:-0.07 27:0 28:0.072098 29:0.044534 30:0.0793 31:0.73 32:0.04 33:0 34:0 35:0.087379 36:0.46 37:0 38:-0.045728 39:0 40:0 41:-0.097326 42:0 43:0.04 44:0 45:-0.07 
1 1:0.56 2:0.16 3:0.33 4:0.61 5:0.09 6:-0.41 7:0.3 8:0.31 9:0 10:0 11:0 12:0.83 13:0.61 14:0.62 15:-0.77 16:-0.07 17:-2.1 18:-0.62 19:0.38 20:0 21:-1.22 22:-1.14 23:0.95 24:-0.73 25:0.08 26:-0.69 27:-1 28:0.25714 29:-0.37042 30:0.54458 31:0.95 32:0.04 33:0 34:0 35:0.28378 36:0.46 37:0 38:0.10694 39:0 40:0 41:-0.50136 42:-0.41 43:0.04 44:0 45:0.16 
1 1:0.56 2:0.16 3:0.33 4:0.61 5:0.09 6:-0.41 7:0.3 8:0.31 9:0 10:0 11:0 12:0.73 13:0.4 14:0.42 15:0 16:2.23 17:-0.2 18:-0.07 19:0.46 20:0.04 21:-1.3 22:0.84 23:0.6 24:-0.48 25:0.04 26:-0.64 27:0 28:0.015302 29:0.22403 30:-0.16677 31:0.48 32:0 33:0 34:0 35:0.013158 36:0.29 37:0 38:-0.095975 39:0 40:0 41:-0.018656 42:-0.73 43:0.04 44:0 45:-0.69 
1 1:0.47 2:-0.72 3:0.78 4:0.48 5:-2.36 6:-0.8 7:2.36 8:0.41 9:-1 10:0 11:0 12:-1.13 13:1.81 14:1.54 15:1.31 16:-1.03 17:0.37 18:0.73 19:-0.69 20:0.04 21:0.09 22:0.3 23:0.61 24:-0.41 25:0.12 26:0.16 27:0 28:0.02462 29:0.078698 30:-0.037399 31:0.33 32:0 33:0 34:0 35:0.075212 36:0.31 37:0 38:0 39:0 40:0 41:-0.11699 42:1.31 43:0.04 44:0 45:0.73 
1 1:0.56 2:0.16 3:0.33 4:0.61 5:0.09 6:-0.41 7:0.3 8:0.31 9:0 10:0 11:0 12:0.78 13:0.48 14:0.47 15:-0.8 16:2.36 17:-2.36 18:-0.72 19:0.41 20:0 21:-0.08 22:0.01 23:1.53 24:0.33 25:0.08 26:0.02 27:-1 28:0.073333 29:0.024364 30:-0.07612 31:-0.21 32:0 33:1 34:0 35:0.043478 36:-0.25 37:0 38:-0.50958 39:0 40:0 41:-0.065483 42:-0.77 43:0.04 44:0 45:-0.62 
1 1:1.18 2:-0.69 3:0.95 4:0.95 5:-1.22 6:-0.73 7:-1.14 8:0.46 9:0 10:0 11:0 12:-2.12 13:1.25 14:1.23 15:1.27 16:0.45 17:0.5 18:0.61 19:-0.45 20:0.04 21:0.41 22:-0.98 23:1.3 24:1.21 25:0.08 26:0.53 27:0 28:0.10784 29:-0.10225 30:0.17308 31:-1.18 32:0.08 33:0 34:0 35:0.23144 36:-0.62 37:0 38:0.040737 39:0 40:0 41:-0.23268 42:-0.77 43:0.08 44:0 45:-0.62 
1 1:1.12 2:-0.4 3:-0.5 4:0.93 5:-1.48 6:0.49 7:1.11 8:-0.41 9:0 10:0 11:1 12:0.33 13:0.61 14:0.56 15:-0.41 16:0.3 17:0.09 18:0.16 19:0.31 20:0.12 21:0.32 22:-1.29 23:1.81 24:1.09 25:0 26:0.54 27:0 28:-0.15784 29:0.28383 30:-0.10101 31:-1.27 32:0.08 33:0 34:0 35:0.081172 36:-0.46 37:0 38:0.11795 39:0 40:0 41:-0.019494 42:1.21 43:0 44:0 45:0.53 
1 1:1.26 2:0.53 3:-1.18 4:1.3 5:0.41 6:1.21 7:-0.98 8:-0.62 9:0 10:0 11:0 12:1.4 13:0.7 14:0.74 15:-1.18 16:-3.14 17:-2.53 18:-1.1 19:0.57 20:0 21:-2.1 22:-0.07 23:0.61 24:-0.77 25:0.04 26:-0.62 27:1 28:-0.057574 29:0.12555 30:-0.084357 31:0.83 32:0 33:0 34:-1 35:0.053131 36:0.38 37:0 38:-0.52085 39:1 40:0 41:-0.097342 42:1.21 43:0.12 44:0 45:0.53 
1 1:0.9 2:0.25 3:0.1 4:0.92 5:0.18 6:-0.06 7:0.09 8:0.05 9:0 10:0 11:0 12:0.73 13:0.4 14:0.42 15:0 16:2.23 17:-0.2 18:-0.07 19:0.46 20:0 21:-1.3 22:0.84 23:0.6 24:-0.48 25:0.08 26:-0.64 27:0 28:-0.032383 29:0.14076 30:-0.066927 31:0.48 32:0.04 33:0 34:0 35:0.097785 36:0.29 37:0 38:0.091013 39:0 40:0 41:-0.048732 42:-0.06 43:0 44:0 45:0.25 
1 1:1.3 2:-0.18 3:0.07 4:1.12 5:-0.34 6:-0.27 7:-1.4 8:0.38 9:0 10:0 11:0 12:-1.27 13:1.81 14:1.53 15:1.09 16:-1.29 17:0.32 18:0.54 19:-0.46 20:0.04 21:0.18 22:0.09 23:0.92 24:-0.06 25:0 26:0.25 27:0 28:0.0055482 29:0.42394 30:-0.45495 31:0.1 32:0 33:0 34:0 35:0.16338 36:0.05 37:0 38:-0.066667 39:0 40:0 41:0.2741 42:1.21 43:0.04 44:0 45:0.53 
1 1:0.62 2:-0.64 3:0.48 4:0.6 5:-1.3 6:-0.48 7:0.84 8:0.29 9:0 10:0 11:0 12:0.73 13:0.4 14:0.42 15:0 16:2.23 17:-0.2 18:-0.07 19:0.46 20:0 21:0.44 22:-0.41 23:1.19 24:1.27 25:0.04 26:0.26 27:0 28:-0.053388 29:0.35543 30:-0.23293 31:-1.59 32:0.12 33:0 34:0 35:0.32189 36:-0.38 37:0 38:0.32189 39:0 40:0 41:-0.079688 42:1.27 43:0 44:0 45:0.61 
1 1:0.56 2:0.16 3:0.33 4:0.61 5:0.09 6:-0.41 7:0.3 8:0.31 9:0 10:0 11:0 12:-0.51 13:1.54 14:1.75 15:0.88 16:0.85 17:-0.01 18:0.37 19:-0.98 20:0.2 21:-1.3 22:0.84 23:0.6 24:-0.48 25:0.04 26:-0.64 27:0 28:-0.042267 29:-0.054157 30:0.13167 31:0.48 32:0 33:0 34:0 35:0.14759 36:0.29 37:0 38:-0.64183 39:0 40:0 41:-0.21524 42:0.88 43:0.08 44:0 45:0.37 
1 1:1.26 2:0.53 3:-1.18 4:1.3 5:0.41 6:1.21 7:-0.98 8:-0.62 9:0 10:0 11:0 12:0.73 13:0.4 14:0.42 15:0 16:2.23 17:-0.2 18:-0.07 19:0.46 20:0.08 21:-0.4 22:0.57 23:0.82 24:-0.5 25:0.04 26:-0.26 27:0 28:-0.1734 29:0.42222 30:-0.43979 31:0.52 32:0 33:0 34:0 35:0.19758 36:0.12 37:0 38:-0.061538 39:1 40:0 41:0.038981 42:-0.77 43:0.04 44:0 45:-0.62 
1 1:1.3 2:-0.18 3:0.07 4:1.12 5:-0.34 6:-0.27 7:-1.4 8:0.38 9:0 10:0 11:0 12:-0.51 13:1.54 14:1.75 15:0.88 16:0.85 17:-0.01 18:0.37 19:-0.98 20:0.12 21:-0.2 22:2.23 23:0.4 24:0 25:0 26:-0.07 27:0 28:-0.17565 29:0.42273 30:-0.33854 31:0.73 32:0 33:0 34:0 35:0.19758 36:0.46 37:0 38:-0.0065125 39:0 40:0 41:0.28296 42:1.21 43:0.08 44:0 45:0.53 
1 1:0.87 2:-0.26 3:0.52 4:0.82 5:-0.4 6:-0.5 7:0.57 8:0.12 9:0 10:0 11:0 12:1.91 13:0.93 14:1.02 15:-0.84 16:-3.44 17:-5.4 18:-1.76 19:0.12 20:0.12 21:-2.36 22:2.36 23:0.48 24:-0.8 25:0.04 26:-0.72 27:1 28:-0.19826 29:0.2283 30:-0.13471 31:0.78 32:0.04 33:0 34:-1 35:0.056856 36:0.41 37:0 38:0 39:0 40:0 41:-0.052324 42:-0.5 43:0 44:0 45:-0.26 
0.4208456570023417 1:1.53 2:0.54 3:-1.27 4:1.81 5:0.32 6:1.09 7:-1.29 8:-0.46 9:0 10:0 11:0 12:1.4 13:0.7 14:0.74 15:-1.18 16:-3.14 17:-2.53 18:-1.1 19:0.57 20:0.04 21:0.41 22:-0.98 23:1.3 24:1.21 25:0.16 26:0.53 27:1 28:0.051388 29:-0.03143 30:0.021454 31:-1.18 32:0.04 33:0 34:0 35:0.2 36:-0.62 37:0 38:0.18116 39:0 40:0 41:0.030296 42:-0.73 43:0.04 44:0 45:-0.69 
1 1:0.74 2:-1.1 3:1.4 4:0.7 5:-2.53 6:-1.18 7:-3.14 8:0.57 9:1 10:1 11:1 12:0.07 13:1.12 14:1.3 15:-0.27 16:-1.4 17:-0.34 18:-0.18 19:0.38 20:0 21:0.32 22:-1.29 23:1.81 24:1.09 25:0.04 26:0.54 27:0 28:0.033977 29:0.04209 30:-0.094004 31:-1.27 32:0.12 33:0 34:0 35:0.31283 36:-0.46 37:0 38:-0.084778 39:0 40:0 41:-0.20533 42:-0.8 43:0.08 44:0 45:-0.72 
1 1:1.26 2:0.53 3:-1.18 4:1.3 5:0.41 6:1.21 7:-0.98 8:-0.62 9:0 10:0 11:0 12:0.07 13:1.12 14:1.3 15:-0.27 16:-1.4 17:-0.34 18:-0.18 19:0.38 20:0.12 21:-0.4 22:0.57 23:0.82 24:-0.5 25:0.04 26:-0.26 27:0 28:-0.068075 29:0.15746 30:-0.11056 31:0.52 32:0.04 33:0 34:0 35:0.14506 36:0.12 37:0 38:0.11708 39:1 40:0 41:0.017474 42:1.21 43:0 44:0 45:0.53 
1 1:0.56 2:0.16 3:0.33 4:0.61 5:0.09 6:-0.41 7:0.3 8:0.31 9:0 10:0 11:0 12:0.83 13:0.61 14:0.62 15:-0.77 16:-0.07 17:-2.1 18:-0.62 19:0.38 20:0.04 21:-1.22 22:-1.14 23:0.95 24:-0.73 25:0.04 26:-0.69 27:-1 28:0.040336 29:0.019119 30:0.054907 31:0.95 32:0 33:0 34:0 35:0.19758 36:0.46 37:0 38:-0.28571 39:0 40:0 41:-0.15491 42:1.21 43:0.04 44:0 45:0.53 
1 1:1.26 2:0.53 3:-1.18 4:1.3 5:0.41 6:1.21 7:-0.98 8:-0.62 9:0 10:0 11:0 12:0.1 13:0.92 14:0.9 15:-0.06 16:0.09 17:0.18 18:0.25 19:0.05 20:0 21:-2.1 22:-0.07 23:0.61 24:-0.77 25:0.04 26:-0.62 27:0 28:-0.066261 29:0.14833 30:-0.15904 31:0.83 32:0.04 33:0 34:-1 35:0.22137 36:0.38 37:0 38:0 39:1 40:0 41:0.1633 42:-0.41 43:0.04 44:0 45:0.16 
1 1:0.62 2:-0.62 3:0.83 4:0.61 5:-2.1 6:-0.77 7:-0.07 8:0.38 9:-1 10:0 11:0 12:0.1 13:0.92 14:0.9 15:-0.06 16:0.09 17:0.18 18:0.25 19:0.05 20:0.04 21:0.32 22:-1.29 23:1.81 24:1.09 25:0.08 26:0.54 27:0 28:0.22289 29:-0.2817 30:0.47937 31:-1.27 32:0.04 33:0 34:0 35:0.50827 36:-0.46 37:0 38:-0.1032 39:0 40:0 41:-1.1181 42:-0.8 43:0.16 44:0 45:-0.72 
1 1:1.18 2:-0.69 3:0.95 4:0.95 5:-1.22 6:-0.73 7:-1.14 8:0.46 9:0 10:0 11:0 12:-1.59 13:1.19 14:1.09 15:1.27 16:-0.41 17:0.44 18:0.26 19:-0.38 20:0.04 21:0.09 22:0.3 23:0.61 24:-0.41 25:0.08 26:0.16 27:0 28:-0.0039499 29:0.034318 30:0.12322 31:0.33 32:0.08 33:0 34:0 35:0.14833 36:0.31 37:0 38:0.14833 39:0 40:0 41:-0.21538 42:0.33 43:0 44:0 45:0.02 
1 1:1.12 2:-0.4 3:-0.5 4:0.93 5:-1.48 6:0.49 7:1.11 8:-0.41 9:0 10:0 11:1 12:-1.18 13:1.3 14:1.26 15:1.21 16:-0.98 17:0.41 18:0.53 19:-0.62 20:0.04 21:-0.01 22:0.85 23:1.54 24:0.88 25:0.08 26:0.37 27:0 28:-0.10991 29:0.13357 30:0.012351 31:-0.51 32:0.12 33:0 34:0 35:0.11633 36:-0.98 37:0 38:0.078976 39:0 40:0 41:-0.070786 42:1.27 43:0.04 44:0 45:0.26 
1 1:1.12 2:-0.4 3:-0.5 4:0.93 5:-1.48 6:0.49 7:1.11 8:-0.41 9:0 10:0 11:1 12:1.91 13:0.93 14:1.02 15:-0.84 16:-3.44 17:-5.4 18:-1.76 19:0.12 20:0.04 21:0.09 22:0.3 23:0.61 24:-0.41 25:0.04 26:0.16 27:1 28:-0.038606 29:0.058779 30:-0.005469 31:0.33 32:0.12 33:0 34:0 35:0.23882 36:0.31 37:0 38:0.053097 39:0 40:0 41:-0.48678 42:-0.27 43:0.04 44:0 45:-0.18 
