svm_type c_svc
kernel_type rbf
gamma 0.0151515
nr_class 2
total_sv 7476
rho 1.03168
label 1 -1
probA -0.98303
probB 0.0703247
nr_sv 3738 3738
SV
1 1:0.41 2:1.21 3:-1.18 4:1.3 5:0.53 6:-0.62 7:-0.98 8:1.26 9:0 10:0 11:0 12:-3.14 13:0.7 14:1.4 15:-2.53 16:0.74 17:0.57 18:-1.18 19:0.04 20:0.4 21:-1.1 22:-0.07 23:0.42 24:0 25:-0.2 26:2.23 27:1 28:-0.084252 29:0.73 30:0 31:0.08 32:0.08 33:0.027836 34:0 35:0.46 36:0 37:-0.23886 38:0 39:-0.07421 40:0.82509 41:0.020651 42:0 43:1 44:-0.26 45:0 46:0.35458 47:-1.27 48:0.08 49:0.54 50:0.57 51:0.32 52:0.08 53:0.12 54:0.87 55:0.35753 56:-0.5 57:-0.4 58:0.33 59:-0.41 60:1.81 61:1.53 62:0.21043 63:0.12 64:0.78 65:2.36 66:-0.46 
1 1:0.18 2:-0.06 3:0.1 4:0.92 5:0.25 6:0.05 7:0.09 8:0.9 9:0 10:0 11:0 12:-0.98 13:1.3 14:-1.18 15:0.41 16:1.26 17:-0.62 18:1.21 19:0 20:1.3 21:0.53 22:0.53 23:1.26 24:1.21 25:0.41 26:-0.98 27:0 28:0.14252 29:-1.18 30:0 31:0.12 32:0 33:0.069084 34:0 35:-0.62 36:0 37:0.076398 38:0 39:-0.036889 40:-0.46969 41:-0.11604 42:0 43:0 44:-0.72 45:0.2 46:-0.091291 47:1.4 48:0.08 49:-1.1 50:2.36 51:-2.53 52:0.08 53:0 54:0.47 55:-0.35731 56:-0.8 57:-2.36 58:-1.59 59:-1.4 60:0.7 61:0.74 62:0.040928 63:0.41 64:-1.59 65:-0.41 66:0.57 
1 1:-0.2 2:0 3:0.73 4:0.4 5:-0.07 6:0.46 7:2.23 8:0.42 9:0 10:0 11:0 12:-0.98 13:1.3 14:-1.18 15:0.41 16:1.26 17:-0.62 18:1.21 19:0.04 20:0.61 21:0.53 22:-0.62 23:0.62 24:-0.77 25:-2.1 26:-0.07 27:0 28:0.0065438 29:0.83 30:-1 31:0.04 32:0.04 33:-0.16704 34:0 35:0.38 36:0 37:0.15634 38:0 39:0.028369 40:-1.1792 41:1.1898 42:0 43:0 44:-1.1 45:0.52 46:-0.034353 47:0.73 48:0.08 49:-0.07 50:-3.14 51:-0.2 52:0 53:0 54:0.74 55:-0.81174 56:-1.18 57:-2.53 58:1.91 59:0 60:0.4 61:0.42 62:-0.053097 63:0.57 64:0 65:0 66:0.46 
1 1:-1.22 2:-0.73 3:0.95 4:0.95 5:-0.69 6:0.46 7:-1.14 8:1.18 9:0 10:0 11:0 12:-1.14 13:0.95 14:0.95 15:-1.22 16:1.18 17:0.46 18:-0.73 19:0 20:1.19 21:-0.69 22:0.26 23:1.09 24:1.27 25:0.44 26:-0.41 27:0 28:0.099665 29:-1.59 30:0 31:0.08 32:0.04 33:0.044381 34:0 35:-0.38 36:0 37:0.082988 38:0 39:0 40:-0.40014 41:-0.051398 42:0 43:0 44:0.25 45:0.32 46:-0.14667 47:0 48:0.12 49:0 50:0.09 51:0 52:0 53:0.04 54:0.9 55:-0.44428 56:-0.06 57:0.18 58:0 59:-0.98 60:0 61:0 62:0.044813 63:0.05 64:1.91 65:-3.44 66:0 
1 1:0.18 2:-0.06 3:0.1 4:0.92 5:0.25 6:0.05 7:0.09 8:0.9 9:0 10:0 11:0 12:-1.4 13:1.12 14:0.07 15:-0.34 16:1.3 17:0.38 18:-0.27 19:0.04 20:0.7 21:-0.18 22:-1.1 23:0.74 24:-1.18 25:-2.53 26:-3.14 27:0 28:0.34024 29:1.4 30:1 31:0.08 32:0.08 33:0.081771 34:1 35:0.57 36:1 37:0.33375 38:0 39:0.086957 40:-1.3332 41:-0.20919 42:0 43:0 44:0.54 45:0.08 46:-0.37774 47:1.91 48:0.08 49:-1.76 50:-1.29 51:-5.4 52:0.04 53:0.08 54:1.53 55:-1.1935 56:1.09 57:0.32 58:-1.18 59:0.57 60:0.93 61:1.02 62:-0.06574 63:-0.46 64:0.83 65:-0.07 66:0.12 
1 1:-1.3 2:-0.48 3:0.48 4:0.6 5:-0.64 6:0.29 7:0.84 8:0.62 9:0 10:0 11:0 12:0.45 13:1.25 14:-2.12 15:0.5 16:1.23 17:-0.45 18:1.27 19:0.04 20:0.6 21:0.61 22:-0.64 23:0.62 24:-0.48 25:-1.3 26:0.84 27:0 28:-0.13567 29:0.48 30:0 31:0.08 32:0.04 33:0.070899 34:0 35:0.29 36:0 37:0.25587 38:0 39:0.085106 40:-0.28504 41:0.10539 42:0 43:0 44:-0.64 45:0 46:-0.68641 47:-1.59 48:0 49:0.26 50:0.84 51:0.44 52:0.08 53:0.08 54:0.62 55:-1.9913 56:-0.48 57:-1.3 58:1.4 59:0.45 60:1.19 61:1.09 62:-0.066124 63:0.29 64:-1.59 65:-0.41 66:-0.38 
0.271655651722311 1:0.32 2:1.09 3:-1.27 4:1.81 5:0.54 6:-0.46 7:-1.29 8:1.53 9:0 10:0 11:0 12:-3.44 13:0.93 14:1.91 15:-5.4 16:1.02 17:0.12 18:-0.84 19:0 20:1.3 21:-1.76 22:0.53 23:1.26 24:1.21 25:0.41 26:-0.98 27:1 28:-0.07526 29:-1.18 30:0 31:0.04 32:0.08 33:-0.091604 34:0 35:-0.62 36:0 37:0.1133 38:0 39:-0.21782 40:-1.1261 41:0.26054 42:0 43:0 44:0.53 45:0 46:0.05074 47:0.33 48:0.12 49:0.16 50:-0.98 51:0.09 52:0.08 53:0.12 54:1.26 55:-0.64832 56:1.21 57:0.41 58:0.1 59:-1.03 60:0.61 61:0.56 62:0.0047207 63:-0.62 64:0.83 65:-0.07 66:0.31 
1 1:0.44 2:1.27 3:-1.59 4:1.19 5:0.26 6:-0.38 7:-0.41 8:1.09 9:0 10:0 11:0 12:-0.07 13:0.61 14:0.83 15:-2.1 16:0.62 17:0.38 18:-0.77 19:0.08 20:0.93 21:-0.62 22:-1.76 23:1.02 24:-0.84 25:-5.4 26:-3.44 27:-1 28:-0.015994 29:1.91 30:1 31:0.12 32:0.04 33:-0.0094054 34:1 35:0.12 36:0 37:0.16667 38:0 39:0 40:-0.39937 41:0.032969 42:0 43:0 44:0.53 45:0 46:-0.38933 47:-1.18 48:0.08 49:0.53 50:-0.98 51:0.41 52:0.08 53:0 54:1.26 55:-1.2229 56:1.21 57:0.41 58:0.83 59:0.01 60:1.3 61:1.26 62:-0 63:-0.62 64:0.1 65:0.09 66:-0.62 
1 1:-0.08 2:0.33 3:-0.21 4:1.53 5:0.02 6:-0.25 7:0.01 8:1.68 9:0 10:0 11:0 12:0.09 13:0.92 14:0.1 15:0.18 16:0.9 17:0.05 18:-0.06 19:0 20:1.12 21:0.25 22:-0.18 23:1.3 24:-0.27 25:-0.34 26:-1.4 27:0 28:0.0032826 29:0.07 30:0 31:0.12 32:0.04 33:-0.0015746 34:0 35:0.38 36:0 37:0.24307 38:0 39:0 40:-0.58082 41:-0.034243 42:0 43:0 44:-0.64 45:0 46:-0.3719 47:0.83 48:0.08 49:-0.62 50:0.84 51:-2.1 52:0.08 53:0.04 54:0.62 55:-1.3322 56:-0.48 57:-1.3 58:-1.59 59:-1.29 60:0.61 61:0.62 62:-0.032172 63:0.29 64:1.4 65:-3.14 66:0.38 
1 1:0.41 2:1.21 3:-1.18 4:1.3 5:0.53 6:-0.62 7:-0.98 8:1.26 9:0 10:0 11:0 12:-3.14 13:0.7 14:1.4 15:-2.53 16:0.74 17:0.57 18:-1.18 19:0 20:1.81 21:-1.1 22:0.54 23:1.53 24:1.09 25:0.32 26:-1.29 27:1 28:-0.047829 29:-1.27 30:0 31:0.12 32:0 33:-0.014639 34:0 35:-0.46 36:0 37:0.13885 38:0 39:-0.1865 40:-0.37448 41:0.053241 42:0 43:1 44:0.53 45:0 46:-0.34434 47:0.48 48:0.12 49:-0.64 50:-0.98 51:-1.3 52:0.08 53:0.08 54:1.26 55:-1.4079 56:1.21 57:0.41 58:1.4 59:2.36 60:0.6 61:0.62 62:-0.0088626 63:-0.62 64:0.1 65:0.09 66:0.29 
1 1:-2.36 2:-0.8 3:0.78 4:0.48 5:-0.72 6:0.41 7:2.36 8:0.47 9:-1 10:0 11:0 12:-0.07 13:0.61 14:0.83 15:-2.1 16:0.62 17:0.38 18:-0.77 19:0.04 20:1.54 21:-0.62 22:0.37 23:1.75 24:0.88 25:-0.01 26:0.85 27:-1 28:0.35152 29:-0.51 30:0 31:0.08 32:0.08 33:0.15322 34:0 35:-0.98 36:0 37:0.12973 38:0 39:-0.45246 40:-0.21561 41:-0.25685 42:0 43:0 44:-0.18 45:0 46:-0.37703 47:1.91 48:0.12 49:-1.76 50:-1.4 51:-5.4 52:0.16 53:0.08 54:1.3 55:-1.4391 56:-0.27 57:-0.34 58:0.33 59:-0.07 60:0.93 61:1.02 62:0.021622 63:0.38 64:-1.59 65:-0.41 66:0.12 
1 1:0.09 2:-0.41 3:0.33 4:0.61 5:0.16 6:0.31 7:0.3 8:0.56 9:0 10:0 11:0 12:-1.4 13:1.12 14:0.07 15:-0.34 16:1.3 17:0.38 18:-0.27 19:0.04 20:0.82 21:-0.18 22:-0.26 23:0.87 24:-0.5 25:-0.4 26:0.57 27:0 28:0.077112 29:0.52 30:0 31:0.16 32:0 33:0.061276 34:0 35:0.12 36:0 37:0.039548 38:0 39:0.20217 40:-0.46679 41:-0.044339 42:0 43:0 44:0.37 45:0 46:-0.085376 47:-1.27 48:0.08 49:0.54 50:0.85 51:0.32 52:0.04 53:0.08 54:1.75 55:-0.39274 56:0.88 57:-0.01 58:0.48 59:-1.29 60:1.81 61:1.53 62:0.16949 63:-0.98 64:0.1 65:0.09 66:-0.46 
1 1:-1.22 2:-0.73 3:0.95 4:0.95 5:-0.69 6:0.46 7:-1.14 8:1.18 9:0 10:0 11:0 12:-3.14 13:0.7 14:1.4 15:-2.53 16:0.74 17:0.57 18:-1.18 19:0.12 20:1.12 21:-1.1 22:-0.18 23:1.3 24:-0.27 25:-0.34 26:-1.4 27:1 28:0.10356 29:0.07 30:0 31:0.16 32:0 33:0.079622 34:0 35:0.38 36:0 37:0.13102 38:0 39:0.040161 40:-0.93137 41:-0.061077 42:0 43:0 44:0.73 45:0 46:-0.14894 47:0.52 48:0.08 49:-0.26 50:-1.03 51:-0.4 52:0.04 53:0.04 54:1.54 55:-0.61148 56:1.31 57:0.37 58:-1.13 59:-3.14 60:0.82 61:0.87 62:0.02139 63:-0.69 64:-1.13 65:-1.03 66:0.12 
1 1:0.5 2:1.27 3:-2.12 4:1.25 5:0.61 6:-0.45 7:0.45 8:1.23 9:0 10:0 11:0 12:0.84 13:0.6 14:0.48 15:-1.3 16:0.62 17:0.29 18:-0.48 19:0 20:0.95 21:-0.64 22:-0.69 23:1.18 24:-0.73 25:-1.22 26:-1.14 27:0 28:0.21225 29:0.95 30:0 31:0 32:0.04 33:0.24136 34:0 35:0.46 36:0 37:0.043557 38:0 39:-0.33488 40:0.86073 41:-0.22758 42:0 43:0 44:0.61 45:0.44 46:-0.14768 47:0.73 48:0 49:-0.07 50:0.45 51:-0.2 52:0.12 53:0.08 54:1.23 55:-0.78761 56:1.27 57:0.5 58:0.33 59:2.36 60:0.4 61:0.42 62:-0.0036298 63:-0.45 64:0 65:0 66:0.46 
1 1:-0.08 2:0.33 3:-0.21 4:1.53 5:0.02 6:-0.25 7:0.01 8:1.68 9:0 10:0 11:0 12:0.57 13:0.82 14:0.52 15:-0.4 16:0.87 17:0.12 18:-0.5 19:0.04 20:0.61 21:-0.26 22:0.16 23:0.56 24:-0.41 25:0.09 26:0.3 27:0 28:-0.11248 29:0.33 30:0 31:0.04 32:0.04 33:-0.054482 34:0 35:0.31 36:0 37:-0.095522 38:0 39:0 40:0.22492 41:0.16535 42:0 43:0 44:0.53 45:0 46:-0.027236 47:-1.18 48:0.08 49:0.53 50:-0.98 51:0.41 52:0 53:0.12 54:1.26 55:-0.27486 56:1.21 57:0.41 58:0.33 59:-1.4 60:1.3 61:1.26 62:0.20299 63:-0.62 64:0.48 65:0.84 66:-0.62 
1 1:0.18 2:-0.06 3:0.1 4:0.92 5:0.25 6:0.05 7:0.09 8:0.9 9:0 10:0 11:0 12:1.11 13:0.93 14:-0.5 15:-1.48 16:1.12 17:-0.41 18:0.49 19:0.08 20:0.61 21:-0.4 22:0.16 23:0.56 24:-0.41 25:0.09 26:0.3 27:0 28:0.093736 29:0.33 30:0 31:0.04 32:0.04 33:0.03544 34:0 35:0.31 36:0 37:0.093385 38:0 39:-0.65068 40:0.047974 41:-0.026987 42:0 43:0 44:-0.07 45:0 46:-0.1998 47:1.91 48:0.16 49:-1.76 50:2.23 51:-5.4 52:0.04 53:0.08 54:0.42 55:-1.344 56:0 57:-0.2 58:-1.59 59:0.57 60:0.93 61:1.02 62:0.023346 63:0.46 64:-1.18 65:-0.98 66:0.12 
1 1:-2.36 2:-0.8 3:0.78 4:0.48 5:-0.72 6:0.41 7:2.36 8:0.47 9:-1 10:0 11:0 12:1.11 13:0.93 14:-0.5 15:-1.48 16:1.12 17:-0.41 18:0.49 19:0 20:0.4 21:-0.4 22:-0.07 23:0.42 24:0 25:-0.2 26:2.23 27:0 28:-0.13467 29:0.73 30:0 31:0.08 32:0.04 33:-0.24643 34:0 35:0.46 36:0 37:0.17089 38:0 39:0 40:-0.27157 41:0.44656 42:0 43:0 44:0.53 45:0 46:-0.11237 47:-0.51 48:0.04 49:0.37 50:-0.98 51:-0.01 52:0.08 53:0.04 54:1.26 55:-0.66616 56:1.21 57:0.41 58:-1.13 59:-3.44 60:1.54 61:1.75 62:0.01619 63:-0.62 64:-1.27 65:-1.29 66:-0.98 
1 1:-0.01 2:0.88 3:-0.51 4:1.54 5:0.37 6:-0.98 7:0.85 8:1.75 9:0 10:0 11:0 12:0.84 13:0.6 14:0.48 15:-1.3 16:0.62 17:0.29 18:-0.48 19:0.04 20:0.92 21:-0.64 22:0.25 23:0.9 24:-0.06 25:0.18 26:0.09 27:0 28:-0.088383 29:0.1 30:0 31:0 32:0.12 33:-0.066362 34:0 35:0.05 36:0 37:0.47802 38:0 39:0.11418 40:0.245 41:0.14262 42:0 43:0 44:-0.07 45:0 46:-0.80656 47:0.33 48:0.08 49:0.16 50:2.23 51:0.09 52:0.04 53:0.12 54:0.42 55:-2.6121 56:0 57:-0.2 58:-1.42 59:-0.07 60:0.61 61:0.56 62:-0.10989 63:0.46 64:0.78 65:2.36 66:0.31 
1 1:0.32 2:1.09 3:-1.27 4:1.81 5:0.54 6:-0.46 7:-1.29 8:1.53 9:0 10:0 11:0 12:-1.03 13:1.81 14:-1.13 15:0.37 16:1.54 17:-0.69 18:1.31 19:0.04 20:0.48 21:0.73 22:-0.72 23:0.47 24:-0.8 25:-2.36 26:2.36 27:0 28:-0.069597 29:0.78 30:-1 31:0.08 32:0 33:-0.025053 34:0 35:0.41 36:0 37:0.2598 38:0 39:0 40:-1.5568 41:0.097599 42:0 43:0 44:-1.1 45:0.44 46:-0.0086376 47:0.52 48:0.04 49:-0.26 50:-3.14 51:-0.4 52:0.04 53:0.04 54:0.74 55:-0.8827 56:-1.18 57:-2.53 58:-1.18 59:-0.41 60:0.82 61:0.87 62:-0.11765 63:0.57 64:0 65:0 66:0.12 
1 1:-0.08 2:0.33 3:-0.21 4:1.53 5:0.02 6:-0.25 7:0.01 8:1.68 9:0 10:0 11:0 12:0.45 13:1.25 14:-2.12 15:0.5 16:1.23 17:-0.45 18:1.27 19:0.08 20:0.92 21:0.61 22:0.25 23:0.9 24:-0.06 25:0.18 26:0.09 27:0 28:-0.002111 29:0.1 30:0 31:0.08 32:0.04 33:0.01155 34:0 35:0.05 36:0 37:0.21479 38:0 39:-0.12846 40:-0.83925 41:0.041934 42:0 43:0 44:0.16 45:0 46:0.0024242 47:-1.18 48:0.04 49:0.53 50:0.3 51:0.41 52:0.08 53:0.04 54:0.56 55:-0.39351 56:-0.41 57:0.09 58:0.78 59:-3.14 60:1.3 61:1.26 62:-0.056338 63:0.31 64:-1.18 65:-0.98 66:-0.62 
1 1:0.32 2:1.09 3:-1.27 4:1.81 5:0.54 6:-0.46 7:-1.29 8:1.53 9:0 10:0 11:0 12:-1.4 13:1.12 14:0.07 15:-0.34 16:1.3 17:0.38 18:-0.27 19:0.04 20:0.61 21:-0.18 22:0.16 23:0.56 24:-0.41 25:0.09 26:0.3 27:0 28:0.0709 29:0.33 30:0 31:0.04 32:0.04 33:0.044628 34:0 35:0.31 36:0 37:0.089783 38:0 39:0 40:-0.0022833 41:-0.042244 42:0 43:0 44:0.53 45:0 46:-0.11652 47:1.4 48:0 49:-1.1 50:-0.98 51:-2.53 52:0.2 53:0.12 54:1.26 55:-0.35938 56:1.21 57:0.41 58:0.1 59:0.01 60:0.7 61:0.74 62:-0.006192 63:-0.62 64:0.48 65:0.84 66:0.57 
1 1:-0.08 2:0.33 3:-0.21 4:1.53 5:0.02 6:-0.25 7:0.01 8:1.68 9:0 10:0 11:0 12:-0.07 13:0.61 14:0.83 15:-2.1 16:0.62 17:0.38 18:-0.77 19:0.12 20:1.81 21:-0.62 22:0.73 23:1.54 24:1.31 25:0.37 26:-1.03 27:-1 28:0.094305 29:-1.13 30:0 31:0.04 32:0.08 33:-0.025724 34:0 35:-0.69 36:0 37:-0.036315 38:0 39:-0.035752 40:0.17947 41:-0.11538 42:0 43:0 44:0.25 45:0 46:0.026437 47:0.95 48:0.08 49:-0.69 50:0.09 51:-1.22 52:0.04 53:0 54:0.9 55:0.042242 56:-0.06 57:0.18 58:-0.5 59:0.84 60:0.95 61:1.18 62:0.076664 63:0.05 64:0.1 65:0.09 66:0.46 
1 1:-0.08 2:0.33 3:-0.21 4:1.53 5:0.02 6:-0.25 7:0.01 8:1.68 9:0 10:0 11:0 12:2.36 13:0.48 14:0.78 15:-2.36 16:0.47 17:0.41 18:-0.8 19:0.08 20:0.95 21:-0.72 22:-0.69 23:1.18 24:-0.73 25:-1.22 26:-1.14 27:-1 28:0.34716 29:0.95 30:0 31:0.08 32:0.08 33:0.083615 34:0 35:0.46 36:0 37:0.085516 38:1 39:-0.22149 40:0.14379 41:-0.26393 42:0 43:0 44:-1.1 45:0 46:-0.38661 47:-0.51 48:0.08 49:0.37 50:-3.14 51:-0.01 52:0.16 53:0 54:0.74 55:-1.3006 56:-1.18 57:-2.53 58:0.52 59:2.36 60:1.54 61:1.75 62:0.077915 63:0.57 64:1.91 65:-3.44 66:-0.98 
1 1:0.32 2:1.09 3:-1.27 4:1.81 5:0.54 6:-0.46 7:-1.29 8:1.53 9:0 10:0 11:0 12:1.11 13:0.93 14:-0.5 15:-1.48 16:1.12 17:-0.41 18:0.49 19:0 20:0.92 21:-0.4 22:0.25 23:0.9 24:-0.06 25:0.18 26:0.09 27:0 28:0.098348 29:0.1 30:0 31:0.12 32:0 33:0.039593 34:0 35:0.05 36:0 37:0.34341 38:0 39:-0.074246 40:-0.0093129 41:-0.085043 42:0 43:0 44:-0.62 45:0.2 46:-0.1909 47:-0.51 48:0.04 49:0.37 50:-0.07 51:-0.01 52:0.2 53:0.04 54:0.62 55:-1.0649 56:-0.77 57:-2.1 58:-1.27 59:0.09 60:1.54 61:1.75 62:-0.044715 63:0.38 64:0.33 65:0.3 66:-0.98 
1 1:-0.01 2:0.88 3:-0.51 4:1.54 5:0.37 6:-0.98 7:0.85 8:1.75 9:0 10:0 11:0 12:-1.4 13:1.12 14:0.07 15:-0.34 16:1.3 17:0.38 18:-0.27 19:0 20:0.6 21:-0.18 22:-0.64 23:0.62 24:-0.48 25:-1.3 26:0.84 27:0 28:0.20513 29:0.48 30:0 31:0.04 32:0.04 33:0.022398 34:0 35:0.29 36:0 37:0.063596 38:0 39:0 40:-0.12967 41:0.3981 42:0 43:0 44:0.53 45:0 46:-0.10661 47:-1.13 48:0 49:0.73 50:-0.98 51:0.37 52:0.08 53:0.08 54:1.26 55:-0.47289 56:1.21 57:0.41 58:0.1 59:2.23 60:1.81 61:1.54 62:0.026316 63:-0.62 64:-1.27 65:-1.29 66:-0.69 
1 1:0.32 2:1.09 3:-1.27 4:1.81 5:0.54 6:-0.46 7:-1.29 8:1.53 9:0 10:0 11:0 12:0.3 13:0.61 14:0.33 15:0.09 16:0.56 17:0.31 18:-0.41 19:0 20:1.81 21:0.16 22:0.54 23:1.53 24:1.09 25:0.32 26:-1.29 27:0 28:-0.089273 29:-1.27 30:0 31:0.08 32:0 33:-0.0095794 34:0 35:-0.46 36:0 37:0.13298 38:0 39:0 40:-0.17695 41:0.099473 42:0 43:0 44:-0.72 45:0 46:-0.02081 47:0.73 48:0 49:-0.07 50:2.36 51:-0.2 52:0.08 53:0.12 54:0.47 55:-0.76219 56:-0.8 57:-2.36 58:-1.18 59:0.45 60:0.4 61:0.42 62:-0.042553 63:0.41 64:-1.27 65:-1.29 66:0.46 
1 1:-0.2 2:0 3:0.73 4:0.4 5:-0.07 6:0.46 7:2.23 8:0.42 9:0 10:0 11:0 12:0.3 13:0.61 14:0.33 15:0.09 16:0.56 17:0.31 18:-0.41 19:0.04 20:0.92 21:0.16 22:0.25 23:0.9 24:-0.06 25:0.18 26:0.09 27:0 28:0.030021 29:0.1 30:0 31:0.08 32:0.12 33:-0.023641 34:0 35:0.05 36:0 37:0.098167 38:0 39:0.049451 40:-0.0096466 41:0.10885 42:0 43:0 44:-0.4 45:0.08 46:0.026838 47:0.95 48:0 49:-0.69 50:1.11 51:-1.22 52:0 53:0.04 54:1.12 55:-0.25666 56:0.49 57:-1.48 58:0.48 59:0.45 60:0.95 61:1.18 62:0.051888 63:-0.41 64:-0.5 65:1.11 66:0.46 
1 1:0.41 2:1.21 3:-1.18 4:1.3 5:0.53 6:-0.62 7:-0.98 8:1.26 9:0 10:0 11:0 12:0.85 13:1.54 14:-0.51 15:-0.01 16:1.75 17:-0.98 18:0.88 19:0 20:1.12 21:0.37 22:-0.18 23:1.3 24:-0.27 25:-0.34 26:-1.4 27:0 28:0.19034 29:0.07 30:0 31:0.12 32:0.04 33:-0.072567 34:0 35:0.38 36:0 37:0.54438 38:0 39:0.33085 40:-0.73591 41:0.15058 42:0 43:1 44:-0.69 45:0 46:-1.026 47:-0.51 48:0 49:0.37 50:-1.14 51:-0.01 52:0.04 53:0.04 54:1.18 55:-3.0455 56:-0.73 57:-1.22 58:1.91 59:0.09 60:1.54 61:1.75 62:-0.1128 63:0.46 64:0.33 65:0.3 66:-0.98 
1 1:-1.22 2:-0.73 3:0.95 4:0.95 5:-0.69 6:0.46 7:-1.14 8:1.18 9:0 10:0 11:0 12:0.01 13:1.53 14:-0.21 15:-0.08 16:1.68 17:-0.25 18:0.33 19:0.04 20:0.92 21:0.02 22:0.25 23:0.9 24:-0.06 25:0.18 26:0.09 27:0 28:0.054214 29:0.1 30:0 31:0.04 32:0.04 33:0.022483 34:0 35:0.05 36:0 37:0.33032 38:0 39:-0.086882 40:-0.15235 41:-0.022466 42:0 43:0 44:-0.72 45:0 46:-0.2567 47:0.1 48:0.04 49:0.25 50:2.36 51:0.18 52:0.12 53:0 54:0.47 55:-0.90065 56:-0.8 57:-2.36 58:0.07 59:-0.98 60:0.92 61:0.9 62:-0.063348 63:0.41 64:0.78 65:2.36 66:0.05 
1 1:-2.1 2:-0.77 3:0.83 4:0.61 5:-0.62 6:0.38 7:-0.07 8:0.62 9:-1 10:0 11:0 12:-3.44 13:0.93 14:1.91 15:-5.4 16:1.02 17:0.12 18:-0.84 19:0.04 20:1.81 21:-1.76 22:0.73 23:1.54 24:1.31 25:0.37 26:-1.03 27:1 28:0.57579 29:-1.13 30:0 31:0 32:0.16 33:0.21065 34:0 35:-0.69 36:0 37:0.08933 38:0 39:0 40:-0.098215 41:-0.25219 42:0 43:0 44:0.16 45:0 46:-0.21419 47:1.91 48:0.04 49:-1.76 50:0.3 51:-5.4 52:0.08 53:0.12 54:0.56 55:-0.95466 56:-0.41 57:0.09 58:0.73 59:0.09 60:0.93 61:1.02 62:0.014888 63:0.31 64:0.1 65:0.09 66:0.12 
1 1:0.09 2:-0.41 3:0.33 4:0.61 5:0.16 6:0.31 7:0.3 8:0.56 9:0 10:0 11:0 12:2.23 13:0.4 14:0.73 15:-0.2 16:0.42 17:0.46 18:0 19:0.04 20:0.61 21:-0.07 22:-0.62 23:0.62 24:-0.77 25:-2.1 26:-0.07 27:0 28:0.31934 29:0.83 30:-1 31:0.04 32:0.08 33:0.27054 34:0 35:0.38 36:0 37:0.063704 38:0 39:-0.29208 40:-0.37448 41:-0.3501 42:0 43:0 44:-0.26 45:0 46:-0.078561 47:0.78 48:0.12 49:-0.72 50:0.57 51:-2.36 52:0.08 53:0.08 54:0.87 55:-0.45355 56:-0.5 57:-0.4 58:0.1 59:0.09 60:0.48 61:0.47 62:0.068423 63:0.12 64:0.83 65:-0.07 66:0.41 
1 1:-0.2 2:0 3:0.73 4:0.4 5:-0.07 6:0.46 7:2.23 8:0.42 9:0 10:0 11:0 12:-0.98 13:1.3 14:-1.18 15:0.41 16:1.26 17:-0.62 18:1.21 19:0.12 20:1.81 21:0.53 22:0.73 23:1.54 24:1.31 25:0.37 26:-1.03 27:0 28:-0.11226 29:-1.13 30:0 31:0.08 32:0.04 33:-0.12939 34:0 35:-0.69 36:0 37:0.064979 38:0 39:0.082051 40:-0.34431 41:0.24047 42:0 43:0 44:0.26 45:0 46:-0.097011 47:-1.18 48:0 49:0.53 50:-0.41 51:0.41 52:0.08 53:0.04 54:1.09 55:-0.1668 56:1.27 57:0.44 58:0.1 59:0.85 60:1.3 61:1.26 62:0.082904 63:-0.38 64:0.1 65:0.09 66:-0.62 
1 1:0.09 2:-0.41 3:0.33 4:0.61 5:0.16 6:0.31 7:0.3 8:0.56 9:0 10:0 11:0 12:-1.29 13:1.81 14:-1.27 15:0.32 16:1.53 17:-0.46 18:1.09 19:0 20:0.93 21:0.54 22:-1.76 23:1.02 24:-0.84 25:-5.4 26:-3.44 27:0 28:0.1237 29:1.91 30:1 31:0.08 32:0.16 33:0.014588 34:1 35:0.12 36:0 37:0.13227 38:0 39:0.14695 40:-0.52329 41:-0.10288 42:0 43:0 44:0.73 45:0 46:-0.17491 47:1.91 48:0.16 49:-1.76 50:-1.03 51:-5.4 52:0.04 53:0.12 54:1.54 55:-1.053 56:1.31 57:0.37 58:-1.13 59:2.36 60:0.93 61:1.02 62:0.052326 63:-0.69 64:0.83 65:-0.07 66:0.12 
1 1:0.44 2:1.27 3:-1.59 4:1.19 5:0.26 6:-0.38 7:-0.41 8:1.09 9:0 10:0 11:0 12:0.3 13:0.61 14:0.33 15:0.09 16:0.56 17:0.31 18:-0.41 19:0 20:1.12 21:0.16 22:-0.18 23:1.3 24:-0.27 25:-0.34 26:-1.4 27:0 28:-0.31031 29:0.07 30:0 31:0.04 32:0 33:-0.051096 34:0 35:0.38 36:0 37:0.039927 38:0 39:-0.12975 40:-0.40238 41:0.15448 42:0 43:0 44:-0.72 45:0 46:0.089022 47:-1.27 48:0.04 49:0.54 50:2.36 51:0.32 52:0.04 53:0.04 54:0.47 55:-0.24795 56:-0.8 57:-2.36 58:0.1 59:-3.14 60:1.81 61:1.53 62:0.0036298 63:0.41 64:-2.12 65:0.45 66:-0.46 
1 1:-1.22 2:-0.73 3:0.95 4:0.95 5:-0.69 6:0.46 7:-1.14 8:1.18 9:0 10:0 11:0 12:0.01 13:1.53 14:-0.21 15:-0.08 16:1.68 17:-0.25 18:0.33 19:0 20:0.48 21:0.02 22:-0.72 23:0.47 24:-0.8 25:-2.36 26:2.36 27:0 28:-0.34383 29:0.78 30:-1 31:0.12 32:0 33:0.019141 34:0 35:0.41 36:0 37:0.031767 38:0 39:0.13389 40:-0.2263 41:0.17585 42:0 43:0 44:0.61 45:0 46:-0.0020285 47:1.4 48:0.08 49:-1.1 50:0.45 51:-2.53 52:0.12 53:0.04 54:1.23 55:0.068994 56:1.27 57:0.5 58:0.07 59:-1.29 60:0.7 61:0.74 62:0.09133 63:-0.45 64:0.1 65:0.09 66:0.57 
1 1:0.44 2:1.27 3:-1.59 4:1.19 5:0.26 6:-0.38 7:-0.41 8:1.09 9:0 10:0 11:0 12:0.09 13:0.92 14:0.1 15:0.18 16:0.9 17:0.05 18:-0.06 19:0.08 20:0.93 21:0.25 22:-1.76 23:1.02 24:-0.84 25:-5.4 26:-3.44 27:0 28:-0.10957 29:1.91 30:1 31:0 32:0.08 33:-0.20613 34:1 35:0.12 36:0 37:0.13248 38:0 39:-0.072106 40:-0.079721 41:0.10632 42:0 43:0 44:0.54 45:0 46:-0.13099 47:0.78 48:0 49:-0.72 50:-1.29 51:-2.36 52:0.12 53:0 54:1.53 55:-0.94932 56:1.09 57:0.32 58:0.78 59:1.11 60:0.48 61:0.47 62:-0.0047885 63:-0.46 64:1.91 65:-3.44 66:0.41 
1 1:-1.3 2:-0.48 3:0.48 4:0.6 5:-0.64 6:0.29 7:0.84 8:0.62 9:0 10:0 11:0 12:-3.44 13:0.93 14:1.91 15:-5.4 16:1.02 17:0.12 18:-0.84 19:0.08 20:0.92 21:-1.76 22:0.25 23:0.9 24:-0.06 25:0.18 26:0.09 27:1 28:0.29472 29:0.1 30:0 31:0.04 32:0.08 33:0.078907 34:0 35:0.05 36:0 37:0.080537 38:0 39:0 40:-0.24998 41:-0.098646 42:0 43:0 44:0.54 45:0 46:-0.12637 47:0.1 48:0.04 49:0.25 50:-1.29 51:0.18 52:0.08 53:0 54:1.53 55:-0.48868 56:1.09 57:0.32 58:0.1 59:0.84 60:0.92 61:0.9 62:0.040268 63:-0.46 64:-1.18 65:-0.98 66:0.05 
1 1:0.18 2:-0.06 3:0.1 4:0.92 5:0.25 6:0.05 7:0.09 8:0.9 9:0 10:0 11:0 12:0.57 13:0.82 14:0.52 15:-0.4 16:0.87 17:0.12 18:-0.5 19:0.12 20:1.3 21:-0.26 22:0.53 23:1.26 24:1.21 25:0.41 26:-0.98 27:0 28:0.41669 29:-1.18 30:0 31:0.08 32:0.08 33:0.058039 34:0 35:-0.62 36:0 37:0.23493 38:0 39:0 40:-0.4446 41:-0.23923 42:0 43:0 44:-0.72 45:0 46:-0.23556 47:0.48 48:0.08 49:-0.64 50:2.36 51:-1.3 52:0.08 53:0 54:0.47 55:-1.0554 56:-0.8 57:-2.36 58:-1.27 59:-1.29 60:0.6 61:0.62 62:-0.030912 63:0.41 64:0.52 65:0.57 66:0.29 
1 1:-2.36 2:-0.8 3:0.78 4:0.48 5:-0.72 6:0.41 7:2.36 8:0.47 9:-1 10:0 11:0 12:-0.98 13:1.3 14:-1.18 15:0.41 16:1.26 17:-0.62 18:1.21 19:0.04 20:0.93 21:0.53 22:-1.76 23:1.02 24:-0.84 25:-5.4 26:-3.44 27:0 28:0.14077 29:1.91 30:1 31:0.04 32:0.12 33:0.035161 34:1 35:0.12 36:0 37:0.19463 38:0 39:-0.11392 40:-1.5595 41:0.020265 42:0 43:0 44:-0.62 45:0 46:-0.079714 47:-1.27 48:0.16 49:0.54 50:-0.07 51:0.32 52:0.08 53:0.04 54:0.62 55:-0.5721 56:-0.77 57:-2.1 58:-1.27 59:0.01 60:1.81 61:1.53 62:-0.013423 63:0.38 64:0.07 65:-1.4 66:-0.46 
1 1:-2.1 2:-0.77 3:0.83 4:0.61 5:-0.62 6:0.38 7:-0.07 8:0.62 9:-1 10:0 11:0 12:-0.98 13:1.3 14:-1.18 15:0.41 16:1.26 17:-0.62 18:1.21 19:0 20:1.3 21:0.53 22:0.53 23:1.26 24:1.21 25:0.41 26:-0.98 27:0 28:-0.44147 29:-1.18 30:0 31:0.04 32:0.12 33:-0.35142 34:0 35:-0.62 36:0 37:0.18757 38:0 39:0 40:-1.6574 41:0.69213 42:0 43:0 44:-1.76 45:0.2 46:-0.061661 47:0.07 48:0.08 49:-0.18 50:-3.44 51:-0.34 52:0.04 53:0 54:1.02 55:-1.0363 56:-0.84 57:-5.4 58:1.91 59:-0.98 60:1.12 61:1.3 62:-0.022925 63:0.12 64:-1.18 65:-0.98 66:0.38 
0.4538279944256073 1:0.09 2:-0.41 3:0.33 4:0.61 5:0.16 6:0.31 7:0.3 8:0.56 9:0 10:0 11:0 12:0.57 13:0.82 14:0.52 15:-0.4 16:0.87 17:0.12 18:-0.5 19:0.08 20:1.19 21:-0.26 22:0.26 23:1.09 24:1.27 25:0.44 26:-0.41 27:0 28:0.076928 29:-1.59 30:0 31:0.04 32:0.08 33:0.004445 34:0 35:-0.38 36:0 37:0.11679 38:0 39:0 40:-0.12576 41:-0.13321 42:0 43:0 44:-0.72 45:0 46:-0.078606 47:-2.12 48:0.08 49:0.61 50:2.36 51:0.5 52:0.04 53:0.12 54:0.47 55:-0.66521 56:-0.8 57:-2.36 58:0.33 59:-3.44 60:1.25 61:1.23 62:0.029197 63:0.41 64:-0.5 65:1.11 66:-0.45 
1 1:0.37 2:1.31 3:-1.13 4:1.81 5:0.73 6:-0.69 7:-1.03 8:1.54 9:0 10:0 11:0 12:0.09 13:0.92 14:0.1 15:0.18 16:0.9 17:0.05 18:-0.06 19:0 20:0.61 21:0.25 22:-0.62 23:0.62 24:-0.77 25:-2.1 26:-0.07 27:0 28:0.071342 29:0.83 30:-1 31:0.12 32:0 33:0.03812 34:0 35:0.38 36:0 37:0.098428 38:0 39:0.15466 40:-0.1879 41:-0.059675 42:0 43:0 44:-0.07 45:0 46:-0.046163 47:-0.21 48:0.12 49:0.02 50:2.23 51:-0.08 52:0 53:0.16 54:0.42 55:-0.20216 56:0 57:-0.2 58:0.33 59:0.45 60:1.53 61:1.68 62:0.083737 63:0.46 64:-0.5 65:1.11 66:-0.25 
1 1:0.18 2:-0.06 3:0.1 4:0.92 5:0.25 6:0.05 7:0.09 8:0.9 9:0 10:0 11:0 12:-1.4 13:1.12 14:0.07 15:-0.34 16:1.3 17:0.38 18:-0.27 19:0 20:0.92 21:-0.18 22:0.25 23:0.9 24:-0.06 25:0.18 26:0.09 27:0 28:0.42972 29:0.1 30:0 31:0.16 32:0 33:0.19213 34:0 35:0.05 36:0 37:0.24264 38:0 39:-0.1093 40:-0.4215 41:-0.35387 42:0 43:0 44:0.53 45:0 46:-0.48708 47:0.78 48:0.12 49:-0.72 50:-0.98 51:-2.36 52:0.08 53:0.08 54:1.26 55:-1.5769 56:1.21 57:0.41 58:0.33 59:-1.29 60:0.48 61:0.47 62:-0.012965 63:-0.62 64:1.4 65:-3.14 66:0.41 
1 1:-0.2 2:0 3:0.73 4:0.4 5:-0.07 6:0.46 7:2.23 8:0.42 9:0 10:0 11:0 12:0.45 13:1.25 14:-2.12 15:0.5 16:1.23 17:-0.45 18:1.27 19:0.08 20:0.48 21:0.61 22:-0.72 23:0.47 24:-0.8 25:-2.36 26:2.36 27:0 28:-0.096679 29:0.78 30:-1 31:0.08 32:0.04 33:-0.024915 34:0 35:0.41 36:0 37:0.25587 38:0 39:0 40:-1.0084 41:0.077912 42:0 43:0 44:0.16 45:0.08 46:-0.18221 47:-1.18 48:0.04 49:0.53 50:0.3 51:0.41 52:0.08 53:0.04 54:0.56 55:-1.3009 56:-0.41 57:0.09 58:1.4 59:-0.07 60:1.3 61:1.26 62:-0.066124 63:0.31 64:-1.18 65:-0.98 66:-0.62 
1 1:-1.3 2:-0.48 3:0.48 4:0.6 5:-0.64 6:0.29 7:0.84 8:0.62 9:0 10:0 11:0 12:0.3 13:0.61 14:0.33 15:0.09 16:0.56 17:0.31 18:-0.41 19:0.04 20:0.61 21:0.16 22:-0.62 23:0.62 24:-0.77 25:-2.1 26:-0.07 27:0 28:0.49736 29:0.83 30:-1 31:0.12 32:0.12 33:0.24958 34:0 35:0.38 36:0 37:0.056295 38:0 39:0 40:-0.40619 41:-0.52325 42:0 43:0 44:-0.18 45:0 46:-0.26455 47:0.1 48:0.12 49:0.25 50:-1.4 51:0.18 52:0.08 53:0.04 54:1.3 55:-0.75238 56:-0.27 57:-0.34 58:0.52 59:-1.29 60:0.92 61:0.9 62:0.058111 63:0.38 64:1.4 65:-3.14 66:0.05 
1 1:-1.3 2:-0.48 3:0.48 4:0.6 5:-0.64 6:0.29 7:0.84 8:0.62 9:0 10:0 11:0 12:0.09 13:0.92 14:0.1 15:0.18 16:0.9 17:0.05 18:-0.06 19:0.08 20:0.92 21:0.25 22:0.25 23:0.9 24:-0.06 25:0.18 26:0.09 27:0 28:0.030834 29:0.1 30:0 31:0.04 32:0.08 33:-0.065497 34:0 35:0.05 36:0 37:0.24264 38:0 39:0.13333 40:-0.28247 41:0.083228 42:0 43:0 44:0.61 45:0 46:-0.12624 47:0.1 48:0.08 49:0.25 50:0.45 51:0.18 52:0 53:0.04 54:1.23 55:-1.068 56:1.27 57:0.5 58:1.91 59:1.11 60:0.92 61:0.9 62:-0.012965 63:-0.45 64:1.91 65:-3.44 66:0.05 
1 1:-0.4 2:-0.5 3:0.52 4:0.82 5:-0.26 6:0.12 7:0.57 8:0.87 9:0 10:0 11:0 12:-1.14 13:0.95 14:0.95 15:-1.22 16:1.18 17:0.46 18:-0.73 19:0.16 20:0.82 21:-0.69 22:-0.26 23:0.87 24:-0.5 25:-0.4 26:0.57 27:0 28:0.13367 29:0.52 30:0 31:0 32:0 33:0.034075 34:0 35:0.12 36:0 37:0.15209 38:0 39:0.13333 40:0.41949 41:-0.064163 42:0 43:0 44:-0.07 45:0.28 46:-0.15882 47:0.33 48:0 49:0.16 50:2.23 51:0.09 52:0 53:0.08 54:0.42 55:-0.59393 56:0 57:-0.2 58:0.95 59:-0.98 60:0.61 61:0.56 62:-0.12928 63:0.46 64:-0.21 65:0.01 66:0.31 
1 1:0.09 2:-0.41 3:0.33 4:0.61 5:0.16 6:0.31 7:0.3 8:0.56 9:0 10:0 11:0 12:0.45 13:1.25 14:-2.12 15:0.5 16:1.23 17:-0.45 18:1.27 19:0 20:0.7 21:0.61 22:-1.1 23:0.74 24:-1.18 25:-2.53 26:-3.14 27:0 28:-0.089522 29:1.4 30:1 31:0.12 32:0 33:0.33866 34:1 35:0.57 36:1 37:0.3271 38:0 39:-0.063978 40:-0.06875 41:0.077153 42:0 43:0 44:0.16 45:0 46:-0.35826 47:-0.5 48:0.04 49:-0.4 50:0.3 51:-1.48 52:0.12 53:0.08 54:0.56 55:-0.86247 56:-0.41 57:0.09 58:-1.59 59:1.11 60:0.93 61:1.12 62:-0.039314 63:0.31 64:0.78 65:2.36 66:-0.41 
1 1:-1.22 2:-0.73 3:0.95 4:0.95 5:-0.69 6:0.46 7:-1.14 8:1.18 9:0 10:0 11:0 12:-3.14 13:0.7 14:1.4 15:-2.53 16:0.74 17:0.57 18:-1.18 19:0 20:0.61 21:-1.1 22:-0.62 23:0.62 24:-0.77 25:-2.1 26:-0.07 27:1 28:0.15969 29:0.83 30:-1 31:0.12 32:0.04 33:0.072513 34:0 35:0.38 36:0 37:0.17613 38:0 39:0.093596 40:-0.87298 41:-0.13261 42:0 43:0 44:-0.69 45:0 46:-0.25638 47:0.07 48:0.08 49:-0.18 50:-1.14 51:-0.34 52:0 53:0 54:1.18 55:-0.86141 56:-0.73 57:-1.22 58:-1.13 59:0.84 60:1.12 61:1.3 62:-0.004635 63:0.46 64:0.48 65:0.84 66:0.38 
1 1:0.41 2:1.21 3:-1.18 4:1.3 5:0.53 6:-0.62 7:-0.98 8:1.26 9:0 10:0 11:0 12:0.45 13:1.25 14:-2.12 15:0.5 16:1.23 17:-0.45 18:1.27 19:0.08 20:1.81 21:0.61 22:0.54 23:1.53 24:1.09 25:0.32 26:-1.29 27:0 28:-0.08066 29:-1.27 30:0 31:0 32:0.04 33:0.057291 34:0 35:-0.46 36:0 37:0.018018 38:0 39:0 40:-0.0058241 41:0.040693 42:0 43:1 44:0.16 45:0.28 46:-0.18015 47:-1.59 48:0.04 49:0.26 50:0.3 51:0.44 52:0 53:0.08 54:0.56 55:-0.31336 56:-0.41 57:0.09 58:0 59:-1.4 60:1.19 61:1.09 62:0.37838 63:0.31 64:-1.27 65:-1.29 66:-0.38 
1 1:0.18 2:-0.06 3:0.1 4:0.92 5:0.25 6:0.05 7:0.09 8:0.9 9:0 10:0 11:0 12:0.45 13:1.25 14:-2.12 15:0.5 16:1.23 17:-0.45 18:1.27 19:0.08 20:0.82 21:0.61 22:-0.26 23:0.87 24:-0.5 25:-0.4 26:0.57 27:0 28:0.023401 29:0.52 30:0 31:0 32:0.2 33:-0.059343 34:0 35:0.12 36:0 37:0.22323 38:0 39:0.34759 40:-1.2117 41:0.084397 42:0 43:0 44:0.61 45:0 46:-0.035188 47:0.33 48:0.04 49:0.16 50:0.45 51:0.09 52:0 53:0.08 54:1.23 55:-0.71989 56:1.27 57:0.5 58:-1.18 59:0.09 60:0.61 61:0.56 62:-0.0181 63:-0.45 64:0.1 65:0.09 66:0.31 
1 1:0.5 2:1.27 3:-2.12 4:1.25 5:0.61 6:-0.45 7:0.45 8:1.23 9:0 10:0 11:0 12:-1.29 13:1.81 14:-1.27 15:0.32 16:1.53 17:-0.46 18:1.09 19:0 20:1.3 21:0.54 22:0.53 23:1.26 24:1.21 25:0.41 26:-0.98 27:0 28:-0.15283 29:-1.18 30:0 31:0.04 32:0 33:0.016625 34:0 35:-0.62 36:0 37:0.047882 38:0 39:-0.27178 40:-0.22648 41:0.17149 42:0 43:0 44:-1.1 45:0 46:0.0060387 47:0.78 48:0.04 49:-0.72 50:-3.14 51:-2.36 52:0.12 53:0.16 54:0.74 55:-0.74818 56:-1.18 57:-2.53 58:0.33 59:0.3 60:0.48 61:0.47 62:-0.01105 63:0.57 64:0.48 65:0.84 66:0.41 
1 1:0.41 2:1.21 3:-1.18 4:1.3 5:0.53 6:-0.62 7:-0.98 8:1.26 9:0 10:0 11:0 12:-1.14 13:0.95 14:0.95 15:-1.22 16:1.18 17:0.46 18:-0.73 19:0.08 20:0.93 21:-0.69 22:-1.76 23:1.02 24:-0.84 25:-5.4 26:-3.44 27:0 28:0.32103 29:1.91 30:1 31:0.04 32:0.08 33:0.085834 34:1 35:0.12 36:0 37:0.089636 38:0 39:-0.26923 40:-0.43514 41:-0.24882 42:0 43:1 44:-0.72 45:0 46:-0.19662 47:0.83 48:0.12 49:-0.62 50:2.36 51:-2.1 52:0.12 53:0.04 54:0.47 55:-0.89081 56:-0.8 57:-2.36 58:-1.18 59:0.01 60:0.61 61:0.62 62:0.056022 63:0.41 64:-1.18 65:-0.98 66:0.38 
1 1:-5.4 2:-0.84 3:1.91 4:0.93 5:-1.76 6:0.12 7:-3.44 8:1.02 9:1 10:0 11:1 12:2.23 13:0.4 14:0.73 15:-0.2 16:0.42 17:0.46 18:0 19:0.08 20:0.6 21:-0.07 22:-0.64 23:0.62 24:-0.48 25:-1.3 26:0.84 27:0 28:0.11015 29:0.48 30:0 31:0 32:0.08 33:0.017383 34:0 35:0.29 36:0 37:0.072674 38:0 39:-0.053097 40:-0.092419 41:0.032064 42:1 43:0 44:0.73 45:0 46:-0.1831 47:0.78 48:0.04 49:-0.72 50:-1.03 51:-2.36 52:0.08 53:0.08 54:1.54 55:-0.9741 56:1.31 57:0.37 58:0.78 59:0.84 60:0.48 61:0.47 62:0.011628 63:-0.69 64:0.1 65:0.09 66:0.41 
1 1:-1.22 2:-0.73 3:0.95 4:0.95 5:-0.69 6:0.46 7:-1.14 8:1.18 9:0 10:0 11:0 12:0.01 13:1.53 14:-0.21 15:-0.08 16:1.68 17:-0.25 18:0.33 19:0.04 20:0.92 21:0.02 22:0.25 23:0.9 24:-0.06 25:0.18 26:0.09 27:0 28:0.3608 29:0.1 30:0 31:0.08 32:0.08 33:0.05687 34:0 35:0.05 36:0 37:0.13879 38:0 39:0.085354 40:-0.30278 41:-0.09684 42:0 43:0 44:0.26 45:0 46:-0.3207 47:1.4 48:0.08 49:-1.1 50:-0.41 51:-2.53 52:0.04 53:0 54:1.09 55:-0.9889 56:1.27 57:0.44 58:0.73 59:-0.98 60:0.7 61:0.74 62:0.01487 63:-0.38 64:-2.12 65:0.45 66:0.57 
1 1:0.18 2:-0.06 3:0.1 4:0.92 5:0.25 6:0.05 7:0.09 8:0.9 9:0 10:0 11:0 12:-0.07 13:0.61 14:0.83 15:-2.1 16:0.62 17:0.38 18:-0.77 19:0.04 20:0.95 21:-0.62 22:-0.69 23:1.18 24:-0.73 25:-1.22 26:-1.14 27:-1 28:0.51174 29:0.95 30:0 31:0 32:0.12 33:0.211 34:0 35:0.46 36:0 37:0.14433 38:0 39:-0.39735 40:-1.078 41:-0.38632 42:0 43:0 44:-0.69 45:0 46:-0.63428 47:1.91 48:0.2 49:-1.76 50:-1.14 51:-5.4 52:0.04 53:0.08 54:1.18 55:-2.0931 56:-0.73 57:-1.22 58:1.91 59:0.01 60:0.93 61:1.02 62:-0.012371 63:0.46 64:0.83 65:-0.07 66:0.12 
1 1:0.09 2:-0.41 3:0.33 4:0.61 5:0.16 6:0.31 7:0.3 8:0.56 9:0 10:0 11:0 12:-1.03 13:1.81 14:-1.13 15:0.37 16:1.54 17:-0.69 18:1.31 19:0 20:0.6 21:0.73 22:-0.64 23:0.62 24:-0.48 25:-1.3 26:0.84 27:0 28:0.19267 29:0.48 30:0 31:0.08 32:0.08 33:0.039091 34:0 35:0.29 36:0 37:0.091483 38:0 39:0.066478 40:-0.13602 41:-0.039537 42:0 43:0 44:-0.72 45:0 46:-0.14063 47:-1.13 48:0.04 49:0.73 50:2.36 51:0.37 52:0.04 53:0.08 54:0.47 55:-0.51251 56:-0.8 57:-2.36 58:0.33 59:-1.14 60:1.81 61:1.54 62:0.069401 63:0.41 64:0.07 65:-1.4 66:-0.69 
1 1:-0.2 2:0 3:0.73 4:0.4 5:-0.07 6:0.46 7:2.23 8:0.42 9:0 10:0 11:0 12:0.3 13:0.61 14:0.33 15:0.09 16:0.56 17:0.31 18:-0.41 19:0.16 20:0.82 21:0.16 22:-0.26 23:0.87 24:-0.5 25:-0.4 26:0.57 27:0 28:0.3911 29:0.52 30:0 31:0.04 32:0 33:0.21461 34:0 35:0.12 36:0 37:0.07489 38:0 39:-0.073786 40:0.075974 41:-0.35952 42:0 43:0 44:-0.62 45:0 46:-0.35271 47:0.52 48:0.2 49:-0.26 50:-0.07 51:-0.4 52:0 53:0.04 54:0.62 55:-0.64344 56:-0.77 57:-2.1 58:-0.21 59:0.09 60:0.82 61:0.87 62:0.0088106 63:0.38 64:0.48 65:0.84 66:0.12 
1 1:-1.3 2:-0.48 3:0.48 4:0.6 5:-0.64 6:0.29 7:0.84 8:0.62 9:0 10:0 11:0 12:2.36 13:0.48 14:0.78 15:-2.36 16:0.47 17:0.41 18:-0.8 19:0.04 20:0.48 21:-0.72 22:-0.72 23:0.47 24:-0.8 25:-2.36 26:2.36 27:-1 28:0.02012 29:0.78 30:-1 31:0.04 32:0.04 33:-0.042725 34:0 35:0.41 36:0 37:0.12381 38:1 39:-0.14809 40:0.24361 41:-0.0086924 42:0 43:0 44:0.73 45:0 46:-0.054375 47:0.95 48:0.04 49:-0.69 50:-1.03 51:-1.22 52:0.16 53:0 54:1.54 55:-0.47464 56:1.31 57:0.37 58:-1.18 59:2.36 60:0.95 61:1.18 62:-0.019048 63:-0.69 64:0.83 65:-0.07 66:0.46 
1 1:0.44 2:1.27 3:-1.59 4:1.19 5:0.26 6:-0.38 7:-0.41 8:1.09 9:0 10:0 11:0 12:0.84 13:0.6 14:0.48 15:-1.3 16:0.62 17:0.29 18:-0.48 19:0.04 20:1.3 21:-0.64 22:0.53 23:1.26 24:1.21 25:0.41 26:-0.98 27:0 28:-0.0068165 29:-1.18 30:0 31:0.04 32:0.16 33:0.011362 34:0 35:-0.62 36:0 37:0.11923 38:0 39:0.081841 40:-0.60814 41:0.035115 42:0 43:0 44:0.53 45:0 46:-0.17114 47:1.91 48:0.08 49:-1.76 50:-0.98 51:-5.4 52:0 53:0.04 54:1.26 55:-0.82517 56:1.21 57:0.41 58:0.73 59:0.57 60:0.93 61:1.02 62:0.045989 63:-0.62 64:-1.18 65:-0.98 66:0.12 
1 1:-0.4 2:-0.5 3:0.52 4:0.82 5:-0.26 6:0.12 7:0.57 8:0.87 9:0 10:0 11:0 12:-3.44 13:0.93 14:1.91 15:-5.4 16:1.02 17:0.12 18:-0.84 19:0.08 20:0.6 21:-1.76 22:-0.64 23:0.62 24:-0.48 25:-1.3 26:0.84 27:1 28:0.1805 29:0.48 30:0 31:0 32:0.12 33:-0.031928 34:0 35:0.29 36:0 37:0.16796 38:0 39:0.037267 40:-0.30462 41:0.067313 42:0 43:0 44:-0.07 45:0 46:-0.32139 47:0.83 48:0.08 49:-0.62 50:2.23 51:-2.1 52:0.04 53:0 54:0.42 55:-1.2985 56:0 57:-0.2 58:-1.13 59:-0.98 60:0.61 61:0.62 62:-0.024261 63:0.46 64:1.91 65:-3.44 66:0.38 
1 1:-1.3 2:-0.48 3:0.48 4:0.6 5:-0.64 6:0.29 7:0.84 8:0.62 9:0 10:0 11:0 12:2.36 13:0.48 14:0.78 15:-2.36 16:0.47 17:0.41 18:-0.8 19:0.08 20:0.61 21:-0.72 22:-0.62 23:0.62 24:-0.77 25:-2.1 26:-0.07 27:-1 28:0.19624 29:0.83 30:-1 31:0 32:0.08 33:0.075675 34:0 35:0.38 36:0 37:0.13147 38:1 39:-0.43116 40:0.1238 41:-0.092514 42:0 43:0 44:0.61 45:0 46:-0.57194 47:-1.27 48:0.08 49:0.54 50:0.45 51:0.32 52:0.08 53:0.12 54:1.23 55:-2.1415 56:1.27 57:0.5 58:0.33 59:2.23 60:1.81 61:1.53 62:-0.039841 63:-0.45 64:-2.12 65:0.45 66:-0.46 
1 1:0.09 2:-0.41 3:0.33 4:0.61 5:0.16 6:0.31 7:0.3 8:0.56 9:0 10:0 11:0 12:-1.14 13:0.95 14:0.95 15:-1.22 16:1.18 17:0.46 18:-0.73 19:0.04 20:0.48 21:-0.69 22:-0.72 23:0.47 24:-0.8 25:-2.36 26:2.36 27:0 28:-0.053576 29:0.78 30:-1 31:0.04 32:0.04 33:0.041359 34:0 35:0.41 36:0 37:0.10081 38:0 39:-0.079249 40:-0.52121 41:-0.078132 42:0 43:0 44:-0.26 45:0 46:-0.18451 47:-1.27 48:0.12 49:0.54 50:0.57 51:0.32 52:0.08 53:0.04 54:0.87 55:-0.70851 56:-0.5 57:-0.4 58:1.4 59:-0.98 60:1.81 61:1.53 62:-0.016129 63:0.12 64:0.1 65:0.09 66:-0.46 
1 1:-2.36 2:-0.8 3:0.78 4:0.48 5:-0.72 6:0.41 7:2.36 8:0.47 9:-1 10:0 11:0 12:0.09 13:0.92 14:0.1 15:0.18 16:0.9 17:0.05 18:-0.06 19:0 20:1.81 21:0.25 22:0.54 23:1.53 24:1.09 25:0.32 26:-1.29 27:0 28:0.18335 29:-1.27 30:0 31:0.04 32:0.08 33:-0.011961 34:0 35:-0.46 36:0 37:0.09901 38:0 39:-0.066852 40:-0.1555 41:-0.022492 42:0 43:0 44:0.53 45:0 46:-0.15281 47:1.91 48:0.04 49:-1.76 50:-0.98 51:-5.4 52:0.12 53:0.04 54:1.26 55:-0.80876 56:1.21 57:0.41 58:0.78 59:2.23 60:0.93 61:1.02 62:0.019802 63:-0.62 64:0.33 65:0.3 66:0.12 
1 1:-0.08 2:0.33 3:-0.21 4:1.53 5:0.02 6:-0.25 7:0.01 8:1.68 9:0 10:0 11:0 12:-0.07 13:0.61 14:0.83 15:-2.1 16:0.62 17:0.38 18:-0.77 19:0 20:1.53 21:-0.62 22:0.02 23:1.68 24:0.33 25:-0.08 26:0.01 27:-1 28:0.60443 29:-0.21 30:0 31:0.08 32:0.12 33:0.069014 34:0 35:-0.25 36:0 37:0.50864 38:0 39:0.15909 40:-1.9603 41:-0.20242 42:0 43:0 44:0.25 45:0 46:-0.86284 47:1.91 48:0.12 49:-1.76 50:0.09 51:-5.4 52:0.04 53:0.08 54:0.9 55:-2.6074 56:-0.06 57:0.18 58:0.95 59:-3.44 60:0.93 61:1.02 62:-0.087362 63:0.05 64:1.4 65:-3.14 66:0.12 
1 1:-2.1 2:-0.77 3:0.83 4:0.61 5:-0.62 6:0.38 7:-0.07 8:0.62 9:-1 10:0 11:0 12:2.23 13:0.4 14:0.73 15:-0.2 16:0.42 17:0.46 18:0 19:0.08 20:0.93 21:-0.07 22:-1.76 23:1.02 24:-0.84 25:-5.4 26:-3.44 27:0 28:0.19612 29:1.91 30:1 31:0.12 32:0.08 33:0.047678 34:1 35:0.12 36:0 37:0.13811 38:0 39:0 40:-0.65473 41:-0.061352 42:0 43:0 44:-0.18 45:0 46:-0.1656 47:0.83 48:0.2 49:-0.62 50:-1.4 51:-2.1 52:0.04 53:0.04 54:1.3 55:-1.0179 56:-0.27 57:-0.34 58:-1.18 59:-0.98 60:0.61 61:0.62 62:0.0315 63:0.38 64:-1.27 65:-1.29 66:0.38 
1 1:0.5 2:1.27 3:-2.12 4:1.25 5:0.61 6:-0.45 7:0.45 8:1.23 9:0 10:0 11:0 12:-3.44 13:0.93 14:1.91 15:-5.4 16:1.02 17:0.12 18:-0.84 19:0.12 20:1.12 21:-1.76 22:-0.18 23:1.3 24:-0.27 25:-0.34 26:-1.4 27:1 28:0.24351 29:0.07 30:0 31:0.08 32:0.08 33:0.16936 34:0 35:0.38 36:0 37:0.23077 38:0 39:0 40:-0.95311 41:-0.19546 42:0 43:0 44:-1.1 45:0.08 46:-0.32354 47:0.83 48:0.16 49:-0.62 50:-3.14 51:-2.1 52:0.04 53:0.04 54:0.74 55:-1.3381 56:-1.18 57:-2.53 58:1.4 59:-0.07 60:0.61 61:0.62 62:-0.026525 63:0.57 64:0.52 65:0.57 66:0.38 
1 1:0.5 2:1.27 3:-2.12 4:1.25 5:0.61 6:-0.45 7:0.45 8:1.23 9:0 10:0 11:0 12:0.09 13:0.92 14:0.1 15:0.18 16:0.9 17:0.05 18:-0.06 19:0 20:1.81 21:0.25 22:0.54 23:1.53 24:1.09 25:0.32 26:-1.29 27:0 28:-0.53269 29:-1.27 30:0 31:0 32:0 33:0.038031 34:0 35:-0.46 36:0 37:0.23077 38:0 39:-0.10315 40:-0.17929 41:0.65346 42:0 43:0 44:0.16 45:0.2 46:0.24515 47:0.07 48:0.12 49:-0.18 50:0.3 51:-0.34 52:0 53:0.08 54:0.56 55:-0.21344 56:-0.41 57:0.09 58:0.48 59:-0.07 60:1.12 61:1.3 62:-0 63:0.31 64:-1.27 65:-1.29 66:0.38 
1 1:0.32 2:1.09 3:-1.27 4:1.81 5:0.54 6:-0.46 7:-1.29 8:1.53 9:0 10:0 11:0 12:-0.07 13:0.61 14:0.83 15:-2.1 16:0.62 17:0.38 18:-0.77 19:0.04 20:0.6 21:-0.62 22:-0.64 23:0.62 24:-0.48 25:-1.3 26:0.84 27:-1 28:0.26281 29:0.48 30:0 31:0.04 32:0.08 33:0.1073 34:0 35:0.29 36:0 37:0.11048 38:0 39:-0.25641 40:-0.4337 41:-0.15235 42:0 43:0 44:-0.62 45:0 46:-0.32814 47:0.07 48:0.12 49:-0.18 50:-0.07 51:-0.34 52:0.08 53:0 54:0.62 55:-1.0655 56:-0.77 57:-2.1 58:0.78 59:-3.14 60:1.12 61:1.3 62:0.03966 63:0.38 64:1.91 65:-3.44 66:0.38 
1 1:-0.34 2:-0.27 3:0.07 4:1.12 5:-0.18 6:0.38 7:-1.4 8:1.3 9:0 10:0 11:0 12:-0.07 13:0.61 14:0.83 15:-2.1 16:0.62 17:0.38 18:-0.77 19:0.12 20:0.92 21:-0.62 22:0.25 23:0.9 24:-0.06 25:0.18 26:0.09 27:-1 28:-0.076641 29:0.1 30:0 31:0.04 32:0.04 33:-0.053829 34:0 35:0.05 36:0 37:0.079612 38:0 39:0.058036 40:-0.55153 41:0.11528 42:0 43:0 44:-0.72 45:0.04 46:-0.064417 47:-1.13 48:0.16 49:0.73 50:2.36 51:0.37 52:0.04 53:0 54:0.47 55:-0.59048 56:-0.8 57:-2.36 58:0.52 59:-1.14 60:1.81 61:1.54 62:0.0038835 63:0.41 64:-1.13 65:-1.03 66:-0.69 
1 1:-5.4 2:-0.84 3:1.91 4:0.93 5:-1.76 6:0.12 7:-3.44 8:1.02 9:1 10:0 11:1 12:-0.07 13:0.61 14:0.83 15:-2.1 16:0.62 17:0.38 18:-0.77 19:0.08 20:1.81 21:-0.62 22:0.73 23:1.54 24:1.31 25:0.37 26:-1.03 27:-1 28:0.51699 29:-1.13 30:0 31:0 32:0.16 33:0.029775 34:0 35:-0.69 36:0 37:0.40678 38:0 39:0 40:-1.2379 41:-0.12021 42:1 43:0 44:0.26 45:0 46:-0.82253 47:0.48 48:0.16 49:-0.64 50:-0.41 51:-1.3 52:0 53:0 54:1.09 55:-2.3112 56:1.27 57:0.44 58:-0.21 59:-1.03 60:0.6 61:0.62 62:-0.088657 63:-0.38 64:0.83 65:-0.07 66:0.29 
1 1:0.41 2:1.21 3:-1.18 4:1.3 5:0.53 6:-0.62 7:-0.98 8:1.26 9:0 10:0 11:0 12:-1.29 13:1.81 14:-1.27 15:0.32 16:1.53 17:-0.46 18:1.09 19:0.08 20:1.81 21:0.54 22:0.73 23:1.54 24:1.31 25:0.37 26:-1.03 27:0 28:-0.094827 29:-1.13 30:0 31:0.12 32:0.04 33:-0.053325 34:0 35:-0.69 36:0 37:0.092199 38:0 39:0.030303 40:-0.64321 41:0.16564 42:0 43:1 44:-0.64 45:0 46:-0.065849 47:-2.12 48:0.04 49:0.61 50:0.84 51:0.5 52:0.04 53:0.12 54:0.62 55:-0.47492 56:-0.48 57:-1.3 58:-1.27 59:-0.98 60:1.25 61:1.23 62:0.042553 63:0.29 64:0.33 65:0.3 66:-0.45 
1 1:0.41 2:1.21 3:-1.18 4:1.3 5:0.53 6:-0.62 7:-0.98 8:1.26 9:0 10:0 11:0 12:2.23 13:0.4 14:0.73 15:-0.2 16:0.42 17:0.46 18:0 19:0.04 20:1.3 21:-0.07 22:0.53 23:1.26 24:1.21 25:0.41 26:-0.98 27:0 28:0.37414 29:-1.18 30:0 31:0.08 32:0.04 33:0.14893 34:0 35:-0.62 36:0 37:0.2013 38:0 39:0 40:0.41703 41:-0.025579 42:0 43:1 44:-0.26 45:0 46:-0.087667 47:-0.5 48:0.08 49:-0.4 50:0.57 51:-1.48 52:0.04 53:0.04 54:0.87 55:-0.82323 56:-0.5 57:-0.4 58:0.1 59:-1.03 60:0.93 61:1.12 62:0.0028353 63:0.12 64:0.07 65:-1.4 66:-0.41 
1 1:0.37 2:1.31 3:-1.13 4:1.81 5:0.73 6:-0.69 7:-1.03 8:1.54 9:0 10:0 11:0 12:0.57 13:0.82 14:0.52 15:-0.4 16:0.87 17:0.12 18:-0.5 19:0.08 20:0.48 21:-0.26 22:-0.72 23:0.47 24:-0.8 25:-2.36 26:2.36 27:0 28:0.085777 29:0.78 30:-1 31:0.04 32:0 33:0.11064 34:0 35:0.41 36:0 37:0.043557 38:0 39:-0.034123 40:-0.46429 41:-0.18609 42:0 43:0 44:0.16 45:0 46:-0.070053 47:0.1 48:0.04 49:0.25 50:0.3 51:0.18 52:0.12 53:0.08 54:0.56 55:-0.16937 56:-0.41 57:0.09 58:0.95 59:-1.4 60:0.92 61:0.9 62:-0.0036298 63:0.31 64:-2.12 65:0.45 66:0.05 
0.7045760661509546 1:-0.08 2:0.33 3:-0.21 4:1.53 5:0.02 6:-0.25 7:0.01 8:1.68 9:0 10:0 11:0 12:0.09 13:0.92 14:0.1 15:0.18 16:0.9 17:0.05 18:-0.06 19:0.04 20:1.3 21:0.25 22:0.53 23:1.26 24:1.21 25:0.41 26:-0.98 27:0 28:0.28674 29:-1.18 30:0 31:0.08 32:0.04 33:0.16394 34:0 35:-0.62 36:0 37:0.099326 38:0 39:-0.039529 40:-0.86555 41:-0.26844 42:0 43:0 44:-0.72 45:0 46:-0.12916 47:0.1 48:0.12 49:0.25 50:2.36 51:0.18 52:0.04 53:0.08 54:0.47 55:-0.68354 56:-0.8 57:-2.36 58:-1.27 59:-0.07 60:0.92 61:0.9 62:0.018394 63:0.41 64:0.1 65:0.09 66:0.05 
1 1:0.18 2:-0.06 3:0.1 4:0.92 5:0.25 6:0.05 7:0.09 8:0.9 9:0 10:0 11:0 12:2.23 13:0.4 14:0.73 15:-0.2 16:0.42 17:0.46 18:0 19:0 20:0.61 21:-0.07 22:0.16 23:0.56 24:-0.41 25:0.09 26:0.3 27:0 28:0.2814 29:0.33 30:0 31:0.04 32:0.04 33:0.088578 34:0 35:0.31 36:0 37:0.083333 38:0 39:-0.040433 40:-0.73879 41:-0.061159 42:0 43:0 44:-0.69 45:0.08 46:-0.12165 47:0.1 48:0.12 49:0.25 50:-1.14 51:0.18 52:0 53:0.04 54:1.18 55:-0.57686 56:-0.73 57:-1.22 58:-1.13 59:0.84 60:0.92 61:0.9 62:2.7756e-017 63:0.46 64:0.83 65:-0.07 66:0.05 
1 1:-0.34 2:-0.27 3:0.07 4:1.12 5:-0.18 6:0.38 7:-1.4 8:1.3 9:0 10:0 11:0 12:-1.29 13:1.81 14:-1.27 15:0.32 16:1.53 17:-0.46 18:1.09 19:0.08 20:1.3 21:0.54 22:0.53 23:1.26 24:1.21 25:0.41 26:-0.98 27:0 28:-0.22789 29:-1.18 30:0 31:0 32:0.08 33:-0.076503 34:0 35:-0.62 36:0 37:0.15411 38:0 39:-0.026667 40:-0.16758 41:0.135 42:0 43:0 44:-0.72 45:0 46:-0.37924 47:0.1 48:0 49:0.25 50:2.36 51:0.18 52:0.12 53:0.04 54:0.47 55:-1.5627 56:-0.8 57:-2.36 58:-0.21 59:0.01 60:0.92 61:0.9 62:-0.017684 63:0.41 64:-0.21 65:0.01 66:0.05 
1 1:-2.36 2:-0.8 3:0.78 4:0.48 5:-0.72 6:0.41 7:2.36 8:0.47 9:-1 10:0 11:0 12:0.3 13:0.61 14:0.33 15:0.09 16:0.56 17:0.31 18:-0.41 19:0.16 20:0.82 21:0.16 22:-0.26 23:0.87 24:-0.5 25:-0.4 26:0.57 27:0 28:-0.089267 29:0.52 30:0 31:0.08 32:0.04 33:-0.075962 34:0 35:0.12 36:0 37:0.22484 38:0 39:0.12516 40:-0.39741 41:0.088404 42:0 43:0 44:-1.1 45:0 46:-0.11107 47:-2.12 48:0 49:0.61 50:-3.14 51:0.5 52:0.08 53:0.12 54:0.74 55:-1.0261 56:-1.18 57:-2.53 58:-1.27 59:1.11 60:1.25 61:1.23 62:-0.025385 63:0.57 64:0.52 65:0.57 66:-0.45 
1 1:-1.3 2:-0.48 3:0.48 4:0.6 5:-0.64 6:0.29 7:0.84 8:0.62 9:0 10:0 11:0 12:-0.98 13:1.3 14:-1.18 15:0.41 16:1.26 17:-0.62 18:1.21 19:0.04 20:0.48 21:0.53 22:-0.72 23:0.47 24:-0.8 25:-2.36 26:2.36 27:0 28:-0.14472 29:0.78 30:-1 31:0.04 32:0.04 33:-0.036497 34:0 35:0.41 36:0 37:0.026596 38:0 39:-0.39951 40:0.037028 41:0.22028 42:0 43:0 44:-0.69 45:0 46:-0.050125 47:-1.13 48:0.16 49:0.73 50:-1.14 51:0.37 52:0.04 53:0 54:1.18 55:-0.64966 56:-0.73 57:-1.22 58:-2.12 59:-0.07 60:1.81 61:1.54 62:0.17021 63:0.46 64:-1.27 65:-1.29 66:-0.69 
1 1:0.32 2:1.09 3:-1.27 4:1.81 5:0.54 6:-0.46 7:-1.29 8:1.53 9:0 10:0 11:0 12:-0.98 13:1.3 14:-1.18 15:0.41 16:1.26 17:-0.62 18:1.21 19:0.04 20:0.48 21:0.53 22:-0.72 23:0.47 24:-0.8 25:-2.36 26:2.36 27:0 28:0.13914 29:0.78 30:-1 31:0.08 32:0.04 33:0.044988 34:0 35:0.41 36:0 37:0.51773 38:0 39:-0.06495 40:-0.8359 41:-0.046255 42:0 43:0 44:0.73 45:0 46:-0.37974 47:1.4 48:0.2 49:-1.1 50:-1.03 51:-2.53 52:0.04 53:0.08 54:1.54 55:-1.6216 56:1.31 57:0.37 58:-1.18 59:-1.29 60:0.7 61:0.74 62:-0.12766 63:-0.69 64:-1.27 65:-1.29 66:0.57 
1 1:0.09 2:-0.41 3:0.33 4:0.61 5:0.16 6:0.31 7:0.3 8:0.56 9:0 10:0 11:0 12:0.3 13:0.61 14:0.33 15:0.09 16:0.56 17:0.31 18:-0.41 19:0.04 20:0.6 21:0.16 22:-0.64 23:0.62 24:-0.48 25:-1.3 26:0.84 27:0 28:-0.0087133 29:0.48 30:0 31:0.08 32:0 33:0.021321 34:0 35:0.29 36:0 37:0.58044 38:0 39:-0.12903 40:-0.11968 41:0.027342 42:0 43:0 44:-0.62 45:0 46:-0.195 47:-1.13 48:0.08 49:0.73 50:-0.07 51:0.37 52:0.16 53:0.12 54:0.62 55:-1.0108 56:-0.77 57:-2.1 58:-1.13 59:2.36 60:1.81 61:1.54 62:-0.2082 63:0.38 64:-1.13 65:-1.03 66:-0.69 
1 1:-2.1 2:-0.77 3:0.83 4:0.61 5:-0.62 6:0.38 7:-0.07 8:0.62 9:-1 10:0 11:0 12:-0.98 13:1.3 14:-1.18 15:0.41 16:1.26 17:-0.62 18:1.21 19:0.08 20:0.61 21:0.53 22:-0.62 23:0.62 24:-0.77 25:-2.1 26:-0.07 27:0 28:0.10256 29:0.83 30:-1 31:0.08 32:0.04 33:0.052438 34:0 35:0.38 36:0 37:0.18447 38:0 39:-0.062992 40:-1.7165 41:-0.042989 42:0 43:0 44:0.53 45:0 46:-0.28122 47:0.07 48:0.16 49:-0.18 50:-0.98 51:-0.34 52:0 53:0.08 54:1.26 55:-1.1604 56:1.21 57:0.41 58:0.95 59:0.09 60:1.12 61:1.3 62:-0.034393 63:-0.62 64:-2.12 65:0.45 66:0.38 
1 1:-2.1 2:-0.77 3:0.83 4:0.61 5:-0.62 6:0.38 7:-0.07 8:0.62 9:-1 10:0 11:0 12:0.09 13:0.92 14:0.1 15:0.18 16:0.9 17:0.05 18:-0.06 19:0.16 20:0.61 21:0.25 22:0.16 23:0.56 24:-0.41 25:0.09 26:0.3 27:0 28:0.2044 29:0.33 30:0 31:0.04 32:0.08 33:-0.023062 34:0 35:0.31 36:0 37:0.12134 38:0 39:-0.4276 40:-0.52272 41:-0.039087 42:0 43:0 44:-0.26 45:0 46:-0.24583 47:-1.13 48:0.12 49:0.73 50:0.57 51:0.37 52:0.12 53:0.04 54:0.87 55:-1.3183 56:-0.5 57:-0.4 58:1.91 59:-1.29 60:1.81 61:1.54 62:0.0024763 63:0.12 64:0.78 65:2.36 66:-0.69 
1 1:0.41 2:1.21 3:-1.18 4:1.3 5:0.53 6:-0.62 7:-0.98 8:1.26 9:0 10:0 11:0 12:-1.14 13:0.95 14:0.95 15:-1.22 16:1.18 17:0.46 18:-0.73 19:0.04 20:0.95 21:-0.69 22:-0.69 23:1.18 24:-0.73 25:-1.22 26:-1.14 27:0 28:0.43923 29:0.95 30:0 31:0.08 32:0.08 33:0.040786 34:0 35:0.46 36:0 37:0.17669 38:0 39:-0.29373 40:-0.50892 41:-0.16633 42:0 43:1 44:0.25 45:0 46:-0.59358 47:0.83 48:0.2 49:-0.62 50:0.09 51:-2.1 52:0.08 53:0.04 54:0.9 55:-2.1456 56:-0.06 57:0.18 58:-1.13 59:-3.14 60:0.61 61:0.62 62:-0.004908 63:0.05 64:-1.18 65:-0.98 66:0.38 
1 1:-5.4 2:-0.84 3:1.91 4:0.93 5:-1.76 6:0.12 7:-3.44 8:1.02 9:1 10:0 11:1 12:-1.03 13:1.81 14:-1.13 15:0.37 16:1.54 17:-0.69 18:1.31 19:0 20:0.93 21:0.73 22:-1.76 23:1.02 24:-0.84 25:-5.4 26:-3.44 27:0 28:0.25395 29:1.91 30:1 31:0.16 32:0.12 33:0.076625 34:1 35:0.12 36:0 37:0.27192 38:0 39:0.12112 40:-0.94494 41:-0.14971 42:1 43:0 44:-0.18 45:0 46:-0.35194 47:0.1 48:0.04 49:0.25 50:-1.4 51:0.18 52:0.08 53:0.08 54:1.3 55:-1.2769 56:-0.27 57:-0.34 58:-1.18 59:0.3 60:0.92 61:0.9 62:0.0057448 63:0.38 64:0.78 65:2.36 66:0.05 
1 1:0.41 2:1.21 3:-1.18 4:1.3 5:0.53 6:-0.62 7:-0.98 8:1.26 9:0 10:0 11:0 12:-1.03 13:1.81 14:-1.13 15:0.37 16:1.54 17:-0.69 18:1.31 19:0 20:1.81 21:0.73 22:0.54 23:1.53 24:1.09 25:0.32 26:-1.29 27:0 28:0.066011 29:-1.27 30:0 31:0.16 32:0.08 33:-0.020786 34:0 35:-0.46 36:0 37:-0.083383 38:0 39:0.053672 40:-0.16206 41:0.052714 42:0 43:1 44:0.54 45:0 46:0.061946 47:0.73 48:0 49:-0.07 50:-1.29 51:-0.2 52:0.12 53:0 54:1.53 55:0.14576 56:1.09 57:0.32 58:-1.18 59:-1.29 60:0.4 61:0.42 62:0.14548 63:-0.46 64:-1.18 65:-0.98 66:0.46 
1 1:0.18 2:-0.06 3:0.1 4:0.92 5:0.25 6:0.05 7:0.09 8:0.9 9:0 10:0 11:0 12:0.3 13:0.61 14:0.33 15:0.09 16:0.56 17:0.31 18:-0.41 19:0.04 20:0.92 21:0.16 22:0.25 23:0.9 24:-0.06 25:0.18 26:0.09 27:0 28:-0.092935 29:0.1 30:0 31:0.04 32:0.04 33:-0.034431 34:0 35:0.05 36:0 37:0.062547 38:0 39:-0.15758 40:0.10764 41:0.10724 42:0 43:0 44:0.73 45:0 46:-0.11345 47:0.33 48:0.08 49:0.16 50:-1.03 51:0.09 52:0.04 53:0.16 54:1.54 55:0.1556 56:1.31 57:0.37 58:-0.5 59:2.36 60:0.61 61:0.56 62:0.049144 63:-0.69 64:-1.13 65:-1.03 66:0.31 
1 1:0.41 2:1.21 3:-1.18 4:1.3 5:0.53 6:-0.62 7:-0.98 8:1.26 9:0 10:0 11:0 12:-1.14 13:0.95 14:0.95 15:-1.22 16:1.18 17:0.46 18:-0.73 19:0 20:1.19 21:-0.69 22:0.26 23:1.09 24:1.27 25:0.44 26:-0.41 27:0 28:0.18438 29:-1.59 30:0 31:0.12 32:0.04 33:0.078599 34:0 35:-0.38 36:0 37:0.18349 38:0 39:0 40:-0.28036 41:-0.15914 42:0 43:1 44:-0.69 45:0 46:-0.17891 47:0.48 48:0.08 49:-0.64 50:-1.14 51:-1.3 52:0.08 53:0.08 54:1.18 55:-0.69097 56:-0.73 57:-1.22 58:1.4 59:-0.07 60:0.6 61:0.62 62:0.010194 63:0.46 64:0.1 65:0.09 66:0.29 
1 1:-1.22 2:-0.73 3:0.95 4:0.95 5:-0.69 6:0.46 7:-1.14 8:1.18 9:0 10:0 11:0 12:-1.29 13:1.81 14:-1.27 15:0.32 16:1.53 17:-0.46 18:1.09 19:0.08 20:0.93 21:0.54 22:-1.76 23:1.02 24:-0.84 25:-5.4 26:-3.44 27:0 28:0.033713 29:1.91 30:1 31:0 32:0.04 33:0.039463 34:1 35:0.12 36:0 37:0.067941 38:0 39:-0.17105 40:0.0016347 41:-0.032566 42:0 43:0 44:-0.72 45:0 46:-0.13702 47:0.78 48:0.12 49:-0.72 50:2.36 51:-2.36 52:0.16 53:0.08 54:0.47 55:-0.91712 56:-0.8 57:-2.36 58:0.33 59:0.57 60:0.48 61:0.47 62:-0.038217 63:0.41 64:-2.12 65:0.45 66:0.41 
1 1:0.18 2:-0.06 3:0.1 4:0.92 5:0.25 6:0.05 7:0.09 8:0.9 9:0 10:0 11:0 12:-0.07 13:0.61 14:0.83 15:-2.1 16:0.62 17:0.38 18:-0.77 19:0.04 20:0.61 21:-0.62 22:0.16 23:0.56 24:-0.41 25:0.09 26:0.3 27:-1 28:0.037413 29:0.33 30:0 31:0.08 32:0.08 33:0.1423 34:0 35:0.31 36:0 37:-0.085573 38:0 39:-0.11429 40:0.052124 41:0.040146 42:0 43:0 44:0.25 45:0 46:0.36222 47:-2.12 48:0.16 49:0.61 50:0.09 51:0.5 52:0 53:0.08 54:0.9 55:0.26447 56:-0.06 57:0.18 58:0.73 59:-1.03 60:1.25 61:1.23 62:0.12178 63:0.05 64:0.83 65:-0.07 66:-0.45 
1 1:0.37 2:1.31 3:-1.13 4:1.81 5:0.73 6:-0.69 7:-1.03 8:1.54 9:0 10:0 11:0 12:-0.07 13:0.61 14:0.83 15:-2.1 16:0.62 17:0.38 18:-0.77 19:0 20:0.61 21:-0.62 22:-0.62 23:0.62 24:-0.77 25:-2.1 26:-0.07 27:-1 28:-0.013921 29:0.83 30:-1 31:0.08 32:0 33:0.07325 34:0 35:0.38 36:0 37:0.125 38:0 39:-0.23883 40:-0.32809 41:0.011063 42:0 43:0 44:0.53 45:0 46:-0.070179 47:0.83 48:0.12 49:-0.62 50:-0.98 51:-2.1 52:0.08 53:0.16 54:1.26 55:-0.93784 56:1.21 57:0.41 58:0.1 59:-3.14 60:0.61 61:0.62 62:-0.033333 63:-0.62 64:0.33 65:0.3 66:0.38 
1 1:0.37 2:1.31 3:-1.13 4:1.81 5:0.73 6:-0.69 7:-1.03 8:1.54 9:0 10:0 11:0 12:0.3 13:0.61 14:0.33 15:0.09 16:0.56 17:0.31 18:-0.41 19:0 20:0.61 21:0.16 22:0.16 23:0.56 24:-0.41 25:0.09 26:0.3 27:0 28:-0.18373 29:0.33 30:0 31:0.16 32:0 33:-0.011576 34:0 35:0.31 36:0 37:0.075758 38:0 39:0 40:-0.40739 41:0.1717 42:0 43:0 44:-0.72 45:0 46:-0.015384 47:1.4 48:0.04 49:-1.1 50:2.36 51:-2.53 52:0.16 53:0.12 54:0.47 55:-0.43796 56:-0.8 57:-2.36 58:0.48 59:-0.98 60:0.7 61:0.74 62:0.060606 63:0.41 64:0.33 65:0.3 66:0.57 
1 1:-1.3 2:-0.48 3:0.48 4:0.6 5:-0.64 6:0.29 7:0.84 8:0.62 9:0 10:0 11:0 12:-1.03 13:1.81 14:-1.13 15:0.37 16:1.54 17:-0.69 18:1.31 19:0.08 20:0.92 21:0.73 22:0.25 23:0.9 24:-0.06 25:0.18 26:0.09 27:0 28:0.012113 29:0.1 30:0 31:0.08 32:0 33:0.0083004 34:0 35:0.05 36:0 37:0.15278 38:0 39:0 40:-0.50438 41:-0.036978 42:0 43:0 44:0.54 45:0 46:0.010784 47:0.1 48:0 49:0.25 50:-1.29 51:0.18 52:0.08 53:0.04 54:1.53 55:-1.0196 56:1.09 57:0.32 58:0.1 59:2.36 60:0.92 61:0.9 62:-0.055556 63:-0.46 64:-1.13 65:-1.03 66:0.05 
1 1:-2.36 2:-0.8 3:0.78 4:0.48 5:-0.72 6:0.41 7:2.36 8:0.47 9:-1 10:0 11:0 12:-1.14 13:0.95 14:0.95 15:-1.22 16:1.18 17:0.46 18:-0.73 19:0.04 20:0.93 21:-0.69 22:-0.4 23:1.12 24:0.49 25:-1.48 26:1.11 27:0 28:0.91195 29:-0.5 30:0 31:0.12 32:0.08 33:0.2189 34:1 35:-0.41 36:0 37:0.70511 38:0 39:0.41697 40:-2.74 41:-0.51196 42:0 43:0 44:-0.69 45:0 46:-0.8754 47:-1.13 48:0.04 49:0.73 50:-1.14 51:0.37 52:0.04 53:0.08 54:1.18 55:-2.2115 56:-0.73 57:-1.22 58:-1.13 59:0.3 60:1.81 61:1.54 62:-0.1162 63:0.46 64:0.33 65:0.3 66:-0.69 
1 1:0.32 2:1.09 3:-1.27 4:1.81 5:0.54 6:-0.46 7:-1.29 8:1.53 9:0 10:0 11:0 12:2.36 13:0.48 14:0.78 15:-2.36 16:0.47 17:0.41 18:-0.8 19:0.04 20:1.3 21:-0.72 22:0.53 23:1.26 24:1.21 25:0.41 26:-0.98 27:-1 28:0.20494 29:-1.18 30:0 31:0.04 32:0 33:-0.0090499 34:0 35:-0.62 36:0 37:0.043557 38:1 39:-0.24355 40:0.010257 41:-0.04135 42:0 43:0 44:0.53 45:0 46:-0.018029 47:-1.18 48:0.04 49:0.53 50:-0.98 51:0.41 52:0.12 53:0.08 54:1.26 55:-0.7022 56:1.21 57:0.41 58:0.83 59:0.09 60:1.3 61:1.26 62:-0.0036298 63:-0.62 64:0.33 65:0.3 66:-0.62 
1 1:-0.08 2:0.33 3:-0.21 4:1.53 5:0.02 6:-0.25 7:0.01 8:1.68 9:0 10:0 11:0 12:2.23 13:0.4 14:0.73 15:-0.2 16:0.42 17:0.46 18:0 19:0.08 20:1.25 21:-0.07 22:0.61 23:1.23 24:1.27 25:0.5 26:0.45 27:0 28:-0.13369 29:-2.12 30:0 31:0.04 32:0 33:-0.05869 34:0 35:-0.45 36:0 37:0.083333 38:0 39:0 40:0.1184 41:0.13658 42:0 43:0 44:0.16 45:0.24 46:0.047784 47:1.4 48:0 49:-1.1 50:0.3 51:-2.53 52:0.04 53:0.08 54:0.56 55:-0.016737 56:-0.41 57:0.09 58:0 59:4.13 60:0.7 61:0.74 62:-0 63:0.31 64:-1.18 65:-0.98 66:0.57 
1 1:-0.08 2:0.33 3:-0.21 4:1.53 5:0.02 6:-0.25 7:0.01 8:1.68 9:0 10:0 11:0 12:2.23 13:0.4 14:0.73 15:-0.2 16:0.42 17:0.46 18:0 19:0 20:0.61 21:-0.07 22:-0.62 23:0.62 24:-0.77 25:-2.1 26:-0.07 27:0 28:0.30357 29:0.83 30:-1 31:0.08 32:0.08 33:0.077031 34:0 35:0.38 36:0 37:0.11331 38:0 39:-0.034356 40:-0.38113 41:-0.042498 42:0 43:0 44:-0.18 45:0 46:-0.26994 47:0.73 48:0.16 49:-0.07 50:-1.4 51:-0.2 52:0.04 53:0 54:1.3 55:-1.1037 56:-0.27 57:-0.34 58:0.78 59:-3.44 60:0.4 61:0.42 62:0.048012 63:0.38 64:0.95 65:-1.14 66:0.46 
0.5556119783420278 1:0.41 2:1.21 3:-1.18 4:1.3 5:0.53 6:-0.62 7:-0.98 8:1.26 9:0 10:0 11:0 12:2.36 13:0.48 14:0.78 15:-2.36 16:0.47 17:0.41 18:-0.8 19:0 20:0.92 21:-0.72 22:0.25 23:0.9 24:-0.06 25:0.18 26:0.09 27:-1 28:-0.051061 29:0.1 30:0 31:0.04 32:0.08 33:-0.068307 34:0 35:0.05 36:0 37:0.12353 38:1 39:0.038385 40:-0.61503 41:0.10321 42:0 43:1 44:-0.62 45:0 46:-0.14326 47:0.48 48:0.04 49:-0.64 50:-0.07 51:-1.3 52:0.04 53:0.04 54:0.62 55:-0.59407 56:-0.77 57:-2.1 58:-0.21 59:0.85 60:0.6 61:0.62 62:0.023529 63:0.38 64:-1.42 65:4.13 66:0.29 
1 1:-1.22 2:-0.73 3:0.95 4:0.95 5:-0.69 6:0.46 7:-1.14 8:1.18 9:0 10:0 11:0 12:2.36 13:0.48 14:0.78 15:-2.36 16:0.47 17:0.41 18:-0.8 19:0.04 20:0.92 21:-0.72 22:0.25 23:0.9 24:-0.06 25:0.18 26:0.09 27:-1 28:-0.024555 29:0.1 30:0 31:0.04 32:0.08 33:-0.031023 34:0 35:0.05 36:0 37:0.30207 38:1 39:-0.046332 40:-0.17173 41:0.010696 42:0 43:0 44:0.16 45:0 46:-0.18613 47:-0.51 48:0 49:0.37 50:0.3 51:-0.01 52:0.16 53:0.08 54:0.56 55:-1.3563 56:-0.41 57:0.09 58:1.91 59:2.36 60:1.54 61:1.75 62:-0.085851 63:0.31 64:-0.21 65:0.01 66:-0.98 
1 1:-1.3 2:-0.48 3:0.48 4:0.6 5:-0.64 6:0.29 7:0.84 8:0.62 9:0 10:0 11:0 12:-0.98 13:1.3 14:-1.18 15:0.41 16:1.26 17:-0.62 18:1.21 19:0.04 20:1.3 21:0.53 22:0.53 23:1.26 24:1.21 25:0.41 26:-0.98 27:0 28:0.25415 29:-1.18 30:0 31:0.04 32:0.12 33:0.052611 34:0 35:-0.62 36:0 37:0.1055 38:0 39:-0.22137 40:-0.19522 41:-0.13545 42:0 43:0 44:-0.72 45:0 46:-0.37095 47:-1.27 48:0.08 49:0.54 50:2.36 51:0.32 52:0.16 53:0.04 54:0.47 55:-1.2063 56:-0.8 57:-2.36 58:0.95 59:0.57 60:1.81 61:1.53 62:0.036697 63:0.41 64:0.1 65:0.09 66:-0.46 
1 1:0.32 2:1.09 3:-1.27 4:1.81 5:0.54 6:-0.46 7:-1.29 8:1.53 9:0 10:0 11:0 12:-0.07 13:0.61 14:0.83 15:-2.1 16:0.62 17:0.38 18:-0.77 19:0 20:1.81 21:-0.62 22:0.73 23:1.54 24:1.31 25:0.37 26:-1.03 27:-1 28:0.064228 29:-1.13 30:0 31:0.12 32:0 33:0.053465 34:0 35:-0.69 36:0 37:0.24051 38:0 39:-0.075472 40:-1.1544 41:0.051425 42:0 43:0 44:-1.1 45:0 46:-0.39662 47:-0.21 48:0.16 49:0.02 50:-3.14 51:-0.08 52:0 53:0.04 54:0.74 55:-1.5944 56:-1.18 57:-2.53 58:0.48 59:2.23 60:1.53 61:1.68 62:-0.06093 63:0.57 64:0.33 65:0.3 66:-0.25 
1 1:0.41 2:1.21 3:-1.18 4:1.3 5:0.53 6:-0.62 7:-0.98 8:1.26 9:0 10:0 11:0 12:-1.03 13:1.81 14:-1.13 15:0.37 16:1.54 17:-0.69 18:1.31 19:0.16 20:0.48 21:0.73 22:-0.72 23:0.47 24:-0.8 25:-2.36 26:2.36 27:0 28:0.13766 29:0.78 30:-1 31:0.08 32:0 33:0.044679 34:0 35:0.41 36:0 37:0.044674 38:0 39:-0.12135 40:-0.15368 41:-0.09294 42:0 43:1 44:-0.62 45:0 46:-0.15393 47:0.52 48:0.08 49:-0.26 50:-0.07 51:-0.4 52:0.08 53:0.04 54:0.62 55:-0.3336 56:-0.77 57:-2.1 58:-1.27 59:0.57 60:0.82 61:0.87 62:0.10309 63:0.38 64:0.83 65:-0.07 66:0.12 
0.04493699393222021 1:-0.01 2:0.88 3:-0.51 4:1.54 5:0.37 6:-0.98 7:0.85 8:1.75 9:0 10:0 11:0 12:-3.14 13:0.7 14:1.4 15:-2.53 16:0.74 17:0.57 18:-1.18 19:0.12 20:1.53 21:-1.1 22:0.02 23:1.68 24:0.33 25:-0.08 26:0.01 27:1 28:-0.24465 29:-0.21 30:0 31:0.08 32:0 33:-0.088514 34:0 35:-0.25 36:0 37:0.24631 38:0 39:-0.038916 40:0.018444 41:0.25702 42:0 43:0 44:-0.72 45:0 46:-0.093533 47:0.78 48:0.04 49:-0.72 50:2.36 51:-2.36 52:0.08 53:0.08 54:0.47 55:-0.98971 56:-0.8 57:-2.36 58:0.52 59:-1.4 60:0.48 61:0.47 62:-0.065427 63:0.41 64:0.83 65:-0.07 66:0.41 
1 1:0.18 2:-0.06 3:0.1 4:0.92 5:0.25 6:0.05 7:0.09 8:0.9 9:0 10:0 11:0 12:-0.98 13:1.3 14:-1.18 15:0.41 16:1.26 17:-0.62 18:1.21 19:0.12 20:1.12 21:0.53 22:-0.18 23:1.3 24:-0.27 25:-0.34 26:-1.4 27:0 28:0.10312 29:0.07 30:0 31:0.04 32:0.08 33:-0.053017 34:0 35:0.38 36:0 37:0.18266 38:0 39:-0.17775 40:-1.1377 41:0.1207 42:0 43:0 44:-0.26 45:0 46:-0.20471 47:-0.21 48:0 49:0.02 50:0.57 51:-0.08 52:0.16 53:0 54:0.87 55:-0.74909 56:-0.5 57:-0.4 58:1.91 59:-3.44 60:1.53 61:1.68 62:-0.043344 63:0.12 64:0.78 65:2.36 66:-0.25 
1 1:0.18 2:-0.06 3:0.1 4:0.92 5:0.25 6:0.05 7:0.09 8:0.9 9:0 10:0 11:0 12:-1.14 13:0.95 14:0.95 15:-1.22 16:1.18 17:0.46 18:-0.73 19:0 20:1.81 21:-0.69 22:0.54 23:1.53 24:1.09 25:0.32 26:-1.29 27:0 28:0.077532 29:-1.27 30:0 31:0 32:0.04 33:-0.002932 34:0 35:-0.46 36:0 37:0.039927 38:0 39:-0.18258 40:-0.0036745 41:0.02223 42:0 43:0 44:-0.62 45:0 46:-0.076154 47:-0.51 48:0.08 49:0.37 50:-0.07 51:-0.01 52:0.08 53:0.04 54:0.62 55:-0.73169 56:-0.77 57:-2.1 58:0.1 59:-3.44 60:1.54 61:1.75 62:0.0036298 63:0.38 64:0.1 65:0.09 66:-0.98 
1 1:0.41 2:1.21 3:-1.18 4:1.3 5:0.53 6:-0.62 7:-0.98 8:1.26 9:0 10:0 11:0 12:2.23 13:0.4 14:0.73 15:-0.2 16:0.42 17:0.46 18:0 19:0 20:1.53 21:-0.07 22:0.02 23:1.68 24:0.33 25:-0.08 26:0.01 27:0 28:0.017021 29:-0.21 30:0 31:0.04 32:0.08 33:0.041637 34:0 35:-0.25 36:0 37:0.13665 38:0 39:0.049544 40:-0.52066 41:0.25257 42:0 43:1 44:0.54 45:0 46:0.016748 47:-1.59 48:0.04 49:0.26 50:-1.29 51:0.44 52:0.08 53:0.04 54:1.53 55:-0.2712 56:1.09 57:0.32 58:-1.27 59:2.23 60:1.19 61:1.09 62:-0.0074534 63:-0.46 64:-1.18 65:-0.98 66:-0.38 
1 1:0.5 2:1.27 3:-2.12 4:1.25 5:0.61 6:-0.45 7:0.45 8:1.23 9:0 10:0 11:0 12:0.09 13:0.92 14:0.1 15:0.18 16:0.9 17:0.05 18:-0.06 19:0 20:0.4 21:0.25 22:-0.07 23:0.42 24:0 25:-0.2 26:2.23 27:0 28:0.043921 29:0.73 30:0 31:0.04 32:0.08 33:0.0055684 34:0 35:0.46 36:0 37:0.22484 38:0 39:0 40:-0.16026 41:0.16104 42:0 43:0 44:0.53 45:0 46:-0.11558 47:-1.27 48:0.08 49:0.54 50:-0.98 51:0.32 52:0.04 53:0.04 54:1.26 55:-0.60027 56:1.21 57:0.41 58:-0.5 59:0.84 60:1.81 61:1.53 62:-0.025385 63:-0.62 64:-1.13 65:-1.03 66:-0.46 
1 1:-2.1 2:-0.77 3:0.83 4:0.61 5:-0.62 6:0.38 7:-0.07 8:0.62 9:-1 10:0 11:0 12:-3.44 13:0.93 14:1.91 15:-5.4 16:1.02 17:0.12 18:-0.84 19:0.08 20:0.61 21:-1.76 22:0.16 23:0.56 24:-0.41 25:0.09 26:0.3 27:1 28:-0.60951 29:0.33 30:0 31:0 32:0.08 33:-0.38084 34:0 35:0.31 36:0 37:0.072685 38:0 39:0 40:-0.73304 41:0.80551 42:0 43:0 44:-0.64 45:0 46:-0.029086 47:-1.18 48:0.04 49:0.53 50:0.84 51:0.41 52:0.04 53:0.08 54:0.62 55:-0.59408 56:-0.48 57:-1.3 58:-1.18 59:0.45 60:1.3 61:1.26 62:0.049238 63:0.29 64:0.33 65:0.3 66:-0.62 
1 1:-2.36 2:-0.8 3:0.78 4:0.48 5:-0.72 6:0.41 7:2.36 8:0.47 9:-1 10:0 11:0 12:-0.98 13:1.3 14:-1.18 15:0.41 16:1.26 17:-0.62 18:1.21 19:0.12 20:1.81 21:0.53 22:0.54 23:1.53 24:1.09 25:0.32 26:-1.29 27:0 28:0.011236 29:-1.27 30:0 31:0 32:0.04 33:0.010079 34:0 35:-0.46 36:0 37:0.031809 38:0 39:-0.022727 40:-0.14189 41:-0.020539 42:0 43:0 44:-0.18 45:0 46:-0.1015 47:-1.27 48:0.08 49:0.54 50:-1.4 51:0.32 52:0.12 53:0.08 54:1.3 55:-0.54565 56:-0.27 57:-0.34 58:0.52 59:0.09 60:1.81 61:1.53 62:0.027833 63:0.38 64:0.48 65:0.84 66:-0.46 
1 1:0.09 2:-0.41 3:0.33 4:0.61 5:0.16 6:0.31 7:0.3 8:0.56 9:0 10:0 11:0 12:0.3 13:0.61 14:0.33 15:0.09 16:0.56 17:0.31 18:-0.41 19:0 20:1.53 21:0.16 22:0.02 23:1.68 24:0.33 25:-0.08 26:0.01 27:0 28:0.17673 29:-0.21 30:0 31:0.12 32:0.04 33:0.014826 34:0 35:-0.25 36:0 37:0.020151 38:0 39:-0.004914 40:0.61712 41:0.045392 42:0 43:0 44:-0.72 45:0 46:-0.034945 47:0.73 48:0 49:-0.07 50:2.36 51:-0.2 52:0.08 53:0.16 54:0.47 55:-0.44539 56:-0.8 57:-2.36 58:0.1 59:-1.03 60:0.4 61:0.42 62:0.04534 63:0.41 64:0.78 65:2.36 66:0.46 
1 1:-2.1 2:-0.77 3:0.83 4:0.61 5:-0.62 6:0.38 7:-0.07 8:0.62 9:-1 10:0 11:0 12:-1.03 13:1.81 14:-1.13 15:0.37 16:1.54 17:-0.69 18:1.31 19:0 20:0.92 21:0.73 22:0.25 23:0.9 24:-0.06 25:0.18 26:0.09 27:0 28:0.41959 29:0.1 30:0 31:0.04 32:0.12 33:-0.11317 34:0 35:0.05 36:0 37:0.60123 38:0 39:0.26485 40:-1.0174 41:0.074188 42:0 43:0 44:0.16 45:0 46:-0.70931 47:-1.13 48:0.08 49:0.73 50:0.3 51:0.37 52:0 53:0.12 54:0.56 55:-2.3106 56:-0.41 57:0.09 58:-0.21 59:0.09 60:1.81 61:1.54 62:-0.11159 63:0.31 64:0.33 65:0.3 66:-0.69 
1 1:-0.01 2:0.88 3:-0.51 4:1.54 5:0.37 6:-0.98 7:0.85 8:1.75 9:0 10:0 11:0 12:2.23 13:0.4 14:0.73 15:-0.2 16:0.42 17:0.46 18:0 19:0.04 20:0.61 21:-0.07 22:0.16 23:0.56 24:-0.41 25:0.09 26:0.3 27:0 28:0.4224 29:0.33 30:0 31:0.08 32:0.08 33:0.19657 34:0 35:0.31 36:0 37:0.17884 38:0 39:0 40:-0.28589 41:-0.26194 42:0 43:0 44:-0.69 45:0 46:-0.1268 47:0.1 48:0.08 49:0.25 50:-1.14 51:0.18 52:0.08 53:0.12 54:1.18 55:-0.87783 56:-0.73 57:-1.22 58:0.33 59:-1.4 60:0.92 61:0.9 62:-0.0059613 63:0.46 64:0.83 65:-0.07 66:0.05 
1 1:-0.34 2:-0.27 3:0.07 4:1.12 5:-0.18 6:0.38 7:-1.4 8:1.3 9:0 10:0 11:0 12:-1.4 13:1.12 14:0.07 15:-0.34 16:1.3 17:0.38 18:-0.27 19:0.04 20:1.3 21:-0.18 22:0.53 23:1.26 24:1.21 25:0.41 26:-0.98 27:0 28:0.0935 29:-1.18 30:0 31:0.12 32:0.12 33:-0.018584 34:0 35:-0.62 36:0 37:0.09589 38:0 39:0.081995 40:-0.43663 41:-0.0020421 42:0 43:0 44:-0.72 45:0.16 46:-0.15947 47:1.4 48:0.08 49:-1.1 50:2.36 51:-2.53 52:0.04 53:0 54:0.47 55:-0.64524 56:-0.8 57:-2.36 58:0.52 59:-0.98 60:0.7 61:0.74 62:0.082192 63:0.41 64:1.91 65:-3.44 66:0.57 
1 1:-1.3 2:-0.48 3:0.48 4:0.6 5:-0.64 6:0.29 7:0.84 8:0.62 9:0 10:0 11:0 12:-0.98 13:1.3 14:-1.18 15:0.41 16:1.26 17:-0.62 18:1.21 19:0.08 20:1.19 21:0.53 22:0.26 23:1.09 24:1.27 25:0.44 26:-0.41 27:0 28:-0.0072859 29:-1.59 30:0 31:0.04 32:0.04 33:-0.058069 34:0 35:-0.38 36:0 37:0.18519 38:0 39:-0.12256 40:-0.18472 41:0.095043 42:0 43:0 44:0.02 45:0.2 46:-0.43387 47:-1.18 48:0.04 49:0.53 50:0.01 51:0.41 52:0.08 53:0 54:1.68 55:-1.9085 56:0.33 57:-0.08 58:0.1 59:-3.14 60:1.3 61:1.26 62:-0.074074 63:-0.25 64:0.73 65:2.23 66:-0.62 
1 1:-0.01 2:0.88 3:-0.51 4:1.54 5:0.37 6:-0.98 7:0.85 8:1.75 9:0 10:0 11:0 12:0.45 13:1.25 14:-2.12 15:0.5 16:1.23 17:-0.45 18:1.27 19:0.04 20:1.81 21:0.61 22:0.54 23:1.53 24:1.09 25:0.32 26:-1.29 27:0 28:-0.10616 29:-1.27 30:0 31:0.04 32:0.04 33:-0.13169 34:0 35:-0.46 36:0 37:0.23024 38:0 39:0.040288 40:-0.20667 41:0.25416 42:0 43:0 44:0.73 45:0.48 46:-0.0054612 47:0.52 48:0 49:-0.26 50:-1.03 51:-0.4 52:0.04 53:0 54:1.54 55:-0.8038 56:1.31 57:0.37 58:-1.13 59:0 60:0.82 61:0.87 62:-0.061856 63:-0.69 64:0 65:0 66:0.12 
1 1:0.41 2:1.21 3:-1.18 4:1.3 5:0.53 6:-0.62 7:-0.98 8:1.26 9:0 10:0 11:0 12:2.23 13:0.4 14:0.73 15:-0.2 16:0.42 17:0.46 18:0 19:0.08 20:1.54 21:-0.07 22:0.37 23:1.75 24:0.88 25:-0.01 26:0.85 27:0 28:0.20776 29:-0.51 30:0 31:0.04 32:0.08 33:0.050597 34:0 35:-0.98 36:0 37:0.14469 38:0 39:0.038992 40:-0.43832 41:-0.10101 42:0 43:1 44:-1.76 45:0 46:-0.2365 47:0.52 48:0.04 49:-0.26 50:-3.44 51:-0.4 52:0.04 53:0.12 54:1.02 55:-0.96165 56:-0.84 57:-5.4 58:0.95 59:2.23 60:0.82 61:0.87 62:0.033569 63:0.12 64:0.52 65:0.57 66:0.12 
1 1:0.5 2:1.27 3:-2.12 4:1.25 5:0.61 6:-0.45 7:0.45 8:1.23 9:0 10:0 11:0 12:2.23 13:0.4 14:0.73 15:-0.2 16:0.42 17:0.46 18:0 19:0 20:1.19 21:-0.07 22:0.26 23:1.09 24:1.27 25:0.44 26:-0.41 27:0 28:-0.41359 29:-1.59 30:0 31:0.04 32:0 33:-0.12274 34:0 35:-0.38 36:0 37:0.019646 38:0 39:0 40:-0.31101 41:0.35137 42:0 43:0 44:-0.4 45:0.32 46:0.10082 47:0 48:0 49:0 50:1.11 51:0 52:0 53:0.04 54:1.12 55:-0.024442 56:0.49 57:-1.48 58:0 59:-1.4 60:0 61:0 62:0.12967 63:-0.41 64:0.1 65:0.09 66:0 
1 1:-2.36 2:-0.8 3:0.78 4:0.48 5:-0.72 6:0.41 7:2.36 8:0.47 9:-1 10:0 11:0 12:-1.4 13:1.12 14:0.07 15:-0.34 16:1.3 17:0.38 18:-0.27 19:0.04 20:0.4 21:-0.18 22:-0.07 23:0.42 24:0 25:-0.2 26:2.23 27:0 28:-0.33558 29:0.73 30:0 31:0 32:0.04 33:-0.17766 34:0 35:0.46 36:0 37:0.11093 38:0 39:-0.021858 40:0.28792 41:0.42297 42:0 43:0 44:-0.07 45:0 46:0.031775 47:-1.13 48:0 49:0.73 50:2.23 51:0.37 52:0.12 53:0 54:0.42 55:-0.30855 56:0 57:-0.2 58:0.95 59:-0.98 60:1.81 61:1.54 62:0.0097879 63:0.46 64:-2.12 65:0.45 66:-0.69 
1 1:-2.36 2:-0.8 3:0.78 4:0.48 5:-0.72 6:0.41 7:2.36 8:0.47 9:-1 10:0 11:0 12:-1.03 13:1.81 14:-1.13 15:0.37 16:1.54 17:-0.69 18:1.31 19:0.04 20:0.7 21:0.73 22:-1.1 23:0.74 24:-1.18 25:-2.53 26:-3.14 27:0 28:0.27201 29:1.4 30:1 31:0.08 32:0.08 33:0.10844 34:1 35:0.57 36:1 37:0.17417 38:0 39:0.044444 40:-0.15077 41:-0.19087 42:0 43:0 44:-0.07 45:0 46:-0.20781 47:0.07 48:0.04 49:-0.18 50:2.23 51:-0.34 52:0.08 53:0.08 54:0.42 55:-0.74352 56:0 57:-0.2 58:-2.12 59:-0.07 60:1.12 61:1.3 62:0.014514 63:0.46 64:-0.51 65:0.85 66:0.38 
1 1:-2.36 2:-0.8 3:0.78 4:0.48 5:-0.72 6:0.41 7:2.36 8:0.47 9:-1 10:0 11:0 12:-3.44 13:0.93 14:1.91 15:-5.4 16:1.02 17:0.12 18:-0.84 19:0 20:1.3 21:-1.76 22:0.53 23:1.26 24:1.21 25:0.41 26:-0.98 27:1 28:0.20781 29:-1.18 30:0 31:0.08 32:0.08 33:-0.0075782 34:0 35:-0.62 36:0 37:0.066667 38:0 39:-0.20997 40:-0.22474 41:0.065209 42:0 43:0 44:0.54 45:0 46:-0.1869 47:0.95 48:0.04 49:-0.69 50:-1.29 51:-1.22 52:0.16 53:0.04 54:1.53 55:-1.0136 56:1.09 57:0.32 58:0.1 59:0.85 60:0.95 61:1.18 62:0.08 63:-0.46 64:0.1 65:0.09 66:0.46 
1 1:-0.4 2:-0.5 3:0.52 4:0.82 5:-0.26 6:0.12 7:0.57 8:0.87 9:0 10:0 11:0 12:-1.29 13:1.81 14:-1.27 15:0.32 16:1.53 17:-0.46 18:1.09 19:0.04 20:0.92 21:0.54 22:0.25 23:0.9 24:-0.06 25:0.18 26:0.09 27:0 28:0.29331 29:0.1 30:0 31:0.08 32:0.08 33:0.17096 34:0 35:0.05 36:0 37:0.069892 38:0 39:0 40:-0.47389 41:-0.24697 42:0 43:0 44:-0.72 45:0 46:-0.071486 47:0.83 48:0.12 49:-0.62 50:2.36 51:-2.1 52:0.04 53:0.12 54:0.47 55:-0.57388 56:-0.8 57:-2.36 58:-1.27 59:0.09 60:0.61 61:0.62 62:0.064516 63:0.41 64:-1.27 65:-1.29 66:0.38 
1 1:-2.1 2:-0.77 3:0.83 4:0.61 5:-0.62 6:0.38 7:-0.07 8:0.62 9:-1 10:0 11:0 12:2.23 13:0.4 14:0.73 15:-0.2 16:0.42 17:0.46 18:0 19:0.04 20:0.48 21:-0.07 22:-0.72 23:0.47 24:-0.8 25:-2.36 26:2.36 27:0 28:-0.068906 29:0.78 30:-1 31:0.04 32:0.04 33:-0.0016199 34:0 35:0.41 36:0 37:0.16464 38:0 39:-0.060194 40:-0.28544 41:0.065433 42:0 43:0 44:-0.64 45:0.04 46:-0.11101 47:0.52 48:0.08 49:-0.26 50:0.84 51:-0.4 52:0.08 53:0.08 54:0.62 55:-0.74629 56:-0.48 57:-1.3 58:-1.18 59:-3.44 60:0.82 61:0.87 62:-0.022925 63:0.29 64:-0.5 65:1.11 66:0.12 
1 1:-2.1 2:-0.77 3:0.83 4:0.61 5:-0.62 6:0.38 7:-0.07 8:0.62 9:-1 10:0 11:0 12:0.09 13:0.92 14:0.1 15:0.18 16:0.9 17:0.05 18:-0.06 19:0.12 20:1.81 21:0.25 22:0.54 23:1.53 24:1.09 25:0.32 26:-1.29 27:0 28:-0.025568 29:-1.27 30:0 31:0.04 32:0.04 33:-0.0065583 34:0 35:-0.46 36:0 37:0.28481 38:0 39:0 40:-0.17798 41:0.066615 42:0 43:0 44:0.54 45:0 46:-0.13644 47:-1.27 48:0.08 49:0.54 50:-1.29 51:0.32 52:0 53:0 54:1.53 55:-0.86198 56:1.09 57:0.32 58:0.52 59:-0.41 60:1.81 61:1.53 62:-0.050633 63:-0.46 64:1.91 65:-3.44 66:-0.46 
1 1:-2.53 2:-1.18 3:1.4 4:0.7 5:-1.1 6:0.57 7:-3.14 8:0.74 9:1 10:1 11:1 12:0.01 13:1.53 14:-0.21 15:-0.08 16:1.68 17:-0.25 18:0.33 19:0.08 20:1.81 21:0.02 22:0.73 23:1.54 24:1.31 25:0.37 26:-1.03 27:0 28:-0.47191 29:-1.13 30:0 31:0.04 32:0 33:-0.13536 34:0 35:-0.69 36:0 37:0.066667 38:0 39:-0.098434 40:-0.61193 41:0.4503 42:0 43:0 44:-0.72 45:0 46:-4.1633e-017 47:0.78 48:0 49:-0.72 50:2.36 51:-2.36 52:0.12 53:0.04 54:0.47 55:-0.48829 56:-0.8 57:-2.36 58:-1.18 59:2.36 60:0.48 61:0.47 62:0.019048 63:0.41 64:-1.27 65:-1.29 66:0.41 
1 1:0.41 2:1.21 3:-1.18 4:1.3 5:0.53 6:-0.62 7:-0.98 8:1.26 9:0 10:0 11:0 12:-0.98 13:1.3 14:-1.18 15:0.41 16:1.26 17:-0.62 18:1.21 19:0.04 20:0.61 21:0.53 22:-0.62 23:0.62 24:-0.77 25:-2.1 26:-0.07 27:0 28:0.049924 29:0.83 30:-1 31:0.04 32:0 33:0.051507 34:0 35:0.38 36:0 37:0.027842 38:0 39:-0.15296 40:0.077579 41:-0.046231 42:0 43:1 44:0.16 45:0 46:-0.036401 47:0.1 48:0.08 49:0.25 50:0.3 51:0.18 52:0.16 53:0.08 54:0.56 55:-0.30558 56:-0.41 57:0.09 58:0.95 59:0.57 60:0.92 61:0.9 62:0.051044 63:0.31 64:0.83 65:-0.07 66:0.05 
1 1:-0.34 2:-0.27 3:0.07 4:1.12 5:-0.18 6:0.38 7:-1.4 8:1.3 9:0 10:0 11:0 12:-1.4 13:1.12 14:0.07 15:-0.34 16:1.3 17:0.38 18:-0.27 19:0.04 20:0.95 21:-0.18 22:-0.69 23:1.18 24:-0.73 25:-1.22 26:-1.14 27:0 28:0.81783 29:0.95 30:0 31:0.08 32:0.04 33:0.27786 34:0 35:0.46 36:0 37:0.052129 38:0 39:-0.047511 40:-1.1713 41:-0.48758 42:0 43:0 44:-0.62 45:0 46:-0.73586 47:-1.13 48:0.12 49:0.73 50:-0.07 51:0.37 52:0.12 53:0.04 54:0.62 55:-1.4102 56:-0.77 57:-2.1 58:-0.21 59:-0.07 60:1.81 61:1.54 62:0.057341 63:0.38 64:1.4 65:-3.14 66:-0.69 
1 1:-0.01 2:0.88 3:-0.51 4:1.54 5:0.37 6:-0.98 7:0.85 8:1.75 9:0 10:0 11:0 12:2.23 13:0.4 14:0.73 15:-0.2 16:0.42 17:0.46 18:0 19:0.08 20:0.6 21:-0.07 22:-0.64 23:0.62 24:-0.48 25:-1.3 26:0.84 27:0 28:-0.097234 29:0.48 30:0 31:0.04 32:0.08 33:-0.044045 34:0 35:0.29 36:0 37:-0.020115 38:0 39:-0.048057 40:0.059497 41:0.27081 42:0 43:0 44:-0.18 45:0 46:0.0091395 47:0.33 48:0.08 49:0.16 50:-1.4 51:0.09 52:0.04 53:0.08 54:1.3 55:-0.23793 56:-0.27 57:-0.34 58:0.83 59:-1.03 60:0.61 61:0.56 62:0.068966 63:0.38 64:0.83 65:-0.07 66:0.31 
1 1:-0.08 2:0.33 3:-0.21 4:1.53 5:0.02 6:-0.25 7:0.01 8:1.68 9:0 10:0 11:0 12:0.09 13:0.92 14:0.1 15:0.18 16:0.9 17:0.05 18:-0.06 19:0 20:0.61 21:0.25 22:-0.62 23:0.62 24:-0.77 25:-2.1 26:-0.07 27:0 28:0.10355 29:0.83 30:-1 31:0.08 32:0.08 33:0.02124 34:0 35:0.38 36:0 37:0.075758 38:0 39:0 40:-0.19847 41:0.058848 42:0 43:0 44:0.25 45:0 46:-0.10026 47:-1.18 48:0.16 49:0.53 50:0.09 51:0.41 52:0 53:0 54:0.9 55:-0.4586 56:-0.06 57:0.18 58:1.4 59:-0.07 60:1.3 61:1.26 62:0.060606 63:0.05 64:0.07 65:-1.4 66:-0.62 
1 1:0.18 2:-0.06 3:0.1 4:0.92 5:0.25 6:0.05 7:0.09 8:0.9 9:0 10:0 11:0 12:0.57 13:0.82 14:0.52 15:-0.4 16:0.87 17:0.12 18:-0.5 19:0.12 20:0.92 21:-0.26 22:0.25 23:0.9 24:-0.06 25:0.18 26:0.09 27:0 28:0.10259 29:0.1 30:0 31:0.04 32:0.04 33:0.087329 34:0 35:0.05 36:0 37:0.12281 38:0 39:0.048485 40:-0.068748 41:-0.089289 42:0 43:0 44:-0.72 45:0 46:-0.088819 47:0.1 48:0 49:0.25 50:2.36 51:0.18 52:0.04 53:0.2 54:0.47 55:-0.37725 56:-0.8 57:-2.36 58:0.33 59:0.3 60:0.92 61:0.9 62:-0.035088 63:0.41 64:0.52 65:0.57 66:0.05 
1 1:-0.08 2:0.33 3:-0.21 4:1.53 5:0.02 6:-0.25 7:0.01 8:1.68 9:0 10:0 11:0 12:-3.14 13:0.7 14:1.4 15:-2.53 16:0.74 17:0.57 18:-1.18 19:0.04 20:0.95 21:-1.1 22:-0.69 23:1.18 24:-0.73 25:-1.22 26:-1.14 27:1 28:-0.37006 29:0.95 30:0 31:0.08 32:0 33:-0.22713 34:0 35:0.46 36:0 37:0.073245 38:0 39:-0.29457 40:0.078264 41:0.50908 42:0 43:0 44:-0.07 45:0 46:-0.54238 47:0.78 48:0.08 49:-0.72 50:2.23 51:-2.36 52:0.04 53:0.04 54:0.42 55:-1.4769 56:0 57:-0.2 58:-1.18 59:2.23 60:0.48 61:0.47 62:0.077314 63:0.46 64:0.73 65:2.23 66:0.41 
1 1:0.41 2:1.21 3:-1.18 4:1.3 5:0.53 6:-0.62 7:-0.98 8:1.26 9:0 10:0 11:0 12:2.36 13:0.48 14:0.78 15:-2.36 16:0.47 17:0.41 18:-0.8 19:0.04 20:1.81 21:-0.72 22:0.73 23:1.54 24:1.31 25:0.37 26:-1.03 27:-1 28:0.4077 29:-1.13 30:0 31:0.04 32:0.16 33:0.062272 34:0 35:-0.69 36:0 37:0.12277 38:1 39:0.03653 40:-0.79298 41:-0.15962 42:0 43:1 44:-0.62 45:0 46:-0.21027 47:0.48 48:0.08 49:-0.64 50:-0.07 51:-1.3 52:0.08 53:0.04 54:0.62 55:-0.88433 56:-0.77 57:-2.1 58:1.91 59:2.36 60:0.6 61:0.62 62:0.04323 63:0.38 64:0.07 65:-1.4 66:0.29 
1 1:0.44 2:1.27 3:-1.59 4:1.19 5:0.26 6:-0.38 7:-0.41 8:1.09 9:0 10:0 11:0 12:-3.14 13:0.7 14:1.4 15:-2.53 16:0.74 17:0.57 18:-1.18 19:0 20:0.95 21:-1.1 22:-0.69 23:1.18 24:-0.73 25:-1.22 26:-1.14 27:1 28:-0.11156 29:0.95 30:0 31:0.12 32:0.04 33:0.021562 34:0 35:0.46 36:0 37:0.22072 38:0 39:0 40:-0.30735 41:0.34619 42:0 43:0 44:0.54 45:0 46:-0.077602 47:0.73 48:0.12 49:-0.07 50:-1.29 51:-0.2 52:0.04 53:0.08 54:1.53 55:-0.32666 56:1.09 57:0.32 58:-1.13 59:1.11 60:0.4 61:0.42 62:-0.0048333 63:-0.46 64:0.78 65:2.36 66:0.46 
1 1:0.5 2:1.27 3:-2.12 4:1.25 5:0.61 6:-0.45 7:0.45 8:1.23 9:0 10:0 11:0 12:2.36 13:0.48 14:0.78 15:-2.36 16:0.47 17:0.41 18:-0.8 19:0 20:1.81 21:-0.72 22:0.54 23:1.53 24:1.09 25:0.32 26:-1.29 27:-1 28:0.22548 29:-1.27 30:0 31:0 32:0.16 33:-0.0077833 34:0 35:-0.46 36:0 37:0.41572 38:1 39:0 40:0.077936 41:0.035304 42:0 43:0 44:-1.76 45:0 46:-0.77389 47:0.1 48:0.08 49:0.25 50:-3.44 51:0.18 52:0.08 53:0.04 54:1.02 55:-2.0437 56:-0.84 57:-5.4 58:0.48 59:2.36 60:0.92 61:0.9 62:-0.046791 63:0.12 64:1.91 65:-3.44 66:0.05 
1 1:-0.08 2:0.33 3:-0.21 4:1.53 5:0.02 6:-0.25 7:0.01 8:1.68 9:0 10:0 11:0 12:0.84 13:0.6 14:0.48 15:-1.3 16:0.62 17:0.29 18:-0.48 19:0.04 20:1.3 21:-0.64 22:0.53 23:1.26 24:1.21 25:0.41 26:-0.98 27:0 28:-0.12885 29:-1.18 30:0 31:0 32:0.08 33:-0.071095 34:0 35:-0.62 36:0 37:0.041721 38:0 39:0 40:-0.31597 41:0.19898 42:0 43:0 44:-0.4 45:0.12 46:-0.090752 47:0.1 48:0.08 49:0.25 50:1.11 51:0.18 52:0 53:0 54:1.12 55:-0.39467 56:0.49 57:-1.48 58:0.52 59:0.09 60:0.92 61:0.9 62:0.11995 63:-0.41 64:-1.18 65:-0.98 66:0.05 
1 1:0.5 2:1.27 3:-2.12 4:1.25 5:0.61 6:-0.45 7:0.45 8:1.23 9:0 10:0 11:0 12:-1.4 13:1.12 14:0.07 15:-0.34 16:1.3 17:0.38 18:-0.27 19:0.04 20:0.82 21:-0.18 22:-0.26 23:0.87 24:-0.5 25:-0.4 26:0.57 27:0 28:-0.4242 29:0.52 30:0 31:0 32:0.04 33:-0.27037 34:0 35:0.12 36:0 37:0.10081 38:0 39:-0.012937 40:-0.070927 41:0.46205 42:0 43:0 44:-0.62 45:0 46:-0.021319 47:-0.21 48:0.2 49:0.02 50:-0.07 51:-0.08 52:0 53:0 54:0.62 55:-0.30452 56:-0.77 57:-2.1 58:-0.5 59:-0.07 60:1.53 61:1.68 62:-0.016129 63:0.38 64:0.1 65:0.09 66:-0.25 
1 1:0.18 2:-0.06 3:0.1 4:0.92 5:0.25 6:0.05 7:0.09 8:0.9 9:0 10:0 11:0 12:0.57 13:0.82 14:0.52 15:-0.4 16:0.87 17:0.12 18:-0.5 19:0.08 20:0.82 21:-0.26 22:-0.26 23:0.87 24:-0.5 25:-0.4 26:0.57 27:0 28:0.29341 29:0.52 30:0 31:0.08 32:0.04 33:0.127 34:0 35:0.12 36:0 37:0.029851 38:0 39:0 40:-0.10085 41:-0.23789 42:0 43:0 44:-0.72 45:0 46:-0.23623 47:0.07 48:0 49:-0.18 50:2.36 51:-0.34 52:0.12 53:0.04 54:0.47 55:-0.95283 56:-0.8 57:-2.36 58:0.07 59:2.36 60:1.12 61:1.3 62:0.089552 63:0.41 64:0.1 65:0.09 66:0.38 
1 1:-0.4 2:-0.5 3:0.52 4:0.82 5:-0.26 6:0.12 7:0.57 8:0.87 9:0 10:0 11:0 12:1.11 13:0.93 14:-0.5 15:-1.48 16:1.12 17:-0.41 18:0.49 19:0.04 20:1.25 21:-0.4 22:0.61 23:1.23 24:1.27 25:0.5 26:0.45 27:0 28:-0.11929 29:-2.12 30:0 31:0.04 32:0.04 33:-0.11444 34:0 35:-0.45 36:0 37:0.12887 38:0 39:0 40:-0.15508 41:0.14786 42:0 43:0 44:0.61 45:0 46:-0.018556 47:0.33 48:0.12 49:0.16 50:0.45 51:0.09 52:0 53:0.04 54:1.23 55:-0.84591 56:1.27 57:0.5 58:1.91 59:0.85 60:0.61 61:0.56 62:0.020619 63:-0.45 64:1.4 65:-3.14 66:0.31 
1 1:-1.22 2:-0.73 3:0.95 4:0.95 5:-0.69 6:0.46 7:-1.14 8:1.18 9:0 10:0 11:0 12:-1.03 13:1.81 14:-1.13 15:0.37 16:1.54 17:-0.69 18:1.31 19:0.04 20:1.54 21:0.73 22:0.37 23:1.75 24:0.88 25:-0.01 26:0.85 27:0 28:-0.74973 29:-0.51 30:0 31:0.08 32:0 33:-0.23804 34:0 35:-0.98 36:0 37:0.23487 38:0 39:0 40:-0.34742 41:0.53626 42:0 43:0 44:-0.62 45:0 46:-0.13841 47:-2.12 48:0.08 49:0.61 50:-0.07 51:0.5 52:0 53:0.12 54:0.62 55:-0.26227 56:-0.77 57:-2.1 58:1.4 59:-0.98 60:1.25 61:1.23 62:-0.054368 63:0.38 64:0.73 65:2.23 66:-0.45 
1 1:-2.36 2:-0.8 3:0.78 4:0.48 5:-0.72 6:0.41 7:2.36 8:0.47 9:-1 10:0 11:0 12:-1.03 13:1.81 14:-1.13 15:0.37 16:1.54 17:-0.69 18:1.31 19:0 20:0.92 21:0.73 22:0.25 23:0.9 24:-0.06 25:0.18 26:0.09 27:0 28:-0.51553 29:0.1 30:0 31:0 32:0 33:-0.12562 34:0 35:0.05 36:0 37:0.078886 38:0 39:-0.92923 40:0.36632 41:0.34697 42:0 43:0 44:0 45:0.56 46:0.018396 47:-0.5 48:0.04 49:-0.4 50:0 51:-1.48 52:0.08 53:0 54:0 55:-1.5799 56:0 57:0 58:-1.18 59:0 60:0.93 61:1.12 62:-0.051044 63:0 64:0 65:0 66:-0.41 
1 1:0.09 2:-0.41 3:0.33 4:0.61 5:0.16 6:0.31 7:0.3 8:0.56 9:0 10:0 11:0 12:-1.03 13:1.81 14:-1.13 15:0.37 16:1.54 17:-0.69 18:1.31 19:0.04 20:0.61 21:0.73 22:-0.62 23:0.62 24:-0.77 25:-2.1 26:-0.07 27:0 28:0.087048 29:0.83 30:-1 31:0.04 32:0.12 33:-0.086997 34:0 35:0.38 36:0 37:0.12553 38:0 39:0.059739 40:-0.31752 41:0.16183 42:0 43:0 44:-0.4 45:0 46:-0.11345 47:0.33 48:0.08 49:0.16 50:1.11 51:0.09 52:0.04 53:0.12 54:1.12 55:-0.6664 56:0.49 57:-1.48 58:-1.13 59:-0.98 60:0.61 61:0.56 62:0.047884 63:-0.41 64:0.78 65:2.36 66:0.31 
1 1:-1.3 2:-0.48 3:0.48 4:0.6 5:-0.64 6:0.29 7:0.84 8:0.62 9:0 10:0 11:0 12:-0.98 13:1.3 14:-1.18 15:0.41 16:1.26 17:-0.62 18:1.21 19:0 20:1.81 21:0.53 22:0.73 23:1.54 24:1.31 25:0.37 26:-1.03 27:0 28:-0.19221 29:-1.13 30:0 31:0.04 32:0.04 33:-0.1527 34:0 35:-0.69 36:0 37:0.23754 38:0 39:0 40:-1.1433 41:0.22966 42:0 43:0 44:-0.4 45:0 46:-0.10143 47:-0.21 48:0.12 49:0.02 50:1.11 51:-0.08 52:0 53:0.04 54:1.12 55:-0.96581 56:0.49 57:-1.48 58:-1.18 59:0.09 60:1.53 61:1.68 62:-0.029326 63:-0.41 64:-0.21 65:0.01 66:-0.25 
1 1:-0.34 2:-0.27 3:0.07 4:1.12 5:-0.18 6:0.38 7:-1.4 8:1.3 9:0 10:0 11:0 12:1.11 13:0.93 14:-0.5 15:-1.48 16:1.12 17:-0.41 18:0.49 19:0.08 20:0.93 21:-0.4 22:-1.76 23:1.02 24:-0.84 25:-5.4 26:-3.44 27:0 28:-0.044996 29:1.91 30:1 31:0 32:0.12 33:0.017407 34:1 35:0.12 36:0 37:0.24016 38:0 39:0 40:-1.4566 41:0.012472 42:0 43:0 44:0.25 45:0 46:-0.072165 47:-1.27 48:0.08 49:0.54 50:0.09 51:0.32 52:0.08 53:0 54:0.9 55:-0.73635 56:-0.06 57:0.18 58:0.52 59:-1.4 60:1.81 61:1.53 62:-0.031496 63:0.05 64:0.1 65:0.09 66:-0.46 
1 1:0.32 2:1.09 3:-1.27 4:1.81 5:0.54 6:-0.46 7:-1.29 8:1.53 9:0 10:0 11:0 12:0.09 13:0.92 14:0.1 15:0.18 16:0.9 17:0.05 18:-0.06 19:0.12 20:1.19 21:0.25 22:0.26 23:1.09 24:1.27 25:0.44 26:-0.41 27:0 28:0.38789 29:-1.59 30:0 31:0.04 32:0.16 33:0.11035 34:0 35:-0.38 36:0 37:0.23736 38:0 39:-0.034632 40:-0.53511 41:-0.27174 42:0 43:0 44:-1.1 45:0 46:-0.35116 47:0.52 48:0.16 49:-0.26 50:-3.14 51:-0.4 52:0.12 53:0 54:0.74 55:-1.1728 56:-1.18 57:-2.53 58:0.83 59:-0.07 60:0.82 61:0.87 62:0.0043353 63:0.57 64:1.91 65:-3.44 66:0.12 
1 1:0.09 2:-0.41 3:0.33 4:0.61 5:0.16 6:0.31 7:0.3 8:0.56 9:0 10:0 11:0 12:0.3 13:0.61 14:0.33 15:0.09 16:0.56 17:0.31 18:-0.41 19:0.08 20:0.93 21:0.16 22:-0.4 23:1.12 24:0.49 25:-1.48 26:1.11 27:0 28:-0.44976 29:-0.5 30:0 31:0.04 32:0.04 33:-0.37535 34:1 35:-0.41 36:0 37:0.10284 38:0 39:0.023881 40:-0.13127 41:0.59478 42:0 43:0 44:0.61 45:0 46:0.15191 47:0.33 48:0.04 49:0.16 50:0.45 51:0.09 52:0 53:0.16 54:1.23 55:-0.2879 56:1.27 57:0.5 58:-1.18 59:0.09 60:0.61 61:0.56 62:0.016362 63:-0.45 64:-0.21 65:0.01 66:0.31 
1 1:-1.3 2:-0.48 3:0.48 4:0.6 5:-0.64 6:0.29 7:0.84 8:0.62 9:0 10:0 11:0 12:0.3 13:0.61 14:0.33 15:0.09 16:0.56 17:0.31 18:-0.41 19:0.08 20:0.92 21:0.16 22:0.25 23:0.9 24:-0.06 25:0.18 26:0.09 27:0 28:0.070252 29:0.1 30:0 31:0.04 32:0.04 33:-0.017787 34:0 35:0.05 36:0 37:0.11336 38:0 39:-0.028114 40:0.17482 41:-0.024839 42:0 43:0 44:-0.62 45:0 46:-0.19147 47:-0.51 48:0.12 49:0.37 50:-0.07 51:-0.01 52:0.04 53:0.04 54:0.62 55:-1.0259 56:-0.77 57:-2.1 58:0.48 59:2.36 60:1.54 61:1.75 62:0.0080972 63:0.38 64:0.52 65:0.57 66:-0.98 
1 1:0.09 2:-0.41 3:0.33 4:0.61 5:0.16 6:0.31 7:0.3 8:0.56 9:0 10:0 11:0 12:-3.14 13:0.7 14:1.4 15:-2.53 16:0.74 17:0.57 18:-1.18 19:0.08 20:0.95 21:-1.1 22:-0.69 23:1.18 24:-0.73 25:-1.22 26:-1.14 27:1 28:-0.071037 29:0.95 30:0 31:0.04 32:0.04 33:-0.035574 34:0 35:0.46 36:0 37:0.375 38:0 39:0 40:-0.28182 41:0.08801 42:0 43:0 44:0.54 45:0 46:-0.097538 47:-0.21 48:0 49:0.02 50:-1.29 51:-0.08 52:0.08 53:0.24 54:1.53 55:-3.2129 56:1.09 57:0.32 58:0.1 59:-1.03 60:1.53 61:1.68 62:-0.18421 63:-0.46 64:0.33 65:0.3 66:-0.25 
1 1:-2.1 2:-0.77 3:0.83 4:0.61 5:-0.62 6:0.38 7:-0.07 8:0.62 9:-1 10:0 11:0 12:-3.44 13:0.93 14:1.91 15:-5.4 16:1.02 17:0.12 18:-0.84 19:0.04 20:0.92 21:-1.76 22:0.25 23:0.9 24:-0.06 25:0.18 26:0.09 27:1 28:0.62842 29:0.1 30:0 31:0.08 32:0.12 33:0.04771 34:0 35:0.05 36:0 37:0.32857 38:0 39:0 40:-0.77409 41:-0.35589 42:0 43:0 44:0.25 45:0 46:-0.59946 47:0.1 48:0.12 49:0.25 50:0.09 51:0.18 52:0.08 53:0 54:0.9 55:-2.0459 56:-0.06 57:0.18 58:1.4 59:0.85 60:0.92 61:0.9 62:-0.038734 63:0.05 64:1.4 65:-3.14 66:0.05 
1 1:-0.08 2:0.33 3:-0.21 4:1.53 5:0.02 6:-0.25 7:0.01 8:1.68 9:0 10:0 11:0 12:-3.44 13:0.93 14:1.91 15:-5.4 16:1.02 17:0.12 18:-0.84 19:0 20:0.61 21:-1.76 22:-0.62 23:0.62 24:-0.77 25:-2.1 26:-0.07 27:1 28:-0.1354 29:0.83 30:-1 31:0 32:0.08 33:-0.048158 34:0 35:0.38 36:0 37:0.13318 38:0 39:0.004914 40:-0.29272 41:0.12871 42:0 43:0 44:0.16 45:0 46:-0.023732 47:1.91 48:0.08 49:-1.76 50:0.3 51:-5.4 52:0.08 53:0.16 54:0.56 55:-1.0767 56:-0.41 57:0.09 58:0.83 59:0.3 60:0.93 61:1.02 62:-0.037383 63:0.31 64:0.73 65:2.23 66:0.12 
1 1:-0.2 2:0 3:0.73 4:0.4 5:-0.07 6:0.46 7:2.23 8:0.42 9:0 10:0 11:0 12:0.3 13:0.61 14:0.33 15:0.09 16:0.56 17:0.31 18:-0.41 19:0.08 20:0.48 21:0.16 22:-0.72 23:0.47 24:-0.8 25:-2.36 26:2.36 27:0 28:0.11406 29:0.78 30:-1 31:0.04 32:0.04 33:-0.026439 34:0 35:0.41 36:0 37:0.43036 38:0 39:-0.053005 40:-0.064295 41:0.07398 42:0 43:0 44:-0.62 45:0 46:-0.23278 47:0.83 48:0.12 49:-0.62 50:-0.07 51:-2.1 52:0.04 53:0.12 54:0.62 55:-2.4903 56:-0.77 57:-2.1 58:-0.5 59:-0.41 60:0.61 61:0.62 62:-0.14512 63:0.38 64:-1.13 65:-1.03 66:0.38 
1 1:0.18 2:-0.06 3:0.1 4:0.92 5:0.25 6:0.05 7:0.09 8:0.9 9:0 10:0 11:0 12:0.09 13:0.92 14:0.1 15:0.18 16:0.9 17:0.05 18:-0.06 19:0.08 20:1.81 21:0.25 22:0.73 23:1.54 24:1.31 25:0.37 26:-1.03 27:0 28:0.011435 29:-1.13 30:0 31:0.04 32:0.04 33:0.014454 34:0 35:-0.69 36:0 37:0.10422 38:0 39:0.012048 40:-0.10232 41:-0.067313 42:0 43:0 44:0.37 45:0 46:-0.067217 47:-1.59 48:0.08 49:0.26 50:0.85 51:0.44 52:0.08 53:0.16 54:1.75 55:-0.21936 56:0.88 57:-0.01 58:0.83 59:0.09 60:1.19 61:1.09 62:0.014888 63:-0.98 64:0.07 65:-1.4 66:-0.38 
1 1:-2.53 2:-1.18 3:1.4 4:0.7 5:-1.1 6:0.57 7:-3.14 8:0.74 9:1 10:1 11:1 12:-0.98 13:1.3 14:-1.18 15:0.41 16:1.26 17:-0.62 18:1.21 19:0.04 20:0.48 21:0.53 22:-0.72 23:0.47 24:-0.8 25:-2.36 26:2.36 27:0 28:0.047599 29:0.78 30:-1 31:0.12 32:0.04 33:0.027122 34:0 35:0.41 36:0 37:0.089494 38:0 39:-0.13559 40:-0.47185 41:0.0045673 42:0 43:0 44:0.53 45:0 46:-0.12128 47:0.48 48:0.12 49:-0.64 50:-0.98 51:-1.3 52:0.12 53:0.12 54:1.26 55:-0.66087 56:1.21 57:0.41 58:-0.51 59:0.85 60:0.6 61:0.62 62:0.054475 63:-0.62 64:0.83 65:-0.07 66:0.29 
1 1:0.09 2:-0.41 3:0.33 4:0.61 5:0.16 6:0.31 7:0.3 8:0.56 9:0 10:0 11:0 12:-1.4 13:1.12 14:0.07 15:-0.34 16:1.3 17:0.38 18:-0.27 19:0 20:1.12 21:-0.18 22:-0.18 23:1.3 24:-0.27 25:-0.34 26:-1.4 27:0 28:0.30791 29:0.07 30:0 31:0.08 32:0.04 33:0.13538 34:0 35:0.38 36:0 37:0.28596 38:0 39:-0.045128 40:-0.62047 41:-0.22097 42:0 43:0 44:0.25 45:0 46:-0.43791 47:0.83 48:0.12 49:-0.62 50:0.09 51:-2.1 52:0.04 53:0.08 54:0.9 55:-1.6635 56:-0.06 57:0.18 58:-0.51 59:-0.07 60:0.61 61:0.62 62:-0.086809 63:0.05 64:0.1 65:0.09 66:0.38 
1 1:0.09 2:-0.41 3:0.33 4:0.61 5:0.16 6:0.31 7:0.3 8:0.56 9:0 10:0 11:0 12:-3.14 13:0.7 14:1.4 15:-2.53 16:0.74 17:0.57 18:-1.18 19:0.04 20:1.81 21:-1.1 22:0.54 23:1.53 24:1.09 25:0.32 26:-1.29 27:1 28:-0.42986 29:-1.27 30:0 31:0.08 32:0.04 33:-0.26994 34:0 35:-0.46 36:0 37:0.20586 38:0 39:0.035752 40:-0.59224 41:0.94305 42:0 43:0 44:0.53 45:0.16 46:-0.042845 47:0.83 48:0.04 49:-0.62 50:-0.98 51:-2.1 52:0.04 53:0.12 54:1.26 55:-0.57107 56:1.21 57:0.41 58:0.1 59:0.3 60:0.61 61:0.62 62:-0.017746 63:-0.62 64:-1.59 65:-0.41 66:0.38 
1 1:0.37 2:1.31 3:-1.13 4:1.81 5:0.73 6:-0.69 7:-1.03 8:1.54 9:0 10:0 11:0 12:-0.07 13:0.61 14:0.83 15:-2.1 16:0.62 17:0.38 18:-0.77 19:0.12 20:0.93 21:-0.62 22:-1.76 23:1.02 24:-0.84 25:-5.4 26:-3.44 27:-1 28:0.92073 29:1.91 30:1 31:0.08 32:0.12 33:0.1503 34:1 35:0.12 36:0 37:0.2369 38:0 39:-6.9389e-018 40:-0.72859 41:-0.55092 42:0 43:0 44:-0.62 45:0 46:-0.42842 47:0.1 48:0.12 49:0.25 50:-0.07 51:0.18 52:0.08 53:0.12 54:0.62 55:-1.3655 56:-0.77 57:-2.1 58:1.4 59:0.45 60:0.92 61:0.9 62:0.004428 63:0.38 64:0.78 65:2.36 66:0.05 
1 1:0.44 2:1.27 3:-1.59 4:1.19 5:0.26 6:-0.38 7:-0.41 8:1.09 9:0 10:0 11:0 12:-1.29 13:1.81 14:-1.27 15:0.32 16:1.53 17:-0.46 18:1.09 19:0.08 20:0.82 21:0.54 22:-0.26 23:0.87 24:-0.5 25:-0.4 26:0.57 27:0 28:0.15808 29:0.52 30:0 31:0 32:0.12 33:0.058363 34:0 35:0.12 36:0 37:0.22976 38:0 39:0.16504 40:-1.2245 41:0.051099 42:0 43:0 44:0.02 45:0 46:-0.23299 47:-1.27 48:0.04 49:0.54 50:0.01 51:0.32 52:0.04 53:0.08 54:1.68 55:-1.037 56:0.33 57:-0.08 58:0.33 59:-0.98 60:1.81 61:1.53 62:-0.055259 63:-0.25 64:0.83 65:-0.07 66:-0.46 
0.06631317360821634 1:0.09 2:-0.41 3:0.33 4:0.61 5:0.16 6:0.31 7:0.3 8:0.56 9:0 10:0 11:0 12:-3.44 13:0.93 14:1.91 15:-5.4 16:1.02 17:0.12 18:-0.84 19:0.04 20:1.53 21:-1.76 22:0.02 23:1.68 24:0.33 25:-0.08 26:0.01 27:1 28:0.096016 29:-0.21 30:0 31:0.08 32:0.08 33:0.066159 34:0 35:-0.25 36:0 37:0.018519 38:0 39:0.030837 40:-0.42686 41:-0.082465 42:0 43:0 44:-0.18 45:0 46:-0.031219 47:0.48 48:0.08 49:-0.64 50:-1.4 51:-1.3 52:0 53:0.08 54:1.3 55:-0.085682 56:-0.27 57:-0.34 58:0.07 59:-1.29 60:0.6 61:0.62 62:0.14815 63:0.38 64:0.83 65:-0.07 66:0.29 
1 1:0.44 2:1.27 3:-1.59 4:1.19 5:0.26 6:-0.38 7:-0.41 8:1.09 9:0 10:0 11:0 12:2.23 13:0.4 14:0.73 15:-0.2 16:0.42 17:0.46 18:0 19:0.08 20:0 21:-0.07 22:0 23:0 24:0 25:0 26:0 27:0 28:0.039588 29:0 30:0 31:0.04 32:0.04 33:0.027613 34:0 35:0 36:0 37:0.063704 38:0 39:0.038997 40:-0.13131 41:0.066553 42:0 43:0 44:-0.64 45:0.36 46:-0.071763 47:0 48:0.04 49:0 50:0.84 51:0 52:0 53:0.04 54:0.62 55:-0.31281 56:-0.48 57:-1.3 58:0 59:1.11 60:0 61:0 62:0.068423 63:0.29 64:0.83 65:-0.07 66:0 
1 1:0.09 2:-0.41 3:0.33 4:0.61 5:0.16 6:0.31 7:0.3 8:0.56 9:0 10:0 11:0 12:-0.98 13:1.3 14:-1.18 15:0.41 16:1.26 17:-0.62 18:1.21 19:0.16 20:1.12 21:0.53 22:-0.18 23:1.3 24:-0.27 25:-0.34 26:-1.4 27:0 28:0.095698 29:0.07 30:0 31:0.12 32:0.08 33:0.10597 34:0 35:0.38 36:0 37:0.081407 38:0 39:-0.076696 40:-0.059976 41:-0.15145 42:0 43:0 44:-1.76 45:0 46:-0.065796 47:-2.12 48:0.04 49:0.61 50:-3.44 51:0.5 52:0 53:0.08 54:1.02 55:-0.4206 56:-0.84 57:-5.4 58:-0.5 59:-1.29 60:1.25 61:1.23 62:0.066332 63:0.12 64:0.52 65:0.57 66:-0.45 
1 1:-0.08 2:0.33 3:-0.21 4:1.53 5:0.02 6:-0.25 7:0.01 8:1.68 9:0 10:0 11:0 12:0.45 13:1.25 14:-2.12 15:0.5 16:1.23 17:-0.45 18:1.27 19:0 20:0.7 21:0.61 22:-1.1 23:0.74 24:-1.18 25:-2.53 26:-3.14 27:0 28:1.2683 29:1.4 30:1 31:0.12 32:0.12 33:0.37388 34:1 35:0.57 36:1 37:0.51367 38:0 39:0.5182 40:-0.89786 41:-0.6942 42:0 43:0 44:-0.18 45:0 46:-0.90333 47:0.73 48:0.04 49:-0.07 50:-1.4 51:-0.2 52:0.04 53:0.04 54:1.3 55:-2.2952 56:-0.27 57:-0.34 58:0.73 59:-1.29 60:0.4 61:0.42 62:-0.070312 63:0.38 64:0.33 65:0.3 66:0.46 
1 1:-0.34 2:-0.27 3:0.07 4:1.12 5:-0.18 6:0.38 7:-1.4 8:1.3 9:0 10:0 11:0 12:-1.4 13:1.12 14:0.07 15:-0.34 16:1.3 17:0.38 18:-0.27 19:0.04 20:0.61 21:-0.18 22:-0.62 23:0.62 24:-0.77 25:-2.1 26:-0.07 27:0 28:0.1475 29:0.83 30:-1 31:0.04 32:0.08 33:0.095232 34:0 35:0.38 36:0 37:0.14208 38:0 39:0 40:-0.71262 41:-0.10686 42:0 43:0 44:0.37 45:0 46:-0.40626 47:0.48 48:0.04 49:-0.64 50:0.85 51:-1.3 52:0.08 53:0.12 54:1.75 55:-1.4995 56:0.88 57:-0.01 58:0.78 59:0.3 60:0.6 61:0.62 62:-0.010929 63:-0.98 64:0.33 65:0.3 66:0.29 
1 1:-0.2 2:0 3:0.73 4:0.4 5:-0.07 6:0.46 7:2.23 8:0.42 9:0 10:0 11:0 12:2.23 13:0.4 14:0.73 15:-0.2 16:0.42 17:0.46 18:0 19:0 20:1.12 21:-0.07 22:-0.18 23:1.3 24:-0.27 25:-0.34 26:-1.4 27:0 28:0.42803 29:0.07 30:0 31:0.08 32:0 33:0.23489 34:0 35:0.38 36:0 37:0.15 38:0 39:0.17674 40:-0.77851 41:-0.27899 42:0 43:0 44:0.73 45:0.16 46:-0.27849 47:0.33 48:0.04 49:0.16 50:-1.03 51:0.09 52:0 53:0.12 54:1.54 55:-0.68238 56:1.31 57:0.37 58:0.33 59:-1.14 60:0.61 61:0.56 62:-0.057143 63:-0.69 64:-1.18 65:-0.98 66:0.31 
1 1:0.09 2:-0.41 3:0.33 4:0.61 5:0.16 6:0.31 7:0.3 8:0.56 9:0 10:0 11:0 12:0.01 13:1.53 14:-0.21 15:-0.08 16:1.68 17:-0.25 18:0.33 19:0 20:0.6 21:0.02 22:-0.64 23:0.62 24:-0.48 25:-1.3 26:0.84 27:0 28:0.03093 29:0.48 30:0 31:0.12 32:0 33:0.03876 34:0 35:0.29 36:0 37:0.070358 38:0 39:-0.039166 40:-0.085347 41:-0.037397 42:0 43:0 44:-0.72 45:0 46:-0.06288 47:-0.21 48:0 49:0.02 50:2.36 51:-0.08 52:0.16 53:0.16 54:0.47 55:-0.39094 56:-0.8 57:-2.36 58:-2.12 59:-3.14 60:1.53 61:1.68 62:0.042997 63:0.41 64:-1.27 65:-1.29 66:-0.25 
0.414160155462845 1:0.37 2:1.31 3:-1.13 4:1.81 5:0.73 6:-0.69 7:-1.03 8:1.54 9:0 10:0 11:0 12:2.36 13:0.48 14:0.78 15:-2.36 16:0.47 17:0.41 18:-0.8 19:0 20:0.48 21:-0.72 22:-0.72 23:0.47 24:-0.8 25:-2.36 26:2.36 27:-1 28:0.034438 29:0.78 30:-1 31:0.12 32:0 33:0.082746 34:0 35:0.41 36:0 37:0.029412 38:1 39:-0.10399 40:-0.23202 41:-0.072409 42:0 43:0 44:0.54 45:0 46:-0.08951 47:1.4 48:0.04 49:-1.1 50:-1.29 51:-2.53 52:0.12 53:0.12 54:1.53 55:-0.68208 56:1.09 57:0.32 58:0.48 59:-1.29 60:0.7 61:0.74 62:0.11765 63:-0.46 64:0.48 65:0.84 66:0.57 
1 1:0.18 2:-0.06 3:0.1 4:0.92 5:0.25 6:0.05 7:0.09 8:0.9 9:0 10:0 11:0 12:2.36 13:0.48 14:0.78 15:-2.36 16:0.47 17:0.41 18:-0.8 19:0.08 20:1.3 21:-0.72 22:0.53 23:1.26 24:1.21 25:0.41 26:-0.98 27:-1 28:0.5326 29:-1.18 30:0 31:0.04 32:0.04 33:0.18214 34:0 35:-0.62 36:0 37:0.19758 38:1 39:-0.2325 40:-0.048014 41:-0.46657 42:0 43:0 44:-0.07 45:0 46:-0.42724 47:0.83 48:0.12 49:-0.62 50:2.23 51:-2.1 52:0.08 53:0 54:0.42 55:-1.4746 56:0 57:-0.2 58:-0.21 59:-1.03 60:0.61 61:0.62 62:-0.080645 63:0.46 64:0.1 65:0.09 66:0.38 
1 1:-0.34 2:-0.27 3:0.07 4:1.12 5:-0.18 6:0.38 7:-1.4 8:1.3 9:0 10:0 11:0 12:0.3 13:0.61 14:0.33 15:0.09 16:0.56 17:0.31 18:-0.41 19:0.08 20:0.92 21:0.16 22:0.25 23:0.9 24:-0.06 25:0.18 26:0.09 27:0 28:0.17872 29:0.1 30:0 31:0.12 32:0.04 33:0.016016 34:0 35:0.05 36:0 37:-0.0088054 38:0 39:0.12518 40:0.081826 41:0.15192 42:0 43:0 44:-0.62 45:0 46:-0.072712 47:1.91 48:0.04 49:-1.76 50:-0.07 51:-5.4 52:0.08 53:0.04 54:0.62 55:-0.41916 56:-0.77 57:-2.1 58:-1.18 59:-1.29 60:0.93 61:1.02 62:0.15556 63:0.38 64:-0.5 65:1.11 66:0.12 
1 1:0.18 2:-0.06 3:0.1 4:0.92 5:0.25 6:0.05 7:0.09 8:0.9 9:0 10:0 11:0 12:-3.14 13:0.7 14:1.4 15:-2.53 16:0.74 17:0.57 18:-1.18 19:0 20:1.81 21:-1.1 22:0.73 23:1.54 24:1.31 25:0.37 26:-1.03 27:1 28:0.22842 29:-1.13 30:0 31:0.12 32:0.04 33:0.091278 34:0 35:-0.69 36:0 37:0.16667 38:0 39:-0.12975 40:-0.53759 41:-0.21737 42:0 43:0 44:0.25 45:0 46:-0.20401 47:0.78 48:0.16 49:-0.72 50:0.09 51:-2.36 52:0.04 53:0.24 54:0.9 55:-0.28361 56:-0.06 57:0.18 58:0.1 59:-0.07 60:0.48 61:0.47 62:-3.4694e-017 63:0.05 64:0.1 65:0.09 66:0.41 
1 1:-1.48 2:0.49 3:-0.5 4:0.93 5:-0.4 6:-0.41 7:1.11 8:1.12 9:0 10:0 11:1 12:0.45 13:1.25 14:-2.12 15:0.5 16:1.23 17:-0.45 18:1.27 19:0.08 20:0.92 21:0.61 22:0.25 23:0.9 24:-0.06 25:0.18 26:0.09 27:0 28:-0.038358 29:0.1 30:0 31:0 32:0 33:0.039556 34:0 35:0.05 36:0 37:0.059642 38:0 39:-0.15 40:-0.021451 41:0.012085 42:0 43:0 44:-0.64 45:0 46:-0.063066 47:-1.27 48:0.04 49:0.54 50:0.84 51:0.32 52:0.04 53:0.04 54:0.62 55:-0.50077 56:-0.48 57:-1.3 58:0.95 59:-0.98 60:1.81 61:1.53 62:-0.027833 63:0.29 64:0.52 65:0.57 66:-0.46 
1 1:0.18 2:-0.06 3:0.1 4:0.92 5:0.25 6:0.05 7:0.09 8:0.9 9:0 10:0 11:0 12:0.3 13:0.61 14:0.33 15:0.09 16:0.56 17:0.31 18:-0.41 19:0 20:0.61 21:0.16 22:0.16 23:0.56 24:-0.41 25:0.09 26:0.3 27:0 28:0.097637 29:0.33 30:0 31:0.08 32:0 33:0.10928 34:0 35:0.31 36:0 37:0.053571 38:0 39:-0.40381 40:-0.26617 41:0.033222 42:0 43:0 44:0.54 45:0 46:-0.14165 47:0.95 48:0.04 49:-0.69 50:-1.29 51:-1.22 52:0.16 53:0.08 54:1.53 55:-0.85492 56:1.09 57:0.32 58:0.73 59:-1.4 60:0.95 61:1.18 62:0.05102 63:-0.46 64:0.78 65:2.36 66:0.46 
1 1:0.18 2:-0.06 3:0.1 4:0.92 5:0.25 6:0.05 7:0.09 8:0.9 9:0 10:0 11:0 12:0.01 13:1.53 14:-0.21 15:-0.08 16:1.68 17:-0.25 18:0.33 19:0 20:0.95 21:0.02 22:-0.69 23:1.18 24:-0.73 25:-1.22 26:-1.14 27:0 28:0.7817 29:0.95 30:0 31:0.24 32:0 33:0.28203 34:0 35:0.46 36:0 37:0.78417 38:0 39:0.77193 40:-2.3642 41:-0.34773 42:0 43:0 44:-0.07 45:0.2 46:-0.8579 47:1.4 48:0.04 49:-1.1 50:2.23 51:-2.53 52:0.04 53:0.04 54:0.42 55:-2.1088 56:0 57:-0.2 58:0.33 59:2.36 60:0.7 61:0.74 62:-0.1295 63:0.46 64:1.4 65:-3.14 66:0.57 
0.7245612661248074 1:0.32 2:1.09 3:-1.27 4:1.81 5:0.54 6:-0.46 7:-1.29 8:1.53 9:0 10:0 11:0 12:-3.14 13:0.7 14:1.4 15:-2.53 16:0.74 17:0.57 18:-1.18 19:0.04 20:1.3 21:-1.1 22:0.53 23:1.26 24:1.21 25:0.41 26:-0.98 27:1 28:-0.093496 29:-1.18 30:0 31:0.08 32:0.04 33:-0.011052 34:0 35:-0.62 36:0 37:0.095179 38:0 39:0.034696 40:0.041555 41:0.030823 42:0 43:0 44:-0.26 45:0.24 46:-0.16277 47:0.83 48:0.04 49:-0.62 50:0.57 51:-2.1 52:0.04 53:0 54:0.87 55:-0.50708 56:-0.5 57:-0.4 58:0 59:4.13 60:0.61 61:0.62 62:0.024261 63:0.12 64:1.4 65:-3.14 66:0.38 
1 1:-2.1 2:-0.77 3:0.83 4:0.61 5:-0.62 6:0.38 7:-0.07 8:0.62 9:-1 10:0 11:0 12:-1.03 13:1.81 14:-1.13 15:0.37 16:1.54 17:-0.69 18:1.31 19:0.16 20:1.25 21:0.73 22:0.61 23:1.23 24:1.27 25:0.5 26:0.45 27:0 28:0.35787 29:-2.12 30:0 31:0 32:0.12 33:0.16238 34:0 35:-0.45 36:0 37:0.062547 38:0 39:-0.13172 40:0.091434 41:-0.459 42:0 43:0 44:-0.64 45:0 46:-0.28944 47:0.1 48:0.08 49:0.25 50:0.84 51:0.18 52:0.08 53:0 54:0.62 55:-1.1976 56:-0.48 57:-1.3 58:1.91 59:0.09 60:0.92 61:0.9 62:0.049144 63:0.29 64:0.52 65:0.57 66:0.05 
1 1:-1.22 2:-0.73 3:0.95 4:0.95 5:-0.69 6:0.46 7:-1.14 8:1.18 9:0 10:0 11:0 12:-3.14 13:0.7 14:1.4 15:-2.53 16:0.74 17:0.57 18:-1.18 19:0.04 20:0.61 21:-1.1 22:0.16 23:0.56 24:-0.41 25:0.09 26:0.3 27:1 28:0.070997 29:0.33 30:0 31:0.04 32:0.08 33:0.010282 34:0 35:0.31 36:0 37:0.085819 38:0 39:0.073684 40:-0.29588 41:-0.078306 42:0 43:0 44:-1.76 45:0 46:-0.074442 47:0.73 48:0 49:-0.07 50:-3.44 51:-0.2 52:0.04 53:0.24 54:1.02 55:-0.34974 56:-0.84 57:-5.4 58:-1.13 59:2.23 60:0.4 61:0.42 62:0.031876 63:0.12 64:-1.13 65:-1.03 66:0.46 
1 1:0.18 2:-0.06 3:0.1 4:0.92 5:0.25 6:0.05 7:0.09 8:0.9 9:0 10:0 11:0 12:0.45 13:1.25 14:-2.12 15:0.5 16:1.23 17:-0.45 18:1.27 19:0 20:0.48 21:0.61 22:-0.72 23:0.47 24:-0.8 25:-2.36 26:2.36 27:0 28:0.11181 29:0.78 30:-1 31:0.04 32:0.08 33:0.05279 34:0 35:0.41 36:0 37:0.12786 38:0 39:-0.096308 40:-0.096801 41:-0.051133 42:0 43:0 44:0.25 45:0.28 46:-0.1151 47:-1.13 48:0 49:0.73 50:0.09 51:0.37 52:0.16 53:0.08 54:0.9 55:-0.81696 56:-0.06 57:0.18 58:0.1 59:-1.03 60:1.81 61:1.54 62:-0.0018803 63:0.05 64:1.91 65:-3.44 66:-0.69 
1 1:0.41 2:1.21 3:-1.18 4:1.3 5:0.53 6:-0.62 7:-0.98 8:1.26 9:0 10:0 11:0 12:-0.07 13:0.61 14:0.83 15:-2.1 16:0.62 17:0.38 18:-0.77 19:0 20:1.3 21:-0.62 22:0.53 23:1.26 24:1.21 25:0.41 26:-0.98 27:-1 28:-0.65964 29:-1.18 30:0 31:0.08 32:0.04 33:-0.19771 34:0 35:-0.62 36:0 37:0.20703 38:0 39:0 40:-0.30178 41:0.47285 42:0 43:1 44:0.61 45:0 46:-0.063071 47:1.4 48:0.08 49:-1.1 50:0.45 51:-2.53 52:0.04 53:0 54:1.23 55:-0.56173 56:1.27 57:0.5 58:-0.5 59:-0.98 60:0.7 61:0.74 62:0.015625 63:-0.45 64:-0.5 65:1.11 66:0.57 
1 1:0.41 2:1.21 3:-1.18 4:1.3 5:0.53 6:-0.62 7:-0.98 8:1.26 9:0 10:0 11:0 12:1.11 13:0.93 14:-0.5 15:-1.48 16:1.12 17:-0.41 18:0.49 19:0 20:0.48 21:-0.4 22:-0.72 23:0.47 24:-0.8 25:-2.36 26:2.36 27:0 28:-0.061208 29:0.78 30:-1 31:0.12 32:0.04 33:-0.075496 34:0 35:0.41 36:0 37:0.14286 38:0 39:0 40:-0.52603 41:0.31207 42:0 43:1 44:0.02 45:0 46:-0.14509 47:0.83 48:0.08 49:-0.62 50:0.01 51:-2.1 52:0.08 53:0 54:1.68 55:-0.50918 56:0.33 57:-0.08 58:-1.18 59:0.45 60:0.61 61:0.62 62:0.045113 63:-0.25 64:0.07 65:-1.4 66:0.38 
1 1:-0.34 2:-0.27 3:0.07 4:1.12 5:-0.18 6:0.38 7:-1.4 8:1.3 9:0 10:0 11:0 12:2.23 13:0.4 14:0.73 15:-0.2 16:0.42 17:0.46 18:0 19:0.04 20:0.93 21:-0.07 22:-0.4 23:1.12 24:0.49 25:-1.48 26:1.11 27:0 28:0.27013 29:-0.5 30:0 31:0.04 32:0.08 33:0.04095 34:1 35:-0.41 36:0 37:0.27914 38:0 39:-0.071197 40:-0.13654 41:-0.082609 42:0 43:0 44:-0.62 45:0 46:-0.21759 47:-1.59 48:0.12 49:0.26 50:-0.07 51:0.44 52:0.08 53:0 54:0.62 55:-0.69109 56:-0.77 57:-2.1 58:-0.5 59:-0.98 60:1.19 61:1.09 62:-0.025555 63:0.38 64:0.78 65:2.36 66:-0.38 
1 1:0.18 2:-0.06 3:0.1 4:0.92 5:0.25 6:0.05 7:0.09 8:0.9 9:0 10:0 11:0 12:0.85 13:1.54 14:-0.51 15:-0.01 16:1.75 17:-0.98 18:0.88 19:0 20:1.53 21:0.37 22:0.02 23:1.68 24:0.33 25:-0.08 26:0.01 27:0 28:0.16041 29:-0.21 30:0 31:0.08 32:0.04 33:0.093856 34:0 35:-0.25 36:0 37:0.12019 38:0 39:0 40:-0.015366 41:-0.11731 42:0 43:0 44:-0.72 45:0 46:-0.10165 47:0.1 48:0.04 49:0.25 50:2.36 51:0.18 52:0.08 53:0.08 54:0.47 55:-0.70499 56:-0.8 57:-2.36 58:-1.27 59:-3.14 60:0.92 61:0.9 62:0.0032485 63:0.41 64:0.33 65:0.3 66:0.05 
1 1:-1.3 2:-0.48 3:0.48 4:0.6 5:-0.64 6:0.29 7:0.84 8:0.62 9:0 10:0 11:0 12:-0.98 13:1.3 14:-1.18 15:0.41 16:1.26 17:-0.62 18:1.21 19:0.04 20:0.48 21:0.53 22:-0.72 23:0.47 24:-0.8 25:-2.36 26:2.36 27:0 28:0.047382 29:0.78 30:-1 31:0.08 32:0.04 33:0.039789 34:0 35:0.41 36:0 37:0.065814 38:0 39:0.06456 40:-0.29847 41:-0.00638 42:0 43:0 44:-0.69 45:0.24 46:-0.11009 47:0.07 48:0.04 49:-0.18 50:-1.14 51:-0.34 52:0.04 53:0.04 54:1.18 55:-0.45886 56:-0.73 57:-1.22 58:0 59:-0.07 60:1.12 61:1.3 62:0.076782 63:0.46 64:-1.13 65:-1.03 66:0.38 
1 1:0.5 2:1.27 3:-2.12 4:1.25 5:0.61 6:-0.45 7:0.45 8:1.23 9:0 10:0 11:0 12:-0.98 13:1.3 14:-1.18 15:0.41 16:1.26 17:-0.62 18:1.21 19:0.04 20:1.3 21:0.53 22:0.53 23:1.26 24:1.21 25:0.41 26:-0.98 27:0 28:-0.25252 29:-1.18 30:0 31:0.08 32:0.12 33:-0.074973 34:0 35:-0.62 36:0 37:-0.016216 38:0 39:-0.034056 40:-0.42719 41:0.30704 42:0 43:0 44:-0.18 45:0 46:-0.014397 47:-1.18 48:0.04 49:0.53 50:-1.4 51:0.41 52:0.04 53:0.04 54:1.3 55:-0.15391 56:-0.27 57:-0.34 58:1.4 59:-1.4 60:1.3 61:1.26 62:0.075676 63:0.38 64:0.95 65:-1.14 66:-0.62 
1 1:0.09 2:-0.41 3:0.33 4:0.61 5:0.16 6:0.31 7:0.3 8:0.56 9:0 10:0 11:0 12:0.57 13:0.82 14:0.52 15:-0.4 16:0.87 17:0.12 18:-0.5 19:0.12 20:1.81 21:-0.26 22:0.54 23:1.53 24:1.09 25:0.32 26:-1.29 27:0 28:0.23279 29:-1.27 30:0 31:0 32:0.08 33:0.061211 34:0 35:-0.46 36:0 37:0.07056 38:0 39:-0.060274 40:0.12916 41:-0.087958 42:0 43:0 44:-1.76 45:0 46:-0.23992 47:0.83 48:0.12 49:-0.62 50:-3.44 51:-2.1 52:0.08 53:0.04 54:1.02 55:-0.93935 56:-0.84 57:-5.4 58:0.48 59:0.57 60:0.61 61:0.62 62:0.014599 63:0.12 64:0.73 65:2.23 66:0.38 
1 1:-2.1 2:-0.77 3:0.83 4:0.61 5:-0.62 6:0.38 7:-0.07 8:0.62 9:-1 10:0 11:0 12:-0.07 13:0.61 14:0.83 15:-2.1 16:0.62 17:0.38 18:-0.77 19:0.08 20:1.16 21:-0.62 22:0.04 23:1.24 24:1.36 25:0.27 26:4.13 27:-1 28:-0.12439 29:-1.42 30:0 31:0.08 32:0 33:-0.056396 34:0 35:-0.84 36:0 37:0.22772 38:0 39:-0.053097 40:0.40886 41:0.10338 42:0 43:0 44:0.61 45:0.2 46:-0.23508 47:1.4 48:0.08 49:-1.1 50:0.45 51:-2.53 52:0.04 53:0 54:1.23 55:-1.0834 56:1.27 57:0.5 58:1.4 59:1.11 60:0.7 61:0.74 62:-0.05083 63:-0.45 64:-1.27 65:-1.29 66:0.57 
1 1:0.41 2:1.21 3:-1.18 4:1.3 5:0.53 6:-0.62 7:-0.98 8:1.26 9:0 10:0 11:0 12:-0.98 13:1.3 14:-1.18 15:0.41 16:1.26 17:-0.62 18:1.21 19:0.16 20:1.3 21:0.53 22:0.53 23:1.26 24:1.21 25:0.41 26:-0.98 27:0 28:-0.023619 29:-1.18 30:0 31:0.08 32:0.04 33:-0.046196 34:0 35:-0.62 36:0 37:0.37245 38:0 39:0.11488 40:-1.3577 41:0.24064 42:0 43:1 44:-1.1 45:0 46:-0.16354 47:0.78 48:0 49:-0.72 50:-3.14 51:-2.36 52:0.04 53:0.04 54:0.74 55:-1.339 56:-1.18 57:-2.53 58:0.07 59:-3.14 60:0.48 61:0.47 62:-0.073715 63:0.57 64:0.48 65:0.84 66:0.41 
1 1:0.41 2:1.21 3:-1.18 4:1.3 5:0.53 6:-0.62 7:-0.98 8:1.26 9:0 10:0 11:0 12:-0.98 13:1.3 14:-1.18 15:0.41 16:1.26 17:-0.62 18:1.21 19:0.08 20:0.92 21:0.53 22:0.25 23:0.9 24:-0.06 25:0.18 26:0.09 27:0 28:0.012789 29:0.1 30:0 31:0.12 32:0.04 33:-0.00088528 34:0 35:0.05 36:0 37:0.008 38:0 39:-0.074883 40:-0.16611 41:-0.004567 42:0 43:1 44:0.53 45:0 46:-0.076981 47:0.78 48:0.08 49:-0.72 50:-0.98 51:-2.36 52:0.12 53:0.12 54:1.26 55:-0.82453 56:1.21 57:0.41 58:0.78 59:-0.07 60:0.48 61:0.47 62:0.112 63:-0.62 64:0.83 65:-0.07 66:0.41 
1 1:-1.48 2:0.49 3:-0.5 4:0.93 5:-0.4 6:-0.41 7:1.11 8:1.12 9:0 10:0 11:1 12:-1.29 13:1.81 14:-1.27 15:0.32 16:1.53 17:-0.46 18:1.09 19:0.04 20:0.93 21:0.54 22:-1.76 23:1.02 24:-0.84 25:-5.4 26:-3.44 27:0 28:0.36932 29:1.91 30:1 31:0.08 32:0.04 33:-0.011274 34:1 35:0.12 36:0 37:0.16307 38:0 39:-0.057441 40:-0.64473 41:0.1746 42:0 43:0 44:-0.72 45:0 46:-0.2041 47:-0.5 48:0.04 49:-0.4 50:2.36 51:-1.48 52:0.12 53:0.04 54:0.47 55:-0.42633 56:-0.8 57:-2.36 58:0.83 59:2.23 60:0.93 61:1.12 62:0.019931 63:0.41 64:0.33 65:0.3 66:-0.41 
1 1:0.18 2:-0.06 3:0.1 4:0.92 5:0.25 6:0.05 7:0.09 8:0.9 9:0 10:0 11:0 12:-3.44 13:0.93 14:1.91 15:-5.4 16:1.02 17:0.12 18:-0.84 19:0.04 20:0.7 21:-1.76 22:-1.1 23:0.74 24:-1.18 25:-2.53 26:-3.14 27:1 28:0.23425 29:1.4 30:1 31:0.12 32:0.08 33:0.00036912 34:1 35:0.57 36:1 37:0.22012 38:0 39:0.038567 40:-0.4254 41:-0.066775 42:0 43:0 44:-0.4 45:0 46:-0.30216 47:1.91 48:0.12 49:-1.76 50:1.11 51:-5.4 52:0.04 53:0.08 54:1.12 55:-1.2798 56:0.49 57:-1.48 58:-1.18 59:0.09 60:0.93 61:1.02 62:0.010545 63:-0.41 64:-1.13 65:-1.03 66:0.12 
1 1:0.09 2:-0.41 3:0.33 4:0.61 5:0.16 6:0.31 7:0.3 8:0.56 9:0 10:0 11:0 12:-1.29 13:1.81 14:-1.27 15:0.32 16:1.53 17:-0.46 18:1.09 19:0 20:0.6 21:0.54 22:-0.64 23:0.62 24:-0.48 25:-1.3 26:0.84 27:0 28:-0.45469 29:0.48 30:0 31:0.04 32:0.04 33:0.024501 34:0 35:0.29 36:0 37:0.025641 38:0 39:0 40:-0.88484 41:0.32081 42:0 43:0 44:-1.1 45:0 46:-0.10601 47:-1.27 48:0.04 49:0.54 50:-3.14 51:0.32 52:0.04 53:0.16 54:0.74 55:-0.0443 56:-1.18 57:-2.53 58:0.07 59:0.3 60:1.81 61:1.53 62:0.092308 63:0.57 64:0.07 65:-1.4 66:-0.46 
0.8748178680294537 1:0.09 2:-0.41 3:0.33 4:0.61 5:0.16 6:0.31 7:0.3 8:0.56 9:0 10:0 11:0 12:-0.07 13:0.61 14:0.83 15:-2.1 16:0.62 17:0.38 18:-0.77 19:0 20:0.61 21:-0.62 22:-0.62 23:0.62 24:-0.77 25:-2.1 26:-0.07 27:-1 28:0.09663 29:0.83 30:-1 31:0.08 32:0.08 33:0.023598 34:0 35:0.38 36:0 37:0.21296 38:0 39:-0.095495 40:-0.33613 41:0.0056568 42:0 43:0 44:0.53 45:0 46:-0.36106 47:-0.5 48:0.16 49:-0.4 50:-0.98 51:-1.48 52:0.08 53:0.08 54:1.26 55:-1.2313 56:1.21 57:0.41 58:0.07 59:0.45 60:0.93 61:1.12 62:-0.0018359 63:-0.62 64:-1.27 65:-1.29 66:-0.41 
1 1:0.5 2:1.27 3:-2.12 4:1.25 5:0.61 6:-0.45 7:0.45 8:1.23 9:0 10:0 11:0 12:-1.29 13:1.81 14:-1.27 15:0.32 16:1.53 17:-0.46 18:1.09 19:0.08 20:0.61 21:0.54 22:-0.62 23:0.62 24:-0.77 25:-2.1 26:-0.07 27:0 28:0.37964 29:0.83 30:-1 31:0.12 32:0.08 33:0.12708 34:0 35:0.38 36:0 37:0.16068 38:0 39:0 40:-1.0279 41:-0.32356 42:0 43:0 44:0.73 45:0 46:-0.23884 47:0.83 48:0.16 49:-0.62 50:-1.03 51:-2.1 52:0.04 53:0.04 54:1.54 55:-0.83827 56:1.31 57:0.37 58:0.33 59:-0.98 60:0.61 61:0.62 62:0.022208 63:-0.69 64:0.95 65:-1.14 66:0.38 
1 1:0.32 2:1.09 3:-1.27 4:1.81 5:0.54 6:-0.46 7:-1.29 8:1.53 9:0 10:0 11:0 12:1.11 13:0.93 14:-0.5 15:-1.48 16:1.12 17:-0.41 18:0.49 19:0.04 20:0.93 21:-0.4 22:-1.76 23:1.02 24:-0.84 25:-5.4 26:-3.44 27:0 28:0.48783 29:1.91 30:1 31:0 32:0.12 33:-0.042963 34:1 35:0.12 36:0 37:0.17215 38:0 39:-0.067298 40:0.074485 41:0.08589 42:0 43:0 44:-0.07 45:0 46:0.0025041 47:-0.51 48:0.08 49:0.37 50:2.23 51:-0.01 52:0.08 53:0.08 54:0.42 55:-0.25118 56:0 57:-0.2 58:-1.59 59:-0.07 60:1.54 61:1.75 62:0.015101 63:0.46 64:-1.27 65:-1.29 66:-0.98 
